static const float agent_ac_actor_logstd[4] = {0.17318699, 0.012827242, 0.06588819, -0.024184013};

static const float agent_ac_actor_pi_net_fcs_0_weight[17][64] = {
    {0.5164206, -0.15966623, -0.21816513, 0.2356532, 0.12162699, 1.1877278, -0.100767896, -0.08254228, -0.39603734, 0.8760361, -1.4291087, 0.21507372, -0.2706124, 0.9776444, 0.42059195, -0.6758602, -0.8990828, -0.55094165, 0.5288798, -1.119553, -0.97579247, -0.5595165, 1.2913425, -0.5226593, -0.13652645, 0.1980567, 0.102955446, -1.7140993, -0.5869344, 0.19992836, -0.55342776, 0.049102746, 2.175172, -0.87831175, 0.7112167, -0.74288493, -0.38203713, 0.20760244, 0.2596264, -0.5698449, 0.65361065, 0.36965156, 1.1886657, -0.62490106, 0.5148897, -0.8880286, -1.021019, 1.3952603, 0.8481062, -0.9617796, -0.209963, 0.9179509, -1.0704685, -0.26298508, 0.23669656, -0.4614384, -0.2714724, 0.06968329, -1.6918303, -0.98166674, -0.95593697, -0.14689776, 0.8376565, 0.82647055},
    {-0.19430344, -0.6863551, 1.2331104, -1.2107966, -0.48549613, -0.512578, -0.17506978, 0.013130159, -0.55703473, 2.25723, -0.54418045, -0.32091138, -1.7003485, 0.32396916, -0.0886465, -0.0039635366, -0.71507466, 0.47933528, -0.043967113, 0.31601682, -0.36934793, -1.8438298, -0.13307619, -0.120279774, 0.37867662, -0.66298103, -0.21611734, -0.5809469, -0.80968004, 0.81071013, 0.51431835, -0.97580415, -0.15287171, 1.4537323, -0.95392233, 0.12062035, -0.61390936, 0.37431383, 0.17777106, 0.70790964, -1.7664406, -0.82233775, -0.20642115, 0.5758167, -0.2130831, 0.29447263, 0.66819906, -0.14053446, 0.57218426, 0.065070756, 0.6234561, -0.45808864, 2.2590702, 0.7542646, 1.2876463, 0.05656412, 1.2602545, -0.6399058, -0.6788256, -0.42927766, 0.43171, 0.7529118, 0.18425485, -0.6490729},
    {0.13166718, -0.50339586, -0.13344234, 0.2670857, -0.45518458, 0.43986994, -0.1743961, -0.60197544, 0.6976818, -0.16696446, 0.80230397, -0.68590397, -0.42367893, -0.9906251, 0.30350828, -0.7664061, 0.7650396, -0.14527537, 0.19566905, 0.24545963, -0.5647173, 0.453154, -0.41219452, -0.4086291, -0.33395866, -0.9409566, 0.94758266, 0.17653154, -0.0114302905, -0.12583897, 0.7236415, 0.4613327, 0.5568884, 0.29559126, 0.1906378, -0.71974236, 0.44985884, -0.4283487, -0.15508978, 0.20552881, -0.7059519, -0.14476883, -0.46149522, -0.064174205, -0.19746663, -0.7645155, -0.327476, 0.9618282, -0.7035845, 0.7207431, -0.87567884, -0.48502332, 0.4014122, -0.6109234, -0.5729507, -0.3369173, -0.0014362341, 0.9855569, 0.0548443, -0.35669658, -0.54585046, -0.3460412, -0.73864114, 0.28608882},
    {1.3598589, 0.6158577, 0.8821834, 1.324441, 0.82096314, 0.113986194, -0.22733726, -1.4458113, 0.54246086, -1.8623847, -1.6369168, 0.19744746, -0.30527207, 0.1751153, -1.6171806, -0.0641243, -1.5274836, -3.194092, 2.1162612, -0.99032825, -2.1807323, 0.19769678, 1.0865558, -0.38242024, -1.5304178, -0.080116294, -0.2956438, 0.028726876, -1.8010563, -1.2709287, -0.78921616, -0.12764806, 0.20696837, -1.7083834, -1.484956, -1.1756608, 0.6902204, 1.6284485, 0.7747369, -0.25412375, 0.28142858, 1.5100838, 1.6446754, -0.74621606, -0.14550011, -1.3883626, -0.5355672, 0.107576445, 0.6565972, -1.3048191, -0.048983816, 0.83724165, -1.5330368, -0.50168234, -1.5594727, -1.7444946, -1.824454, 0.66387385, 2.397764, 1.1404545, -2.4474342, -2.9352567, -1.117524, 2.365427},
    {0.13856955, -0.5787509, -0.39839408, 0.07796738, 1.3306688, 1.835109, 0.01808739, 0.34026247, -0.5420687, 1.3259865, -1.2973402, 1.3561453, -0.9638886, 2.1532679, 0.29105347, -1.1896001, -1.4459586, 0.24836062, -0.17573088, -1.0637317, -1.7784384, -1.341861, 1.721515, 0.3258545, 0.9355341, -1.122606, 0.58114785, -2.3542268, 1.3176304, 1.8215355, 1.0393684, -0.78532547, 3.0212822, -0.36464962, 0.30555657, -0.7639601, -0.79370207, 1.2643774, 1.0775468, -0.3896576, -0.92687625, -0.6928001, -0.22804011, 1.1526027, 0.9471828, -0.043894786, -0.3931247, 1.705287, 0.19825143, -0.8132257, -1.3027737, 0.17692158, -1.6001725, 1.5881251, 1.2459677, 1.2724477, -0.31601077, 0.94345057, -0.60046196, -1.4264966, 1.0006262, 0.49454123, -0.988244, -0.043592393},
    {0.19570668, -0.34749255, 1.3890756, -1.4582568, -2.2897573, 0.48279008, -0.38948256, -1.9369628, -0.8115551, 0.6516323, -0.7759733, 0.45446345, 0.08645069, 0.5055985, -0.5434171, 0.7210314, -0.20443508, 0.34337443, 0.41328248, -0.05531609, -0.18587285, 0.4427691, -0.83783126, -1.2660854, 0.30382758, 0.94509625, -0.37346196, 0.633904, -0.29343, -0.270437, -1.1911494, -1.4187405, -0.057652406, 0.5195177, 1.4632071, -0.26481822, 0.9114835, 0.34664443, -0.5412199, 0.45004338, 0.7091633, -1.7887601, 0.73139066, -0.048434254, -0.3591994, 1.0950589, 0.5406119, 0.3019483, 1.2208053, 1.7333055, 0.44570735, 1.0355402, -0.44045594, -0.71040833, 0.47962534, -0.53149074, -1.8132952, 1.0036913, 0.65110713, -1.6064682, -0.045408603, -0.24373096, -0.70179075, -0.12117664},
    {-0.4835113, 0.5600628, -0.32402247, 0.36133033, 0.048451293, 0.3133966, -0.995672, -0.3463513, 0.630308, -0.052480422, -0.06514171, 0.3560654, 0.42127478, 0.49651605, -0.13734037, -0.5356001, -0.22777203, -0.29185194, -0.46365276, 0.09502755, 0.53066564, -0.18274464, 0.5030844, 0.812963, -0.4024869, 0.036670223, 0.08475127, -0.36410245, -0.09663984, 0.008150187, 1.3232136, 1.1564789, -0.17247123, 0.010679492, 0.3383908, 0.53275484, 0.35255843, -0.5467361, 1.1153764, -0.38092554, -0.6006871, -0.3617581, -0.7363063, -1.1192243, -0.051841, -1.4057825, -0.25804055, -0.59671843, -0.012733385, -0.58104795, 0.66647387, -0.12432617, -0.23222841, 0.17478539, 0.23518726, -0.6928559, 0.5611422, 0.18393876, -0.14064443, 0.4374803, 0.45512956, 0.25873503, -0.7121227, -0.38665795},
    {0.29418015, 0.33779672, -0.35995483, 0.6350451, -0.06690429, 0.33452243, -0.13019164, 0.17762397, -0.9949879, 1.0948169, 0.66210175, -0.11908085, 0.38763943, -0.094983675, -0.046304364, -0.28113273, -0.8668199, -0.26620755, -0.3989645, -0.28586942, -0.25878564, 0.6832981, 0.18913142, -0.6970867, -0.21286222, -0.13331068, -0.36147374, -1.4303924, 0.04452373, -0.29462737, -0.68167746, 0.09290828, 1.4406114, -1.2288072, 0.6050422, -0.29429793, -0.08068712, -0.74953943, -0.26956248, -0.44931653, 0.66814446, -0.09791646, 1.1995586, -0.14580175, 0.03946518, -0.4344924, -0.019502409, 0.4846601, -0.05139551, 0.58094865, 0.2085188, 0.6640062, -0.6313353, -0.088158056, 0.15702118, 0.2436451, 0.28584662, 0.22892399, -1.4360615, -0.35374597, -0.29902267, -0.041906364, 0.2761094, -0.1757095},
    {0.21028267, 0.24454053, 0.7504542, -0.72781444, -0.5528004, -0.0038960802, 0.0042664874, -0.22528987, -0.3814107, 1.5402406, -0.2795137, -0.30798617, -0.9093327, 0.22284237, -0.05438147, -0.114620246, -0.21042813, -0.30378607, 0.25088188, 0.7819191, -0.4364402, 0.06511322, -0.00071888324, -0.51827073, -0.63006616, -0.15437819, -0.10394189, -0.696312, -0.52491957, -0.14694369, 0.5282884, -0.34848478, -0.34903178, 0.32030106, -0.39709607, -0.06584621, -0.5764695, 0.4711221, 0.7416512, 0.58814967, -1.0897452, -0.0867849, -0.031228626, 0.72780144, 0.056949098, -0.7750441, -0.31717634, 0.72119313, 0.44487378, -0.094327495, 0.9315419, -0.20487909, 2.0397868, -0.42082104, 0.6713408, -0.27596825, 0.23698407, 0.5279002, -0.512889, -0.38099983, 0.20136116, 0.011968935, 1.3240093, -0.6468513},
    {-0.7514774, -1.3710153, -0.5132163, -0.2629337, -0.33563164, -0.059633814, -0.02768508, 0.093943074, 0.54647595, -0.8271225, 0.020409208, -0.9328655, -0.59952915, -1.3002521, 0.12269425, 0.41966304, 0.59434503, 0.25644752, -0.32340422, 0.239805, 0.49106306, -0.7226726, -0.07366389, -0.7696539, -0.44460985, -1.1392555, 0.13602169, 0.5734298, 0.31479272, 0.98069704, -0.33294627, -0.3084764, 0.87390685, -0.093811765, -0.12366028, 0.09975172, -0.089587875, -0.5007329, -0.49753082, 0.6819621, -0.25471774, 0.09475165, -0.3696386, 0.7977689, 0.18355598, 0.24935551, 0.6860499, 0.87932754, -0.6620889, 0.3465514, -1.1378192, 0.3931409, -0.10960846, 0.3586578, -1.3062526, -0.50248295, 0.22353819, 0.23008841, -0.24697788, -0.030286394, -0.23665695, 0.46240383, -0.52098686, -0.7448055},
    {0.4545528, -0.13558726, 0.17838895, 0.03585953, 0.13313729, -0.1425733, -0.052112103, 0.028363466, -0.07350001, -0.15863267, 0.09919748, -0.13102794, 0.012949888, -0.118876286, -0.015752366, 0.12232246, -0.0044517666, 0.043703005, -0.051215053, -0.4902082, -0.14907436, -0.18670353, -0.08714521, -0.010426333, 0.01013559, 0.013753566, -0.2778157, 0.092672326, 0.04156434, 0.19942525, -0.13687694, 0.20018482, -0.1242289, -0.11352287, 0.036108512, -0.38532788, -0.346958, -0.09322139, -0.16732417, 0.62610704, 0.065290034, 0.003215664, -0.07361408, -0.21684062, -0.78356206, -0.03120736, -0.13594607, -0.17087258, -0.018564753, -0.11956149, -0.060858443, -0.068598405, -0.06436142, -0.01814845, -0.052051395, 0.13642858, -0.054967236, 0.2906801, 0.09361195, 0.052084755, 0.07664656, 0.17963804, -0.30149385, 0.2567373},
    {-0.026946798, -0.1690706, -0.02540682, 0.11127681, 0.122684, 0.44330242, -0.2361875, 0.1730939, 0.0710732, 0.23424494, 0.021609139, 0.027318766, 0.6218258, 0.06429648, 0.3374351, -0.035808295, 0.033676185, -0.14295742, 0.23930693, 0.029965015, 0.0009809788, 0.033051234, 0.12781906, -0.06834892, -0.40195355, 0.16474187, -0.10528613, 0.20074123, -0.04980676, 0.13977498, -0.07227563, 0.0021634873, -0.078787774, 0.05323947, 0.053439375, -0.00024614864, 0.033839736, 0.11632327, 0.024972739, -0.029841842, 0.24242401, 0.048423465, 0.32230687, -0.22199862, 0.22947742, -0.27279785, -0.053604044, 0.09995546, 0.08107175, -0.09667756, -0.034010235, 0.0036991022, -0.118109636, 0.08618595, -0.08945575, 0.2203146, 0.033205375, 0.090742946, 0.14574197, -0.18001044, 0.116500065, -0.15214016, 0.29792002, -0.018581875},
    {0.4506447, -0.14511825, 0.10696614, -0.34848177, 0.08225678, -0.21140045, -0.17644286, 0.09320717, 0.15615869, -0.07268257, -0.0042629847, -0.09178273, -0.09657976, 0.2611614, -0.13689554, -0.056661863, -0.30706954, -0.0044514425, 0.0983284, -0.39947602, -0.030771798, -0.4643941, -0.34415272, -0.07628942, 0.0051971828, 0.0021902416, 0.29853538, 0.29679275, -0.16411209, 0.1978093, 0.018517898, 0.036788244, 0.21336609, 0.30879974, -0.08268342, 0.14050598, -0.2591114, -0.1603706, 0.17838332, 0.49509278, 0.41405433, 0.25152484, -0.0689942, 0.08112359, 0.12809333, -0.121593006, 0.5723059, 0.08812948, -0.0106269615, -0.012870814, -0.0043340763, 0.1069848, -0.3300897, -0.07335177, 0.08532711, -0.08724922, 0.075719714, 0.042625573, 0.2202457, 0.12051353, -0.20846005, -0.21746965, 0.039403472, -0.3694369},
    {-0.7085433, 0.5682519, 0.17389312, 0.03312008, -0.23710239, -0.41250268, -1.3901436, 0.02879854, -0.37522584, -0.011908655, -0.25823846, -0.6251123, -0.051515296, 0.18976508, -0.19992287, -0.27935496, 0.0048120245, -0.13595115, -0.3265103, 0.00011982094, 0.35544246, -0.0102334125, -0.06279871, -0.22333731, 0.38243663, -0.1680103, 0.46440572, 0.23386994, 0.26737654, -0.6129961, 0.20589393, -0.17596917, 0.058075182, 0.49556792, 0.16072585, -0.20845748, -0.278402, -0.008949465, 0.09835891, 0.19091514, 0.20986436, 0.17558146, -0.12951326, -0.7187838, 0.73821926, 0.044739272, -0.31018436, -0.0141592, -0.108800925, -0.052477945, 0.10536701, -0.14499107, 0.041760523, 0.1700352, -0.22410923, -0.34605303, 0.0013270447, 0.28484553, -0.1387818, -0.08046591, -0.275522, 0.16962604, -0.17723213, -0.4020074},
    {0.6083955, 0.3213891, 0.2185865, -0.23718633, 0.24729152, -0.027445018, 0.43806294, 0.063748345, -0.3828445, 0.023678323, -0.05170061, 0.11930652, 0.3749223, -0.09446702, 0.15225407, -0.42214638, -0.12666619, -0.02057391, -0.39021602, 0.43220052, 0.21098578, -0.15905236, 0.1450734, -0.013151304, -0.61524755, -0.007738168, -0.20898898, 0.055287596, -0.30673945, -0.36636555, 0.15845793, -0.18759221, 0.15420668, 0.053885773, -0.02858189, 0.49386084, -0.09266977, 0.6000593, -0.23299693, 0.1993228, 0.042844627, -0.2647667, -0.34307465, -0.6138776, -0.27797362, 0.10403256, 0.5234645, 0.027967572, -0.13215151, 0.00558847, -0.24313143, 0.1976459, 0.009003019, -0.30274162, -0.08087495, -0.11246117, 0.024936795, 0.12693778, 0.04242618, -0.019071085, 0.05076769, 0.08439073, 0.46317625, 0.7048221},
    {0.17673744, -0.5701967, 0.04448452, -0.1707659, 0.108761355, -0.14351702, 0.58190894, -0.20005152, -0.2626009, -0.16010319, 0.15714608, 0.43541747, -0.10827544, 0.1500981, -0.3503006, 0.20579152, -0.13497134, -0.2249123, -0.26064444, 0.028616104, -0.15421045, -0.23359968, -0.1446211, 0.05613524, 0.07463324, -0.035110105, -0.54571384, 0.03702498, -0.36704388, -0.009313248, -0.2383002, -0.08082113, 0.2656357, -0.31042045, 0.17096886, -0.042969845, 0.010688979, -0.5910172, -0.5335662, -0.03646291, -0.13023217, -0.09620595, -0.57597774, 0.44010544, 0.13889563, 0.034018673, 0.39021927, -0.11212119, -0.09585086, -0.0423021, 0.3070208, -0.061846558, 0.16173244, 0.26119256, -0.39601728, -0.09235457, -0.030412989, -0.29605395, 0.099498056, -0.16213107, 0.32578737, -0.4851052, 0.15479884, 0.22927853},
    {0.111403346, 0.01117258, 0.017204646, -0.17137307, 0.46328488, 0.6875808, -0.06494707, 0.10429685, 0.042318154, -0.06868284, 0.28668782, 0.11113943, 0.009680576, -0.25332505, -0.99876267, 0.42534012, 0.14292948, 0.08171335, 0.75325805, -0.3026662, -0.17396691, -0.22513434, -0.07298324, -0.20473544, -0.06639213, 0.31833747, 0.4076253, 0.13661163, 0.35092878, 0.177987, -0.16813938, 0.03353905, -0.054338753, -0.081805825, -0.30465174, -0.4657941, -0.45633632, 0.21461682, -0.40256032, -0.776197, -0.1981922, -0.33652794, -0.0385349, -0.08933622, -0.010151147, -0.534741, -0.44704258, -0.20896414, 0.18330376, 0.06905905, 0.1153812, 0.21014038, 0.1790812, 0.5364044, -0.28036368, -0.1352589, 0.060119305, 0.32190663, -0.14651683, -0.09045049, 0.24877803, 0.13056774, 0.1702608, -0.109993234},
};

static const float agent_ac_actor_pi_net_fcs_0_bias[64] = {-0.6163862, 0.10778792, -0.0042786677, 0.29290712, -0.5669145, 0.64542097, -0.55375403, -0.33444417, -0.22089605, 0.4210098, 0.18993893, 0.2991462, -0.033795286, 0.35267356, -0.25144392, -0.10204214, -0.3103174, 0.14509863, 0.13400365, 0.28889954, -0.092225865, 0.04101584, -0.06972561, 0.23228422, -0.3305496, 0.35785496, 0.013252011, -0.2093613, 0.04267365, 0.28172624, 0.8748144, 0.53892237, -0.2329355, 0.10710525, 0.1062438, -0.31092298, 0.48947337, -0.5522723, 0.52082115, 0.31983802, -0.10573645, -0.3665244, -0.69678664, -0.21026053, -0.41213688, -0.74132204, 0.34243706, -0.2704794, 0.14518237, 0.30789694, 0.06572652, -0.29341602, 0.0027487844, -0.07133621, 0.40634766, -0.7149961, -0.27518126, 0.39979324, -0.31794566, -0.20846361, 0.38773718, -0.03105452, -0.8148096, 0.17012227};

static const float agent_ac_actor_pi_net_fcs_1_weight[64][64] = {
    {-0.0726633, 0.028507287, 0.015813753, -0.5223368, 0.05516535, -0.0051823864, -0.013504092, -0.22961736, -0.056535307, 0.043331757, -0.030241476, -0.16449125, -0.07747182, -0.042001378, -0.013974094, -0.04690855, -0.04534056, 0.029276205, 0.24878614, -0.021930916, -0.3760485, -0.007495657, 0.015178708, 0.04223608, 0.014273859, -0.08623256, -0.031913288, 0.07214652, 0.6252045, 0.10725841, -0.04529585, -0.020379622, -0.102337115, -0.08128815, 0.33067387, 0.009799957, 0.08505616, -0.077254765, -0.26848185, 0.26456562, 0.011060276, -0.016380318, -0.10978821, 0.042625844, -0.23855338, 0.532814, 0.029092615, 0.44248885, -0.12106588, -0.13762686, -0.036029752, -0.043397505, 0.08873971, -0.01668925, -0.09425543, 0.06196575, 0.4916047, -0.31403852, 0.17355746, -0.0064169248, -0.106063865, 0.09612606, 0.04244936, -0.3941767},
    {-0.038549107, 0.05513549, -0.029238297, 0.032519817, -0.057333924, 0.12630127, 0.07558273, 0.2561272, -0.076362036, 0.2378101, -0.06310614, 0.015311305, -0.1790703, 0.012257307, -0.0051410277, 0.2116578, 0.029960157, -0.020485636, -0.22768763, 0.029915424, -0.23465586, -0.13057862, -0.13309582, -0.019632678, -0.17797415, 0.03442994, -0.4591757, 0.05417915, -0.34356993, -0.40073237, -0.05009711, -0.07088561, -0.017050764, 0.08789882, 0.22126468, 0.19635415, 0.06316771, 0.10340661, 0.0702226, 0.40226427, 0.0055460874, -0.10071251, 0.29046294, -0.18409187, 0.02960867, -0.266263, 0.022102855, -0.4667121, -0.23807609, 0.23705047, -0.09087589, -0.020320937, -0.14996347, -0.036431067, -0.09522356, 0.013433927, -0.12784134, 0.61319786, 0.2372357, -0.2780756, 0.24224988, -0.08113132, -0.030879347, -0.14225556},
    {0.11015331, -0.031623766, 0.1598614, 0.2661099, -0.086169206, -0.006977014, 0.009973005, -0.3298448, 0.12294879, -0.5511865, 0.018775174, -0.46109655, -0.079770364, -0.04760311, -0.082296625, 0.0037829445, -0.0693312, -0.008070152, -0.62385464, 0.13881767, -0.45804664, -0.03848067, 0.111640856, -0.037444506, 0.048326835, 0.14032671, -0.14115772, -0.031109301, 0.10197171, 0.03693487, -0.0855962, -0.018533766, -0.17670606, 0.07376879, 0.4569258, -0.09866157, 0.1127536, -0.087678164, 0.13023138, 0.35435408, 0.009593905, 0.1379104, 0.19958213, -0.026778297, 0.4150721, 0.10014543, 0.014286357, -0.09112005, 0.11537048, -0.37799647, 0.08511137, -0.22172825, 0.12946466, -0.011903843, -0.02965265, -0.21188979, 0.0963937, 0.23316379, -0.07240694, -0.102504276, 0.23542736, -0.0799188, -0.16127297, -0.1753726},
    {-0.016118994, -0.0531493, -0.007452114, 0.13102394, -0.01796785, -0.055648167, -0.0051176203, 0.20494585, 0.047623523, 0.703183, -0.007716276, 0.13749562, -0.2389096, -0.08338705, -0.026490545, 0.33826137, -0.11626353, -0.037002295, 0.14098844, 0.028966077, 0.50146633, 0.1589373, 0.09080866, -0.033140298, 0.009405828, -0.03910698, -0.29840192, -0.09858532, 0.21407649, 0.0050561107, -0.070918, -0.1378441, 0.13980813, 0.00044964766, -0.5623736, -0.028242763, 0.20907734, 0.08528968, -0.21570267, 0.11762396, 0.010083945, -0.059266225, -0.080236204, 0.03050794, 0.016558276, 0.06341808, 0.16653845, -0.013322493, -0.23407245, 0.35283002, -0.43247917, 0.65266114, 0.110363744, -0.03926279, 0.033374306, 0.10091232, -0.3278805, -0.14218064, 0.011586491, -0.20305413, -0.34316474, -0.013177369, 0.15131442, 0.47411376},
    {-0.035694532, -0.034615617, 0.05853168, -0.045288615, 0.040758632, 0.0058859475, -0.057742015, 0.7533831, -0.005899655, 0.31938908, 0.02137816, 0.5989183, 0.037557326, -0.011756517, 0.06890899, 0.14000672, 0.0013273412, 0.08178997, -0.05671922, -0.21138711, -0.4479976, 0.11525777, -0.016294958, -0.11554144, 0.16476338, 0.109561406, -0.27229634, -0.0048956135, 0.24333154, 0.58593714, -0.056256626, 0.11266097, -0.2807381, 0.0408697, 0.20666069, -0.16021122, 0.015528536, -0.09226584, -0.061323576, -0.14560467, -0.095942326, 0.0021500324, 0.1080571, -0.0031037058, -0.03865297, -0.17277054, -0.03309986, 0.43664983, -0.28175846, 0.5750459, 0.47558188, 0.14040364, -0.022287646, -0.019854538, -0.090649486, 0.973451, 0.8451765, 0.24172087, 0.16263711, -0.19445524, -0.35374597, -0.08542716, 0.2121863, 0.42706665},
    {-0.007458622, -0.0013092436, -0.08183676, -0.106268376, 0.054790486, 0.032016233, -0.017050095, 0.41097024, 0.038956054, -0.02125617, -0.10519574, -0.016703121, -0.08163242, 0.022366352, 0.01065412, 0.2140114, 0.022896979, -0.014641491, 0.5366951, -0.08129059, -0.3613141, -0.12099562, 0.068174474, 0.016938878, -0.06950896, -0.06450678, -0.38731447, 0.02240363, -0.036003176, -0.12372581, 0.014522863, -0.11763898, 0.25060406, 0.3156183, -0.11473004, 0.07863354, -0.06695232, -0.09602099, -0.11340447, 0.1441196, 0.008000678, 0.059353597, -0.21874154, -0.009494886, -0.24225684, -0.19031791, -0.036728837, 0.17280473, -0.35868564, -0.13120206, -0.011021034, -0.0427543, 0.11142325, 0.06392172, 0.10605069, -0.033808626, -0.082830556, 0.5100176, 0.120545514, 0.5407476, 0.01101801, 0.12505087, 0.027670057, 0.25012442},
    {0.023980673, -0.042749733, 0.12806207, -0.16335331, -0.07066622, 0.062400054, 0.001715503, -0.3869841, 0.16215548, -0.029186891, 0.03414444, -0.12404281, 0.039241817, 0.032833688, -0.0135930525, 0.12858813, -0.0372396, -0.011604436, 0.18022403, 0.081900395, 0.18628854, -0.09303532, 0.053671654, 0.017585887, 0.02362963, 0.050286066, 0.5257402, 0.0022684748, 0.54544026, 0.07448671, 0.011004208, -0.09946754, 0.4611595, -0.19004996, -0.0031365056, -0.010736585, 0.00058191374, -0.056190778, 0.05526638, -0.07846198, 0.0069937035, 0.0742047, -0.21928288, -0.030127997, -0.7587421, 0.37142873, -0.029483998, 0.12819311, 0.7256153, -0.11606554, -0.067295924, 0.135736, 0.09923971, -0.0031179404, -0.050897337, -0.09237384, 0.28520152, 0.24342674, 0.2270271, -0.0639711, 0.27184495, -0.06518454, 0.39603004, -0.32506844},
    {0.029172195, 0.025591608, -0.08240377, 0.22376502, 0.02495891, -0.072160885, 0.09710349, 0.5627884, 0.16245155, -0.15771389, -0.030958746, 0.84064853, -0.100302964, 0.010040057, 0.025336204, -0.018165203, -0.022513492, 0.02381443, 0.3243622, -0.024573278, 0.1285005, -0.22674215, 0.017554462, 0.0068035778, -0.046829604, 0.07013086, 0.20962235, -0.10236925, -0.22796436, 0.013393249, 0.041419536, -0.08670635, 0.032142643, 0.36272445, -0.11900272, -0.01945794, 0.0024827071, -0.014303653, 0.30591124, -0.51001567, 0.025527367, -0.07870919, -0.312017, -0.013907109, 0.13799345, -0.46142787, -0.015023717, 0.06844772, 0.033756882, -0.09292285, 0.14217433, 0.047584165, -0.00856782, -0.080203734, -0.054167263, 0.4320674, -0.2720866, -0.2386964, -0.019528078, -0.19101061, 0.23197055, 0.017886706, 0.15780325, 0.0029611604},
    {0.015921686, 0.001916368, 0.1906243, 0.2283291, -0.028535156, -0.022061162, 0.023278294, 0.00015604415, -0.16418146, 0.041372243, -0.014608265, 0.2516979, 0.07499645, -0.027950192, -0.044033956, 0.22947662, -0.06737766, -0.011711814, 0.15643945, -0.1345523, 0.30102837, -0.1259963, 0.08267372, -0.111149915, 0.01060739, 0.17934331, 0.054010894, -0.061760094, 0.22685122, 0.40993568, 0.03888835, -0.054488994, 0.08855519, -0.058441058, -0.4024577, -0.036538918, 0.053428672, -0.0413826, 0.050350536, -0.07147, -0.11105922, 0.20444255, -0.23481457, -0.05714451, 0.4347124, 0.061379608, -0.0865906, 0.49916148, 0.2111046, 0.047257107, -0.44163933, 0.084025554, -0.060609974, 0.072883904, -0.21206374, -0.47854924, -0.21381281, -0.5701636, -0.022792934, -0.056518275, 0.12428059, -0.0030569155, -0.10598288, 0.23889062},
    {0.06187882, 0.022263998, -0.038213722, 0.25148162, 0.021425148, -0.03061854, -0.008508871, 0.8123911, 0.014428227, -1.0395802, 0.07299565, 0.53192663, 0.12653907, -0.00801693, 0.023030816, -0.97632104, 0.0474142, 0.07654219, 0.39506114, -0.14196317, -0.23508951, 0.055816133, -0.030431965, -0.08617683, 0.16357534, -0.083145425, 0.10490324, 0.0021275145, 0.0013001586, 0.16388322, -0.07180786, -0.026656056, 0.12837777, -0.2235761, 0.19698928, -0.099224195, -0.019576347, 0.18016298, 0.3569147, -0.5743, -0.027955933, 0.082947455, -0.11690517, 0.12004276, 0.42635158, -0.30066735, -0.023729954, -0.41686016, 0.61244583, -0.044534042, 0.58380866, -0.46493778, 0.026715422, 0.096218586, -0.29584628, 0.20449594, -0.20935623, 0.45856932, -0.1567728, 0.33903974, 0.34608784, 0.030251827, 0.50299644, 0.03910876},
    {0.09770937, 0.07206686, -0.02534568, 0.41352037, -0.10970189, -0.027541833, 0.06772751, -0.4300122, -0.1002041, -0.1106737, -0.030194452, -0.12659152, 0.020388529, -0.059864935, -0.08357143, -0.13764295, -0.020069487, 0.010155435, 0.2191571, -0.22765674, 0.70501554, 0.22825122, -0.007163646, 0.030172233, 0.14127451, -0.103611276, 0.5051842, -0.037852682, -0.0669998, 0.07417878, -0.113970436, -0.18830091, -0.06026608, -0.38107994, -0.7318321, 0.11955541, 0.017546054, 0.19734548, 0.23025674, -0.11527112, 0.06023685, -0.06810643, -0.45991683, 0.13673583, 0.25435686, -0.3892497, 0.1344733, 0.17496413, 0.4856559, -0.6928202, 0.0068311533, 0.20379448, -0.12677704, 0.039151207, 0.08449344, 0.09669142, -0.5100604, -0.59113216, -0.2462679, 0.13054486, 0.26506984, -0.059573725, -0.01233651, -0.0970821},
    {-0.036991555, -0.003490672, -0.04188245, 0.2578256, -0.060960114, -0.013228149, 0.02723704, 0.11719374, 0.2598278, -0.29843977, -0.0017491612, 0.3167178, 0.07759237, -0.04325207, -0.00092456123, 0.20871173, 0.062533215, -0.11907306, 0.4053846, 0.06586036, -0.40640843, -0.065234765, 0.071827814, 0.075027175, 0.07008381, 0.14275081, 0.16693631, 0.12265803, -0.2808442, 0.08370219, -0.14226705, -0.29957137, -0.25154608, 0.22005685, 0.23596716, 0.060468532, -0.093811475, -0.29230005, 0.002820059, -0.30730897, 0.00821344, 0.022550497, 0.78882957, -0.15508346, -0.2626944, 0.18685348, -0.04484189, -0.21164607, -0.3861059, 0.4292651, 0.10943807, -0.14902087, 0.14444292, 0.09252906, -0.19813326, -0.41108835, -0.17870393, 0.005626923, -0.13045532, 0.11355029, 0.010837446, 0.006001485, -0.049404982, -0.24331187},
    {-0.14901304, -0.08614716, 0.015093618, -0.32642367, -0.027961869, 0.007449736, -0.044145957, -0.46084985, -0.20874736, 0.32120794, 0.032020766, 0.14715561, -0.056472376, 0.039011326, 0.0142025845, 0.19198911, -0.06449754, -0.053478643, 0.48261258, -0.06975325, -0.29207367, 0.13919032, -0.09128445, -0.028172847, 0.04013954, -0.044415843, -0.663797, -0.019319747, -0.6663345, -0.48327553, 0.04111124, 0.019301027, 0.20503725, -0.18947133, -0.120384306, -0.008506601, -0.051091433, -0.018451331, -0.14360988, 0.50263065, 0.025206497, -0.027175447, 0.0151032, -0.112118445, 0.1632676, 0.2527286, -0.032587547, 0.07008912, -0.0768739, 0.068672925, -0.4752126, -0.26523513, 0.0070301797, -0.04718401, -0.18043336, -0.24913947, -0.3155982, 0.4108828, -0.07408925, 0.15997216, 0.20639789, 0.00059611956, 0.1108641, 0.02451451},
    {0.005415144, -0.11513311, -0.043672793, -0.31332317, 0.0065303002, -0.0005961183, -0.009297351, 0.30034566, -0.14597881, -0.2975494, -0.01391679, 0.49823672, 0.091874994, -0.020018855, -0.059822857, -0.26184565, -0.08048608, -0.08777379, -0.17849693, 0.14765464, -0.045581307, -0.21925563, 0.1807978, 0.13304082, -0.23701069, -0.08272725, -0.8200487, -0.06682425, -0.958018, -0.0056534023, -0.045170117, -0.39104304, -0.24835776, 0.28367084, 0.43673635, 0.09876032, 0.107712366, -0.012398891, 0.35912248, -0.19231692, 0.029071422, -0.107371695, 0.60689336, 0.015376683, 0.09234818, 0.34671396, 0.019922176, -0.32233354, -0.444488, 0.63671577, 0.27303603, -0.5110632, 0.01398991, -0.07936015, 0.05305081, -0.35020965, 0.12362722, 0.24192251, 0.097178265, 0.17826171, -0.1370585, 0.074162796, 0.032151476, 0.30589697},
    {-0.028624132, 0.028599212, -0.00046613038, -0.08544145, 0.020480001, 0.035797283, 0.026255818, 0.14790651, 0.1429285, 0.14419664, -0.04155506, 0.47767165, -0.2501351, 0.002032997, 0.010225, 0.059854083, -0.0018219594, 0.087909184, 0.036393233, 0.13856903, 0.26523733, -0.05428004, -0.0021089257, 0.09600772, -0.03393001, 0.08381509, -0.37608674, -0.046449207, -0.024419853, -0.072273396, -0.01083026, 0.023206823, 0.21227643, 0.14213173, 0.051589135, -0.0083509125, 0.11842511, 0.010438358, 0.18116209, -0.3309024, 0.09095143, -0.09557011, -0.31307918, -0.11893565, 0.2691013, -0.20928444, -0.014539797, 0.10729941, 0.34069553, 0.23147671, -0.051975552, -0.2788137, 0.27621645, 0.016473742, -0.08030388, 0.19457147, -0.05647206, 0.3573185, -0.120499186, 0.39966562, 0.15577108, -0.11948043, 0.74180776, 0.16898157},
    {0.020153526, 0.026599152, -0.022611558, -0.30971554, -0.084911846, 0.03548958, 0.007947784, -0.106423356, -0.035393655, -0.23342788, -0.022735933, 0.14232394, -0.17045255, -0.013846619, -0.022408176, -0.50948375, -0.037447155, -0.02714786, -0.30638382, -0.07754903, 0.04419401, 0.23287863, -0.019580932, 0.055313442, 0.0037451158, -0.0025994766, 0.06892685, -0.07002744, -0.124743566, -0.19516563, -0.0616964, 0.13028243, -0.09441447, 0.00010595521, -0.20585999, 0.10118885, 0.0054588295, -0.06680564, -0.0815809, -0.19593449, 0.06925576, -0.026130293, 0.026148085, -0.104617774, 0.31098896, -0.041908547, 0.10644676, -0.045323033, -0.42919183, -0.25167924, -0.0319284, 0.2145198, 0.0042364146, 0.07081042, 0.052574698, 0.055627223, -0.061646253, 0.099016115, 0.2897564, -0.34968314, 0.24024409, -0.11947512, -0.12524118, -0.12870084},
    {0.029754292, -0.08782854, -0.08353624, 0.035704978, 0.065572135, 0.018432705, -0.042782884, -0.018014159, 0.11427642, 0.21045536, 0.039466728, -0.23497477, 0.01812493, 0.020692341, 0.08158917, -0.03961597, 0.0754013, 0.026649026, -0.098586954, -0.14841005, 0.45549494, -0.09982212, 0.07892569, -0.09201351, 0.013322386, -0.06919296, 0.22043335, 0.14623883, 0.41563866, -0.09310574, 0.0022196716, -0.08476603, 0.13304056, -0.09405357, -0.3735536, 0.106504574, 0.0074231518, -0.2765862, -0.17025813, -0.26326784, -0.05309548, 0.05897371, -0.40390396, 0.04657807, 0.04917233, -0.6260469, -0.013624892, 0.025673797, 0.37719813, -0.3494307, -0.23420091, 0.11362533, -0.015662275, -0.08533897, 0.049157605, -0.22575405, 0.15163854, -0.08949944, 0.27253672, 0.07432689, -0.0022893278, -0.003572826, -0.1882816, -0.14637783},
    {-0.11777548, -0.03809729, -0.15706734, -0.03233927, 0.0035990335, 0.022808135, -0.011219728, -0.025035342, 0.03811914, -0.008858624, -0.07954669, 0.11587378, -0.09995625, 0.11666708, 0.08162433, -0.65573704, -0.0029259236, 0.09886246, -0.22504865, -0.010229631, 0.394192, -0.0014927838, -0.15392089, -0.058967654, -0.03373039, -0.010640626, 0.20468375, -0.058430154, -0.29087976, 0.17595564, 0.0445625, 0.16356707, 0.11317205, 0.30708525, -0.01462821, -0.03032761, -0.04966114, -0.16423675, 0.08300578, 0.027424272, 0.068601176, -0.089106046, -0.22233899, -0.17585045, -0.00877638, -0.4076602, -0.09266739, -0.115043685, 0.268745, -0.01798093, -0.08345422, -0.35639143, 0.035692677, 0.040770225, 0.0056755235, 0.060144734, 0.12194735, -0.5418312, 0.27356365, 0.0035814433, 0.1813496, -0.09965263, -0.58642876, -0.22297935},
    {0.017402716, -0.14101669, -0.01291967, -0.09442658, 0.059746448, 0.044434555, 0.03734296, 0.2534152, -0.019875092, -0.07064897, 0.10149957, -0.38907328, 0.024423385, 0.052413967, 0.04084679, -0.031086568, 0.026603578, -0.042801335, 0.24034204, 0.010396476, -0.43031082, -0.0065231896, 0.09119905, 0.22265649, -0.27253515, 0.083538204, -0.03724881, 0.094924256, 0.29186973, 0.18211421, 0.13527545, -0.20797482, 0.22061774, 0.10509412, -0.25960052, -0.06545241, 0.110480845, 0.20983857, -0.23673746, 0.18207842, 0.16685902, -0.01474899, 0.19593474, 0.033344783, 0.10134012, 0.029857593, 0.020102235, 0.20688371, 0.009918992, -0.1116291, -0.118168, -0.45807347, 0.0060742805, -0.12426155, -0.093306325, -0.43758816, 0.30000618, 0.62530786, 0.020187497, 0.18289293, 0.21830024, 0.0037145508, 0.39599007, 0.26746255},
    {-0.11589973, 0.05770512, 0.015273951, 0.3733971, -0.046598423, -0.0138901975, -0.0055585154, 0.2034923, -0.0205026, -0.097765855, 0.025028981, 0.064926185, 0.22226207, 0.08655514, 0.027963106, -0.14717276, -0.1202947, 0.056046426, 0.6134074, -0.11215147, 0.21322523, -0.08568863, -0.07382039, -0.07081809, -0.0058937822, -0.025241137, 0.2659773, -0.053526323, 0.0024116072, -0.4527403, 0.071030594, 0.05226362, -0.059169795, 0.29442546, -0.25795087, 0.06328013, 0.004678304, -0.090487264, 0.16224629, -0.1831965, -0.010285468, -0.014499216, 0.019638354, -0.11540355, -0.2691619, -0.3524636, -0.065278456, -0.16346602, 0.225463, -0.13990997, -0.052451942, -0.0925253, 0.0037395514, 0.065200716, 0.105781905, 0.10465784, -0.20345968, 0.63203216, -0.012210606, 0.2548994, 0.06899462, -0.11738719, 0.31360582, -0.37750146},
    {0.0014419111, 0.013786914, -0.01137049, 0.056731414, -0.05324434, -0.030799968, 0.05603276, 0.041059185, 0.04424883, 0.08305797, 0.019614883, 0.47215864, 0.06004167, -0.08470642, -0.08833849, -0.045346733, -0.078298084, -0.09749286, 0.003260627, -0.030849583, 0.4569305, -0.10645378, 0.13776127, 0.060931128, -0.010198867, -0.06670141, -0.0251052, 0.022601334, -0.40853286, -0.5101105, -0.08843128, -0.028497633, 0.37842876, 0.14501074, -0.43832496, 0.024331896, 0.041845545, 0.17649552, 0.0015715441, 0.059517905, 0.06635025, 0.034923263, -0.33416748, 0.01235508, -0.14990832, -0.24386485, 0.15374774, -0.008288121, -0.20179403, 0.19093627, -0.27214214, -0.12839936, -0.025968926, 0.0035540166, 0.053509176, -0.11428562, -0.4166758, -0.2754325, -0.09700056, -0.55288607, 0.0057223216, 0.083082266, -0.09245877, -0.19283614},
    {0.01685028, -0.025551718, 0.019756464, 0.39558792, 0.04802603, 0.059814353, 0.018004933, -0.15502052, 0.02558877, -0.032740306, 0.054637685, -0.109537385, -0.0023249541, -0.015927318, 0.028284907, 0.3017192, 0.11647253, -0.01153112, 0.108520605, -0.10742473, 0.27794182, 0.23382984, -0.0064584306, 0.025104081, -0.062460095, 0.04322347, 0.3840367, 0.080019794, 0.08112166, -0.09154789, 0.009530685, 0.035908125, -0.043951463, -0.18037345, -0.2203346, -0.077269174, -0.07567647, -0.009084533, -0.16136637, 0.026637146, -0.040098395, -0.06605745, -0.12571111, 0.19270633, -0.68821573, -0.12314056, -0.0607242, 0.16864978, 0.03475317, -0.078448914, 0.045342717, -0.023651622, -0.11565024, -0.0413779, -0.076154165, -0.041033152, -0.051446952, 0.07447145, -0.14056846, -0.15530133, 0.25814587, 0.067042276, -0.20633407, -0.08499761},
    {0.13456294, 0.061088234, -0.10498379, -0.389077, 0.021229763, -0.041935842, -0.038127854, 0.1520807, -0.0828807, 0.35903463, 0.002259609, 0.45088008, 0.12243854, -0.073388115, -0.0657957, -0.29771286, 0.037449297, -0.028058428, 0.6073896, 0.027859284, -0.06910286, 0.26801214, -0.07235879, 0.03016639, -0.030722443, 0.07852909, -0.65280914, 0.017606067, -0.018364746, 0.11290358, -0.021541754, 0.06426767, 0.2318799, 0.07960296, 0.30324444, -0.041247763, -0.16772445, 0.023213658, 0.0040245457, -0.25400996, 0.06723635, 0.08946687, 0.16924368, -0.071527556, 0.21054983, -0.1322539, -0.018535059, 0.03380108, -0.0005570475, 0.39380977, 0.07099485, 0.11627981, 0.06169227, 0.08909356, 0.033106122, 0.2312369, -0.24127375, 0.75371027, 0.037010934, 0.09214661, -0.13189313, -0.093656376, 0.27564192, 0.20896378},
    {0.043712024, 0.15381415, 0.1625257, 0.35366002, -0.0647742, -0.08945184, -0.11198118, 0.387678, -0.1392584, 0.26184776, -0.006835262, 0.60675406, -0.014367756, 0.12983552, -0.036529962, 0.13986374, -0.011153002, 0.08715969, 0.64063895, -0.11087277, 0.41409996, -0.035517067, -0.20471828, -0.12490178, -0.19878288, -0.066933595, -0.07559949, -0.13729471, -0.30963814, -0.08334187, -0.1001585, 0.14406279, -0.3480371, -0.10846354, -0.02989913, -0.006803884, -0.068877086, -0.027007086, 0.21613297, -0.074323945, 0.036624677, 0.08364946, 0.15942274, -0.040018942, -0.029279383, -0.110495456, 0.04550718, -0.05749274, -0.23200557, 0.6975311, -0.29264152, 0.45603207, 0.026523035, 0.094816886, 0.14809176, 0.024746938, -0.20073536, -0.44409817, -0.00076051353, -0.21825048, 0.051648587, -0.18026876, 0.1680864, 0.27152938},
    {-0.007895822, -0.14438401, 0.044462554, -0.30401647, 0.01625987, 0.026457135, -0.00607317, -0.02014456, 0.14663875, -0.15592398, 0.050565917, -0.20452888, -0.05522919, -0.010431558, -0.0021132524, 0.041138515, 0.019395187, -0.07252603, -0.6478545, -0.037935115, 0.35309604, -0.0758804, 0.17744522, 0.058250744, 0.12722535, -0.09470009, 0.5326341, 0.0225295, -0.062649466, 0.17250425, 0.04162286, 0.09571403, 0.089252576, 0.039619166, 0.16024412, 0.07667254, -0.022044495, -0.029167743, -0.075987145, 0.05935259, 0.060998213, 0.04056583, 0.14342965, 0.16797218, -0.17815419, 0.056625117, -0.0405865, -0.28124347, 0.29550138, -0.20739709, 0.0008451535, -0.20855057, 0.08578896, -0.047212288, 0.043037795, -0.19322155, 0.23060857, -0.49047095, 0.31537256, -0.3853355, -0.08403544, 0.14488488, -0.51911336, -0.5440509},
    {-0.17196973, -0.04936558, 0.16485783, -0.34126958, -0.1352273, -0.010979622, -0.08598539, -0.1112593, 0.012110135, -0.17895477, -0.045469366, -0.3647988, -0.016009422, 0.0641179, 0.022530116, -0.40071526, -0.13517585, -0.04797993, -0.23660511, 0.089749835, -0.1634846, -0.068818554, -0.023668204, -0.07447206, -0.0389124, -0.14735107, -0.46520042, -0.14816277, -0.3187786, -0.51451844, 0.09595499, 0.08864919, -0.32940224, 0.1129147, 0.16778652, 0.07039196, 0.1082458, -0.15690221, -0.34560302, 0.26819158, -0.0659492, 0.015016702, 0.6194043, -0.10014688, -0.20253189, -0.17913462, 0.0048822407, -0.33196366, -0.4488519, 0.15554379, -0.37834978, -0.7349061, -0.019630712, -0.052627977, 0.076099835, -0.30794314, -0.18162262, 0.5361702, 0.064841464, 0.47075602, 0.14829028, 0.00053977716, -0.6894178, -0.42056122},
    {0.04354077, -0.03192628, 0.11335715, 0.6248774, 0.03507995, 0.01863115, -0.014087079, 0.17117037, 0.11912333, 0.021160822, 0.011192203, -0.3346637, -0.12710616, 0.0146232, -0.046088826, 0.24014865, -0.07578153, -0.023531621, 0.10950801, -0.33969048, 0.5251635, -0.044148885, -0.0008839971, 0.005876616, 0.17804457, 0.08081701, 0.34717283, -0.059759162, 0.32704514, 0.43000305, -0.06352358, 0.039354913, 0.10895951, 0.012030649, -0.017590374, -0.17294553, -0.0772002, -0.07656992, 0.10466601, -0.21456854, -0.039861314, 0.0488261, -0.10864934, 0.14958178, 0.07054203, -0.054943528, 0.04844535, 0.32201877, 0.42046335, -0.067557335, 0.06976405, -0.020599872, 0.15435226, 0.008102233, -0.00030714253, -0.35019255, 0.31378147, -0.16724144, 0.22427054, 0.4235936, 0.026413346, 0.024915209, 0.25614423, 0.19027561},
    {-0.022201765, 0.040232904, -0.14199144, -0.26719728, 0.116039515, -0.094534636, -0.04789624, -0.6151253, 0.20957206, -0.1681034, -0.032047007, -0.3499248, 0.019272564, -0.029533938, 0.07750936, 0.018316405, 0.08544724, 0.06529348, 0.15676007, -0.34692696, 0.17646313, 0.1831609, 0.02965203, 0.0045648008, 0.008959663, 0.1590593, 0.18280059, 0.106330626, -0.18778312, -0.18175617, 0.095078304, 0.22862352, 0.22536469, -0.081911065, -0.5908032, 0.05446873, -0.15136099, -0.12059762, 0.18494901, -0.18734334, -0.014553489, -0.06478344, -0.37321353, -0.3023589, 0.16346718, -0.082618, -0.12896778, 0.15137348, 0.26263842, -0.5119853, -0.676093, 0.10635481, 0.05298377, 0.0041103605, -0.07563717, -0.40433982, -0.10405267, -0.04455666, 0.038388666, 0.083035074, 0.046579193, 0.013401611, 0.51474863, -0.14932336},
    {0.10993784, 0.041204087, -0.0017251351, -0.0065179737, -0.003025873, -0.05671069, -0.0663323, 0.02015487, 0.12429098, 0.24620773, -0.014285145, 0.16193156, 0.26387233, -0.018899594, 0.008150882, -0.24785928, 0.09170435, -0.0050660693, -0.24839532, -0.10446681, 0.44784817, -0.012062367, 0.052454308, 0.17582941, 0.000331709, 0.036686774, -0.22981459, 0.07505899, -0.102567576, 0.09930329, -0.03558272, -0.17365046, 0.11896091, 0.019426264, -0.30281395, 0.09266079, -0.0724332, -0.16926542, 0.009046141, 0.13853407, -0.046370618, 0.1409383, -0.028462188, -0.15171169, -0.05724172, -0.2963843, -0.04464318, -0.27881253, -0.036170833, -0.06885883, 0.117583096, 0.09272376, 0.08271921, 0.07387907, 0.0007406412, -0.29967567, -0.15268834, -0.46228683, 0.18134989, -0.20859203, 0.0055642924, 0.043698642, -0.49483588, -0.00059813325},
    {0.09510698, -0.016687887, -0.028552156, -0.21951698, -0.05858264, 0.09447639, 0.066707835, 0.09816876, 0.15797482, -0.23036958, 0.05111835, 0.26768866, -0.06438673, -0.0015194709, -0.04211967, -0.42821994, 0.13130932, -0.07960984, -0.15089291, 0.13540387, 0.16891341, 0.13232909, 0.06835751, -0.012300719, -0.066881545, -0.012503369, -0.2469606, 0.05108522, -0.010286586, 0.23009346, -0.07581669, -0.042812645, 0.1429833, 0.13559197, -0.14034605, 0.13714689, 0.06434608, 0.01956768, -0.02650764, -0.23484012, 0.008756853, 0.033401836, -0.20090923, 0.0546007, 0.09199247, 0.15581973, 0.11493212, 0.11557348, -0.03462597, 0.3602863, 0.22344163, 0.072470695, -0.0718999, -0.046004944, 0.14497884, 0.21261074, 0.18754333, -0.18431784, -0.064183824, 0.061219208, -0.14014582, 0.0135361245, -0.05653532, 0.19643807},
    {0.013923388, -0.044742003, 0.06572443, 0.64067715, -0.0018572877, 0.04809834, 0.036122337, 0.6914026, -0.13658011, 0.50344956, -0.0019256958, -0.04792596, -0.12527654, -0.03147685, -0.08699639, 0.31184667, 0.060874045, -0.037415173, -0.36873677, 0.12634274, 0.58739823, 0.10448739, 0.04513599, -0.017436871, -0.022146126, 0.039670333, -0.42898726, 0.084589735, 0.110276364, 0.34815186, -0.022006292, -0.12717527, -0.008905824, 0.08931389, 0.48907068, 0.0044473964, 0.03421534, 0.051355317, 0.10303196, -0.1513536, -0.022390878, 0.08136266, 0.18217942, -0.0005095196, -0.20665096, 0.15198499, 0.022019165, 0.43882504, 0.13714585, 0.88665193, 0.38005927, 0.17817202, -0.049606573, -0.053655494, -0.040383004, 0.44240588, 0.40626657, -0.03216844, 0.29100412, -0.17343907, -0.7485229, 0.046134952, 0.14697386, 1.028963},
    {-0.11545153, -0.09175857, -0.038230926, 0.08817433, 0.10066438, -0.062419742, -0.058929905, -0.26672873, 0.09157539, 0.40052634, -0.023094842, -0.06469432, -0.051864047, 0.023824189, 0.13517958, 0.15626688, 0.117230445, 0.03038607, -0.12438487, 0.21567002, 0.9874352, 0.072805665, 0.01823031, -0.1263199, 0.11257432, -0.016487958, 0.12763649, 0.009824907, -0.20343398, -0.389576, 0.030666407, -0.09468895, -0.11516148, -0.14289807, -0.59299815, -0.043888878, -0.076333776, -0.005031039, 0.579849, -0.04770264, -0.1270914, -0.047508236, -0.21604753, -0.021691862, 0.2960513, -0.19326694, -0.10140954, -0.068676524, 0.26208723, -0.04056794, -0.42070556, 0.5516846, 0.061338477, -0.031877577, -0.024546491, -0.37531322, -0.7474967, -0.1631456, -0.18060216, 0.05462242, 0.2080337, -0.00869116, -0.1990622, 0.25726864},
    {-0.0062282076, 0.03998635, -0.13038635, 0.14187856, -0.030838722, 0.0042613572, 0.037550077, 0.09675548, -0.019527396, 0.00701455, -0.03387409, 0.5934316, -0.07838666, 0.07151573, 0.03273971, 0.55492824, 0.11827764, 0.0034375645, 0.013388922, 0.0011642365, -0.34863606, 0.15607378, 0.020392362, -0.06288856, -0.12752149, -0.018645704, 0.0009797158, -0.009645757, 0.53883445, 0.6343278, 0.14539279, 0.10694369, 0.80894655, -0.26811862, 0.32604268, 0.16221596, -0.07414271, -0.07820594, -0.87174124, -0.31157976, -0.008454387, -0.007494241, -0.4796705, -0.15347417, -0.83980393, 0.8995292, -0.09153111, 0.8427419, 0.36321774, 0.24359661, 0.70645154, -0.31292528, -0.14490445, -0.040937107, 0.057703823, 0.56535435, 0.020239638, -0.06738163, 0.0023232074, 0.3099855, -0.44240418, 0.053413987, 0.5246637, 0.50087893},
    {-0.07969259, -0.02237329, 0.017295942, 0.009662376, 0.03241833, -0.004987665, -0.039758224, -0.06890682, 0.08941436, -0.3950431, 0.025315113, -0.21645303, -0.052282125, -0.043371957, 0.06956207, 0.21635394, 0.010306562, 0.007980053, -0.30715778, -0.25499108, 2.7459191e-05, 0.15155813, -0.036485802, 0.011142822, 0.31574526, -0.15670887, 0.0798569, -0.010343628, -0.3702239, 0.13420306, -0.057126015, 0.10542028, 0.40434343, -0.015839182, -0.0028212303, -0.07707306, 0.00067533116, 0.0857733, 0.5108989, -0.0028163579, 0.00035581223, -0.053200595, 0.027218135, 0.13644068, 0.24593355, -0.04161042, 0.021965, 0.13014825, 0.2186195, -0.0555989, -0.04943356, -0.4355519, 0.11889356, 0.01518795, 0.09027485, -0.11167412, 0.44218528, -0.14454457, 0.14475353, 0.17454049, 0.11790368, -0.008763631, -0.058003787, -0.13799666},
    {0.13077839, -0.00035679017, 0.087463096, -0.20765539, -0.012414285, 0.14112414, 0.0751912, -0.1965137, 0.08185764, -0.28484848, 0.037454672, 0.06025407, -0.058266293, -0.033480104, 0.106538445, -0.0636347, 0.2193815, 0.02395336, -0.17853165, 0.04679697, 0.41050255, -0.10577913, 0.11655566, 0.017029231, -0.030290239, 0.065020844, -0.22647516, 0.0931293, -0.21622643, 0.08757325, -0.0027041445, -0.16063778, 0.044452354, 0.13341647, -0.12386488, 0.081870325, 0.028332416, -0.05150847, -0.41515636, -0.21494408, 0.13174833, 0.16437699, -0.13433564, 0.00014638118, -0.010376173, 0.05617979, -0.0029358293, -0.042628754, -0.021501498, 0.22515464, 0.25174573, -0.72765064, -0.017584773, -0.05146978, 0.098839104, 0.22176656, -0.4225106, 0.11763911, 0.062112395, 0.51934135, -0.0974496, 0.010164425, -0.14327142, -0.40668052},
    {-0.032707155, -0.10325592, -0.08538079, -0.21745005, 0.03810129, -0.039856993, 0.03084181, -0.23780599, 0.17298578, -0.21715781, -0.027070398, 0.18884961, 0.18119666, -0.067315005, 0.02756038, -0.0132666435, 0.029437048, -0.056101184, 0.11699061, 0.03172456, 0.16670479, 0.08338437, 0.13676398, 0.019928426, 0.041796546, -0.052461393, 0.013199262, 0.11725718, -0.32237902, -0.45303166, 0.06668961, 0.05646615, 0.31577006, -0.01886177, 0.10682255, -0.0011534671, 0.10072577, 0.0676689, 0.1783902, 0.4548899, -0.13624528, 0.020222105, 0.24818613, -0.10551532, -0.035937257, 0.07569141, -0.0047574216, -0.22880997, -0.10502314, -0.040030453, -0.2755847, 0.09195492, -0.04621618, -0.01378101, -0.19109116, -0.21662451, -0.11309426, -0.041472916, -0.13061441, -0.0806636, 0.35779983, 0.13027525, 0.057114206, -0.46904907},
    {0.14900635, -0.053455558, 0.07324562, 0.5569845, -0.034513604, 0.109169334, 0.018823659, -0.0773847, -0.097441986, -0.20335369, 0.014465998, -0.46257833, -0.18385795, -0.07489646, -0.029527599, 0.32631782, -0.0014661157, -0.02577242, 0.3736841, -0.2321989, -0.13262472, -0.0054462315, 0.0011057077, 0.15134609, 0.163085, 0.043088384, 0.11847899, -0.04282134, 0.020436285, -0.38331866, -0.06428708, 0.29168102, 0.038578216, -0.06187853, -0.44824892, -0.11277563, 0.14657557, -0.012844528, -0.18816619, 0.18111639, 0.13070098, -0.012823895, 0.01595493, 0.10156538, -0.56870425, 0.23956253, 0.15787862, -0.027453566, -0.040213365, -0.030818298, -0.29267675, 0.011029949, -0.043829057, -0.16602181, 0.20462686, -0.046514664, -0.16662122, 0.23771438, -0.043036725, 0.45737052, -0.0254003, -0.122374766, 0.21683055, -0.12589732},
    {0.022887165, 0.0065479893, 0.052008517, -0.5755258, -0.019636296, -0.008423238, 0.08101804, -0.16886269, -0.00053502485, 0.084991984, 0.12420047, -0.022667067, -0.08774182, -0.06327475, 0.026009258, 0.16167861, 0.08652796, 0.04854004, 0.10428853, -0.088604376, -0.47900978, -0.12261494, 0.08294596, -0.07443551, -0.13178144, 0.067379504, -0.36702868, -0.04153132, 0.21557209, 0.17972377, -0.013397803, 0.10061304, 0.61427605, -0.09324575, 0.6572713, -0.12247508, 0.05932232, -0.05455849, -0.24169144, 0.55762243, 0.02902773, 0.001369473, 0.14544879, 0.14592001, -0.016711058, 0.09363496, 0.059018303, 0.4063887, -0.07996539, 0.09640718, -0.1411286, -0.13544343, -0.07967186, -0.019145427, 0.13948886, -0.19858, 0.39393115, 0.55972826, -0.12571563, -0.28288874, -0.55221295, 0.0076290118, 0.2289256, 0.12647282},
    {-0.071337715, 0.06313857, -0.12055797, 0.7521599, -0.12420657, -0.017867446, 0.03062804, 0.19132838, 0.076837674, 0.13808763, -0.027641956, -0.25349355, 0.23561376, 0.042309377, 0.035929393, 0.15264343, -0.058816694, 0.027301528, -0.24278802, 0.17850244, 0.40212017, 0.038351625, -0.03504988, -0.037854765, 0.19805948, -0.15291372, -0.44774517, -0.020529296, -0.058699492, 0.036934033, 0.058451895, 0.23772591, -0.060435493, -0.26104942, 0.16721548, 0.09761849, -0.07749002, -0.17721532, 0.3256765, 0.55191135, -0.015336999, -0.07681644, 0.6585618, -0.06600378, -0.006368974, 0.09615285, -0.08455538, -0.12049491, -0.20431489, 0.3008489, -0.052475233, -0.045661192, -0.15535446, 0.06865331, 0.025631491, -0.13672434, 0.050805338, -0.03501932, -0.10762058, -0.19977643, -0.3808862, 0.028565498, 0.007221559, 0.6152457},
    {-0.06656937, -0.043777116, 0.07451171, -0.069329396, -0.045899723, 0.057804484, 0.018509509, -0.10987469, -0.0082359165, -0.2153255, 0.021761592, -0.2094488, 0.105254084, 0.0316571, -0.049966548, -0.40586716, -0.05682321, -0.07575013, -0.048134267, -0.112340525, 0.1553897, -0.005068665, 0.042486113, 0.03434453, -0.09341358, 0.1112419, 0.14831176, -0.007266785, -0.25811276, 0.33227792, -0.0014789848, -0.0627858, -0.2057321, -0.07598116, -0.29711726, -0.16495377, -0.03441373, -0.13966034, 0.055972658, -0.27340773, 0.02448625, -0.028843284, -0.35843623, 0.00066687097, 0.09362021, -0.060303736, 0.008660848, -0.256821, 0.017278029, -0.36308956, 0.043160822, 0.0924041, 0.016008656, -0.03871515, -0.13639483, 0.13676494, -0.4406503, -0.6606907, -0.02238038, 0.1897138, 0.48448864, 0.0054641753, -0.20755346, -0.22003363},
    {0.20921522, -0.011056482, 0.03889788, -0.41755593, -0.014501431, 0.0064955065, -0.04480992, -0.23067412, -0.044250153, 0.4330427, 0.0817702, 0.1479173, 0.10744867, 0.043325327, 0.010690939, 0.26498872, 0.17133956, 0.046905525, 0.37233517, -0.044612724, -0.27050093, 0.087421104, -0.06583307, 0.031021982, -0.18739304, 0.17035262, -0.6652259, 0.047879655, -0.24459487, -0.062106743, -0.0397611, -0.13847207, 0.10655512, -0.13917392, 0.012692599, -0.10853509, -0.049116336, 0.026601389, -0.19678064, -0.005917806, -0.013373532, 0.15252194, 0.00458693, 0.15417042, 0.23981725, 0.35308295, 0.001697048, 0.10996547, -0.1558647, 0.10812732, -0.06916, -0.52374446, -0.113608904, 0.09037768, 0.07518505, -0.1105786, 0.08438975, 0.12787561, -0.29043785, 0.13901491, -0.19706151, -0.06569966, 0.21004783, -0.28678706},
    {0.0683183, 0.011773807, 0.11960302, 0.13899252, -0.06351957, 0.10549385, 0.023981929, 0.25913373, 0.27631956, 0.5123384, -0.042024046, 0.1349925, -0.025709746, -0.067546144, -0.03919993, 0.23834203, 0.10936261, -0.005241537, -0.06927758, 0.016397106, 0.04438956, -0.11018416, 0.07035713, -0.024776788, 0.061992645, -0.014341475, 0.069347925, 0.12095384, 0.14832838, 0.11818521, -0.06556356, -0.08680636, -0.16131, 0.20777063, 0.12555338, 0.1012742, -0.009327225, -0.05288085, 0.4726874, -0.0895078, 0.031200713, 0.08886479, -0.1697148, 0.088087484, -0.26373228, 0.26058146, 0.075699285, 0.3395579, 0.12393474, 0.63409245, -0.21820538, 0.61942977, 0.03289586, -0.040483132, 0.14154556, 0.36000735, 0.5430898, -0.48402506, 0.21537048, -0.53143924, -0.4003164, -0.04395851, 0.19171375, 0.31770998},
    {-0.15295172, -0.033539988, -0.031911623, -0.88691974, 0.07283011, -0.052298177, -0.036260266, -0.24757358, -0.13789938, 0.69350404, -0.0731623, -0.05476787, -0.04288763, 0.105220675, -0.0014635527, 0.49175265, 0.09294719, -0.08390138, 0.12300864, 0.048314113, -0.5797221, 0.13282797, -0.016871912, -0.13522635, -0.043388415, -0.0715708, -0.6837737, 0.0121890055, 0.123446755, -0.04402584, 0.059369203, -0.19592111, 0.40664598, -0.1332425, 0.3066152, -0.124914035, -0.18308702, -0.05175527, -0.13422646, 0.21096152, -0.1517042, -0.018669933, 0.15967047, 0.14811365, -0.12695493, 0.37963322, -0.14526461, -0.08266619, -0.2092628, 0.43839544, -0.16530427, -0.2990474, -0.12815443, 0.027711952, -0.1838833, -0.542313, 0.028482353, 0.24523863, 0.21543951, -0.49248078, -0.193089, 0.18855217, 0.33563358, 0.24098642},
    {-0.14054655, 0.05316916, -0.031139895, 0.11520369, 0.05831867, -0.09236574, -0.08241064, -0.23148756, -0.2129839, -0.07732118, 0.011812096, -0.49324125, -0.022272848, -0.06530162, 0.020237707, 0.10699093, -0.04500857, 0.044537343, -0.47516963, 0.23301081, 0.11525469, 0.056153204, -0.17395061, -0.16792692, 0.056974374, -0.068805516, 0.35166377, 0.02621365, 0.05199077, 0.5606749, -0.0028837624, 0.01253775, -0.17500956, -0.14378847, 0.21690597, -0.38398862, -0.012480441, 0.25606537, 0.06308732, -0.25987914, -0.16736858, -0.10263712, 0.10848668, 0.15320419, -0.48063982, -0.07343758, -0.060760215, 0.17994246, 0.053807043, -0.37895882, 0.48347518, 0.028744282, -0.1953374, -0.031571016, -0.06327179, -0.19005765, 0.476769, -0.66720194, -0.4067684, -0.021046836, 0.20951858, 0.029343428, -0.24800462, -0.20430394},
    {-0.002874868, 0.0365221, -0.05592521, 0.2065456, 0.004147428, -0.07419559, -0.027866157, -0.06662531, -0.028178517, -0.23329061, 0.03170297, 0.050764512, -0.008363657, -0.014569985, 0.022486573, 0.25930187, 0.036266685, 0.0208061, -0.236015, 0.23222256, 0.38687086, 0.13590053, -0.0043874923, -0.0090948, -0.048889596, 0.082554944, -0.057902683, 0.002373274, 0.08863042, -0.083868615, -0.0033556633, -0.0060399994, 0.46167395, -0.071949504, -0.11823327, -0.09421286, -0.06286218, -0.048086457, -0.28912017, -0.2464115, -0.070525825, -0.019631501, -0.012161647, -0.0073990254, -0.13751784, -0.091289, -0.031021325, -0.08365445, -0.03375988, -0.10517107, 0.10081041, -0.3517496, -0.014873617, 0.018786905, -0.09274361, 0.071398154, 0.46131995, 0.47561815, 0.0049951863, 0.32515875, 0.0055573527, -0.006228343, 0.63550514, 0.08914225},
    {0.011286927, -0.0031251516, -0.03267596, -0.07990012, -0.016363945, -0.026886072, 0.02875728, -0.034767278, -0.12912929, -0.7447581, -0.01999691, 0.20414406, 0.054049395, -0.05612975, -0.008385568, -0.31692767, 0.021847298, -0.051613864, -0.071848504, -0.21797141, 0.29810774, 0.24503705, 0.17053884, -0.027140684, 0.12806846, -0.013331144, 0.1499259, -0.06647313, -0.4393592, 0.56635857, 0.052002344, -0.114352524, -0.073001266, 0.11002736, 0.18342395, 0.08846074, 0.113774076, 0.09258408, 0.1947907, -0.563876, -0.017543502, 0.04718156, -0.28727096, -0.03378557, 0.04044286, -0.4305401, 0.07111775, -0.03529829, 0.7304012, 0.015473156, 0.52312344, -0.62162524, -0.023573369, 0.037507005, -0.002012512, 0.62165296, 0.6457774, -0.03799749, 0.20443249, 0.2655426, 0.59688896, 0.044090714, 0.22598529, -0.39641258},
    {-0.0031139918, -0.055745836, -0.009837373, -0.16764572, -0.03092611, 0.048413593, -0.06620462, -0.12995969, -0.08291733, 0.24161759, 0.016669406, -0.46390504, -0.05614369, 0.016872743, 0.06492015, -0.0056837136, 0.10916439, -0.033416282, -0.115302615, 0.021234112, -0.12609121, 0.09997254, -0.06883636, -0.0004496234, -0.07151667, -0.016209563, 0.24899608, 0.067200325, -0.45456707, 0.11972025, -0.12529632, -0.06448499, -0.07775419, 0.08810871, 0.17042562, 0.1689201, -0.098057605, -0.18724862, 0.0864809, 0.02272503, 0.04331363, 0.05202542, -0.0368572, -0.08165749, 0.116938286, -0.11084424, 0.050494097, -0.024984287, -0.026680656, 0.012586088, -0.0071033277, -0.013216995, 0.04908716, 0.05799232, -0.023793701, 0.096718, 0.24607444, -0.31378275, -0.18200481, -0.19008042, -0.09680999, -0.06381614, 0.051040117, -0.33854598},
    {0.06169239, -0.090655364, 0.084493764, 0.059930105, -0.0035757797, 0.0013798977, -0.04897432, -0.24254435, 0.1912868, -0.27676246, -0.045817655, -0.22700997, 0.21179795, 0.021403428, -0.04921769, 0.14631067, 0.017629892, -0.068763345, -0.3241733, -0.15140222, -0.3518075, 0.042189337, -0.017937392, 0.030052323, 0.0094154235, 0.016113231, 0.24217089, 0.08328452, 0.81537354, 0.6742534, -0.1125472, -0.16762555, 0.943199, -0.2008299, 0.27031854, -0.011937689, -0.022137336, 0.009712566, -0.48374295, -0.04915124, -0.059089422, 0.024342442, -0.58292353, 0.021605488, -0.1721513, 0.54505825, 0.040373616, 0.6034137, 0.72224665, -0.36450937, 0.5848365, -0.15989833, 0.03868779, 0.040806513, 0.15882014, 0.26849595, 0.24516998, 0.17560937, -0.089577086, 0.5148058, -0.20660521, 0.052947544, 0.7084489, 0.37382013},
    {-0.08496379, 0.2034519, -0.07000267, 0.2827569, -0.063905634, 0.014381097, 0.078889504, 0.15346044, -0.0057045124, -0.41258207, -0.09960536, -0.13491745, -0.051229965, -0.12787578, -0.015963921, -0.022612344, 0.013674939, 0.01777998, -0.15024374, -0.049525447, -0.49412766, -0.07352909, -0.025405126, -0.07006875, 0.17209803, 0.04479143, -0.050815728, 0.07121497, -0.064523816, 0.027052237, -0.109080695, 0.11858932, -0.019654285, 0.13437177, 0.410258, 0.066755, -0.0073869573, 0.16100043, 0.14307944, 0.06865471, -0.024965225, -0.16780521, 0.5217541, -0.0348702, -0.18628192, 0.27889228, 0.022257293, -0.17915556, -0.20830083, -0.05607903, 0.059072264, -0.5393512, -0.09365769, -0.035592724, 0.13351975, -0.24034975, 0.07571547, -0.054407615, 0.041961223, 0.17566845, -0.07256729, 0.04668978, -0.10297131, -0.074736685},
    {-0.113318816, 0.039918702, -0.02277427, -0.27920768, 0.07803217, -0.08894029, 0.032166135, -0.50831604, -0.04342405, -0.10096161, 0.00035946764, -0.44518438, -0.059998155, -0.0011602821, 0.0017202353, 0.08762193, -0.08664465, 0.12862113, -0.028244268, 0.0045430553, 0.32221633, 0.046829965, 0.03834428, -0.121342264, 0.040917516, 0.094922796, 0.61028516, -0.049692538, -0.017907428, -0.10476825, 0.030471362, -0.023853242, 0.12303923, 0.011756043, -0.23115112, -0.1490602, 0.07404671, 0.024348468, -0.22450526, -0.105311275, -0.04078516, 0.03980422, -0.26544634, -0.02775318, -0.20901313, -0.26143187, -0.010529167, -0.13379258, 0.15108892, -0.73147404, -0.22282273, -0.15603808, 0.21625002, -0.011522747, -0.121965885, -0.16192573, -0.38278982, -0.13415506, -0.053847004, 0.44873348, 0.33265525, 0.07047782, 0.07974419, -0.56122494},
    {0.07136912, -0.055216607, 0.07710945, 0.24128948, 0.05490169, 0.02078586, 0.04443879, 0.048800852, 0.20160708, -0.59836483, -0.0111917965, -0.07848121, -0.046747748, 0.029285023, -0.030081496, 0.20916262, 0.04349769, 0.05836208, 0.20449376, -0.13237944, -0.31214502, 0.023491714, 0.12054873, -0.029143097, 0.06565096, 0.06870644, -0.07214735, 0.038834006, -0.20665842, -0.5294983, -0.0061225216, 0.0710337, -0.46157497, -0.1286767, 0.4626953, 0.10064749, 0.029685076, -0.07866999, 0.51037323, -0.14247368, 0.0113991145, 0.19892143, 0.53636026, 0.081373334, -0.045059167, -0.08436019, 0.02895947, -0.69292593, -0.29146823, -0.056185693, 0.15296595, -0.12058308, 0.09307591, 0.07456797, 0.07555879, -0.33407214, -0.24389823, -0.0009003984, 0.007543592, -0.51930255, 0.39672711, 0.02791632, 0.051393755, -0.20713538},
    {0.121142685, 0.08684298, 0.043113384, -0.3708478, 0.05053942, -0.051955126, -0.024582433, -0.21646163, -0.065173864, -0.20923698, -0.04551381, 0.111734904, 0.10130713, -0.040200073, -0.12347315, -0.028063681, -0.09775025, -0.008238079, -0.10985541, -0.03379635, -0.46815938, -0.06118676, 0.060188223, 0.02073608, -0.052618008, -0.054994777, -0.15204182, -0.06761022, 0.0757053, 0.17666654, -0.055176847, 0.10075623, 0.06688212, -0.018913427, 0.13714993, 0.0688033, 0.00027914374, -0.054418705, -0.2060762, -0.06402224, -0.002848396, -0.022660201, -0.050079577, -0.04785988, -0.28752175, 0.3877839, 0.026899703, 0.073460974, -0.42932224, -0.076944605, -0.12227263, -0.5773015, 0.045335058, -0.0018025956, -0.038922947, -0.09231832, -0.15002836, 0.7597183, -0.07170455, 0.2940039, 0.16357939, -0.056921422, 0.095598005, -0.4341044},
    {0.1341102, -0.04969742, -0.023861174, 0.8554792, -0.057355795, 0.025827905, -0.012285513, 0.048199575, -0.1853845, -0.3815712, -0.08270873, -0.22256583, -0.039700635, 0.069042034, -0.056190666, -0.3579071, 0.11685293, -0.08034384, 0.3716667, -0.14760618, 0.17472889, 0.013807551, -0.020858435, 0.07265303, -0.26150283, 0.022280574, 0.8924336, -0.034323882, 0.16047744, -0.37574014, -0.07193242, -0.2015025, 0.058109827, -0.040394545, 0.2180111, 0.12565307, -0.06472693, -0.044289455, 1.0658437, -0.39845482, 0.009138514, 0.047945816, -0.40185368, -0.024692439, 1.1392457, -0.8973298, -0.025745088, -0.45878446, 0.6804235, -0.36316183, -0.01206778, 0.29707292, -0.13833787, -0.030630454, -0.04866407, -0.1398436, 0.4145318, -0.27435538, 0.044509247, -0.429063, 0.8516774, 0.05531799, 0.19167313, -0.028280867},
    {-0.025982086, -0.061525963, 0.029186463, 0.061853256, -0.037452783, 0.057286672, 0.0018034844, 0.17062493, -0.06513599, 0.099236436, 0.0052105854, 0.18753907, 0.049402673, 0.06798638, 0.035525966, -0.42427918, -0.0045079384, 0.043793865, 0.10584619, -0.23060352, -0.16695486, -0.06347447, -0.06508628, -0.045105416, -0.14257425, -0.02240826, -0.23796324, 0.11791778, 0.030060492, 0.29902697, -0.0059867487, 0.077978864, -0.08313274, 0.014688933, -0.1925943, 0.06095857, 0.044057086, -0.027234511, 0.2624478, -0.10106887, 0.07993855, 0.09762184, 0.1659194, -0.10050013, 0.3085184, -0.38227844, 0.033925135, 0.103343785, -0.22516905, 0.40323004, 0.19148001, 0.012811198, 0.03726105, 0.03793624, -0.11984228, -0.097693525, -0.022649681, 0.06767797, 0.142962, 0.0043179262, 0.12289397, -0.00797634, 0.02147134, 0.08714218},
    {0.09857555, -0.011691529, -0.13454275, -0.17870902, 0.107547425, -0.08550791, -0.015327038, 0.040405557, -0.07959663, -0.23538084, 0.04199221, -0.079902165, -0.06916859, -0.065971054, 0.0223492, -0.37912348, 0.055087324, 0.04599347, -0.44318286, 0.05538524, -0.16635354, 0.20146541, -0.0045773187, 0.09994455, -0.23662913, 0.07283708, -0.24614267, 0.12818013, -0.40767294, 0.09295079, 0.07845064, -0.0028945098, 0.29197463, 0.034911618, 0.61894053, 0.038749, -0.123854905, -0.008829003, 0.61017835, 0.40929332, -0.0027584147, 0.099871896, 0.46948278, -0.12581044, 0.030176766, 0.04036642, -0.05949558, -0.17878844, 0.19485773, 0.14357607, 0.22900717, -0.14745842, 0.06648626, -0.013217356, -0.050319973, -0.0031661708, 0.020622203, -0.50307447, 0.11385438, -0.12500101, 0.041440595, 0.02815177, -0.068726666, -0.14808285},
    {-0.015254758, -0.015192447, 0.039892446, -0.8497875, -0.078563385, 0.04584994, 0.0051154643, -0.29205185, 0.0390533, 0.015167567, -0.0015359726, 0.31220895, 0.0018256761, 0.025887074, -0.049494695, -0.08146913, -0.14675198, -0.007388749, 0.028632015, -0.03779154, 0.027421271, -0.006478732, 0.035534672, -0.02622571, 0.11467594, -0.057225555, -0.057727605, -0.041049257, -0.055838272, 0.18145993, 0.0068779793, 0.12522982, 0.41758987, -0.18458703, 0.26131317, 0.044027306, -0.0055914996, -0.014221244, -0.0456311, -0.033558324, 0.030655565, 0.047391422, 0.009759721, 0.13501558, -0.027498666, -0.1971845, 0.06693439, 0.13255672, 0.1396865, 0.26075363, 0.009543378, -0.31903484, -0.084834464, -0.03505902, 0.244738, 0.10227462, -0.02577844, 0.199862, 0.13950674, -0.21643057, -0.017398981, -0.017736748, -0.17865074, 0.043089174},
    {-0.03503066, -0.021729909, -0.0568708, 0.13403806, 0.062362596, 0.036739677, 0.079006724, 0.3021157, 0.055540662, -0.030038144, 0.060628213, 0.68998486, -0.1432903, -0.0882225, 0.018627722, -0.20137347, -0.009562504, -0.06031356, 0.47290212, 0.26149866, 0.57767177, -0.06547029, 0.23604876, 0.04476832, 0.098402195, 0.10477014, 0.39665198, 0.017991418, -0.1963906, -0.39833772, 0.12223375, -0.025100965, 0.32404914, 0.08770922, -0.18748163, -0.05306816, 0.09891345, -0.16919376, 0.7315545, -0.19748792, 0.012888066, 0.066194385, -0.3896302, -0.03749504, -0.42078915, -0.37540016, -0.018638296, -0.20900784, 0.56385106, 0.06507583, 0.19581126, 0.2593776, 0.11050424, -0.11650834, 0.26330024, 0.10449082, -0.34780645, -0.307077, -0.19179942, -0.3963994, 0.5873241, 0.21269992, 0.34630135, 0.096841976},
    {0.02395673, 0.028463451, -0.011846876, 0.0856258, -0.041420992, -0.06268882, -0.07844332, -0.09610561, -0.015267978, -0.042734858, -0.022082575, -0.22538534, 0.112305075, -0.056110747, -0.009071368, -0.17664906, -0.030253282, -0.008931738, -0.32970127, 0.11969828, -0.06718584, -0.030992985, -0.022519505, -0.050823927, 0.15546133, -0.00831909, -0.065068915, -0.007964795, 0.14211932, 0.30696696, -0.0056044874, 0.21132718, -0.22569612, -0.012578415, -0.2800479, 0.07916035, -0.04467897, 0.05815768, -0.29062873, -0.453464, -0.057214364, 0.053119577, -0.263874, -0.11959865, 0.38391176, -0.13874671, -0.06260612, -0.0058807433, -0.006500791, 0.1707441, 0.57583535, -0.23257124, -0.19002032, 0.06969003, -0.023634491, 0.49307775, 0.021615457, 0.3123797, -0.0455344, 0.48247415, -0.15263869, -0.15996502, -0.013065783, -0.033491503},
    {0.18140805, 0.06935578, -0.113360286, -0.48219156, 0.031042766, 0.06269199, 0.088376164, -0.39605498, -0.18441753, 0.12022195, -0.06363213, -0.5419057, 0.004642435, 0.008076973, -0.083612464, 0.25368452, 0.122512944, -0.020965304, 0.31950423, 0.016470347, -0.15567474, 0.05275752, 0.0073772073, 0.037476446, 0.018189123, -0.026075369, 0.20759319, 0.015035516, 0.10017156, -0.01508099, -0.014638477, -0.122136116, -0.5324154, -0.24214302, -0.22427969, 0.11265699, -0.06908584, 0.026310463, -0.04641528, 0.049176276, -0.0027797325, 0.14248188, 0.15880105, -0.0020920383, 0.071330495, 0.2821204, -0.06960014, 0.19011925, -0.01644947, -0.41186422, -0.77422017, 0.17855632, -0.048943914, 0.06914212, 0.0104932375, -0.39145765, 0.43660578, 0.21074821, -0.2819555, 0.10860107, -0.21439368, 0.13592583, 0.5411066, -0.18216114},
    {0.006447606, -0.06234102, -0.14548935, -0.05475167, 0.06295973, 0.009587955, -0.012778587, -0.44910866, -0.035538062, 0.5803503, -0.0047981916, -0.052540503, 0.24534498, -0.080359414, 0.06729046, 0.19720274, 0.15912631, -0.032444924, 0.052792747, 0.23763461, 0.0942559, -0.026180053, 0.08536213, 0.116569415, 0.11428799, -0.035748474, -0.07698229, 0.105874285, -0.16116232, -0.31978372, -0.021215431, -0.008927418, -0.032763064, 0.12797132, -0.14196625, 0.021604463, -0.031012401, 0.15201776, 0.35665414, 0.31093964, 0.080467865, -0.045885805, 0.036539115, -0.12955597, -0.4057522, 0.54728585, -0.050014947, -0.10524068, -0.25403053, 0.42127872, -0.58657044, 0.36624536, -0.0061917948, 0.014765389, -0.19534366, -0.08155781, -0.17023557, -0.34709477, 0.26834932, -0.72674507, -0.0083079375, 0.1644697, 0.12926105, -0.5407272},
    {-0.066816285, -0.008008295, -0.038356613, -0.39704472, 0.14566067, -0.010498197, 0.043770026, 0.12175619, 0.05072518, -0.21155506, 0.02946721, 0.1661272, -0.0015368256, -0.101488054, 0.028195497, -0.50350887, 0.10309116, -0.017760715, 0.37363902, 0.0084913345, 0.39151824, 0.07488285, 0.030686818, 0.05143574, 0.13088313, -0.035355475, 0.4064683, 0.028009899, -0.5110009, -0.05522445, 0.05793037, 0.099764615, -0.4791053, 0.01769162, -0.122255705, 0.0037829196, -0.009054361, 0.12313395, 0.16156708, -0.3858974, -0.12510607, -0.2046192, 0.610584, 0.15061817, -0.15672167, -0.52488875, 0.036690053, -0.31483504, -0.23359129, 0.30011153, 0.12632845, -0.10951901, -0.04988165, -0.06642924, 0.01424744, 0.060279652, -0.48914462, -0.12410307, 0.092376746, 0.069760695, 0.32108882, 0.12935281, -0.5449787, -0.25645682},
    {-0.012538581, -0.02602533, -0.018606443, -0.20597932, 0.02190751, 0.043217164, 0.02762817, 0.26214075, -0.14437757, -0.1980591, 0.020666108, 0.050078474, 0.18654336, 0.0078770155, -0.041455414, -0.56848985, 0.112231836, -0.09527315, -0.09280233, 0.08226435, 0.14456871, 0.29397154, -0.06517525, -0.009452219, 0.00050750934, 0.06247984, -0.05016026, 0.07618162, -0.29510856, 0.07590439, -0.03514452, -0.33026925, 0.14744367, -0.1660387, -0.10493154, -0.031002374, -0.10539114, -0.03586658, 0.25296664, -0.24506491, -0.116982095, 0.046428468, -0.17639278, 0.010327218, 0.05771463, -0.40142334, -0.121329784, -0.3670371, 0.09655876, 0.17799696, 0.2881205, -0.04044984, -0.010309357, 0.09542758, -0.18860532, 0.18377286, -0.4643524, -0.07648111, 0.27873033, -0.11561625, 0.03567117, 0.11450773, -0.44452545, 0.12753956},
    {0.07376311, -0.005587111, 0.024090184, -0.5561982, -0.0026552621, 0.05876239, -0.053440586, -0.08645387, -0.076872244, -0.2213715, -0.034916997, 0.53541106, -0.04865876, 0.04541593, 0.042703856, 0.38283697, 0.073687546, 0.06586322, 0.67432576, -0.0559307, 0.021028401, 0.072707325, -0.020312943, 0.0019770598, 0.22795102, -0.06838568, 0.05355961, -0.058587544, -0.16362332, -0.22315438, -0.07762289, 0.057454057, 0.6119839, -0.031994596, 0.18814214, 0.05762527, 0.007765243, -0.04997637, 0.12401091, 0.30061027, 0.016078023, 0.05352493, 0.0050130645, 0.04384485, 0.06630519, -0.07614233, 0.031899072, 0.28413415, 0.3639496, -0.059052948, -0.15732972, -0.33972022, 0.057058293, 0.05679271, 0.18266203, -0.54574704, -0.3035763, 0.0006332435, -0.06981331, -0.4585603, 0.08237807, -0.1166676, 0.6808684, 0.41905951},
    {0.008198049, -0.14198013, -0.0021560069, -0.03052507, 0.04690368, -0.018652169, -0.012287803, 0.05916736, 0.11921124, 0.09983952, 0.030925784, -0.13159269, 0.14743176, 0.035577938, 0.028395241, 0.10686796, -0.010726153, -0.019565692, 0.11786705, -0.08058978, -0.4307758, -0.2197045, 0.13223203, 0.05126608, 0.029513424, -0.073080435, -0.012222279, 0.13299312, 0.62170535, 0.082950145, 0.0038207225, 0.20187724, -0.6165459, 0.13487694, -0.34096488, -0.21913837, -0.02028382, 0.047258224, -0.4505883, 0.22094014, -0.10381365, 0.16446935, 0.025267564, 0.16220446, -0.23183458, 0.21457228, -0.068753846, 0.049222007, -0.14236386, 0.1040586, -0.16117766, 0.14929606, -0.008815366, 0.007612721, 0.022963693, 0.357419, 0.14340982, 0.41647786, 0.056174133, 0.12086026, -0.3820791, 0.30247945, -0.25853172, 0.072683774},
};

static const float agent_ac_actor_pi_net_fcs_1_bias[64] = {0.030640354, 0.022693893, -0.08794372, 0.08697821, -0.0075904964, 0.022186724, 0.0279824, 0.11684747, -0.02253592, 0.3242004, -0.024170335, -0.5167101, 0.021588186, 0.016064964, -0.043762375, -0.2685318, 0.032693565, -0.04410297, -0.2235803, 0.14998291, 0.5826468, -0.02877456, 0.067375176, 0.006468329, -0.15332167, 0.003799855, -0.020845784, -0.07260273, -0.045721337, -0.2665197, 0.03280933, 0.052190807, -0.08195304, 0.16261733, -0.06612389, -0.012290053, -0.04997527, -0.06591948, 0.0052118977, 0.19337465, 0.01901217, -0.02146946, 0.28477365, -0.0012610599, 0.33462027, -0.046572108, 0.028928893, -0.13286147, 0.10117888, 0.22679989, -0.033786885, -0.018432807, -0.070742175, 0.045395587, -0.08463147, -0.070793904, -0.0142727345, 0.25177446, -0.001340741, 0.64138484, -0.18993577, 0.12885512, -0.15152416, 0.069547825};

static const float agent_ac_actor_pi_net_fcs_2_weight[64][4] = {
    {0.0019824328, 0.0060487287, 0.001610949, 0.0014701058},
    {-0.007976309, 0.003139492, -0.013016833, 0.0034009293},
    {0.00604835, -0.016804412, 0.012143861, -0.012514591},
    {-0.12018792, -0.123955555, -0.2764988, 0.19370872},
    {0.0030316387, 0.009100038, -0.006091766, 0.004489664},
    {-0.0025295876, 0.004267055, 0.008140519, 0.0010111247},
    {-0.0013975912, 0.0022743412, 0.006998989, 0.0014734311},
    {0.24866, -0.033678014, -0.2758559, 0.5196301},
    {0.043977145, -0.0031323533, -0.006648419, -0.028199293},
    {-0.76757336, -0.043374516, 0.349429, 0.061120328},
    {0.00082523236, -0.0031420116, -0.0018356134, -0.004223853},
    {0.3510666, 0.2288156, -0.51563346, 0.06610996},
    {-0.0052166, -0.01549766, -0.01283009, 0.016588122},
    {0.00062206335, 0.0034040404, 0.0033150595, 7.5709555e-05},
    {0.0051292363, -0.0054617804, -0.0014335146, -0.0027412032},
    {-0.3110847, -0.0632674, 0.1195342, 0.015086855},
    {0.010213054, 0.008648899, 0.0068554096, 0.0025485095},
    {-0.0017323956, -0.0025825258, -0.0039053978, -0.0008026404},
    {0.07519637, 0.10167167, -0.1153874, -0.12749979},
    {-7.468228e-05, 0.03328418, -0.009562122, 0.012537708},
    {0.77925545, -0.26165456, -0.22980276, -0.08277634},
    {0.0004278646, 0.015674118, -0.010417695, 0.013816325},
    {0.030839013, -0.0050987373, 0.0024976407, -0.006629792},
    {0.009472218, 0.010735025, -0.0024273007, 0.0058856765},
    {0.019826794, -0.014805098, -0.005505378, -0.0025724578},
    {0.01337778, 0.015726356, -0.014061336, 0.0010627063},
    {-0.12474915, 0.24371213, -0.23579264, 0.03425132},
    {0.0016781033, 0.0050176606, 0.0034025803, 0.004865575},
    {-0.3461981, -0.2739443, -0.29918647, -0.024226466},
    {0.26687944, -0.3499123, -0.22731908, 0.05254897},
    {0.0015258896, 0.013831478, -0.0054405527, 0.01233675},
    {-0.0028224322, 0.0015070584, -0.028184352, -0.0022997533},
    {0.1800641, -0.086584166, -0.0034376776, -0.20615928},
    {0.013606932, -0.006016217, -0.009827776, -0.029942535},
    {-0.1760498, -0.3015241, 0.04673682, 0.027893892},
    {0.01584879, -0.0042598136, 0.009378338, 0.00198746},
    {0.0018874761, -0.026674366, 0.02271306, -0.031197667},
    {-0.023080656, 0.0016635197, 0.030148473, 0.025623614},
    {0.19845532, 0.530944, -0.10867128, -0.2284404},
    {-0.18897487, 0.078808285, 0.19239764, -0.17254326},
    {0.0067268694, -0.0005710728, 0.0029011802, -0.0073911813},
    {0.0085047735, -0.0029799773, 7.3063304e-05, -0.0032642663},
    {0.1225908, 0.082393564, 0.21904054, 0.26164952},
    {-0.011652924, -0.018498816, 0.023577062, 0.003563468},
    {0.10755309, 0.04261937, -0.11618328, -0.23860757},
    {0.1869399, -0.27910638, 0.24952939, -0.043206632},
    {-0.0009294189, -0.027323624, 0.013033572, -0.019705975},
    {-0.09953986, -0.11763231, -0.11582457, -0.014411305},
    {0.15326299, 0.047250338, -0.4405894, -0.27558565},
    {0.18927917, -0.0449815, -0.008071152, 0.5551628},
    {0.35930467, -0.29321578, -0.17884792, 0.20227069},
    {-0.41821313, 0.3766566, -0.064215906, -0.25512323},
    {0.028664367, -0.0007135401, -0.02864973, -0.039667487},
    {0.0076396684, -0.002835485, -0.0049589844, -0.0034991137},
    {0.013142731, -0.027817486, 0.0028722286, -0.021041336},
    {0.09747399, -0.20993708, -0.34188366, 0.25183105},
    {0.016518041, -0.3121652, 0.011809695, 0.24375178},
    {0.13010052, 0.0021258292, 0.12768297, 0.18436699},
    {0.031940844, 0.02413274, -0.011171622, 0.07170317},
    {0.44807005, -0.11343054, -0.3456409, -0.16986085},
    {0.14748883, 0.24052136, -0.07633793, -0.18597314},
    {-0.003590567, 0.011261916, 0.0112137, 0.01579426},
    {0.108524196, 0.013941923, -0.1357943, -0.26024345},
    {-0.3112232, -0.5607788, -0.005412087, 0.2140073},
};

static const float agent_ac_actor_pi_net_fcs_2_bias[4] = {0.044151347, -0.09696243, 0.41063842, 0.115206875};

static const float agent_ac_critic_v_net_fcs_0_weight[17][64] = {
    {-1.1385916, -0.17390867, 2.3035986, -6.285996, 0.41675127, -5.630379, 1.1943531, -0.94000834, -4.3570056, 2.1878502, -0.7280886, -10.240054, -1.3464555, -3.1767488, -5.640808, -3.0360036, -3.9021406, -0.65220445, -1.8975465, -11.648887, 0.20872948, -0.7377094, -3.2512898, 0.15797889, -0.9501553, 0.6855478, -11.73142, 6.449876, -4.4189487, -3.6931162, 2.226099, -5.4231997, -5.1265955, 0.732199, 0.44965723, -7.0433283, 4.483137, 0.45800883, -2.7438076, 1.2266304, -2.5576136, -1.1722243, -4.2582855, -0.10839713, 0.6483883, 3.557534, 2.0255494, -8.487566, 1.8558064, 1.4821147, -3.3226168, -3.244785, -4.6379976, 2.9519281, 7.2860475, 2.596757, -6.3128333, 5.1219625, 1.0199131, 1.4727379, 4.288728, -4.0969787, -12.359281, 0.91187936},
    {-3.006052, 0.1790224, 1.6763158, -7.784423, -4.312945, 6.9729853, 0.5882282, -3.099399, -5.0067353, -1.2400565, -17.558535, -2.13217, -3.6640499, 0.8230255, -5.338629, 2.3547769, -4.798979, -0.9059857, 0.08100968, 0.8822972, -1.9775739, -2.1467617, -13.639024, 11.456723, -2.4965823, -1.9492288, -6.804099, -3.193413, 4.4254923, 1.3056545, -0.6198936, -4.2347507, 6.2112837, -1.5348741, -3.69709, 0.9285971, -1.9095101, -2.772233, 0.3995444, 1.8966588, 0.3299442, -0.603904, -1.1840225, 7.5756164, 1.9946116, -3.7346675, -1.506648, 0.05786163, -0.27594063, 0.9418175, 1.7120956, -0.8086439, 1.9703227, 3.8306582, 2.5890594, -4.9511147, -2.572459, 1.6154585, 1.3368449, 1.2948282, 2.3584065, 1.2027706, 9.382878, -9.520583},
    {-0.21938168, -2.2469378, -1.1367989, 1.0961607, -0.38035116, -1.0404767, 1.1281457, 2.291696, -3.6915092, -1.5334303, 0.43476918, 0.5127677, -0.8920157, -2.4447942, 1.9639655, 0.8746763, 0.09041256, 0.3592176, 1.1525543, -1.5348349, 0.9697683, 0.639375, 1.3911923, 1.0477741, 2.2001953, 1.3079352, 0.99410933, 0.68337685, 2.5295208, 3.3040686, -4.4835, 0.7858638, -1.3362281, -1.6060866, 3.4567747, 1.0041229, -1.1023785, 2.066271, -0.9675879, -0.9247621, 0.4497729, -0.5739301, 1.1474653, 0.3663098, 3.250912, 2.0512762, 1.7513975, 0.69949156, -2.1648245, 1.1707419, 1.0109175, 6.3402534, -5.890246, -1.284763, 1.1327329, 0.7715455, -4.1825957, -0.38811356, -0.0070147295, -1.2190552, 1.942928, 0.83782446, -0.5779509, -1.1462882},
    {10.604384, 0.25998333, -1.1167978, 3.850609, 0.29037702, 0.9857272, -0.40731782, -3.0621684, -0.6617996, 4.6975126, 0.9592731, -1.8154135, -2.3473754, -5.5548286, -1.6176715, 0.2778306, 5.267961, -3.5986774, -0.18596652, 3.6341732, 0.59227866, -3.3610039, 2.6799083, -0.69323665, 5.154669, -5.063246, 2.9865768, 0.086994134, -2.4037325, 4.178481, 4.044028, 5.6869745, -6.375467, -10.144146, -0.3509556, -1.4237372, -0.6996599, -3.4974945, 4.540454, 2.4546788, 5.861547, -0.9600059, -0.19984557, -7.036645, 2.0442395, 5.458364, -7.281712, -1.1899091, 1.7893497, -0.24330184, 6.952362, 2.0858326, -1.6107389, -2.2854571, -0.27552703, -3.3144653, 1.1888512, 1.1127535, 4.2188683, -4.5803037, -1.5707878, -6.4138584, 0.028967673, -0.044939596},
    {-5.0378723, -3.3492334, 6.1075535, -2.876489, 3.57781, 1.8647346, -1.7036201, 0.713996, -3.4283736, -3.30744, -0.89981776, 1.9051006, -3.5126565, 0.4724028, -4.0124774, -7.2068434, 4.5375233, 7.0717874, 0.9957516, -2.604065, -0.675712, -1.2407881, -0.2662534, -3.148872, -8.083892, -1.5295954, -2.4619837, -4.2184443, -1.8726293, -2.780278, 0.5327284, 1.6320913, 3.6881545, -5.3525915, -3.9252172, -2.1647482, 6.634928, -3.2834725, 2.721774, -9.5479555, -6.922375, -5.2712, -1.5974907, 2.4197056, -0.3758825, 8.404764, 0.70442116, -3.26264, 1.2432462, -1.0403805, 5.6251335, -2.0701625, -2.4988103, -1.7931148, -5.9675493, 4.5499816, -2.9191706, -1.8519685, 0.46316546, 0.6248706, -0.85059536, -1.495679, -0.92301, 2.4833949},
    {-0.18085632, 0.34314722, -2.053205, -0.66670066, -1.541863, -2.7037416, 4.8906927, -0.97024757, -4.5342045, -3.0826488, 3.0112743, 4.3916063, -4.921725, -0.587037, 0.9247329, -1.8343292, -1.3104125, -0.8476162, 4.0119295, 1.980202, 3.7359962, 3.7449343, -1.1363405, 2.7583747, -0.5745033, 6.222952, 1.0396423, 1.9629073, -0.19730014, -1.5815393, 1.1658788, -0.20488447, 0.02529997, -1.0508138, 2.053117, 1.65438, -4.8324003, -0.47725236, 1.7135558, 1.3658158, 0.15850616, -0.9373854, -6.780388, -3.9559526, 1.450474, -0.59255946, -0.81853694, -0.7005579, 0.9106034, 7.7245865, -1.2853765, 0.40144312, -0.123345114, 2.1135426, -2.8107245, 2.9583244, 0.08607583, -4.125545, -6.7832875, -2.1666963, -1.549901, 3.4828205, 0.39050797, -2.7105284},
    {2.1363661, -4.060108, 3.3952444, -3.1790028, 5.5294385, -3.004226, -0.6264874, 4.753208, -0.23403144, -5.249261, -0.99539423, -1.055552, -3.6291971, -4.580772, 2.1867027, 3.6289456, 4.934667, 3.62247, 4.2341866, -5.789104, 5.2258983, 4.511537, -0.13620692, 0.43553078, 2.735454, 2.0828373, 3.2745738, 5.0680056, -1.181951, 5.289466, -2.1264248, -3.8479233, -2.4026182, 1.5222213, 4.8292623, 4.3316693, -1.5833441, 6.235851, 0.26154184, -1.5053316, -3.092598, 2.9149644, 4.1137724, 4.2655945, 3.1451378, 0.8905367, 2.7416074, 5.36877, 0.9556633, -3.5622385, 1.6137662, -0.3555518, 0.3437897, -2.8796792, 3.6276834, -5.262966, 3.1597853, 4.9605765, 5.1131887, 2.683674, 8.011944, 1.2091216, -1.5279362, -4.310317},
    {-0.78537905, 0.8495133, 2.81588, -2.062483, -1.7422725, 0.12787965, 0.7267534, -1.2809622, -1.8278323, -0.75266486, 1.5828532, 0.10628453, -0.05878827, -1.4847347, -1.3819507, -1.1982297, 0.16910225, -1.8015337, -0.1131802, 2.4916768, 1.0148648, -1.3330028, -0.8581015, -2.1043687, -2.8311582, -0.86593884, 0.115492694, 0.055391613, -1.5358093, 2.3799617, -0.2617997, 0.64625853, 3.1337888, 0.1860806, -1.8582987, 0.9985215, 2.400066, 1.9553906, 0.28920984, -1.4505993, -1.4213216, -0.60694224, 2.3234048, 0.27856135, -1.8073477, 0.18861894, 2.3869345, -2.3510885, -0.68267155, -1.0226282, 0.57248867, -1.1528884, -0.6445545, -2.8102276, 1.1326041, -1.2351723, -1.680521, -2.1663306, 0.91737616, -4.3831096, 1.5434414, -1.4364463, -3.2367556, 1.9813931},
    {-2.5442107, -1.1608354, 0.8752129, -1.2379396, 2.44371, 1.8931556, -1.3038902, 4.0002055, 2.700843, -0.6218699, -1.8129379, -0.25090584, -1.2569295, -0.3291044, 3.1157112, 1.8462505, -1.7045025, -1.8995676, -1.2211633, -0.7898555, -0.91025144, 0.24607053, -1.9648118, 0.2571485, -0.91061497, 0.6887405, 0.33272475, 0.41947952, 1.0307251, 0.10212384, -2.329759, -0.17949837, 2.309995, 1.9384694, -0.17972866, -0.42286313, 0.032340847, -0.06504736, -0.4263665, 2.364164, -1.5830595, -0.14863035, 0.3693572, 0.10827165, 0.81239194, -1.5390146, 1.759875, -1.3848068, -0.18311888, -0.3918812, 0.0331808, -0.98930883, 0.2221115, -1.8006605, 0.62844884, -0.2947069, -2.3202977, -2.6915436, 0.38188204, 4.479737, 0.3109624, 3.0381954, 0.2300161, -2.6978157},
    {-0.8266569, 1.0998465, -1.5332733, -1.4330407, 3.7008088, -1.2844483, 0.78514755, 2.3550797, -0.13221738, 0.5219275, -1.936964, 0.7924689, -0.5931602, -0.70994526, 2.3831737, -0.07192447, 0.76840264, 2.7156308, -2.9991977, -0.8114353, -3.909924, -0.97274375, 1.4528785, -1.4513468, -3.1591654, -2.1844263, 0.23118013, 2.9514747, -0.18704481, -3.764327, -0.46979323, 0.34432068, 0.55533004, -1.3001218, -0.3378067, 3.0641751, -0.31234848, -1.7888144, -1.726904, 1.234207, -0.7932246, -0.62253034, -2.8233685, 2.4169369, 4.312562, 1.66331, 2.521792, 0.31517157, 4.208822, -1.4914051, -2.2345233, 0.5268428, -1.5439124, 5.3014317, 1.1448723, -0.9294778, -0.07984736, -0.46882406, 1.5029091, -0.8030766, -0.9152579, 3.4342835, -0.7719277, 0.36777225},
    {0.023948489, -0.16453882, -0.012582095, 0.15968682, -0.47359288, -0.20265552, -0.0792651, 0.37160778, -0.24591178, 0.3084949, 0.036877535, -0.03949199, 0.10016769, 0.32953757, 0.115180954, -0.050160687, 0.37035134, 0.16437614, 0.3232376, -0.1005774, 0.26068795, -0.4619243, -0.004470783, 0.0040016193, -0.2506689, 0.0033631814, -0.024368543, -0.010785515, -0.00319205, -0.32773986, 0.111023344, 0.2139348, -0.19660497, -0.08195879, -0.1980596, 0.2621939, 0.025159372, -0.41232058, 0.33082592, -0.12232925, 0.100976504, -0.53220665, -0.008921758, -0.1057552, -0.70761955, -0.063945346, 0.42093688, 0.3720158, 0.031487122, 0.08449624, 0.31464493, 0.14008567, -0.08074699, -0.10079775, -0.41006443, -0.46463975, -0.012925298, 0.27488825, -0.13299666, -0.015460858, -0.33566913, -0.20484558, -0.022527019, -0.045016337},
    {0.00020331782, 0.08851632, -0.14187688, -0.15487754, -0.5262945, 0.35998675, -0.13441846, 0.23589344, -0.05812055, -0.5927663, 0.006204558, -0.00735266, -0.3573581, -0.48520735, -0.42711878, 0.039355744, 0.44214645, -0.054313917, -0.20790792, -0.031151595, -0.66642505, 0.1439894, 0.034082364, -0.074353576, -0.4480004, -0.1869505, -0.0036766613, -0.17905079, 0.011016474, 0.2220272, -0.23507695, 0.33110258, 0.016865518, 0.16139184, -0.08752729, -0.29679972, -0.076050155, -0.16745865, -0.24400008, -0.25324738, 0.075014055, -0.11423384, 0.03615279, 0.047474485, -0.019035881, -0.12775125, 0.15260793, 0.15274993, -0.13223502, -0.0051610484, 0.15266293, -0.16940618, -0.19444838, 0.004273264, -0.07641067, -0.105279185, 0.005212199, -0.1775385, 0.07959696, -0.06463441, 0.008221593, -0.03399423, -0.21057256, 0.17898245},
    {0.012187974, 0.17827588, -0.7573478, -0.28075764, 1.607218, 0.50474894, -0.61550885, -0.103018835, 0.11808283, 0.08646254, 0.16979733, 0.08092256, -0.28342706, -0.23427488, 0.5551325, -0.13148353, -0.10031526, -0.2502698, 0.52044773, -0.08080134, 0.9258425, 0.26461208, 0.10848687, -0.5281584, 0.3230771, 0.36552724, -0.09759378, -0.044952676, -0.20452893, -0.6495265, 0.1804022, 1.1849147, -0.093670435, -0.5049319, -0.053489596, -0.47580865, -0.08214721, -0.5876613, -0.5877116, 0.0024006125, 0.28452766, -0.10917682, -0.18993258, -0.03780591, 0.5658852, 0.03631237, 0.21996152, -0.5501642, -0.2482011, -0.00046302058, -0.26320884, -0.107806906, -0.23265748, -0.095713355, -0.3174934, -0.48254856, -0.027633647, 0.37853506, -0.0001753594, 0.027831916, -0.570711, 0.28833577, 0.104433246, -0.52025646},
    {0.19422832, 0.12008584, -0.14312972, -0.11806036, -0.12553929, -0.20063959, 0.0725182, -0.36802632, 0.1433039, 0.09505962, 0.0696043, 0.016328586, 0.048264094, 0.33695644, -0.3333291, 0.09359426, 0.31597805, -0.16296397, 0.16737746, -0.015398142, -0.1923388, 0.17081457, 0.015611362, -0.06710958, 0.5731445, -0.06959928, -0.049140062, 0.1814703, 0.07337127, 0.42121065, -0.2512099, 0.17887582, 0.20290478, 0.01954014, 0.29603365, -0.23340413, 0.16166992, 0.13864428, 0.09524613, 0.032175392, 0.018159665, 0.17478803, -0.08357436, -0.13227408, 0.05844241, 0.41485077, -0.18021755, -0.24387237, 0.011662365, -0.1260702, -0.34836242, -0.0681375, -0.26807734, -0.15752245, -0.15563606, -0.25599438, -0.00093686994, -0.17817204, 0.034956977, 0.04605393, 0.08953138, -0.032987967, -0.03473299, 0.044581614},
    {-0.1364772, 0.16859654, 0.33920306, 0.02765888, -0.074264005, -0.080017745, 0.060837395, -0.3212197, 0.09440369, 0.14181803, 0.14366542, -0.018769033, 0.219222, -0.48043412, 0.10590429, -0.0633596, 0.06991941, 0.19719715, -0.014578451, -0.013604772, 0.38769016, 0.105168425, -0.11050338, 0.067912996, -0.27304393, 0.103786424, -0.031153908, 0.05553707, -0.019492727, 0.20940307, -0.25406516, -0.03426437, 0.0023327558, 0.034305595, -0.30469397, -0.030445503, -0.2703548, -0.84604526, 0.052836604, -0.12893084, 0.26546013, 0.0984107, -0.07520462, 0.048794717, -0.24923666, 0.07917491, 0.28741032, -0.0029170313, -0.007995579, 0.18847752, -0.39204302, 0.1686105, 0.110607214, -0.18192564, 0.28572223, 0.23083901, 0.0072756736, -0.21952392, -0.066459015, 0.010915518, 0.23066896, -0.08832202, 0.0067699756, -0.0040707905},
    {-0.10237534, -0.3381732, 0.057964247, -0.015564733, -0.6433619, -0.12715867, -0.22665519, 0.37394366, 0.06573546, -0.09679786, -0.009252489, -0.026477918, 0.16991782, -0.39627537, -0.039421935, 0.22882754, -0.27177912, -0.19865292, -0.20633282, 0.12908913, -0.3184374, -0.32693928, -0.0033928733, -0.48481214, -0.33991137, -0.17033227, 0.09553798, -0.22832835, -0.07989763, 0.09052605, 0.1398924, -0.06024289, 0.15843992, -0.05196931, -0.6660477, -0.33782136, 0.05126418, -0.24787739, -0.059814554, 0.05947768, -0.14721093, 0.1674554, -0.16156699, 0.15350583, 0.92962396, 0.02904313, -0.07974576, -0.06988977, -0.0017282579, 0.14481424, 0.040133692, -0.013706201, -0.17815892, 0.13490729, 0.025738303, 0.19941561, -0.019933667, 0.08177085, 0.043177534, -0.040057454, 0.495983, 0.09401212, -0.026418623, 0.11205287},
    {0.052537132, 0.06734353, 0.13345192, -0.03558473, 0.0007018091, -0.0025240274, 0.055465195, 0.0018663919, 0.17503136, 0.028760048, 0.07179302, -0.023828741, 0.116006695, -0.16760755, 0.15628049, -0.07318353, -0.11385074, -0.09692063, 0.35329342, 0.3012707, 0.08522617, 0.1308871, 0.02139454, 0.2931324, 0.22814035, 0.19458853, -0.073489666, 0.079972796, 0.17788662, -0.9170719, -0.11187754, -0.44298828, 0.092352875, -0.068975374, 0.6531968, -0.18987608, 0.14037807, -0.88077235, -0.36391053, 0.073999144, 0.17413667, 0.20146696, 0.13437852, 0.14311829, -0.13102552, 0.13788763, -0.20793301, -0.09014404, -0.004843717, 0.04351058, 0.5467421, 0.19177742, 0.13373153, -0.46772414, 0.1961099, 0.15179956, 0.03237217, 0.10170518, 0.010458711, -0.0829453, -0.25090578, 0.22935267, 0.073639795, -0.010070315},
};

static const float agent_ac_critic_v_net_fcs_0_bias[64] = {1.1465865, -4.387876, 1.7927221, -1.3446026, -0.42109892, -0.6575893, 1.9910266, 2.931489, -2.7358983, 0.14264277, 1.7740152, 0.9280476, -1.5810015, -2.4677792, 1.469832, 0.40398443, 1.121696, 0.05666863, 1.1406021, -2.6356554, 1.5341269, 1.3844672, -2.1845946, 1.0814496, 2.8236873, 1.9505193, 0.3780123, -1.5117933, -3.2013307, 2.948759, 2.5871801, -0.34922537, 0.7885752, 2.4847891, 3.4798763, 2.901223, -2.7874563, 1.3456593, 3.4979675, -1.9540416, -2.0173151, 2.6945863, -0.11446167, 1.6714174, 2.5455408, 0.9005864, 1.847154, 1.5903229, -4.715422, -0.21151188, 0.45192447, -2.7765021, 2.2593222, -3.5161812, 1.3242725, 0.35034543, 2.518507, 2.005537, 0.7694303, 1.3354219, 1.5824652, 1.282144, -0.24428788, 0.33453235};

static const float agent_ac_critic_v_net_fcs_1_weight[64][64] = {
    {0.19767983, 3.400091, -0.29558238, -0.6259871, 0.36387774, 0.068380065, -0.6068623, 0.667394, -1.3918971, 0.4815854, -1.6955596, 2.679471, 0.15402311, 1.1607448, -0.06744568, 0.9394219, -1.3624864, 0.7675538, 1.4793131, -1.1578602, 0.5001484, -0.94154483, 1.3532231, 0.7263078, 2.284885, -1.6645347, 0.94497097, 0.010486675, 0.7577466, 0.058389336, 0.04497881, -0.7843741, -1.9047204, 1.4327635, 0.88458085, -0.88733864, 1.1791624, -3.3050375, -1.0390989, 0.41147217, 1.5866176, -1.0997939, 1.3749465, 0.28233662, 0.4506251, -0.4592008, -0.52333367, -1.8846245, 2.2753615, -0.9731409, -0.08602778, -1.3662608, 1.7281601, 2.948913, 2.7532027, -2.876777, -0.1709812, -0.878678, 3.1416488, 1.6276958, -2.444917, -0.82393223, -1.6262729, -0.91305906},
    {-1.714288, -1.6852194, -2.1616259, 0.20187248, 1.5037758, 0.7356006, 1.3171011, 1.6347193, -2.3314562, -1.6671336, -0.1913242, -0.8416978, 2.124955, 0.91607434, -1.1898818, 3.441425, -1.7811342, -1.5117071, -1.0883962, -1.6601957, 1.6499611, 1.8606557, -1.4683605, 1.2971356, -1.5972569, 0.90019745, -0.6244413, -1.6949412, -1.9479339, -0.31254935, -1.9014583, 0.40647593, 2.2940412, -0.6556016, -0.8104449, -1.3342943, 1.1978937, 0.4333369, 1.1482277, 2.1730456, -1.1856141, 1.3349845, -2.2090392, 0.8154231, -1.8771456, -0.416054, 1.450162, 2.2853184, -2.6230621, -1.5962828, 1.5448202, -0.9333809, -0.1934356, -1.9697132, -1.4389207, 2.2144504, 1.2119546, 0.37506077, -0.110656336, -0.85269797, 1.3020871, 1.0554297, 1.03238, 1.6718307},
    {0.5401393, -0.5708176, 3.5542915, 1.3788061, -3.3239756, 2.4038877, -2.078057, -0.581475, -0.72132736, 1.2464361, -0.883905, 1.19435, -2.1289108, -0.8439208, -1.8808551, 0.20883565, 2.4300609, -1.4558553, -2.2503083, -1.6010046, -3.1668978, 1.4476368, 1.7887193, 0.40069884, -2.5124953, 1.2058139, -0.8998741, 0.93834335, 1.2903714, -0.04727244, -0.27296486, -2.6915114, -1.284357, 1.8936396, -0.6522541, -1.8278337, 1.5959147, 0.71332955, -1.3415192, 0.13625763, 1.5600002, 1.9815465, 1.7623236, -0.7462766, -1.3944733, 2.8882232, 0.56687266, -0.48182124, 1.3039231, -0.17160499, -1.12199, -0.57427025, 0.32883582, 0.5812245, -0.08414221, 0.30659968, -0.87360036, -0.35743988, -2.58705, 0.6834059, -1.0550953, -0.8252247, -0.83017117, -0.035543837},
    {1.5917366, -0.4375671, -1.8777069, -0.30850387, 2.5129378, -0.26074514, -1.2783378, 3.9209778, 1.3728989, -1.4644196, -0.9105554, 1.9130082, -0.9910458, 0.7848179, 0.38082114, -0.40540284, -0.8834248, -0.3773092, 0.9835561, -2.11565, 1.1745074, 2.33348, 0.54992557, -1.188947, 0.5795483, -1.3027257, -0.09452119, 1.1537213, -0.4224304, -0.19339642, -1.7867941, 1.3131366, -1.5022444, -2.1047356, -2.2316422, -0.66022366, 1.0940483, -0.105266556, 2.298733, -0.3294187, 0.85100836, 0.45260242, 0.7528744, -1.412429, -0.056619752, -3.6946645, 0.4762105, -1.220207, 1.6450673, -0.25034693, 0.9125264, 2.7898517, 0.6578459, 0.21514784, -0.69805205, -2.2303379, -1.8940138, 0.8707575, 0.1295144, -0.8707857, 1.6968664, 3.0527477, 1.8011433, 0.79847455},
    {-0.41948393, 0.87004733, 1.8018672, 1.659775, -0.032431353, -1.9259723, 1.3292758, 0.90233916, -0.11795413, 0.24190623, -0.8676113, -0.20987996, -0.2766896, 0.44401422, -0.8430135, -0.25214082, 0.99651355, -1.5380969, 0.58609354, -0.9716628, 0.04623212, 1.3148005, -0.89726716, 1.0010842, -0.4111193, -1.0122389, -0.39688674, 1.2207273, -0.51768965, 0.2192092, -1.1901861, 1.1682833, -0.43389857, 0.231842, -1.4730538, -1.502898, 1.2778033, -0.015772698, -0.8995201, 0.010860206, 0.32212165, 0.9703699, 0.64279723, -0.493314, -0.25438944, -0.48452163, -0.7405527, 0.9489831, -2.4141133, 1.0049396, 1.1506506, 0.87523645, 0.60226387, -0.6883007, 0.08073296, -1.0173868, 1.9483303, -0.528837, -0.40806046, 1.3005401, -2.470944, 0.39623627, 1.1528715, 0.28603187},
    {-0.8127539, 0.13415316, 1.535753, 0.053233605, 1.5614389, -0.5837161, -1.7258456, 0.45602125, 1.1405766, 0.85352254, 0.60793334, 1.2498176, 0.11982125, -0.11859458, 1.5749712, -0.48713088, 0.2744808, -1.7268729, -0.59760183, 0.83665264, 0.68681145, 0.11667671, -0.31186748, 0.3745039, -1.3641804, 2.3250473, 0.67691994, -1.0256732, -0.28715298, 0.6971833, 0.7478473, 0.16708317, -0.5155121, 1.1118355, 0.8139883, -1.503303, -0.61018765, 0.024762582, -0.08294181, -0.11002896, 0.89444214, 0.5300692, -0.09725346, -0.99199224, 0.9451679, -1.0197831, 1.8593884, 0.09289394, 0.42917585, 1.0228018, 1.3932749, 0.14574023, 1.6085176, -0.19449998, -1.0655296, -0.042973027, -1.52155, -0.6508348, -0.52773964, 1.034232, -0.46065202, 1.8732029, 1.0402516, -0.6987493},
    {-1.199888, 0.20611504, 0.42856213, -0.17203258, -1.6951865, 0.45142508, -0.12433481, -0.15775312, 0.13603827, -0.090933725, 3.0664673, -2.1892421, 0.31860682, 2.04914, -0.8090625, -1.0482881, 0.09664353, -0.3693569, -0.5692521, 0.19606797, 0.26497117, -1.7750435, -1.349317, 0.94927514, 1.4819987, 0.36879277, 0.5026146, 0.07947924, -0.050961137, 0.4227124, -1.9489088, 1.3750113, 0.5601862, 0.9389323, -0.2734919, 0.7640417, 0.086326234, -0.6257208, 0.117509134, -0.05983109, -0.72357756, 2.0417283, -0.22707301, 0.8396113, -2.1134167, -2.2303853, 2.4775097, 1.4738418, 0.2313579, 1.2062547, 1.8437357, -0.26966915, -2.264033, 2.09644, -1.1355087, 0.92212296, -0.06738439, 0.6219229, 0.4257253, 0.63269013, 0.8497163, 2.5094666, -0.99221087, -0.3594936},
    {0.38213003, -1.6830714, 1.3405807, -0.032176986, -1.0830233, -0.5202986, -0.07115733, 0.4492232, -0.017810585, -0.14076994, 0.20061584, 1.8805908, 0.6773571, -0.06427586, -0.06093552, 0.03528065, 0.00054327905, 1.0335207, 2.4924226, 0.9086051, 0.97292966, 0.3679584, -1.6185188, -0.66297466, -0.83365744, -1.5020654, -0.20341809, 0.42898998, -0.5189108, 0.6334213, 1.7063742, -1.8850688, 0.32366672, 0.37497914, 1.6035957, 1.058617, 1.614952, -0.9529056, 0.9729785, 0.020581815, 0.86381066, -0.19610733, 1.4820577, 0.4525956, 1.0044011, -0.8571848, -1.2776973, -1.5777998, -0.5774615, 0.71882194, -0.4519156, 0.58890706, -1.0363989, -1.6255897, 0.43353212, -2.0919402, -1.3120749, -0.45939285, -0.23611835, 2.102728, -1.3257087, -0.81591976, -0.8504082, -1.7182004},
    {-1.3490978, -0.30532235, -1.2232833, 0.2830043, -0.06723141, -0.5392577, -2.0303028, 0.67160964, 0.22170846, -0.77001566, -2.0392325, 2.3466523, -1.8938724, -1.1593394, 0.31923532, 1.235508, 0.8194929, -0.7496119, 0.511599, -0.9471337, 1.4578413, 1.7127028, 0.6249641, 0.2715285, -0.24702589, -1.5689929, -0.1062686, -0.80773395, -1.6229218, -0.1950068, 0.92381054, -1.6403631, -0.35673746, 0.22726902, 0.08890689, -0.23782986, -1.0518988, -0.50506276, 0.1270144, -0.38397282, -0.26935613, -1.814405, -0.94473946, 0.19468412, -2.4440703, 1.7118405, -0.8406768, 0.044540633, -0.7991904, -1.1548266, -0.46706086, 0.36984903, 0.60335815, -1.2360379, -0.6356081, 0.05242784, -0.43468136, -0.7208132, -3.511409, 0.5231409, -1.6857982, -1.0795381, 0.2866268, 0.20030242},
    {-0.847774, -0.11229458, 0.7788917, -0.99958277, 0.15059121, 1.2613078, 2.536225, 2.2468042, 0.64548683, 1.4070945, 2.3144622, -0.36001956, -1.1797782, 1.865002, -0.51774615, -0.9929867, 0.23555033, -0.66569674, 0.9509792, 1.558432, 1.9791186, -0.3064783, -1.225482, 0.64304197, 1.163069, -0.8225544, -0.6981765, -1.1830667, 0.6138316, -0.47481006, -1.2946049, 0.6267832, -0.3458094, -1.6426771, 1.2093096, 0.71479577, 0.06378431, 1.8051431, -0.014198696, -0.2251478, 0.45623508, 2.0342307, -0.60269576, 1.0722747, 0.02583049, -2.4872198, 1.3838661, 1.8789285, -1.3988906, 0.98050773, 0.9588194, -0.0066699027, -3.5219872, -1.2037939, 0.100974716, -0.690296, -0.0974182, 0.58547574, -0.10968204, -1.2356408, 0.31469387, 0.42887694, -0.68815345, -0.9333817},
    {-0.19553807, -2.3626938, -1.1540952, 0.85546666, 0.84605104, 0.024826312, -0.6965819, 2.6786664, -0.36221647, -0.95891035, -1.0433428, -1.6096524, 0.9605958, 2.943299, 3.2358823, -1.2436813, 0.6630552, 0.6130769, 0.34407574, 0.07922759, 0.11865886, 1.0824609, 1.9365431, 0.5642237, -0.07491412, -1.5625883, -0.2086976, 0.74645644, 0.7704344, -0.36004367, 0.86460924, -2.213566, -0.2945808, -0.267203, 0.030472832, 0.04780291, 0.6671174, 0.05076479, -0.7510171, 0.2817891, 2.0255933, 1.6039429, -0.4012354, -2.1845856, 1.4104081, -1.6438495, -1.2729317, -0.032395557, 0.5455602, 0.0311073, -1.1859254, -1.600024, 1.0874352, 1.4612007, 1.6442395, -0.73944044, 0.75486606, -2.364564, -3.0602245, -0.63833284, -1.2503705, 1.037383, 0.9336842, -0.21874973},
    {-1.586944, 1.8390666, 0.6609344, -0.116272606, -1.7371119, -0.6995674, -2.004743, -0.10116011, 0.17972952, 1.4303198, 0.95215225, 0.1817654, 0.20627132, 0.22071233, -0.16619617, 0.32988778, 1.087457, -0.78423154, -0.5597669, 0.6694679, -0.38434714, -1.522825, -1.1508583, -0.6942915, 3.9933507, -0.65362, 1.6465962, -0.2672862, 1.377335, -0.5103019, -0.79913384, 0.95722127, -0.752699, -0.19063824, -0.51001215, -0.4598889, 1.1031944, -2.5975947, -1.3359802, 0.29654002, 0.9397459, 1.5602182, 1.3127584, -3.798396, 0.08131677, -2.102446, -1.567611, -0.6080267, 1.8190935, -0.11425102, 0.8813151, 0.14508413, 1.456109, 3.9932234, 0.42423403, -1.2541881, -0.33442506, -2.3923373, 0.6250178, 0.0939612, -0.87108827, 1.2361655, -1.3197649, -0.0099106},
    {-1.1734599, 0.01230458, 0.71694934, -0.08224352, -0.16877201, -0.83642584, 0.95308924, 1.8482258, 1.5567044, -2.3997297, 1.4261936, -0.9271746, 1.4327265, 2.6626368, -1.2015668, -1.1152208, -0.7518248, -0.090465374, 0.7084211, -2.669757, -1.68647, -0.104228355, -1.473039, 1.0762045, -1.7160727, 0.8968699, -1.5986876, -1.4454008, -0.2312544, -0.6641281, -1.7877209, 1.407699, 0.9321886, -0.00021005298, 0.3890479, -0.79977167, -0.112360924, 0.92028034, -0.17745325, -0.36310792, -1.249189, 1.086181, 0.04892085, -0.12709376, -0.7609554, -1.7673856, 0.7317854, 0.8259134, -1.8430009, 0.3840386, 1.4417666, -0.496647, -2.186138, 0.29431823, -1.2124466, 1.1762733, -1.0415679, 1.065213, -2.0884943, -0.26380035, -0.37322024, 0.6751202, -0.09690993, -0.7800521},
    {-1.1108631, 1.0702509, -0.14729676, 1.3160816, -0.06300619, 1.3329867, 0.32199687, 1.8867409, 1.1113435, 0.93268883, -0.7374749, 0.9795189, 1.1919827, 1.4418348, -0.16036385, -0.5547483, 0.22142349, -1.709735, -3.6557033, -0.13658486, 0.7528026, -0.21748453, -0.389118, -0.77789986, 0.3537846, 0.14685981, -0.12260598, -0.8822331, 0.74601007, -0.411866, -2.1260743, -0.073505215, 1.922597, -2.0555873, -1.346717, -0.5825982, 0.07444367, 0.7016005, -0.76381075, 0.14008082, 0.7732526, 1.6228571, -0.46389452, 0.65778816, -0.6600586, -1.2827251, -0.5298196, 0.7117744, -0.10824599, 1.322607, 1.3697793, 1.0297506, 0.58423305, 0.42650074, -1.4781346, 0.42167062, 0.24497154, -0.27379185, -0.30931166, 0.14625445, -1.3821126, 1.000567, -0.6709248, 0.19523783},
    {0.7843393, 1.1298262, 1.2689031, 1.0218208, -1.4329646, -0.54947495, -1.1677841, 0.7995945, 0.04731678, -0.71574384, 0.628577, 1.0815761, -0.2737671, 0.31708446, 0.5735925, 0.44553098, -0.31550577, 1.0447704, -0.4347667, -1.5043972, 0.06803128, -0.66892457, 0.94128203, -1.1768492, -0.21355629, -0.9221498, -0.532918, -0.6608491, -0.7834331, 0.2833599, 0.063069865, 0.4345043, 0.31136534, 0.5577021, 1.2147487, 1.0014116, 0.03993646, -2.290782, 0.23410983, -0.019931642, 1.0317252, -0.46834078, 1.4457575, -0.79025453, 0.33535427, 0.89145696, -0.78244746, -1.2733333, -0.13706009, -1.116921, -2.5010045, 0.7841278, 2.0813427, 0.022167744, 0.6713145, -0.66692364, -0.9133455, 1.6095891, 0.33057365, 0.40874365, -1.0976943, 0.68429965, -0.37229213, 0.06520682},
    {2.2712584, -0.30462766, 1.1023676, 2.2189496, 0.008812192, -0.93695694, 0.76706976, -0.34854084, 0.010389747, -0.8745391, -0.77509993, 1.4362247, -0.14882857, -0.26627877, 0.19706108, 0.7673618, -2.1957457, 0.15130903, 1.015931, 2.25461, -0.9713328, -0.26337573, 2.5521264, -1.3439026, -0.6181003, -1.0586687, -0.51082504, 1.9461926, 0.20526952, 0.14039588, 0.435705, -1.7152836, -0.35722893, -0.836701, -0.65792006, -0.7756331, 1.9026589, 0.13565664, -1.466053, 0.5674176, 0.3805304, -2.5118792, -0.051491853, 1.2039762, 0.93733, -0.51462585, 0.74175465, -0.5661366, 0.713681, -0.18373798, -0.6460616, 2.1066732, -0.014863688, -2.4596527, 1.4973401, -0.8845036, -2.346899, -0.53840405, -0.57476926, 1.579472, -0.8286317, -1.4198799, -0.3460534, -0.22206062},
    {0.015411024, 1.4282204, 1.1443695, 0.70393723, 1.2819008, 0.27619395, -2.3326302, 0.030143516, -0.5911179, -0.20590584, -1.2016478, 1.2317004, -1.7916543, 0.50747657, -1.4548485, -0.07211633, 0.33736363, -1.6844996, 2.4925864, -0.5035094, -0.0328844, -1.3812209, 1.5038761, -0.050535724, 1.1229793, -1.0766475, 0.244896, 0.758292, -0.5429401, 0.4783272, 2.327791, -0.03196964, -1.9054202, 1.9985099, 1.0011797, -1.5489018, -1.17833, -0.7609583, -0.37103924, 0.07975733, 0.19079044, -0.71154726, -0.16552697, 0.14511791, 0.12422074, -0.05647423, -1.699467, -2.5015976, 1.3134642, -0.846094, 1.01533, -0.63880795, -0.43808562, -0.74896234, -0.43141735, -0.9702128, 0.020358922, 0.04235116, -0.72819084, 0.49344194, -0.53273636, 1.8640858, 0.1848188, -0.42315426},
    {-1.1423608, 0.7422387, -2.6157413, 0.7401739, -2.4887698, -0.10165022, 0.06509238, 0.9971271, 0.19407469, -2.090547, 1.1885557, 0.9560904, 0.45160148, 0.29979032, -0.5759725, -0.28748164, -0.05779734, -0.99095, 1.3164963, -0.21486847, 1.4323685, -0.2302647, -0.85476136, 0.3820493, 3.2316756, 1.0214388, 0.58639693, 0.4095158, -0.573662, -0.18054669, -0.72087574, -1.6937094, -1.6376892, -1.3365334, -0.6932408, -0.6958805, 2.01269, -1.2156167, 0.9530249, 0.25940284, -0.7962729, -1.0467808, 1.2456665, 2.4249976, -1.8103927, 0.24136922, 1.542398, 0.070746645, 0.3434468, -0.35400152, 0.4600541, -1.0790758, -1.2820486, -0.29919907, -0.71879125, -1.6461887, 0.35162315, -1.2154485, -0.05627665, -0.0352747, 2.4071977, -0.6766918, -0.14137411, 0.26439944},
