static const float agent_ac_actor_logstd[4] = {0.57335615, 0.7092944, 0.6430739, 0.8461463};

static const float agent_ac_actor_pi_net_fcs_0_weight[17][64] = {
    {1.5480131, 0.7727579, -1.7058132, 0.5509077, 0.543938, -0.95487887, -1.5334169, -0.15550819, -0.089247726, -0.14011675, -1.2410614, 0.8019881, 2.034663, 1.0909975, -0.02933923, -0.40265182, -0.6682978, 0.19858055, 2.020969, -0.0055300137, 0.14370307, 0.21450496, 0.3640065, -1.2174015, -1.9795599, -0.8449922, -0.45810813, -0.10516076, -0.076470405, -1.7241167, 0.7541966, 1.1618475, 1.2155284, -0.46074468, 0.0026635872, -0.8930117, -0.33660442, 1.0149695, 1.1794637, -1.9004301, 1.0728556, -0.25153092, 2.576805, 0.22471322, 0.4423213, -1.2179608, -0.3860528, 0.4819859, -0.84218943, -0.90739757, 0.44028676, 0.86742336, 2.070076, 0.53062063, -1.9394553, -2.4465814, 0.22257853, -0.01829924, -1.2062126, 0.0753198, -1.5111881, -1.9569291, 2.0564737, -0.05068854},
    {1.3128586, 0.5454102, 2.3905697, -2.571577, -2.332384, 1.780327, -0.56474054, -0.5897184, 0.65038806, -0.045714196, -0.2522571, -0.6013959, -1.1152613, -0.674347, -0.24781045, -0.9095985, 1.0044746, -1.214287, 1.0599973, -0.78208107, -1.9086386, 0.7657518, 0.3862811, -0.52376145, 1.481032, 0.057793494, 0.773823, -1.6871167, -0.6283695, -1.6878234, 0.4570375, 1.4911518, -0.00021966711, 0.6645784, -0.48551378, 1.0247651, 0.1963023, -0.43513367, 1.5983857, -0.6398816, -1.2443428, -1.9839698, 0.73889685, 1.4972159, 0.80460984, -0.30055994, 0.33265805, 1.3814124, -0.71595937, -0.4988867, -0.04275568, -2.3785024, -1.844961, -0.5962, 0.4334455, -1.0949728, 0.5808254, -1.1669314, 1.244503, -0.27169487, -0.24968967, -1.8467195, 0.6920455, 0.7104948},
    {0.3397811, 0.17727295, 0.1827741, 0.5970547, 0.63444066, -0.60467017, 0.6572703, -0.45219314, -0.28570712, -0.35269994, 0.6990376, 0.3305872, -0.797781, -1.0014402, 0.20177315, 0.65722656, 0.66490316, -0.680319, -0.70495963, -0.34884474, 0.32008055, 1.3089854, 0.2519688, 0.40455285, -0.49226025, -0.9375911, 0.6711834, 0.4790561, -0.57523, -0.27214774, 0.76800925, -0.35752696, 0.9222622, -0.5534224, 0.6573247, -0.6458542, 0.47649547, -0.34866437, 0.31040108, 0.54860085, -1.0125575, 0.58276755, -0.45948008, 0.43537956, 0.14408001, -1.2690061, -0.7465761, 0.70713335, -0.95933485, 0.41210574, -0.9208775, -0.54676926, 0.23560537, -0.25876418, -0.18667825, 0.857952, 0.73527384, -0.23216529, 0.22900312, -0.5454688, -0.6230684, -0.09805934, -0.19182196, -0.047793325},
    {1.5396084, 0.58261067, -1.7962853, 1.4581308, 1.9144781, -0.47442153, -0.57501614, -1.2864637, 0.8939892, -0.70123315, -0.9390968, -0.37544617, 0.6628293, -0.41514695, -1.3523142, 1.7793742, 0.05445071, -0.4314985, 1.9680737, -1.0094787, 0.6382746, -0.70934194, 0.60043126, -0.9064805, -1.552205, -0.087196894, -2.2042506, 2.1637115, 2.2478676, -1.6017874, -0.03304575, 0.7924731, -0.67292464, -0.8809977, -1.4885021, -0.2979649, -0.13870466, 1.3078343, -0.22517672, 0.08472103, 0.83582026, 2.0374765, 1.067364, -0.3936194, -1.3801867, -1.6448381, -1.6465755, -1.3380234, 0.049689867, -2.2255971, 0.07300225, 0.11417296, 1.8257285, 1.1918515, -2.0112076, -0.713509, -0.0028837267, -0.5250354, -0.5474626, -1.521281, -1.9613385, -1.6544726, 0.6952812, 0.2693982},
    {0.61918783, 0.5017228, 0.9798078, -1.0410048, -0.31080216, 1.0797222, -1.6430643, 0.19762002, 0.88061285, -0.8036155, -1.0885504, 1.0155115, 0.075665735, 0.4325002, -0.18694112, 0.22660866, -0.687512, 0.21340413, 0.6276317, -1.2097166, -2.0227203, 0.33791295, 1.3024071, -1.226557, 1.8209716, -1.5178969, -0.11071133, -0.34706905, -0.1398042, 0.0396502, -0.979027, 0.1558939, 2.0734155, 0.0059274063, 0.41190445, -2.0485282, -0.7141557, 1.9210609, 1.4780117, -1.370199, 0.045829132, -1.256774, 0.28944173, 1.4641808, 0.23699294, 0.05059426, -0.66374195, 1.8865513, -1.0287826, -0.725851, -1.7937605, 0.87703216, -1.0730273, 1.4119072, 0.30330098, -1.9594961, -1.7251161, -1.8821535, 1.1823418, 0.11486213, -0.075196914, -1.4594058, 0.28868148, 1.3976618},
    {0.57209057, 0.1728829, 0.0036267557, 0.028155696, -0.41433945, 0.66568446, 0.04632707, -0.28302905, -1.6187953, 0.7278416, 0.065260075, 1.9736491, 0.23715173, -0.014696494, -1.3527976, 1.6642455, 0.8559863, 1.123459, 0.5781471, -0.21074411, -0.86591846, -0.9772296, -1.7284421, -0.24271458, 0.17284755, -0.15813118, 0.7102722, 0.5693228, -0.9101597, 0.14344986, -0.73931813, 0.052112415, -0.056071077, -0.039861333, 1.5107757, -1.2538979, 0.4941991, 0.16001944, -0.336786, 0.25781688, 0.47024202, 0.14693666, 0.51195097, -0.51825184, 0.4127203, 0.95687, 0.12039948, 0.060463402, 1.4242322, 0.9789018, -0.32885677, 0.1544523, 0.2217723, -1.7458245, -0.83657986, -0.840207, 1.1868743, 0.11948781, 0.747383, -1.4834125, -0.30922708, -0.024005327, -0.45914197, -0.45452988},
    {-0.26260352, 1.2252109, 0.36896005, -0.3049271, -0.049665287, -0.3142999, -0.81499565, -0.911515, 0.3130055, -0.5672271, -0.93375, 0.15879174, 0.6788457, 0.6918882, -0.2901457, -0.19718525, -0.37695175, -0.45406175, -0.048975136, -0.04551651, 1.1899887, -0.024187505, 0.89481187, -0.08303148, -0.28787664, 0.23728819, -0.33953935, -0.48743814, 0.2386604, -1.1264806, 0.19889164, 0.9381777, -0.1441191, -2.0256255, 0.24424389, 0.41183499, -0.44343817, -0.15116198, 1.8281057, -0.8750156, -0.15756403, -0.6599195, -1.1632332, -0.29054672, -0.07661564, -0.06366871, -0.32100537, -0.70803374, -0.77182287, -0.7666885, 0.7667862, -0.044087525, 0.07103031, 0.5955249, 0.7792534, 0.0037405975, 0.7848005, -0.31434798, -0.67887646, -0.27935818, 0.3253877, 0.06640089, -1.8198777, 0.21481813},
    {0.5520935, 0.24079473, -0.5573795, 0.562873, 0.13776273, -0.4721128, -0.87381953, 0.014706807, -0.057879712, 0.7960984, 0.10753747, 0.08392125, 0.85761577, 0.15973297, -0.10650122, -0.037000906, -0.7404638, 0.080835514, 1.112046, 0.49031875, -0.050752472, -0.22934079, -0.082750626, -0.2123814, -0.8839614, -0.5990842, -0.19791906, -0.033978555, -0.002085733, 0.014679338, -0.1539739, 0.6251493, 0.7094874, -0.6031259, -0.13069065, -0.6736214, 0.50800085, 0.34655797, -0.61373645, -0.60156274, 0.5903408, -0.22966436, 0.5585999, 0.41149127, 0.32390848, -0.39737037, 0.21854028, 0.008632478, -0.25500065, -0.2753223, 0.06866977, 0.47920156, 0.3811605, 0.5119223, -0.92918324, -0.844548, -0.07242765, -0.26291895, -0.5303797, 0.5412096, -1.4086844, -0.7158563, 0.587114, 0.37893716},
    {0.8981899, -0.19403498, 0.6313406, -0.9960279, -1.139491, 0.8073862, -0.076272875, -0.05079598, -0.382815, 0.27466255, -0.04217787, -0.3649511, -0.46337205, 0.030345278, 0.6246206, -0.9100556, 0.41967982, -0.18126374, 0.41246253, 0.4395931, -0.6558643, 0.3924443, 0.1426521, -0.42043018, 0.027983475, -0.08320915, 0.16315378, -1.1287742, -0.6587724, -0.69550115, 0.17308177, 0.63750064, 0.12786642, 0.59207875, -0.20535311, 0.034229755, 0.08418854, 0.11474703, 0.46574435, -0.61760134, -0.76704884, -0.5031292, 0.46122354, 0.17485283, 1.0313429, -0.24674559, 0.39105317, 1.0396757, -0.52006906, 0.0372143, 0.022610031, -0.101869114, -0.5618992, -0.37963784, 0.073371746, -0.8052576, 0.08103804, 0.19944113, 0.3161065, 0.40988648, 0.45350286, -0.74327505, 0.8417062, 0.032453768},
    {0.16751686, -0.6703192, 0.2638056, 0.5209815, 0.47355947, -0.8096866, 0.45612627, 0.07410713, 0.060965635, -0.049587507, -0.19711551, -0.06541795, -0.53359526, -0.7041077, 0.42500868, 0.22247893, -0.010582279, -0.26520044, -0.35057357, -0.81594247, 0.48682898, 1.1581395, -0.32510227, 0.13509099, -0.22096732, -0.44865158, 0.046268776, 0.8069651, -0.82477844, 0.3180555, 0.6480706, -1.4373479, 0.6148347, -0.41505474, -0.27972317, -0.010656699, 0.07040545, -0.57767385, -0.2635725, 0.6399733, -0.8970712, -0.078954674, 0.37239406, 0.4739925, 0.55559415, -0.7121482, -0.2930088, 1.154627, 0.44874635, -0.9340333, 0.19892335, 0.05222156, -0.07335385, -0.25079623, 0.048759963, 0.15760624, -0.07348637, 0.52796376, 0.33554187, -0.5381889, -0.64737415, 0.18495432, 0.043498132, 0.3869318},
    {0.19844042, -0.07813979, 0.055144686, 0.041808855, 0.14211042, -0.0033152322, -0.040020008, -0.23674648, -0.14704654, -0.086684294, 0.049415484, -0.06552064, 0.096120305, 0.07088406, 0.12548155, 0.2060653, 0.06525634, 0.15851757, -0.1070277, -0.45773262, 0.08635412, 0.0021470627, -0.07867538, -0.008069489, -0.01714602, 0.09620708, -0.29273424, 0.04570276, 0.20555821, 0.04120533, -0.07705708, -0.030625608, -0.013910554, -0.21944232, 0.12959728, -0.11410347, 0.06624108, 0.06713659, -0.118707344, -0.10873385, 0.08127861, 0.3289503, -0.12682198, -0.090510726, 0.25770846, -0.12519296, 0.09704704, 0.010804291, 0.08304732, -0.0029477954, 0.071492776, 0.091975965, 0.017732002, 0.13070494, -0.01945642, 0.11529615, -0.2667231, 0.21719432, -0.17657231, 0.008815783, -0.03487256, 0.044037815, -0.14087786, 0.3633526},
    {0.23190266, -0.3253569, -0.09040423, 0.10353717, -0.09764593, 0.15321249, -0.09947358, 0.5737906, -0.01742187, 0.17109992, -0.040508483, 0.063184686, 0.13085307, -0.03931316, 0.18736966, -0.07182953, -0.22597978, 0.109022774, 0.100821845, 0.020278059, 0.10998798, -0.07564291, 0.28451195, -0.044759344, -0.031747844, 0.013741239, 0.16438626, 0.057539366, -0.021085862, -0.05939703, -0.1585647, -0.10300596, 0.118205965, -0.13192457, 0.11183648, -0.113444775, -0.14308071, -0.20652683, -0.0700824, -0.13989855, -0.00097229006, -0.06741602, 0.011093043, -0.023100052, -0.10400009, -0.06057769, -0.08040472, 0.07063913, -0.046883028, -0.039142396, -0.24461037, -0.17042692, 0.035125803, 0.020992238, -0.04541972, 0.020090781, 0.04184325, -0.009967147, 0.10067636, 0.17264229, 0.119050674, -0.054598354, 0.0232479, -0.049975023},
    {0.049671084, -0.36393663, 0.04068089, -0.15209794, -0.10484363, -0.21185254, -0.06306537, 0.15661937, 0.109629184, -0.035610262, 0.070194714, -0.017064622, 0.024531418, 0.15472583, -0.26465106, 0.09938082, -0.13845365, -0.009259174, -0.0042523355, -0.17424475, 0.02337209, -0.18055907, 0.057453465, 0.09860391, 0.090736225, -0.019511484, 0.14604412, 0.02624327, -0.015376444, -0.012994371, -0.10665693, 0.048851766, -0.13174266, -0.07111931, 0.004216183, 0.12963648, -0.0245483, -0.2650185, -0.038848, 0.17748106, 0.27673554, -0.025549045, 0.02574411, 0.10368889, -0.119183145, 0.057780236, 0.122436136, 0.25432453, -0.01690457, 0.016713249, -0.06924983, -0.18919842, 0.21629818, -0.010045281, 0.13375531, 0.16926669, -0.08291539, -0.0274908, 0.06808568, 0.15904006, -0.30981833, -0.14286067, -0.047681216, -0.5576242},
    {-0.3144785, 0.3116289, -0.11029893, -0.08407708, -0.30011588, 0.09779515, 0.079185, -0.006494679, -0.4886432, -0.5723609, 0.29699594, -0.05969734, -0.041603874, 0.12432979, -0.120569855, -0.044624474, 0.10553287, 0.1346634, -0.1840361, 0.19642183, 0.0876921, 0.18106255, 0.042089578, -0.0509447, 0.03004612, 0.27272782, 0.039541543, 0.3303454, 0.026474178, -0.06537525, 0.3381636, -0.2017095, -0.11115618, 0.28226736, 0.19726336, 0.4538915, 0.07501119, 0.54896873, 0.024422856, -0.071600325, 0.10359512, -0.37257385, -0.34747285, -0.08406361, -0.5240401, 0.071646355, -0.37565124, -0.1012196, -0.16987951, -0.14103225, -0.25132486, -0.41792616, 0.058797173, 0.20203024, -0.20647301, -0.21025643, 0.0057677384, 0.24039051, 0.07535408, 0.22139643, -0.27248368, 0.12931633, 0.16028954, 0.2705686},
    {0.08831958, -0.22514446, 0.22015437, 0.019858925, 0.08134, -0.08174526, -0.12241286, 0.45978734, -0.095059596, 0.71838313, 0.3874685, -0.07090211, 0.093340054, -0.035673216, -0.10900586, -0.19700435, -0.38961118, 0.06843081, -0.12349283, 0.24256428, -0.09575737, 0.0036201943, 0.44138607, -0.55990237, -0.296602, 0.069485515, -0.19484963, -0.13716231, -0.046401683, 0.08758064, -0.025481654, 0.076402, 0.023451274, -0.013072158, -0.03460158, -0.10996423, -0.04841902, 0.3593376, 0.061080653, 0.1482346, -0.030515702, 0.18973404, -0.28933063, -0.2580339, -0.19936371, 0.14514093, -0.089151494, -0.028658157, 0.008081767, 0.089342974, -0.2904027, 0.07151897, -0.0911862, -0.21380214, -0.1470923, 0.009007196, 0.32164225, 0.9725, 0.55109376, -0.3013576, -0.107894376, 0.009450261, -0.15218377, 0.61584806},
    {0.19712648, 0.10593288, 0.09175004, -0.013661886, 0.009261424, 0.090223685, -0.18480836, -0.2833465, 0.2350631, 0.11751319, 0.20984451, -0.004472285, 0.063606285, -0.01293903, -0.074785024, 0.16870931, 0.17552368, 0.045554943, 0.07006685, 0.2667533, -0.15649273, 0.035896104, -0.20229453, -0.3508689, 0.02007561, 0.20648776, -0.16518915, -0.0053166314, 0.24250224, -0.07095308, 0.22169854, -0.16457042, 0.13191201, 0.13547255, -0.2634571, -0.23728621, -0.5964628, -0.7226426, 0.01804509, 0.066355124, 0.039112113, 0.31516555, 0.0074492926, 0.37716722, -0.2269243, 0.045006983, 0.33025464, 0.009931074, 0.026571523, 0.010786117, 0.31577322, -0.07520466, 0.07535296, -0.22494413, 0.19150412, -0.019107187, 0.15217178, 0.15423861, -0.14902434, 0.1390692, 0.053463336, -0.099836096, -0.17198679, -0.03119191},
    {-0.1532774, -0.1063937, -0.087491386, -0.0060073338, -0.15648672, 0.15397951, -0.18239024, 0.22029924, -0.07464381, -0.43744758, -0.019523136, -0.13398828, -0.10097222, -0.30660623, 0.053912863, -0.17593771, 0.026173487, 0.26108387, 0.09659364, -0.32490718, -0.054011226, 0.10114115, -0.0740448, -0.31693536, 0.0009780028, 0.12504856, 0.117660895, -0.06188928, 0.03110989, -0.2948915, 0.16875479, 0.29967222, 0.058658, -0.2787581, -0.2897104, 0.0050736447, 0.29006562, -0.1912252, -0.12685439, -0.2889475, 0.19010054, -0.052443337, -0.025805715, -0.5114305, 0.18774377, -0.11992516, -0.44823697, 0.038930677, -0.0015879059, 0.27535656, 0.22717471, 0.24580061, 0.13026309, 0.053479504, 0.11168604, 0.01188571, 0.33846676, -0.019953674, -0.0754581, 0.25620493, 0.108254455, 0.0345696, 0.15160821, 0.23602179},
};

static const float agent_ac_actor_pi_net_fcs_0_bias[64] = {-0.41182542, 0.41992185, 0.10243125, -0.304525, -0.579386, 0.5589203, 0.35133746, 0.08493981, -0.46853998, 0.3955765, -0.19985043, 0.47414032, 0.10445924, 0.57095563, -0.29155856, 0.8529568, -0.29107407, 0.41327065, 0.15188882, 0.36951613, 0.28998208, -0.21010341, -0.10188449, -0.26885253, -0.1916587, 0.63045776, -0.031408746, -0.28635916, -0.24201901, 0.20205806, -0.39623722, 0.36306122, -0.40692607, -0.7565873, 0.36350015, -0.55981463, -0.004945866, -0.1027295, 0.649653, 0.08695684, 0.56775403, 0.05042058, -0.5265847, -0.06449595, -0.41421238, 0.109833814, 0.6736888, -0.5553416, -0.019178964, 0.58413166, -0.26832214, -0.2791311, 0.00992507, -0.31760243, 0.079818256, -0.12377046, 0.2703806, -0.60862565, -0.3274145, -0.5358269, 0.485425, 0.21516371, -0.60635906, 0.1294905};

static const float agent_ac_actor_pi_net_fcs_1_weight[64][64] = {
    {0.5013998, 0.103455134, 0.041089218, 0.30509582, -0.029282773, 0.01655567, 0.09403345, -0.10121704, -0.16885585, -0.061411735, 0.022514861, 0.35806036, -0.13116874, 0.08359998, -0.08783101, 0.50482845, 0.14831458, -0.07553911, -0.13588475, -0.13792267, -0.5354542, -0.4611291, 0.054814067, -0.032690786, 0.15130109, 0.1198651, 0.11486818, 0.010784928, 0.2307338, -0.25031987, -0.13219436, 0.0014907388, -0.11914173, -0.105479635, -0.0029395812, 0.1493794, 0.07031915, -0.16588762, -0.2593268, 0.4305185, -0.018175777, 0.01126587, -0.24362727, 0.12250613, -0.5227485, 0.11373928, -0.13624112, 0.40302116, -0.2548605, 0.0085413335, -0.1713085, 0.6095116, 0.12472259, 0.07801713, -0.056690287, -0.06970458, 0.0016397715, -0.33446932, 0.33103707, 0.16278191, 0.0068442756, -0.004144579, 0.0037879308, 0.22433677},
    {0.120122954, 0.006861097, -0.057649493, -0.3652513, 0.05766725, -0.07169334, -0.036667254, 0.11458835, -0.4618966, 0.0058354214, 0.040661957, -0.17747751, -0.50063634, -0.02118536, -0.11435656, 0.3832371, 0.024183242, 0.100899264, -0.27264905, 0.21895935, 0.08205293, 0.377261, -0.093447484, 0.14349002, 0.11224285, 0.11252291, -0.345036, 0.12950583, 0.022064392, 0.011177013, 0.03986682, 0.06949783, 0.013520362, -0.18434288, 0.08067398, 0.06859008, 0.04107505, 0.15992533, -0.11529792, 0.026183035, -0.21711235, 0.100074716, 0.061846357, -0.31360233, 0.23648982, -0.09753388, 0.035428632, 0.053812355, -0.22076435, 0.18323895, -0.21212745, -0.47002676, -0.41517043, -0.09149596, 0.041724652, 0.03846343, -0.077465, 0.23008387, -0.006831637, -0.7571568, -0.06545013, 0.019148968, -0.71864843, 0.026942456},
    {-0.2836928, 0.10250761, -0.015543251, -0.0229208, -0.30681747, 0.14240298, 0.0013907233, -0.068914466, -0.73264277, -0.17005028, -0.034260184, 0.34780383, 0.033096388, -0.1933588, -0.061911546, 0.07133792, -0.08605648, -0.047598444, -0.08909476, 0.042424932, 0.25987595, 0.16181241, -0.0597498, -0.059373807, -0.05274393, 0.41958398, -0.18947294, -0.1768737, 0.21503335, 0.15832159, 0.34005553, 0.2605295, 0.13591558, 0.225478, 0.15264674, 0.1918343, -0.088177994, -0.46401897, 0.32610083, 0.04135085, 0.19568443, 0.8265587, 0.32600862, -0.20430131, 0.0955762, 0.06945417, -0.012859666, 0.21132371, 0.7492955, -0.21392286, 0.076550946, 0.035340372, 0.21519656, -0.10624288, -0.3963511, -0.12261899, -0.073324226, -0.37498322, 0.45382994, 0.29829934, 0.2710902, -0.29538253, -0.07219484, -0.18431652},
    {0.69265276, 0.023844544, -0.016399007, 0.77467656, -0.06321775, 0.30274582, -0.01281403, -0.057144105, 0.42311466, 0.3572319, -0.07047938, -0.002392389, -0.037774704, 0.014661108, 0.052486397, -0.19419828, 0.08487205, -0.08552, -0.16283861, 0.07382744, -0.101510845, -0.060929615, -0.15993726, 0.21861798, 0.32512364, -0.27466446, 0.3194037, -0.14088495, -0.15451066, -0.3975367, -0.22878027, 0.14112541, -0.02139201, -0.43686146, -0.59416175, 0.13401265, -0.05486574, -0.02203012, -0.4591411, 0.022459399, -0.018333558, -0.8212014, -0.566968, 0.14974244, 0.21196775, -0.09515923, 0.50782573, 0.18460818, -0.39871052, 0.21810384, 0.0841632, -0.00955474, 0.09110469, -0.11050985, 0.5362005, -0.24077603, -0.03272914, 0.0959818, -0.6654002, 0.020910168, 0.21466388, -0.19654576, 0.012559242, 0.13263257},
    {0.7750984, -0.13222049, -0.016128134, 0.4642585, -0.06743854, 0.16268235, -0.01649035, -0.09811727, 0.2911503, 0.28842106, -0.1333181, -0.07112175, 0.42519718, -0.10043436, -0.16991873, -0.14931726, -0.31302658, 0.15124962, -0.05829635, 0.12730065, 0.104688816, 0.44968235, -0.099879995, 0.19952695, 0.28840917, -0.08329405, 0.2850861, 0.029746063, 0.104242094, -0.07361774, -0.096807644, 0.0027435396, -0.23713584, -0.40989733, -0.35634083, 0.22272074, 0.035352442, 0.37602907, 0.050538946, -0.046324097, 0.36595777, -0.72709984, -0.52268887, 0.21847777, 0.25046134, 0.13100646, -0.111823596, 0.67203224, -0.23837194, 0.5480549, -0.027743232, -0.23655461, 0.12342184, 0.22209305, 0.68240535, 0.08316783, 0.0060808104, 0.028760174, -0.7334128, 0.12636274, -0.21926795, -0.11775324, -0.20823112, 0.13179359},
    {0.16783413, 0.08607541, -0.036040258, -0.27452448, 0.14087416, -0.19413829, -0.011832739, 0.5024819, 0.23387918, -0.26881254, -0.07181141, 0.0010424268, -0.2052646, 0.09364405, -0.01271376, 0.1947506, -0.12077364, 0.18628442, 0.06298834, -0.13993043, 0.09450083, 0.04626763, 0.0912194, -0.25177842, -0.09806182, 0.33135653, -0.25939125, 0.0059130536, -0.12350901, 0.4428442, 0.14770596, -0.15608305, 0.036156848, 0.27624497, -0.042856015, -0.07711145, -0.131582, -0.21427736, -0.054372065, -0.3271851, -0.22734645, 0.31934044, 0.18663342, 0.3017158, -0.113813214, 0.0859229, -0.10660263, -0.047713105, -0.10388075, -0.06313509, 0.087325625, -0.3590887, -0.1545501, -0.14037454, 0.08791434, 0.22285746, -0.028499663, -0.05049786, 0.5555275, 0.30284175, -0.07779579, 0.014253984, -0.30013508, -0.21382941},
    {-0.23664372, 0.19483623, 0.06278835, 0.1795362, -0.03650956, 0.38632143, -1.7799928e-05, 0.047178566, 0.17579702, -0.025736945, 0.05382164, -0.17162092, -0.12195556, 0.07030533, -0.012614548, -0.36831254, -0.024442965, -0.23037033, 0.28368586, 0.0035835393, 0.4210092, 0.15160334, 0.15126355, 0.22085689, 0.29600042, 0.14233153, 0.34944898, 0.089042045, -0.18452123, 0.028996604, -0.19484065, -0.15874998, 0.018416384, -0.30838186, -0.22584505, -0.16438724, 0.05790546, -0.29169726, 0.3789889, -0.24280351, -0.12011424, -0.16849515, 0.2151265, 0.054299008, -0.24572745, -0.005579504, -0.056136604, 0.16635823, 0.182461, -0.06354782, -0.032042406, -0.0035045084, 0.107993916, 0.13827108, 0.3493555, -0.123653494, -0.05933408, -0.16621082, -0.01077182, 0.14361016, 0.0388704, 0.10166925, 0.31611684, -0.2996606},
    {-0.3235877, -0.0881729, -0.16856559, 0.07478121, 0.016206738, -0.28635046, -0.1328798, 0.17446344, 0.44383562, -0.14406008, 0.054119967, 0.37053296, -0.075473435, 0.0722614, -0.26114395, -0.2598244, -0.17961408, 0.02473464, -0.2064213, 0.1027396, 0.12741853, -0.52428764, -0.0099557135, -0.12611672, 0.16762425, -0.16911909, 0.29358557, -0.08261791, 0.101416945, -0.3962986, 0.09672804, -0.020269807, 0.060983997, 0.09274474, 0.263715, -0.14133638, 0.024386192, 0.3358306, -0.35739157, -0.0051876353, 0.035426, -0.0208873, -0.7109809, 0.0758221, -0.0035465476, 0.050961383, 0.07053321, -0.29898113, -0.113987595, -0.2517485, -0.20632212, 0.047366057, 0.1526443, -0.20686623, -0.24568762, 0.1444876, -0.1418726, 0.3056964, 0.25961968, 0.20710218, -0.03850952, -0.03815091, 0.11370419, -0.53924054},
    {-0.15274088, -0.08339489, 0.12835117, -0.30245042, -0.13000941, -0.25532264, 0.094654284, -0.12803295, -0.12677716, -0.35023877, -0.18885244, -0.18135172, 0.48180506, -0.054499015, 0.0043019443, -0.11892223, 0.007118062, 0.052927315, -0.16076352, -0.05619011, 0.46332157, 0.048438545, -0.13463725, 0.039622024, -0.053823497, -0.11107956, -0.16989848, 0.017808799, 0.15497498, -0.060956273, 0.012638167, -0.03250813, 0.16712037, 0.12877175, 0.15464236, -0.11670496, 0.06753431, 0.81952953, 0.2581366, 0.3168915, 0.25726214, 0.4587222, -0.15252437, 0.028592745, 0.6234872, 0.12857084, -0.13624118, 0.44066992, 0.27112657, 0.5724628, 0.07212187, 0.08643433, 0.1299841, 0.027701993, -0.36272877, -0.0903044, -0.14260088, -0.0074258707, -0.11663615, 0.06957981, -0.12747554, 0.0046741115, 0.26582074, 0.33008236},
    {0.054375634, -0.31365463, -0.038230423, -0.26360127, 0.008478666, 0.30147567, 0.051129755, 0.10462346, 0.16818115, 0.09164005, -0.087277114, 0.6724833, 0.032618973, -0.13383877, 0.17859161, 0.13914685, -0.041147336, 0.2111465, -0.18984683, 0.027606694, -0.2323084, 0.13776302, -0.07610027, 0.027145129, -0.20236036, 0.33443707, 0.18252563, 0.19350392, 0.030359592, -0.05655453, 0.3585694, -0.12611015, -0.032439973, -0.08951191, -0.01058172, -0.054969724, -0.08702396, -0.649349, -0.28891155, -0.080398686, -0.12288094, -0.27617076, -0.17818823, 0.328788, 0.107529044, -0.11632896, -0.35649085, -0.34435916, -0.14304447, -0.28088623, 0.078181796, 0.19968253, 0.061963852, -0.16040838, -0.06918225, -0.018589657, 0.008387487, -0.19316229, -0.024534576, 0.4581647, 0.03756568, 0.07438663, 0.17284824, -0.18034816},
    {-0.034400217, 0.026758453, -0.10926326, 0.36818427, 0.12030735, 0.58876455, -0.01598001, 0.02753713, 0.3981531, -0.10368412, 0.23421136, 0.15874444, -0.2829278, 0.08487197, -0.17981538, 0.0048539606, -0.05261719, 0.013215038, -0.3070395, 0.047583643, 0.24969152, -0.47930783, 0.12980635, -0.1393879, -0.15651208, -0.18790887, -0.19608144, 0.06803233, 0.41281262, 0.13369553, -0.0447073, -0.093581565, 0.20592585, 0.033975083, -0.41920394, 0.2472705, -0.19542398, -0.5956984, -0.13332105, -0.07691302, 0.19647138, -0.06579581, -0.077580795, 0.30959144, -0.20212092, 0.2103513, -0.04959943, 0.07286125, 0.3038705, 0.14610736, 0.11582321, 0.23493107, -0.06613908, -0.036674775, 0.052951105, 0.061179515, -0.1446342, -0.50557035, -0.0952471, 0.2071017, -0.14763439, 0.004514632, 0.08441262, -0.36767915},
    {0.7482427, 0.020252964, 0.10532586, -0.048479334, -0.18856902, -0.07725139, -0.0152236, 0.030968688, -0.07222083, 0.041761503, 0.13794932, 0.67890716, -0.6014542, -0.043975066, 0.02792538, 0.20826873, 0.043671165, -0.094702706, -0.1557065, 0.19244511, -0.28296, 0.066257805, 0.008028372, -0.2181616, -0.05773592, 0.4322521, 0.00074101536, 0.01652498, 0.008056212, -0.033863634, -0.21583909, -0.14985311, 0.098714545, 0.26338825, -0.1746599, -0.23738341, -0.041477557, -0.40229198, -0.54609865, 0.025868602, 0.13539754, 0.17717677, 0.08769244, -0.20333572, -0.013716379, 0.036291987, 0.13026193, -0.006078936, -0.16300257, -0.5640522, 0.04060702, -0.43776643, 0.26082298, 0.1165416, 0.5510595, 0.121717475, -0.12243722, -0.15160447, -0.016622001, 0.03537066, -0.005791268, -0.11424275, -0.27205408, -0.09202311},
    {-0.017495777, 0.047230538, 0.03274, -0.05358519, 0.07946791, -0.39726502, -0.1611897, -0.18375698, 0.22639626, 0.028631024, 0.20508751, 0.35566366, -0.10665919, -0.022417894, -0.007004612, 0.42261663, -0.12039169, -0.11143407, -0.22546542, -0.042549275, -0.5136162, -0.1337342, -0.10078568, 0.094263665, 0.28182253, -0.2856503, -0.054593656, 0.074358225, -0.0068318443, -0.3341122, -0.112296075, -0.114686005, -0.003872845, 0.31048337, 0.06911194, -0.022109136, 0.12475681, 0.4255706, -0.25641337, 0.08368209, 0.1438252, -0.3970551, -0.08857471, 0.48228285, 0.48559, 0.019761872, -0.03086111, -0.44273657, -0.72840756, 0.25338572, -0.18654233, -0.48128042, -0.22634633, 0.027683591, 0.2476945, -0.039019756, 0.16337788, 0.28211945, -0.14836581, -0.23723342, -0.14790072, 0.026106004, 0.07001316, 0.29675186},
    {0.22323601, -0.0016990384, -0.14666072, -0.15237194, 0.22135286, -0.31981996, -0.16085714, -0.0006467267, -0.05420872, 0.11315978, -0.103000104, 0.38785338, -0.019172894, 0.043531545, -0.09505542, 0.03670586, -0.084809996, 0.20451483, 0.085390344, 0.0034651242, -0.2093271, -0.17757048, 0.069148384, 0.16937777, 0.2836652, -0.48413628, -0.4588211, -0.04086115, -0.09836749, -0.093486, -0.2819726, -0.062434632, 0.2503843, 0.7545715, 0.27533394, -0.2391128, 0.017511055, 0.16539557, 0.07500727, -0.06754781, 0.02960084, 0.097658046, 0.71306145, 0.1746671, -0.048315287, 0.0386742, 0.018380621, -0.5460566, -0.2963291, 0.387724, -0.14554879, -0.76179993, -0.19458437, -0.1472643, -0.0049015526, 0.0030149685, 0.037597347, 0.25818488, -0.06286333, 0.04401384, -0.10856236, 0.013734401, 0.013889851, -0.14248334},
    {-0.59156114, 0.078489706, 0.007586536, -0.047716822, -0.027095418, 0.08938263, -0.042798486, 0.26371548, 0.44860098, 0.16159278, -0.061948173, 0.07533144, -0.0036366559, 0.007412211, -0.011169179, 0.18211974, 0.092387594, -0.14718877, 0.09634538, -0.17879246, 0.036623854, -0.035062384, 0.05939639, -0.03090003, -0.19139546, -0.43564287, 0.2583563, -0.043126035, 0.0743559, 0.11294631, 0.19352514, 0.052721597, 0.07532214, -0.09055198, 0.66886693, 0.101569325, 0.13711658, 0.2940535, -0.036578584, -0.044260774, -0.31975988, 0.2677807, -0.52383435, -0.1601742, 0.3193818, -0.12724487, -0.18487836, 0.13840733, 0.1925413, 0.18134739, -0.047663447, -0.3759095, -0.53848237, -0.1248046, -0.23402773, -0.144599, 0.19243243, -0.15563391, -0.049197823, 0.49417168, 0.16231897, -0.045766275, 0.25805804, -0.24085182},
    {1.1021514, -0.195838, 0.03795592, 0.1442589, -0.2288874, 0.37172917, -0.10064823, 0.19047998, -0.4138824, 0.05229528, -0.075446494, 0.291572, -0.4098727, 0.014829153, -0.03533412, 0.17251575, -0.19843477, -0.04890786, -0.24094889, 0.03314822, -0.3568628, 0.6533805, -0.3722581, -0.1199398, -0.2386351, 0.055948384, -0.3494456, 0.055488627, -0.24362838, 0.014324564, 0.2132903, 0.24340436, 0.1780434, 0.15513398, -0.6839392, 0.28505045, 0.29375285, -0.028184203, -0.85928804, 0.0016471646, 0.23996167, 0.20540977, 0.65138894, 0.5743765, 0.066772774, -0.077500954, 0.10337449, -0.02758774, -0.39709657, 0.24739209, 0.03342269, 0.11796329, 0.09445159, 0.030402215, 0.86300445, 0.45511788, 0.069421485, 0.3598805, 0.020893656, -0.04996174, 0.018886207, -0.17703317, -0.27118713, 0.3813845},
    {0.110917695, -0.09122624, -0.08754538, -0.10630546, -0.024244344, 0.33990484, -0.04362927, -0.0469311, -0.18888915, 0.11190663, 0.0005392505, -0.04402989, -0.10025266, 0.003338194, 0.11387727, -0.04835063, 0.024888534, -0.006137488, 0.1277369, -0.19821167, 0.18345729, 0.28966504, 0.01927695, 0.066335134, -0.06629852, 0.28538203, 0.29917565, 0.13604698, -0.2899199, 0.33414626, 0.053187452, 0.04567635, -0.081825435, -0.4025569, -0.32188478, 0.227014, 0.032300167, -0.618494, 0.28133708, -0.08629926, -0.11565202, -0.08960643, -0.2368869, -0.3545115, -0.3022414, 0.026137432, 0.070618056, 0.08023973, 0.2734625, -0.107547976, -0.106348164, 0.10208061, 0.09956692, -0.0493425, 0.10774526, 0.05314974, 0.104585715, -0.32723483, 0.3406195, -0.48431265, 0.022543877, 0.07478013, -0.0648329, -0.1395471},
    {0.43660378, -0.009256832, -0.12261767, 0.046384178, -0.11867479, 0.265726, 0.041116044, 0.14433767, -0.19678293, 0.23346105, -0.3044213, 0.410724, -0.3652255, -0.14397286, -0.1450335, -0.06175759, -0.018247979, -0.013574316, -0.31153268, 0.1859848, -0.23731501, -0.057946865, 0.01681551, 0.1763212, -0.004222343, 0.37109548, 0.10520057, 0.12732634, -0.19279689, 0.3807475, -0.076246746, 0.1723409, -0.18722373, 0.10670058, -0.0018614748, 0.18838422, 0.06650999, -0.3973526, -0.61626315, -0.44953716, 0.071332514, -0.23735943, -0.045492575, 0.28357247, -0.033865828, 0.04710897, -0.06733948, -0.5960337, -0.6576294, -0.26602268, 0.050438836, -0.26406255, -0.05110365, 0.027548658, 0.49067292, 0.06757628, 0.0057106544, 0.038400866, 0.2017979, 0.21087527, -0.17839906, -0.024105402, -0.3387973, -0.25823903},
    {0.06906055, 0.20019895, -0.112867706, -0.35009512, 0.058202248, -0.41738346, 0.08356464, 0.23133634, -0.098217964, -0.036592234, -0.014630064, -0.041006472, -0.13582398, 0.17367686, -0.008571867, 0.7802893, -0.015586291, -0.19967666, 0.24924716, -0.08223056, -0.39006075, -0.14302313, 0.019513918, 0.047350314, 0.15085484, -0.36159325, -0.24995373, 0.076465234, -0.27004963, -0.30758506, 0.19268416, 0.19807526, -0.07836101, 0.3122814, -0.08936839, -0.13086382, 0.09506125, 0.6033729, -0.102845095, 0.43519312, -0.010183913, -0.17434016, -0.30443907, 0.6763578, 0.15869924, -0.1829785, -0.067043915, -0.37655342, -0.496984, -0.12798998, -0.25490955, 0.03499672, 0.024341414, 0.023349958, 0.25674057, -0.18962413, 0.18353401, 0.102850154, 0.5043073, -0.39351147, 0.009504012, 0.09909991, -0.19564195, 0.608899},
    {-0.32083368, 0.2559232, 0.14404298, -0.24975784, -0.08131022, 0.16077296, -0.11740762, -0.009171739, 0.60953075, -0.11539874, -0.3623515, 0.18057401, -0.20483409, 0.29773343, -0.18098773, -0.07172312, 0.01258076, 0.19425079, -0.17021269, 0.040802654, 0.23680526, 0.08092773, 0.0118729, 0.19712116, -0.23255792, 0.006232353, -0.032677643, 0.17294997, 0.4155986, -0.08125226, -0.22402133, 0.14631957, -0.021534504, 0.11682469, 0.28910947, 0.155348, -0.1939178, -0.109078765, -0.08557478, -0.09963573, -0.28538427, -0.21642837, 0.03639566, 0.15913193, -0.13745135, 0.1584661, 0.2759939, -0.20755163, 0.13024968, -0.4123348, -0.057476997, -0.09013315, 0.15876742, -0.025680307, -0.7547568, 0.04465054, 0.00075861264, 0.46891287, -0.2719268, 0.10769306, -0.034339577, 0.12302526, 0.7762727, 0.031036766},
    {-0.00019451094, 0.07584455, 0.09989715, 0.089914285, 0.030630076, 0.02923689, -0.01380718, -0.24294566, -0.21858728, 0.105675176, -0.15019861, -0.2754278, 0.71319747, 0.015672294, 0.059282847, -0.7612363, 0.1231405, 0.008373989, 0.41312826, -0.0115766935, 0.24994704, -0.51878977, 0.1899269, 0.21551818, 0.012322428, -0.6971876, 0.62027997, 0.09479073, 0.14227803, -0.82837504, -0.18592492, 0.0052964217, 0.20892745, -0.025669862, -0.47803438, -0.43179482, -0.12486508, 0.088748455, 0.4914346, 0.32158506, -0.3419735, -0.10204687, 0.025499059, 0.0049710777, -0.24071895, -0.09059446, -0.15989652, -0.031519234, -0.07317408, 0.34659764, -0.010732123, -0.3912648, -0.36898664, 0.100832395, -0.012088999, -0.11721316, 0.060251266, -0.049013823, -1.0123022, -0.0965693, 0.03919226, 0.23576255, 0.18139148, -0.30302128},
    {-0.08743245, -0.027147045, 0.028861113, 0.2725693, -0.1868533, 0.03766576, -0.07725814, -0.15068313, 0.21427664, 0.10800644, 0.0668365, 0.35016325, -0.317725, 0.021892568, 0.026225483, -0.14771084, 0.008086194, 0.11323687, 0.097270966, 0.071007155, 0.45885012, 0.6550307, 0.030613385, 0.20783757, -0.21694992, -0.13034749, -0.084421426, 0.0012091089, 0.09397406, 0.18416147, 0.018726053, -0.123392634, 0.27836338, -0.6758841, -0.03859844, -0.09010683, -0.12555741, -0.10992829, 0.16369656, 0.4640178, -0.30068085, 0.10900781, -0.15509883, -0.75006986, -0.31532547, 0.19438049, 0.3235874, 0.97704387, 0.5363411, -0.2667869, 0.124558374, 0.06683602, -0.32739472, 0.1166245, -0.4969228, -0.3122209, 0.09211887, -0.11489185, -0.36276853, 0.36458975, 0.1833329, -0.011145385, -0.342689, 0.014592025},
    {0.059789635, -0.010341155, -0.017684609, -0.37466502, -0.026103618, -0.68656015, 0.031231444, 0.08208169, -0.33226806, 0.17920072, -0.31955802, -0.18123068, 0.5521446, 0.12344588, -0.12110337, 0.029564071, 0.053382196, -0.11341947, -0.036085054, 0.077197544, 0.020245137, 0.22578366, 0.006600198, 0.0052991444, -0.053021953, -0.45982194, -0.3378705, 0.1681462, 0.08557479, -0.10598093, -0.033295695, 0.1513694, -0.04641471, -0.17280573, 0.5511745, -0.19148867, 0.10600002, 0.82778007, 0.028871788, 0.21782115, 0.045696974, 0.4759333, 0.28937864, 0.18042009, 0.1791888, -0.07739128, -0.11071685, 0.43132877, 0.37043753, 0.5561891, -0.23887971, -0.035497643, -0.020201428, 0.07031521, -0.23479395, -0.03738222, -0.08305618, 0.50601214, -0.3619767, 0.36658543, -0.2690439, 0.058241952, 0.15107311, 0.36902314},
    {-0.40195733, 0.08296552, 0.03958008, 0.65373796, -0.16295896, -0.09213464, -0.1728193, 0.091212474, 0.1809678, 0.3365753, 0.20250203, -0.18508218, 0.1549431, 0.12638389, 0.14336288, -0.445319, -0.1880256, 0.19507594, 0.098520935, 0.2041284, 0.029727185, 0.103573285, -0.35741568, 0.04744089, 0.09909803, -0.04405607, 0.2642585, 0.074728966, -0.48332435, -0.03325617, 0.025229402, -0.11180551, -0.035447724, -0.073913194, -0.06574715, -0.1305836, 0.077490896, -0.030242963, -0.03746637, -0.09791415, -0.010936052, -0.07370167, 0.3822621, -0.33085656, 0.25952765, 0.023489276, -0.17770498, -0.04544817, 0.13169725, 0.11383354, -0.1524837, -0.1683322, 0.36999375, -0.12961689, -0.07068843, 0.10617555, 0.13303988, -0.030999783, 0.05469912, 0.33856326, 0.03328486, -0.4396148, 0.301207, -0.3069796},
    {-0.17890768, -0.1918117, -0.08371946, 0.33272085, -0.010027968, -0.19130841, -0.013843269, 0.4229738, -0.33068076, 0.028854907, 0.06999147, -0.5351681, -0.058907226, -0.069070034, -0.09430879, 0.044549186, -0.026748285, -0.15707065, -0.24784075, 0.06257961, 0.3815779, 0.43063688, -0.21644607, -0.07325328, 0.024563186, 0.11470031, -0.20219727, 0.020595212, -0.08204854, 0.63340676, 0.049714092, -0.07201664, -0.28814933, 0.078944184, 0.17351118, -0.03973669, 0.20847076, -0.32758147, 0.07698334, -0.32979462, 0.25880626, 0.6966552, 0.43275955, -0.08453578, 0.31021178, 0.17329286, 0.09144671, -0.05737939, 0.27096897, 0.09951653, -0.027980005, -0.2574943, 0.30566156, 0.1487496, -0.08709183, 0.5960298, 0.06245119, -0.07619348, 0.75580823, -0.3040222, -0.08525451, -0.0713106, -0.46484482, -0.29373342},
    {0.09934613, -0.11207579, 0.2319483, -0.20132439, -0.074512675, 0.09817514, 0.11999642, 0.07610159, -0.36400592, 0.12079716, -0.057633113, -0.71029717, 0.41541648, 0.066310786, -0.004065864, -0.28745493, 0.10012382, -0.09044065, 0.0012934674, 0.06859268, 0.21468401, -0.5989512, 0.13265406, 0.3693179, 0.049194243, 0.053624045, 0.41676134, 0.09026741, 0.15630464, 0.14523928, -0.22193258, 0.10182055, -0.1382281, 0.6741059, -0.097028404, -0.038470417, -0.011663531, -0.19293542, 0.37231556, -0.3350871, -0.078768976, 0.38372773, 0.29257256, -0.16186874, -0.6167876, -0.035333827, 0.024565438, -0.65757877, -0.38649273, 0.3094634, -0.022176454, -0.54419625, -0.7754774, -0.041093525, -0.42922688, -0.09017949, -0.12959135, 0.06833415, 0.11672572, 0.105977975, -0.03750121, 0.08658291, -0.20435694, -0.21547331},
    {0.1254921, -0.0703438, -0.20162818, -0.28296214, 0.09741451, 0.3272725, 0.05467782, -0.17232499, -0.12736242, -0.005710187, 0.19559318, 0.041526668, -0.30943775, -0.035107397, 0.111671336, 0.041846495, -0.13902052, -0.3156516, 0.061843738, 0.0076531093, 0.10667615, 0.00509854, -0.006764863, -0.23704126, 0.2766697, 0.38263968, 0.20045026, -0.24501632, -0.26420337, -0.14580396, -0.14302534, -0.09331344, -0.212644, -0.24191862, -0.2095462, -0.32074142, -0.017525082, -0.6027636, -0.0811148, -0.09989032, -0.029689003, 0.10868349, -0.22615977, -0.3388176, -0.29184523, -0.017844371, 0.034136634, 0.11510144, 0.40523145, -0.8120932, 0.0048891087, 0.10010491, 0.4089778, 0.08466109, -0.19296329, 0.16720785, -0.00010274986, -0.20405093, 0.021152537, -0.04346973, -0.06519884, -0.109476514, 0.36601785, -0.08661569},
    {0.49134055, -0.026257176, -0.004280364, 0.679683, 0.097293444, 0.3060349, 0.050413188, -0.08500468, -0.08460173, -0.1807438, 0.16456652, -0.1974732, 0.03429648, -0.10809609, -0.049402613, -0.15953872, 0.1306861, -0.1318811, 0.015094621, -0.098500825, -0.22932763, -0.05631239, 0.17455448, 0.037463367, 0.14683321, -0.37213814, 0.14374241, -0.014325084, -0.5345462, -0.559258, -0.03416328, 0.0473403, 0.08255622, -0.4134265, -0.558758, -0.16513094, -0.09381956, -0.21419172, -0.48750097, -0.1471139, 0.110482946, -0.48216158, -0.3917625, 0.07746253, -0.51430845, 0.083581105, 0.16478014, 0.16852142, -0.41077045, 0.4682303, -0.05301431, 0.11157445, 0.22299598, -0.058468804, 0.45969537, 0.16844074, -0.026260993, -0.01235881, -0.13595968, -0.049886756, 0.07005539, 0.10930731, -0.20826095, 0.13931368},
    {0.4012616, 0.1220418, 0.019510143, 0.26454577, 0.09796452, -0.1289455, -0.20606966, 0.053696305, 0.088966936, 0.032546367, -0.04897923, -0.18021858, 0.5173746, 0.031578835, 0.15080088, -0.08936902, 0.07271408, 0.071338415, -0.09285008, 0.007626145, 0.10250186, -0.45779496, 0.102080725, 0.11641341, -0.10255515, -0.220189, 0.037388712, -0.116788745, 0.0927516, -0.20419884, 0.0571036, -0.1433055, -0.12869994, 0.4625966, 0.11953113, -0.026088051, 0.040333215, 0.19304474, 0.011229315, 0.10350534, -0.027447136, -0.036572624, -0.27569062, 0.009633391, 0.33459702, 0.03126628, -0.004450054, 0.05779129, -0.5136673, 0.7932368, 0.117339715, 0.10774377, -0.17196062, -0.051888905, 0.37491447, 0.12670924, 0.10603605, 0.04769849, -0.1559619, 0.05566014, 0.26114494, -0.027351484, -0.109331205, -0.062049404},
    {-0.43813357, -0.08752746, -0.14535658, 0.41414922, 0.048159085, 0.3207597, 0.098820776, 0.13983595, 0.25442848, 0.049171865, -0.00028133858, 0.020086855, 0.080535285, -0.038640074, -0.030435134, -0.25264323, -0.14986643, 0.11549596, -0.033221267, 0.32599393, -0.12402895, 0.34187403, -0.16057922, -0.19159354, 0.41659227, -0.10317899, -0.22306658, 0.0325465, -0.5124527, 0.019944418, 0.0360801, 0.12831742, -0.018717658, 0.25674334, -0.3012672, 0.18084471, 0.21638441, 0.022300236, -0.17795222, -0.5651991, 0.063781045, -0.31815058, -0.22175713, 0.36860558, 0.17906775, -0.06673945, -0.13700081, -0.30522406, 0.27444082, 0.25136518, 0.040787812, -0.08583676, 0.14732476, 0.014731799, 0.19569533, 0.15121394, 0.06678904, -0.47359765, 0.25652644, 0.5156296, 0.05970974, -0.24353157, 0.36350766, -0.24522},
    {-0.026895162, -0.12087763, 0.12581885, -0.23894428, 0.049810078, -0.032361373, -0.036868762, 0.15135865, -0.49483976, 0.31605086, 0.036674608, -0.18780336, -0.2937168, -0.009103595, 0.028001668, -0.17225473, 0.05293296, 0.014659566, -0.048968323, -0.02521546, 0.3530757, 0.17238013, -0.00066156476, 0.049353786, 0.04140356, -0.10898541, 0.007400431, -0.018271698, 0.105393164, -0.011535436, -0.18832015, -0.07258997, -0.013769391, -0.2373465, 0.0017929762, 0.3667074, 0.08434577, 0.11506192, 0.5202876, 0.2743695, -0.27167335, 0.24502045, -0.42375416, -0.25302577, -0.049235843, -0.047681175, 0.26748556, 0.42167228, 0.4597798, 0.09339059, -0.12303898, 0.15486082, -0.39701536, 0.061708376, -0.47178787, -0.053005528, 0.08502729, -0.0901868, -0.35443828, -0.007978787, -0.10807661, -0.10598817, 0.38449147, 0.18222032},
    {-0.0952579, -0.1984985, 0.12221747, -0.36788285, -0.009760602, -0.28256804, 0.070930324, -0.24418898, -0.60382843, 0.13323587, 0.19365896, -0.07977644, 0.15431432, -0.18729089, 0.03764559, 0.17668135, 0.14966217, -0.097698875, -0.10978485, -0.24447133, 0.11904301, -0.3213544, 0.084473975, -0.17191918, -0.22134353, 0.045658737, 0.30297518, -0.08554402, 0.20047903, 0.09862429, 0.2334045, -0.018140275, -0.029355476, 0.81264883, 0.13377972, 0.10709338, 0.08213626, 0.07062903, 0.13155149, 0.547527, 0.024988199, 0.24920322, 0.083473414, -0.018879877, -0.09752104, 0.12322756, -0.030970598, -0.046012517, 0.066107765, -0.37145483, 0.1311164, 0.17649409, -0.20491438, -0.19656333, 0.18443076, -0.195577, -0.15185843, 0.112311214, -0.07813871, -0.29807106, 0.11292215, 0.012671729, -0.6770937, 0.22923377},
    {0.09329854, -0.09554456, 0.1052023, 0.46464965, -0.10351987, -0.23326933, -0.0963428, 0.08615965, 0.59801483, 0.22401118, 0.024846386, 0.4172863, -0.47903943, -0.05684247, 0.15754153, 0.22919977, 0.02962203, -0.13601163, -0.013993585, -0.17382368, -0.20029879, 0.6365366, 0.2499891, -0.17742068, 0.05312076, -0.25414875, -0.46705502, -0.103812754, 0.24129103, 0.30228007, 0.32168084, 0.04437331, 0.10678479, -0.5952123, 0.5541013, 0.159006, -0.14044832, 0.22614793, -0.35384154, 0.2264078, -0.18462315, -0.24537797, -0.30631602, -0.009812426, 0.5342271, -0.07016189, -0.14331008, 0.47042733, -0.049087834, -0.25066626, 0.057266947, 0.3065085, -0.12179273, 0.0024017198, -0.061875023, -0.19479154, 0.018658873, -0.104820065, -0.20105357, 0.41498673, 0.08574834, -0.083371945, -0.08213059, 0.37821183},
    {-0.084477715, -0.1918764, 0.15833104, 0.0628612, 0.0065874117, -0.089426, 0.042097904, 0.32027426, 0.26040685, -0.17310275, -0.01675297, -0.37012175, -0.199798, -0.0732476, -0.08584694, 0.7087327, -0.035727035, 0.11979036, -0.40220916, -0.13266619, -0.5063595, 0.3586848, -0.07710726, -0.115220994, 0.120554514, 0.29497758, -0.33124602, -0.07876415, 0.24261138, 0.34882128, 0.35111746, 0.07032881, 0.06400225, -0.093595795, 0.04615894, 0.18445787, 0.022081885, -0.046576314, -0.31099346, -0.14504796, 0.114177965, 0.50231785, 0.31637645, 0.17929141, 0.005488919, -0.06555737, 0.11394992, 0.11968091, 0.24956259, 0.28585684, -0.24499904, 0.28254238, 0.19239293, -0.23463942, 0.0687168, 0.31743285, 0.17247547, 0.22080785, 0.7866336, 0.1733377, -0.013078488, 0.055574045, 0.21331908, -0.016149709},
    {0.3293809, 0.056590367, 0.17493518, 0.53495365, -0.030661011, 0.22001788, 0.19522321, 0.13655886, -0.28396046, 0.07713122, -0.03059554, 0.7003051, -0.7193766, 0.012871187, 0.06347588, 0.1388069, 0.11619495, 0.119709566, 0.011632526, -0.0008381304, -0.17015587, 0.09294383, 0.17488196, 0.03322905, 0.2896427, -0.036300566, -0.25471932, -0.09552628, 0.11959374, -0.3114742, -0.079789974, 0.21709894, 0.0024718116, 0.19449864, -0.203498, 0.05442054, -0.24011806, -0.5507315, -0.369788, 0.047949657, -0.19030116, 0.27582207, 0.09829576, -0.14546578, -0.2872532, -0.04828853, 0.1689846, -0.010913891, -0.09425257, -0.40413797, -0.12172639, -0.54461735, 0.12234117, -0.13109884, 0.49545676, 0.041327626, -0.11300706, 0.16008143, 0.06803137, 0.20536925, 0.019694803, 0.1225138, -0.20905645, -0.44877747},
    {-0.6710871, -0.056870867, 0.048650507, -0.11466323, 0.065450974, 0.15683398, 0.15122347, -0.10208292, 0.25279784, -0.100605376, -0.17909877, -1.0082239, 0.7934826, -0.05400602, 0.08026329, -0.29878634, 0.2680302, -0.34857264, 0.2635494, -0.12300504, 0.22272913, -0.6166683, 0.17966144, -0.1835766, -0.23361537, -0.043632768, 0.2073929, -0.02056626, 0.0581128, -0.11112273, 0.21496765, 0.25336602, 0.1633365, -0.055118084, -0.15671335, -0.1552513, 0.048759423, -0.15512432, 0.9444096, -0.25620914, -0.13565588, 0.06524196, -0.13195647, -0.0015702975, -0.29642317, -0.11479143, -0.24080667, -0.09702144, 0.23417413, 0.42807436, 0.099593446, -0.03090299, -0.5934908, -0.0897051, -0.4349393, -0.06827046, -0.13915564, 0.27066287, -0.31487915, -0.24350236, -0.11442296, -0.020470465, 0.2751235, -0.073865145},
    {-0.35012007, -0.10781455, 0.06569962, 0.014781131, -0.08755388, 0.043194506, 0.034373894, -0.11600292, -0.25567585, 0.15526351, -0.054901864, 0.10184068, -0.12978558, 0.02624209, -0.05922221, 0.00513456, 0.050098173, -0.13791676, 0.26117197, 0.021765966, 0.19986102, -0.12431523, 0.10821191, -0.10227481, 0.06987838, 0.097959846, 0.03795793, -0.06428549, -0.28508353, 0.1963979, 0.1047808, 0.09247021, 0.068158634, 0.15800346, -0.36679563, 0.27322924, 0.1777882, -0.1152293, -0.21544667, 0.07025914, 0.07596202, -0.1727592, 0.32223085, -0.13153061, -0.24610756, 0.055376094, 0.107609004, -0.20539208, 0.34169504, -0.47412702, 0.05665976, -0.086751536, -0.26780918, 0.056128975, 0.3583424, -0.15055645, 0.038497955, 0.25894222, 0.05949062, 0.011109891, 0.0115648545, 0.09453301, -0.47516918, 0.023185916},
    {-0.36119667, 0.06895799, 0.04164248, 0.061820906, -0.23381181, -0.23438697, -0.080312036, 0.105066784, 0.3111466, 0.13491496, -0.123805895, -0.45156464, 0.028662853, 0.09084421, -0.0046742414, 0.32681087, 0.108303644, 0.07663768, 0.291924, -0.018637396, -0.44234145, 0.2055411, 0.0775322, -0.013889183, -0.14952442, 0.00899331, -0.43047512, 0.10446943, -0.14011739, 0.20660654, -0.24597712, -0.13208915, 0.11213166, -0.3576106, 0.066675864, -0.044230215, -0.03200794, -0.05058893, -0.1094423, 0.1320984, 0.15257558, -0.24275573, -0.036921673, 0.25210097, -0.6671187, 0.14481023, -0.10995973, -0.18647984, -0.20646727, 0.44928616, 0.20741133, -0.21584056, -0.22417164, 0.2932051, 0.06258071, -0.068140335, 0.15125051, 0.5028061, -0.0059388503, -0.3506127, 0.10300088, 0.09919012, -0.0050256634, 0.24794973},
    {0.104516886, -0.00096667587, -0.18067847, -0.49178675, 0.09484555, -0.5478524, -0.040388264, 0.098815694, -0.4318961, 0.04860722, 0.16639893, 0.03714176, 0.0994445, 0.08279663, 0.025678907, 0.17636773, -0.12242434, -0.035228103, -0.1507535, -0.061310627, 0.11659187, 0.4025136, -0.03188193, -0.21011592, 0.23474899, -0.59803146, -0.46443972, 0.012715817, 0.12471108, -0.015104577, 0.05118887, 0.075890124, -0.19577278, 0.27711326, -0.007194397, 0.09130947, 0.085726246, 0.069637775, -0.078818806, 0.95954573, 0.17214248, 0.6285838, 0.74391484, 0.45649442, 0.21595953, 0.09762354, -0.12693554, 0.26868394, 0.3852729, 0.07696756, -0.1832957, -0.10133069, -0.3745067, 0.040677175, 0.23867132, 0.040805798, 0.10804182, 0.51639956, -0.082425326, -0.47773764, -0.11400859, -0.042228192, -0.16002296, 0.9076297},
    {0.21634898, 0.06553031, -0.008142977, 0.21598275, 0.19043949, 0.8356822, -0.09738543, 0.0822238, -0.19318546, -0.056313466, -0.008110602, -0.029766077, -0.016751949, -0.11462365, 0.023237782, -0.41745314, 0.21567954, -0.1989293, -0.010347162, -0.12798293, -0.0065417965, -0.30307674, -0.0026191436, 0.030344378, 0.033798084, 0.23572393, -0.057996422, -0.047683075, 0.08339169, -0.15337539, -0.11084834, 0.045388233, -0.26354098, -0.16054171, -0.5656266, -0.0056731743, 0.0077904817, -0.36357188, 0.016301474, -0.23703529, -0.114416644, -0.13558643, 0.2878643, -0.20102508, 0.07414761, -0.04529578, -0.07851159, -0.036290813, 0.18966655, -0.033294566, 0.008114396, 0.09496291, 0.70049286, -0.0367413, 0.33432332, 0.11926943, -0.07321578, -0.41099244, -0.0007149825, 0.30418518, 0.15689225, 0.19558121, 0.3207934, -0.24853733},
    {0.6204955, -0.09453548, -0.16649036, -0.09722626, 0.07077011, -0.15514924, -0.032656062, -0.0643171, 0.33415902, 0.04918027, 0.05545447, 0.01714083, 0.17771545, 0.04844828, 0.089427546, -0.010146124, -0.02980269, 0.080870874, 0.26835448, 0.20151567, -0.6781316, -0.6881225, -0.0074692937, -0.058589507, -0.0030205548, -0.3089377, -0.0067754574, 0.09139536, 0.17996931, -0.20400672, -0.18864363, -0.024987899, -0.07481266, 0.70961994, -0.13133869, 0.1798783, -0.053842735, 0.012926231, -0.18030965, -0.2278222, -0.24628228, -0.42706075, 0.27915448, 0.36921015, -0.14671293, -0.10820469, -0.18914072, -0.8374075, -0.6354188, -0.13245067, 0.026403714, -0.1713109, -0.2750204, -0.011552769, 0.5040168, -0.2101373, 0.040507678, 0.39796695, -0.053383585, -0.31849733, -0.12388464, -0.066116266, -0.0954611, -0.2700965},
    {0.3606501, -0.0952489, 0.18581006, 0.45538843, 0.03129412, 0.54919773, 0.05533217, -0.09667791, 0.19367939, 0.17305553, 0.010777156, -0.106510036, 0.30136684, 0.19481586, -0.08342574, 0.09954751, -0.044933, -0.1764953, 0.50148594, 0.34996387, -0.1080224, -0.079630315, -0.04595926, -0.22006097, 0.104003355, -0.37749693, 0.20272481, 0.14206927, 0.45141295, -0.31028473, -0.2770514, -0.14430703, 0.24728556, -0.22608893, -0.6056761, 0.14450382, 0.05723843, -0.23813424, 0.17081048, -0.21828991, -0.18643641, -0.25892025, -0.18217823, 0.5947161, -0.22070897, -0.052639402, -0.29097047, 0.058424555, -0.6305439, 0.3311599, -0.22888626, 0.36241758, -0.0089198, 0.12061505, 0.5838637, -0.23591276, -0.12772639, -0.04248225, -0.44310865, -0.29320598, -0.1631328, 0.019477122, -0.27238643, 0.14771411},
    {-0.14738496, 0.09277873, 0.006277894, 0.22764347, -0.007274559, -0.09511844, 0.0076902388, -0.32309195, 0.44433597, -0.023802685, 0.02815304, -0.14075358, -0.38204727, 0.09029802, -0.11751093, 0.7179143, 0.1207542, -0.06458623, 0.07749092, 0.07612186, -0.64362246, 0.30796108, 0.19756334, 0.080837205, 0.18560319, 0.081375785, 0.07013658, 0.0643487, -0.18144056, -0.15981609, -0.23625599, 0.092598796, -0.2212874, -0.24642797, 0.24809164, 0.15259749, 0.055637732, 0.5134833, -0.21492204, 0.16635911, -0.04331222, -0.6166805, -0.34025395, 0.13132569, 0.14154491, -0.024272159, -0.029830206, -0.17569019, -0.51341176, 0.080365755, -0.05671573, 0.40064973, -0.07615155, 0.20103604, 0.15116476, -0.049672466, 0.0794441, 0.06794988, 0.56671447, -0.47743198, -0.23792176, 0.22296506, 0.29994768, 0.20294711},
    {-0.43232465, -0.19676559, -0.08772229, -0.035675917, 0.06379634, -0.070797645, 0.17056562, -0.26091892, 0.3458806, 0.14833063, 0.051927134, 0.39920807, -0.44208533, -0.12405529, 0.18554933, -0.028484505, 0.16197442, -0.076926455, -0.06504669, 0.036364194, -0.0059277816, 0.042231858, 0.19547524, 0.045769017, 0.29867837, -0.41632998, -0.39085472, -0.08806621, -0.1611736, -0.31039432, 0.0011803312, -0.13076946, -0.022868512, -0.091222435, 0.47963682, -0.25420362, -0.05763689, 0.030786257, 0.16474096, 0.2199869, -0.20074394, 0.038689263, 0.1823498, 0.33490422, 0.7111201, -0.04709407, 0.147729, 0.2608282, 0.3812361, 0.10031443, 0.015330646, 0.19746399, 0.20181865, -0.1545795, -0.53449714, 0.0834009, -0.059475087, -0.14829081, 0.041463807, -0.04758243, -0.0028106277, 0.006347098, 0.5851977, 0.15708806},
    {-0.14567366, 0.1434556, -0.24994853, -0.2592203, 0.23181707, 0.15702085, -0.17530353, -0.016794518, -0.006579892, 0.090716474, -0.23115554, 0.25130507, -0.14115049, 0.16945359, -0.1292486, 0.13787079, -0.18539871, 0.0027793786, 0.050436296, 0.009021762, 0.044186942, 0.4700303, -0.030491356, 0.31400636, 0.12844194, 0.029392859, 0.18904369, 0.08472761, -0.054606453, 0.6220996, -0.25025466, -0.11182344, 0.22639608, -0.115467794, 0.09185013, -0.1833965, -0.090165295, 0.1804959, -0.00045283357, 0.03548958, -0.17689471, 0.035500165, -0.01977067, -0.36871523, -0.4097488, -0.19124669, -0.0063371495, -0.18755104, 0.31736577, -0.53380334, -0.1040016, 0.15068784, -0.2358455, 0.110845186, 0.11452564, -0.5342999, 0.17967857, -0.3446323, 0.1364132, 0.049533445, -0.23498844, 0.009140915, -0.027823938, 0.059763126},
    {-0.24204972, 0.095160276, 0.07819987, -0.59044415, -0.052846693, 0.12753557, -0.011327703, 0.018854378, 0.029406846, -0.07270959, -0.055152353, -0.013619312, -0.43307707, 0.13300619, 0.075760916, 0.27095294, 0.10667348, -0.14756316, -0.164587, -0.13594458, -0.114290215, 0.16800916, 0.028920515, -0.26891232, 0.071911104, 0.4489776, -0.24100222, -0.019810744, -0.23325641, 0.4073337, 0.1236234, -0.003562486, 0.10019944, 0.63743794, 0.36812755, -0.16805434, 0.058912653, -0.20172767, 0.121620975, -1.2375542, -0.053789504, 0.06944469, 0.44731686, 0.18316795, 0.21084066, -0.13518105, -0.09909624, -0.89357716, -0.29295847, 0.080514215, 0.07401656, -0.691969, -0.10855177, 0.06016143, -0.25256905, 0.11127698, 0.13043682, 0.10992268, 0.6433308, -0.1274572, 0.18884873, 0.1291437, 0.15915631, -0.45760003},
    {-0.0767558, 0.024896357, 0.033108298, -0.24784428, 0.03849829, 0.57015705, -0.026167404, 0.1717778, 0.044816244, 0.25582105, 0.040376604, 0.14578491, -0.21385187, 0.18990657, -0.05867464, -0.22413987, 0.007168199, -0.093095325, -0.106858864, -0.195792, 0.19402274, 0.04468663, 0.12244342, 0.27213156, 0.13374674, 0.10735444, 0.2434001, -0.16182831, -0.05680521, 0.33002213, 0.04929297, -0.037228517, 0.054787956, 0.41059437, 0.4768083, -0.21842863, -0.08214756, -0.11129626, 0.2668702, -0.036443073, -0.003376869, 0.10240454, 0.3035556, 0.67919385, 0.43252432, -0.22851099, 0.33741507, -0.5146362, -0.0430514, -0.10941116, 0.03052831, -0.13135038, 0.012442012, 0.1745279, -0.059596207, -0.19031234, -0.0049110893, -0.070135206, 0.092739105, -0.053190425, -0.027029822, 0.040138394, 0.20113048, -0.19330639},
    {0.25690824, -0.05206236, 0.034086738, 0.9331572, 0.044633392, -0.10477039, -0.067237124, -0.013998536, 0.20310105, 0.28654125, -0.058953665, 0.9344522, -0.5045703, -0.1889636, 0.08910085, 0.32506275, 0.05134207, 0.039422814, -0.27052015, -0.1508365, -0.19998807, 0.36315545, 0.033242486, -0.10236523, -0.36573538, 0.15642227, -0.40408143, 0.004127588, -0.0107246535, 0.56634915, 0.21560372, -0.034618016, -0.07237582, -0.50957644, 0.5432882, 0.044662308, -0.031508427, 0.14353201, -0.18076527, 0.2787246, -0.2016868, 0.48972052, 0.15170889, -0.3388207, 0.08907681, 0.090782434, -0.06589734, 0.76627195, 0.7786975, -0.71106863, 0.037141256, 0.9087439, 0.6308931, -0.27115524, -0.038166672, 0.24445905, -0.22573873, -0.47277844, 0.5133433, 0.9353148, 0.1821181, 0.11238461, 0.13203765, -0.12710874},
    {0.092533335, 0.028341897, -0.08671837, 0.172203, -0.10176366, 0.7158113, -0.034166593, -0.010815073, 0.016980011, -0.046398405, 0.20865625, 0.3291889, 0.020277716, -0.064541966, 0.020787885, 0.0777362, -0.09294919, 0.105301976, 0.09852847, 0.064884864, -0.37821284, -0.16835913, -0.15723881, -0.0040673767, 0.17710999, 0.5522018, 0.016214393, 0.021463914, -0.10515678, 0.124136634, -0.010351718, 0.07431136, 0.09645782, 0.35155493, -0.43791544, 0.091009796, -0.07634628, -0.51159376, -0.17961611, -0.961194, 0.22997281, -0.44372517, -0.011899467, 0.44166666, -0.18218717, 0.17516287, 0.052982762, -0.68172026, -0.7001693, -0.3788154, -0.17979413, -0.010998558, 0.028197194, 0.017483164, 0.62524027, 0.14626929, -0.13089086, -0.30372787, 0.7495557, -0.09152778, 0.05938336, -0.015121856, 0.1838422, -0.61103535},
    {-0.0315865, 0.17874077, 0.12001136, 0.081882335, 0.0794061, 0.2915665, -0.0029956382, -0.06567804, 0.52819836, -0.051754635, 0.14510015, 0.049925122, -0.3128798, 0.1678448, -0.00074753934, -0.2983441, -0.05816451, 0.13469233, 0.2202489, -0.16410537, 0.099751845, 0.07146499, -0.08129554, -0.3718189, 0.02772937, 0.31168482, 0.44573194, -0.019117517, 0.11875676, 0.056554638, 0.15429467, 0.0032494797, 0.27148908, 0.2643158, -0.7281619, -0.2854952, 0.024233751, -0.47831511, -0.06873418, -0.40704966, -0.18085662, 0.09352877, -0.29759783, -0.4640284, -0.5125986, -0.08322863, -0.06025581, -0.44334257, 0.0769234, -0.56565297, -0.1815527, 0.016116772, 0.08451929, -0.20844981, 0.48749948, 0.07360968, -0.12157797, 0.020942036, 0.14530967, -0.073064096, 0.050172724, 0.005193338, 0.042405263, -0.7373079},
    {-0.46079144, -0.11131915, -0.21522203, 0.09226565, 0.25881338, 0.18803196, 0.15290226, -0.07648706, -0.013302154, 0.0090373065, 0.16647501, -0.50885177, 0.17061836, -0.1323144, 0.119514056, -0.11632022, 0.020085521, 0.0588163, 0.0036052905, -0.22616236, 0.0744783, -0.21531993, 0.092391156, 0.09710174, -0.15527524, 0.0036545694, 0.30120173, -0.075168855, 0.41575903, 0.06640483, 0.19745514, -0.15292738, -0.015637375, -0.007387922, 0.1602059, 0.0014938734, -0.12745965, 0.04295295, 0.338216, -0.24560654, -0.1954058, -0.20243677, 0.054956052, 0.12841944, 0.010760653, -0.1297463, 0.017539809, -0.5826544, -0.36669293, 0.22241096, -0.089031495, -0.06893189, -0.41941693, -0.1648995, -0.39241683, -0.3494767, -0.12562507, 0.123697795, -0.03901248, -0.21276651, 0.06862275, 0.12046346, 0.3141019, -0.11064319},
    {0.28333196, -0.014139428, 0.12995201, 0.049611166, -0.03236081, -0.0074766055, -0.08092587, 0.050986353, -0.0041400907, 0.063661, -0.06543878, -0.26767007, 0.07995273, 0.020963732, -0.175057, 0.09554866, -0.010389387, 0.016220724, 0.036206253, 0.11095277, -0.25996804, 0.17093742, 0.0043771956, -0.068767585, -0.28817353, -0.020716371, -0.29154527, -0.19865486, 0.019518698, 0.35525203, 0.021999856, -0.035580575, 0.17481817, 0.14862199, -0.09450475, 0.20969345, -0.22897547, 0.40971604, -0.06855942, -0.2369423, -0.08889845, -0.4457187, -0.42636815, 0.33431473, 0.1242346, -0.0026099223, 0.20869371, -0.2600937, -0.038186993, 0.009026397, 0.095005736, -0.25646856, -0.26993126, -0.24458213, 0.11320425, -0.3974858, -0.31960753, 0.310697, -0.3141321, 0.102564044, 0.045962717, -0.14317846, -0.3980689, -0.139823},
    {0.89136136, 0.050329987, 0.27023807, 0.21356906, -0.09224274, -0.119208574, 0.01583264, -0.09165001, 0.1989182, 0.081840515, -0.0067570065, 0.029635271, -0.20170271, 0.027025905, 0.14832707, 0.091531605, 0.2611157, -0.02396915, 0.0091857705, -0.11276658, -0.39978707, -0.53101575, 0.27308542, 0.119279966, -0.17415796, -0.32633993, 0.5270347, -0.1510169, -0.033163413, -0.48919505, -0.11408667, 0.0749275, 0.016997375, -0.11910345, -0.3383487, 0.16452679, -0.080906324, 0.38983124, -0.07362598, 0.21743113, -0.014364008, -0.7784514, -0.18566336, 0.18858345, 0.16471845, 0.049761057, 0.17196731, -0.04643742, -0.43271247, -0.08152536, 0.2481636, 0.22777377, -0.090732045, 0.11864396, 0.41526663, -0.014820092, -0.042443212, 0.24386834, -0.6986384, -0.065590866, 0.10635564, 0.17629582, -0.117853336, 0.031539127},
    {-0.2703134, 0.04127579, -0.048276607, -0.11330215, 0.10625331, -0.955251, 0.040451694, 0.19862352, 0.22354922, -0.16134144, -0.02153248, -0.6834337, 0.41515407, -0.0004702289, -0.12735344, 0.005726397, -0.22918724, 0.049942866, -0.171349, -0.0812969, 0.15116425, -0.3941672, -0.11694909, -0.15741841, 0.038458418, -0.7319336, -0.60415703, 0.046216894, 0.1863457, 0.17979977, 0.07792777, 0.04923561, -0.123521596, 0.40010843, 0.2845283, 0.030157559, 0.02983581, 0.8550246, 0.25155142, 0.34012473, 0.051476717, 0.19978449, 0.07945956, -0.050649293, 0.47484568, -0.09491552, -0.034521554, 0.2372142, 0.19716848, 0.6359849, -0.21065703, 0.019903144, -0.2476099, -0.048276912, -0.5029569, 0.09347005, -0.11783037, 0.5617639, -0.34961247, -0.17737582, -0.063682035, -0.014713749, -0.37935245, 0.4315834},
    {-0.2791115, 0.29506433, -0.107414864, -0.2872728, -0.007279382, -0.12488599, -0.07543028, 0.082314834, -0.3812561, -0.23304808, 0.022140251, -0.109128885, 0.21174958, 0.12168587, -0.03396349, -0.6580391, -0.060824048, 0.012658757, -0.07393499, 0.05382154, 0.43460292, 0.2603796, -0.022167994, 0.19341749, -0.12507074, -0.026321739, 0.27365032, 0.11965723, 0.30872282, 0.15218794, 0.030836461, 0.03441581, -0.15612441, 0.2771435, 0.3283842, 0.056847364, -0.21182415, 0.012255075, 0.5748611, 0.09983585, -0.04505415, 0.6590221, 0.23524006, -0.14079356, 0.19879204, 0.01043692, -0.08725766, 0.117449805, 0.5355181, 0.049463794, 0.008979756, -0.15644416, 0.015625473, -0.04589096, -0.4081434, -0.08105672, 0.11971123, -0.022852985, -0.11236275, 0.29110232, 0.029025849, 0.10046187, 0.24272251, -0.18732692},
    {-0.23866652, -0.060875148, -0.024738671, 0.0804377, -0.058208466, 0.48047885, -0.08250001, -0.50632334, 0.100669965, 0.30121553, 0.15758915, -0.4090777, 0.5167231, 0.14169021, 0.012129543, -1.0843986, -0.07148103, 0.16140474, 0.11054198, 0.07258783, 0.931006, 0.019276347, -0.00424476, 0.30881917, 0.076672986, -0.29851437, 0.62827426, -0.04413921, 0.42924604, -0.10972504, -0.12902658, 0.0036013706, 0.19991119, -0.42621788, -0.42165306, -0.11035642, -0.007992461, -0.09077942, 0.7153693, -0.512675, 0.14087512, 0.05174161, -0.29617614, -0.5094507, -0.2219762, -0.001775538, -0.04956025, 0.29535705, 0.5875091, 0.30195475, 0.014954015, -0.33283427, 0.3494511, 0.16532214, -0.14549854, -0.24211617, 0.2068396, -0.19576271, -0.48228636, 0.46083385, 0.18170094, -0.059832532, 0.4549099, -0.39185083},
    {0.4246524, -0.055510417, -0.07051077, -0.43607685, 0.17100126, 0.44820386, 0.04216748, -0.26462635, -0.2690885, 0.07091838, -0.09424337, 0.40537825, -0.45078883, 0.051471077, 0.15393199, 0.12580611, 0.10484342, 0.0059705586, 0.19466002, 0.109438896, 0.13901596, 0.064069174, 0.11356481, 0.22053848, 0.30439514, 0.27501932, 0.14492692, 0.17243053, 0.33207506, -0.24693991, -0.07415381, -0.13154922, 0.07441566, 0.051630843, -0.3961576, -0.18200849, -0.063859366, -0.81152904, 0.09180484, 0.18821187, 0.017908322, 0.1717313, -0.20954911, -0.10970453, -0.60029536, -0.06508005, -0.29790437, 0.27290997, -0.17846037, -0.38658068, -0.085913315, -0.2344541, 0.164999, 0.118349314, 0.31110194, -0.25229883, 0.14639927, 0.08786685, -0.35848498, -0.3653153, 0.010438676, 0.16298851, 0.30690643, 0.17999166},
    {0.03405878, 0.030244442, 0.013616641, 0.28590128, -0.025925169, 0.21989328, 0.08630549, -0.16563655, -0.370035, 0.11655956, -0.26132208, -0.22621591, 0.4191357, -0.1407495, -0.057585, 0.17224409, 0.034793552, -0.03123214, -0.28179842, -0.24478248, 0.0031753061, -0.09201848, 0.21035817, 0.06569109, -0.012971707, 0.19319615, 0.47334275, 0.1363418, 0.03269777, 0.000688222, 0.05286934, 0.16295269, -0.48287442, -0.25680727, -0.21356124, -0.0028457912, -0.03247414, -0.027437607, 0.3685168, -0.22932072, -0.08354287, 0.15476243, -0.6026609, -0.36706385, 0.010053447, 0.14057747, 0.15304632, -0.17314026, -0.24509794, -0.0050165616, 0.036446817, -0.17143913, -0.11711341, -0.04825081, -0.02078452, -0.33448046, 0.14796273, -0.6934233, 0.028087758, 0.22735192, 0.037508287, 0.013999037, -0.28577632, -0.46851975},
    {-0.17768066, -0.09845758, 0.07845383, 0.0853711, 0.26387602, 0.30562717, -0.010600967, 0.26154718, -0.45920554, -0.16718295, 0.16743395, -0.028025506, 0.031798474, -0.04498123, 0.090917006, 0.32466766, 0.16418958, 0.026003709, -0.26639757, -0.084604435, -0.13186793, 0.34748477, 0.009842235, -0.27304322, -0.3634424, 0.8187417, -0.40580758, 0.023054259, -0.10447077, 0.30139002, 0.1011139, -0.1382074, -0.16273607, -0.40299967, 0.15978514, 0.1175312, 0.06652875, -0.24925344, -0.49679372, -0.4053682, 0.042013656, 0.20231864, -0.26267675, -0.053470798, -0.25535914, -0.1417876, -0.122149855, 0.124838084, 0.12455965, -0.37372023, 0.047050707, 0.13945766, 0.41777205, 0.10026953, 0.16752179, 0.26322004, -0.04508967, -0.5163328, 0.6815249, 0.29525384, 0.0005626597, 0.07510664, 0.30635893, -0.06896974},
    {-0.5940985, -0.013397144, 0.067523964, 0.37310454, -0.003118749, -0.31820443, 0.023927711, -0.23885392, -0.17892313, 0.12800863, -0.059361786, -0.4388807, 0.29690194, 0.04390007, 0.14171986, -0.2838754, 0.112096585, 0.018728903, -0.040793423, 0.034848668, 0.28268418, -0.33307588, 0.00049476343, 0.22768848, -0.0005811214, -0.19106074, 0.09159505, 0.16850369, 0.12389758, 0.0947807, 0.087494984, -0.11030498, -0.08982097, 0.09846868, 0.537412, -0.26089433, -0.20791526, 0.32381368, 0.49429274, -0.2590609, -0.040677443, -0.23334406, -0.17092437, -0.2389224, -0.028291376, 0.043185387, -0.09309356, 0.02886264, -0.13370597, 0.38747582, 0.07065183, -0.09580131, 0.070596606, 0.075653575, -0.45155618, 0.11963622, -0.048474602, -0.13443741, -0.12706433, 0.07656924, 0.19577597, 0.20949593, -0.33639458, -0.4236934},
    {-0.4472389, -0.050872877, -0.13471866, -0.6829164, 0.055014722, -0.011445743, -0.09247453, 0.077744044, -0.10114489, 0.107156366, 0.21784352, -0.14183064, 0.20953059, -0.003926717, 0.055029124, -0.17310864, 0.19921444, -0.17019236, 0.30493352, 0.03457084, 0.54195195, 0.12929848, -0.043363284, -0.15449454, -0.16212852, -0.19305317, 0.23331879, -0.2982897, -0.013257251, 0.50412416, 0.027682602, 0.12394951, 0.13448277, 0.39969432, -0.25892878, 0.3251373, 0.17659454, -0.28647628, 0.17758186, -0.3321381, -0.040152024, 0.4476363, 0.109381564, 0.026315454, -0.11970593, -0.15716238, -0.067779705, -0.25305504, -0.19791295, 0.04057875, 0.06593791, -0.98295844, 0.051350657, -0.005163167, -0.1443706, -0.038413625, -0.16380982, -0.018514179, 0.5447917, -0.0065372037, 0.06464879, -0.14106503, -0.49934188, -0.25039816},
    {-0.122047, 0.043170787, 0.04596676, 0.17879267, 0.1327873, 0.4108003, 0.07060803, 0.25802818, -0.117182344, 0.12898006, -0.04928644, -0.40139815, 0.3827497, 0.025108902, 0.008166292, -0.7814737, 0.105033964, 0.007814136, 0.101881176, -0.13155404, 0.28080866, 0.41170263, -0.026250077, 0.27010322, 0.113205194, 0.13709854, 0.27197492, 0.1853937, 0.15906678, 0.58622193, 0.019946923, -0.07358429, -0.021340366, -0.047751185, -0.59528816, -0.03358399, -0.10550556, -0.37195525, 0.20634939, -0.5246898, 0.047571268, -0.028020464, -0.09513355, -0.45993957, -0.10805305, -0.04687717, -0.15470822, -0.32116017, 0.16371338, 0.09420757, -0.09128027, -0.907628, -0.23774952, -0.093927704, 0.06724555, -0.06310369, -0.049461745, 0.050739277, -0.23442921, 0.47259447, -0.25812066, 0.21333833, 0.09852776, -0.54527634},
    {-0.4347679, -0.04624493, 0.0539588, 0.3230995, 0.07679034, -0.02295485, -0.00415515, -0.10509539, 0.53393483, 0.03282013, 0.01668526, -0.38146177, 0.26213744, -0.021573802, 0.1590532, 0.56791306, -0.028100012, -0.14997074, 0.26162356, 0.17905219, -0.82022023, 0.0124568455, -0.109755605, -0.03748877, 0.25200373, -0.021192007, 0.116504915, -0.15917231, -0.16364145, -0.24618761, -0.20891131, 0.14430015, 0.041874878, -0.43929484, 0.03762518, -0.18235165, -0.08135665, 0.08000204, -0.07500511, 0.26900095, -0.07224717, -0.52585524, -0.46695867, -0.04094035, -0.2658673, -0.036571607, -0.1014918, 0.06542129, -0.33030424, 0.04580068, 0.08817238, 0.3841758, 0.025952743, -0.014164173, -0.18779093, -0.019156579, -0.10014907, 0.08003485, 0.20002218, -0.31947848, 0.0947128, -0.0075385314, 0.39063847, 0.25512686},
    {0.17839426, 0.025797604, -0.075869024, -0.2515653, 0.079838976, -0.32347673, -0.021254495, -0.1183156, -0.03230244, 0.04888817, 0.32754827, -0.41443652, 0.37552264, 0.15686743, 0.12519468, 0.32820603, -0.02089205, -0.08897301, 0.21116848, 0.13119085, 0.10383348, 0.2856637, -0.20600373, -0.24198434, 0.30666655, -0.41371575, -0.30928767, 0.090920806, 0.2183324, 0.2798146, 0.045532055, -0.092836216, 0.053272225, -0.22880413, -0.05344068, -0.02043467, 0.13704626, 0.26978335, 0.28012154, 0.366616, 0.2828506, 0.16952927, -0.16679063, 0.26179138, -0.06237853, 0.021010688, -0.11719865, 0.024707962, 0.16527164, 0.45336056, -0.35782865, 0.025876662, -0.49575207, 0.10875103, 0.15579812, -0.12641113, 0.09059949, 0.02243044, 0.21884798, -0.23000574, -0.041174665, -0.056940064, -0.6992112, 0.42482924},
};

static const float agent_ac_actor_pi_net_fcs_1_bias[64] = {0.2842388, 0.13501559, -0.023480432, -0.3921185, 0.23661551, 0.18260582, 0.069155104, 0.16421083, 0.08375501, 0.033641193, -0.112138666, 0.2894089, -0.020320596, -0.025095304, -0.026657576, -0.37118456, -0.044911288, -0.03974576, 0.25485784, -0.28087658, 0.23647724, -0.33529142, 0.16836701, 0.14611977, 0.039053872, -0.26484755, 0.055023998, -0.056161135, 0.051924523, -0.41763848, 0.06271749, 0.05009035, -0.058931965, 0.5970593, -0.24120454, -0.040219836, -0.12846729, -0.25304472, -0.020797597, 0.4498819, -0.14083898, 0.6469904, 0.35548574, 0.24105568, -0.08075693, -0.008368833, -0.11479485, -0.16271262, 0.14048742, -0.33161223, -0.12965578, -0.31668213, -0.17536421, -0.077607825, 0.48995, -0.16447906, 0.08646697, 0.38088697, -0.1541154, -0.028625412, -0.04771276, 0.10965383, -0.051437523, 0.070822775};

static const float agent_ac_actor_pi_net_fcs_2_weight[64][4] = {
    {0.47858578, -0.41681138, -0.4178108, 0.38482895},
    {-0.003162633, 0.010604917, 0.0042877416, -0.011493707},
    {-0.004389158, 0.0030235143, -0.0074064783, -0.043472182},
    {-0.17457877, -0.2646834, -0.22236721, -0.5364588},
    {0.00068266055, -0.012564078, 0.018504767, -0.0014648022},
    {-0.32279512, 0.36971366, 0.12240239, -0.49363008},
    {-0.010570984, -0.007057777, -0.009766271, -0.021947844},
    {0.00026308838, -0.055274997, 0.010728926, 0.04715959},
    {0.034349147, -0.06892209, 0.42192626, -0.25675583},
    {-0.03482996, 0.10024487, -0.0049615987, 0.058122467},
    {0.0010240684, -0.018992268, 0.025899922, -0.025287922},
    {0.31400695, 0.2822349, -0.50764894, -0.45136395},
    {-0.54286176, 0.08712698, 0.5910851, -0.13513982},
    {0.01876427, 0.027070288, 0.048563577, 0.024815138},
    {-0.027232857, -0.0073552765, 0.026540857, -0.06084798},
    {-0.4924078, -0.2404077, 0.79259783, 0.10510829},
    {-0.028082918, -0.021079475, 0.015195534, -0.07974911},
    {-0.0116723785, 0.09620562, -0.06467909, 0.059921935},
    {-0.064867005, 0.16036846, 0.15576883, -0.09354028},
    {0.01546466, 0.03863711, -0.0012887762, 0.013106192},
    {0.17061938, 0.06295496, -0.74659365, 0.2720531},
    {0.01416063, 0.07897044, -0.35094282, 0.42941254},
    {-0.028510543, -0.03729534, -0.032198094, -0.06427286},
    {-0.0014824329, 0.104231015, -0.045351908, 0.023225378},
    {-0.06421202, 0.1129231, 0.08547368, 0.011560022},
    {0.3573251, 0.007265024, -0.5854443, -0.41316804},
    {0.0008273831, 0.44661584, -0.064304784, -0.31451273},
    {-0.010915441, 0.05307369, -0.022174459, 0.002310116},
    {0.08568385, 0.021536186, -0.01324675, -0.25910908},
    {0.056634333, -0.27617586, -0.3891225, 0.37899098},
    {0.07590073, -0.10893409, -0.040907122, 0.012584817},
    {-0.0070181172, -0.00839906, 0.0049167117, -0.011786707},
    {0.012698959, 0.040385783, -0.0011227657, 0.030090502},
    {0.34232748, 0.13439526, 0.4846284, 0.347766},
    {0.5091238, 0.21094306, -0.49845478, -0.18016334},
    {-0.010731419, 0.015927296, -0.03163713, 0.095673285},
    {-0.009253386, -0.02743184, 0.027969275, 0.012805669},
    {0.3988511, -0.10499717, -0.5289738, 0.51136947},
    {0.16618374, 0.64920956, -0.016009293, -0.8307186},
    {-0.8655467, -0.2637256, 0.2961425, 0.085768186},
    {-0.026866484, -0.059420284, -0.06278683, 0.15442328},
    {0.06332243, -0.79833317, 0.043368164, 0.7291102},
    {0.052002173, -0.11159222, 0.06018351, 0.42444637},
    {-0.10070402, -0.09963777, 0.12468617, 0.3532198},
    {0.10389369, -0.0048370133, -0.3129697, 0.17431055},
    {-0.013831743, 0.012903625, -0.03994197, 0.010451344},
    {0.056029014, 0.0521431, 0.01576297, -0.007848028},
    {-0.46462432, -0.2121381, -0.24857008, -0.11344825},
    {0.035495784, -0.59036034, -0.51057816, 0.22965764},
    {-0.1784497, -0.4924682, -0.07076814, 0.7916739},
    {-0.011894151, 0.0012448209, -0.02695813, -0.019429754},
    {-0.24638103, -0.55466413, 0.14035518, -0.3155165},
    {0.016684996, -0.23980373, -0.10378244, -0.24887253},
    {0.00670556, 0.031831533, -0.002274654, -0.0063424995},
    {-0.6054765, -0.39694124, 0.18501653, 0.33249164},
    {-0.08773338, -0.18083055, -0.07390749, 0.013896475},
    {0.004552021, 0.017303344, 0.019130869, -0.007950545},
    {-0.09238186, 0.10304307, 0.23464681, 0.3573138},
    {0.40324026, -0.8569467, 0.18614389, 0.7955798},
    {0.061962936, -0.11502871, -0.38020197, -0.07789187},
    {-0.019436514, -0.0027784803, -0.022566734, 0.0063657085},
    {-0.03960163, -0.009467247, -0.01170171, -0.032174565},
    {0.044368397, -0.08920446, 0.27581134, -0.5069216},
    {-0.41974372, 0.04539822, 0.12764092, 0.35668233},
};

static const float agent_ac_actor_pi_net_fcs_2_bias[4] = {0.21756801, -0.078404464, 0.5055876, 0.14354962};

static const float agent_ac_critic_v_net_fcs_0_weight[17][64] = {
    {1.3674208, -0.4665951, 3.3588614, 0.5840124, 3.4301121, -1.0322651, 5.3515778, 0.7344581, -0.27109423, -7.8669386, 7.06018, 6.656792, -6.5147877, 1.3042217, 6.151962, 3.7363539, -1.4017551, 3.2641459, 6.89996, -1.1400157, -5.101754, 8.889063, 1.9947648, -0.98847586, -1.8461288, 1.0455214, -8.83918, -11.8759, 1.8654929, -2.6946976, 3.1698787, 0.11372664, 5.760293, -0.7450151, -2.2209136, 1.3848616, -5.51004, -0.44660288, -5.902251, 1.75893, 5.7247767, -1.0567555, 6.3023877, -3.2372937, 1.7385265, -0.3017833, -9.892128, 3.4504626, -4.975454, 3.1426845, 0.65607536, -3.1335971, -8.277158, 1.5735874, -4.546543, 1.5835319, -1.7909611, -2.2621477, 1.5970654, -0.34725633, 1.5380807, -3.6957304, 1.3047395, -6.8061905},
    {3.2556336, -1.2447033, -2.468132, -3.1998062, 1.5607697, 4.3330507, -1.9756694, 3.8304887, 3.271708, 5.453294, 5.9469295, 2.3901694, -3.118427, 6.3708663, 9.529309, 1.3227937, -0.04539578, 1.2506415, -2.1556911, -5.2794447, 2.4430428, -3.4704494, 4.6098685, 1.3648529, -1.5727799, -1.2476972, 2.026627, -4.1137295, -0.06984834, -0.6934758, -2.3395483, 5.509263, -3.2977228, -0.9269087, -3.6691408, -3.9215927, -2.6324358, 2.341755, 2.1611285, -1.535753, -0.6388298, -4.3294277, -8.075394, 2.3510973, 7.559025, 4.0436554, 0.8012475, 1.7571944, 1.757875, 3.2124739, -1.3521825, 3.252176, -4.02076, 1.7362231, -3.5094137, -2.1936398, 1.0822182, -9.4565115, -2.4390435, -1.430374, -0.09047167, 0.7083181, 12.458317, -3.8254557},
    {1.4395348, -1.0349495, 0.8957757, -0.4164709, 1.5401918, -2.5695581, -0.24744435, -3.2119486, 2.2313259, -3.936554, -0.06530731, 0.80333656, 3.9979112, -2.91635, -0.31377667, 4.3619447, -0.8140155, 2.9155185, -0.97468805, 2.8732574, 0.8822889, -0.03258307, -0.5434796, 0.30279496, 1.8710725, -1.9202814, -0.8002004, 3.006116, 2.2314746, 2.732056, -4.611999, -1.1348282, 0.40608987, -0.40266985, 2.8519921, 2.2528892, 2.7004485, 0.48401996, 0.40367487, 2.4565768, -3.180631, -0.023552861, 0.9604556, -0.15052046, 1.4040616, 3.0761826, 0.14724524, -3.9601288, -2.7926772, 2.5796585, 3.713856, 1.4256564, 0.46430334, 0.37864134, 2.3409128, -1.9789983, -0.16382748, -2.6599896, 2.2956843, -0.42997238, 2.7150795, 4.721605, 3.722362, -0.6662049},
    {-1.3410509, 8.624662, 3.2721539, 2.6268427, 2.600376, -6.5812263, -1.5194491, -0.23469959, -5.9594345, -1.7386007, 1.1089503, 6.045642, -1.4611202, 5.1620207, 1.397712, -3.4112792, -1.44564, -2.8151703, 0.09316819, 2.3774614, -0.3931542, -0.16478537, -0.09058409, 5.1227, 0.14910416, 1.0887575, -5.5282288, 1.1592649, 0.7369634, -3.7627823, -1.1584862, -0.63296294, 3.5009196, 3.4690886, -1.4998626, 2.2340362, -2.2136486, -1.3606648, -5.6613426, -2.7810605, -2.1963418, 2.4641204, -1.5354054, 3.3719974, 1.0403405, 4.5633383, 2.2128282, -1.5869681, 4.470928, -0.010885197, 1.1325512, -2.8767495, -1.4476118, -4.58153, -3.228188, 1.9113278, 6.180473, 3.1141086, 1.6966147, -1.9153794, -0.64257604, 0.25813183, -0.4275155, -3.6055827},
    {-2.9679425, 3.57131, -1.059135, 0.061370537, -1.527465, 3.378304, -1.8326187, 3.2416086, -0.29007584, 0.14326036, -0.26650724, -1.5855482, 1.7763239, -2.9711404, 1.5723349, 1.5951447, -1.2209029, 2.6039512, -3.0421662, 0.3183322, 4.0591316, 3.6695926, 5.4962955, 3.763137, -3.308022, 4.437236, -3.4638138, -1.1699504, 1.6626996, 1.4834273, -2.6396465, -0.4964082, -7.7347307, 1.350914, -1.2482498, -2.8893592, -0.5825612, -4.5589437, -5.7402062, -4.209577, -0.24614489, 2.1398265, 0.5361299, 1.3009925, -0.12368591, 2.3900723, -2.0208306, 0.88156235, -2.4573, -2.0540216, -1.4453326, -3.88912, 3.054951, -2.6739907, -0.6977279, 2.1670742, -4.5882106, 2.309177, 1.882297, 0.8126738, 3.644566, 0.28724977, 3.1633337, -6.240902},
    {0.3066496, -1.1972278, -5.260895, -6.4386296, 2.8659077, -0.5329526, -1.059938, -2.360831, 1.8971162, 0.53063655, -4.002456, -4.4110703, -1.580831, -2.2486727, -0.25485218, 5.617744, -5.6443105, 2.9773734, 6.062642, -1.4639202, -2.8738256, -0.1330719, 4.033301, 3.0327494, 3.8773296, 0.6242469, 2.878693, 3.2809877, 3.385722, 3.3768058, -3.1167467, -7.914732, -1.9890212, -4.68341, 2.2809007, 4.6138535, -3.7874715, -3.4123096, 0.82853353, 0.24243602, -1.6749501, 1.9339213, 2.4220037, -3.2089074, 5.2024617, 2.608735, -0.9616578, -4.213825, -4.9866076, 5.1551957, 1.7159462, -0.87919533, 3.6655009, 2.456261, 2.9207435, -4.4198275, 1.4321179, -3.898194, 4.241281, -3.0999007, 3.8665407, 3.23563, -1.260336, -0.35437658},
    {3.2417746, -3.5214639, -0.8096128, 1.3922925, 3.527475, -0.7319704, -2.4038918, -3.3015149, 2.0716035, -1.1416599, 5.420686, 0.3732977, 0.7699607, 0.597869, 0.008217825, -0.50325197, 1.8797569, 3.2417598, 0.14060396, -3.1436331, 1.502553, 3.5563052, 5.1296086, 3.1748583, 3.0904965, -6.996847, 4.284919, 0.07471532, -4.4676466, 4.1711283, -1.6785573, 2.836584, -2.8729622, -2.104416, 3.7765956, 3.8337545, 0.49486753, -4.8443527, 1.7049953, 3.0401404, -1.9935393, 5.3797116, -0.14707181, -4.001882, 0.8228584, 2.5294156, -4.2291274, -2.8491004, -2.7758229, 0.91257155, 1.7209969, -2.754973, -1.7470978, -4.925544, 4.66495, -3.7224774, 3.414285, 0.007048038, 1.4972429, 1.2157046, 3.184149, 1.1088474, 0.6982103, -1.0408946},
    {-0.70107967, 0.46876696, 2.4226234, -4.787381, -2.0711353, -0.50644296, -5.211049, -0.8907923, -0.9724149, -2.9517052, -0.8099175, 2.7447252, -2.442268, 4.842826, -0.36294264, 0.15585855, 0.079442956, 1.4501113, 0.97322315, 0.029262206, 0.41071823, -0.27292275, 0.7791918, 3.435051, -1.3312519, 0.75183374, -0.34969556, -0.09211569, -0.4162302, -0.741315, -0.52848077, 0.045358166, 1.0747211, 1.4419932, 2.3369389, -0.956041, -0.97242, 2.8785164, -3.206874, 1.3418276, -1.4821995, -0.12799202, -1.4448811, -2.4522922, 0.08056054, -0.71601, -2.5155637, 0.30349308, -2.018532, -0.12942216, 3.196296, -1.6219854, 2.738515, 0.1309772, -0.64138156, -1.3487104, -1.6849303, 0.66920024, 3.1228144, -1.2170466, 2.1541882, 1.2302761, 0.7314105, -3.0643556},
    {-3.643276, 0.28859848, -3.3758593, 1.7455246, 0.6465096, 1.3981562, 1.415978, 0.84885776, 0.7193006, 2.613428, -2.1734345, 2.3597233, -1.0808045, -3.9328933, 3.8204784, 0.45760125, 1.432993, 0.13417256, 2.8797138, -2.3430774, 1.3342152, 1.1966181, -2.1540978, -1.2899436, -0.65789974, 2.6645346, 1.3733045, -0.28011936, -0.21253891, 0.87985593, 0.9923343, 0.88228744, -1.4000697, 0.7992431, 0.024070174, 1.0197008, -0.6003797, -0.015195495, -0.43075544, 0.41789266, -1.9269695, 0.17806253, -0.3570812, 0.85733384, 1.0877184, -0.28867522, -0.88068146, -2.4840484, 1.2568163, -1.1468232, -0.6053063, -0.523595, -0.5336099, 5.374395, -3.062599, -1.8347906, -1.613651, -0.06987175, 0.28789538, 2.2104592, -1.0566521, -1.1254255, 1.4574925, -1.3744467},
    {-1.1507137, 1.7415421, -0.4500702, -3.596621, -1.3398802, -2.3192778, -3.2378848, 2.0952451, -2.6242533, 0.70363253, 0.26460454, 1.6363221, 0.21836138, 0.090441264, 0.9956315, -0.45967543, -3.5241988, -0.8446541, 0.24689636, 1.6367218, -1.930093, 3.94773, -0.46218967, 1.2821733, -2.428093, -3.6193829, -0.5079493, -2.3486395, -0.7830537, -3.680794, -2.7206917, 2.5752861, -0.6195643, -0.6555652, -3.2080948, -0.04554569, -1.4464204, 2.3219943, -1.8437951, -0.38526943, 0.05931251, 1.4154173, 2.7820325, -0.3567141, -0.9260703, 1.3389333, -4.4666843, 0.44136396, 1.7158676, 0.95049155, -1.3152896, 2.5620248, 1.9325379, -2.6377463, -3.6265397, -5.086507, -0.062197383, 3.102061, -1.8992708, 1.493515, 3.2834725, -2.2971482, -0.43880543, 1.98152},
    {-0.074552685, -0.01193609, -0.27628568, -0.0016563624, -0.3295924, -0.26028875, -0.09850988, -0.06471048, 0.43937868, 0.0014474451, 0.20868222, 0.04077607, -0.13799033, -0.091353044, -0.06839651, -0.24687734, -0.02288091, 0.1636784, 0.15097243, 0.15457968, 0.121179715, -0.118899465, -0.074812286, -0.13714588, -0.17492439, -0.16234379, -0.043342035, -0.16647604, 0.084850565, 0.21487209, -0.023444328, 0.8705818, 0.044210304, 0.38185966, -0.071505055, -0.43576732, 0.05519991, -0.3160016, 0.012969159, 0.029500062, 0.1813796, 0.22294919, 0.19427681, -0.029865127, 0.1059459, 0.12958585, -0.121315666, -0.34826753, -0.12192106, -0.022203887, 0.15676387, -0.086963184, -0.2976274, 0.97507113, -0.28292474, -0.10758242, -0.03836215, 0.023484219, 0.122305214, 0.70749056, -0.290243, -0.03519363, 0.00796879, -0.03148265},
    {0.008749902, -0.010824986, -0.15365943, 0.044858996, -0.38049078, -0.13702731, -0.36471382, -0.07865279, -0.14569053, 0.058075838, 0.026173225, 0.0004384745, 0.14652252, 0.08678471, -0.04374786, 0.04580174, -0.3816909, 0.28359067, 0.01123429, -0.015067614, -0.011395211, -0.06579206, -0.21058342, 0.1272261, -0.2035073, -0.046298407, 0.12831913, 0.011560515, -0.033122133, 0.056777984, 0.26848623, 0.39695942, -0.052176166, -0.0063901963, 0.2437614, -0.11780992, -0.06762696, -0.33784392, -0.1723572, 0.12224808, 0.041827347, -0.23348413, 0.12294963, 0.3635933, 0.008305948, 0.32282576, 0.10089557, 0.24178301, 0.04113763, -0.108345196, 0.15068665, 0.06918862, 0.05834714, 0.23203705, -0.11780397, 0.3134977, -0.0793841, -0.011410903, -0.04488623, 0.107044384, -0.046812013, 0.34034345, -0.104568385, -0.0551471},
    {-0.76387846, 0.20347811, 0.5653711, 0.12072014, 0.14423953, -0.2323864, -0.24081789, -0.19020335, 0.40243405, -0.06666916, 0.31566557, -0.5409466, 0.034945257, 0.2456796, 0.42334935, 0.46854585, -0.7322557, -0.12978594, 0.09447526, 0.09164644, 1.0220076, 0.8331022, 0.14710265, -0.020737162, 0.011772676, -0.15029381, -0.4547405, -0.4513283, 0.02295515, 0.03030143, 0.21705459, -0.2689826, 0.23747946, -0.00011924724, -0.46218705, 0.8162316, 0.75771165, -1.4430854, 0.089878626, -0.4392006, -0.06871896, -0.8029363, 0.23631185, -0.056857936, -0.12213762, -0.13587864, 0.60978, 0.046015713, -0.122659184, 0.60203075, -0.37011522, 0.18227136, 0.5121722, 0.42768452, -0.3702377, -0.3043926, 0.033212252, 0.22398396, -0.09429631, 1.2165499, -0.3593859, -0.11068213, -0.06548368, 0.007191267},
    {1.1386846, 0.16800667, -0.014366396, 0.09739405, -0.11209459, -0.075327285, -0.022621619, 0.45206967, -0.26276767, 0.038417988, 0.029812729, 0.0492313, -0.07836572, 0.24645829, 0.1721728, -0.21686113, -0.16935098, 0.2456095, 0.14252745, 0.14279382, 0.18779798, 0.080268115, -0.13175675, 0.27902344, 0.21471953, -0.13908939, -0.039311294, 0.23422508, 0.04590479, 0.20933522, 0.01400233, 0.42065734, -0.06837336, -0.0007224133, 0.29851255, 0.32297587, -0.008218557, -0.382904, 0.111145675, -0.28723034, 0.17590053, 0.07599284, -0.069057986, 0.111120075, 0.056360926, 0.06320005, 0.17542294, 0.16803388, 0.23886056, 0.40811452, -0.11647528, 0.06923325, -0.054247085, -0.25463706, -0.019030793, 0.26499134, -0.017704682, -0.018010555, -0.05938739, 0.62397856, 0.12105955, -0.25205895, -0.052983496, 0.103197046},
    {0.3082971, -0.1039766, -0.15019318, 0.018016547, -0.1264742, 0.036859084, 0.16759148, 0.45184243, 0.27899808, 0.015305973, -0.1679672, 0.33143142, -0.01606137, 0.031212714, -0.07005957, 0.1179437, -0.09542963, 0.058252744, -0.066012554, 0.0020727727, 0.02553545, 0.03580647, -0.13607754, 0.16564903, 0.08490567, -0.022254692, -0.09092599, 0.029856885, -0.023021244, 0.29011866, 0.15141076, -0.17854233, -0.032391217, 0.09546918, 0.043267, 0.68115646, -0.18262088, 0.16870697, -0.0593485, 0.011868736, 0.25829107, 0.10967318, -0.062570505, 0.07938818, 0.047051147, -0.113188855, -0.13602695, -0.33935562, 0.06561514, 0.005004184, 0.17358999, 0.04244866, -0.1654494, 0.23740348, -0.3888092, -0.020754358, -0.0010867394, 0.13159336, 0.002395715, 0.20682551, 0.13794005, 0.17289937, 0.035590403, -0.048120096},
    {-0.36454695, -0.0675101, -0.037664495, 0.08416709, 0.22508107, -0.06431219, 0.22535364, -0.2850283, -0.03252778, -0.051646523, 0.12007496, 0.19762865, 0.0806563, -0.10611883, -0.0070724543, 0.059929892, -0.18060566, 0.26902628, 0.071047805, 0.066577606, -0.658522, 0.17950253, -0.08003208, 0.1382097, 0.15246828, -0.05816088, 0.089309424, -0.016753156, 0.01702264, 0.26024473, 0.3971311, -0.13444367, -0.051970568, -0.13722254, 0.13234738, -0.57670254, 0.38577813, 0.5413194, -0.0023941908, -0.03971168, -0.4658064, -0.34652248, -0.04171593, -0.13352033, -0.052447055, 0.4076061, 0.121530816, -0.06601068, -0.052237745, -0.26492304, 0.34867775, -0.011108956, -0.033383843, -0.038436785, 0.004798787, 0.31705418, 0.0106923785, -0.054858934, -0.022108657, -0.22343461, 0.05005618, -0.16366954, -0.035909656, -0.03148747},
    {0.4972026, -0.002248963, 0.019747913, 0.049004436, -0.21773353, -0.044268876, 0.17653285, -0.18096168, -0.1421671, -0.057175167, -0.09028197, 0.031862214, -0.015152335, 0.016829545, -0.11177798, 0.014634914, -0.065525986, 0.31727278, 0.19560361, -0.0015336475, 0.34092763, 0.10809712, -0.1257092, 0.057516042, -0.086794406, -0.046271056, 0.04053608, 0.036039803, -0.023457203, 0.21037549, -0.07785535, 0.13341329, 0.0041043023, -0.44838557, 0.14717944, 0.23323411, -0.034992393, -0.38315967, -0.04267948, 0.18026674, -0.07490522, -0.15418626, 0.029038055, -0.10464003, 0.038641274, -0.17468438, -0.3123678, -0.24500535, -0.29737982, -0.1862944, 0.03075488, 0.002727623, 0.011156156, -0.15400769, -0.029899877, 0.162956, -0.003919528, 0.06348325, 0.11974394, -0.5573347, -0.002564211, 0.10081689, -0.05633171, -0.045308},
};

static const float agent_ac_critic_v_net_fcs_0_bias[64] = {3.7381282, -0.72627306, -3.1404886, -0.09578536, 2.9631374, -1.0976992, 0.97365814, -2.3990006, 4.2071786, 1.1726527, 1.190697, 0.7947238, -0.7180265, -1.4166924, 1.5578357, 3.3239934, -0.4988659, 2.5790105, -0.36576608, -4.6658444, 2.6310184, 1.2784303, 0.9807254, 3.196933, 3.8182876, -1.9746321, 0.32669884, 1.5528193, -2.8357785, 1.2810384, -1.7404879, -1.7343427, -1.5957776, -2.6955838, 3.8825374, 1.822343, 2.5998313, 0.13897374, 1.7663653, 2.1787665, -3.997355, 3.3898585, 1.3460944, -2.3924956, 1.8457072, 2.0981417, -0.8933571, -2.039722, -2.5076854, 3.234226, 2.7893496, -4.2544317, 1.4163297, -1.6333529, 2.3496947, -1.8542272, 0.6804285, -2.5400972, 2.6036336, 1.1150535, 3.1286163, 0.81241333, -1.7882965, -2.1454942};

static const float agent_ac_critic_v_net_fcs_1_weight[64][64] = {
    {0.7824473, 1.029264, 0.7876496, 0.7353651, 0.12288028, -0.63283986, -0.056595467, -0.25521126, 0.16401564, 0.7222844, -0.12551683, 0.71946627, 0.009464587, -0.9148592, -0.52423215, -0.7114205, 0.7216565, 0.8447575, 0.83510256, 0.7253742, -0.012469455, -0.631098, 0.6433398, -0.6479123, -0.8652142, -0.7266924, -0.95497596, 0.650433, 1.0126295, 0.23138152, 0.31547228, -0.38998666, -0.5485366, 0.44265413, -0.13102877, 0.877401, -0.6041185, -0.06462574, -0.6779938, -0.67527276, -0.053029314, 0.25637898, 0.8697431, -0.039197665, 0.9939847, -0.5531509, -1.0399534, -0.9099063, 0.8039489, 0.73878425, -0.47066265, 0.33845678, 0.70742977, 0.8435291, 0.78777987, -0.74270284, -0.97045815, 0.22647321, 0.61676997, 0.78365296, -0.6034312, 0.38994262, -0.7976378, 0.99515414},
    {-0.4600612, -1.3114039, -0.5498301, -1.3018272, 1.6322166, 0.26903397, 0.50073975, 0.6054435, -3.0155513, 0.0863316, 1.3537985, -0.3975966, 0.5449149, 0.46205372, -1.2854532, 0.38205507, -1.1742352, -0.61008537, -0.23428315, -0.26135248, -0.2864716, 0.37345144, 0.18753612, 0.46621227, -0.20290986, 0.2318819, 0.48583344, -0.34437844, 2.064276, 1.1792244, -0.8885161, -0.78020805, 0.3813733, 1.57098, -2.0137467, -0.45189252, 0.37723708, 0.2770047, 0.38549295, 0.5143474, -0.86418986, 0.017213054, -0.36117584, 0.55988693, -0.40312472, -2.8032813, 0.9860422, 0.3881561, -0.68502194, -0.5862812, -0.32015923, -1.1815212, -0.35001838, -0.386513, -0.25796744, 0.53791267, 0.25878912, 0.9540402, -0.30330804, -0.5083921, 0.108702146, 1.8670003, 0.45454893, -0.21494915},
    {-0.33602434, -0.49609184, -0.25547794, -4.024693, -0.4509713, 0.48158005, 0.0045628976, -0.77958673, 0.87639534, 1.5588533, 0.407309, -0.31500787, 0.81694907, 0.4792212, 1.1931312, 0.32884896, -2.0066519, -0.3644367, -0.47325382, -0.41372246, -1.482954, 1.9089234, -0.63258374, 0.26815465, 0.8116888, 0.31854233, 0.37341398, -0.4590707, -0.21296214, -0.17611961, -0.80535775, -0.74283737, 0.32951215, -0.66814613, -2.114432, -0.3005537, 0.4065984, -0.97093034, 0.32635918, 0.4913606, -3.159349, 1.1466565, -0.34311047, 0.6412668, 0.013500812, -0.8374208, -1.1153268, 0.43656844, -0.55893075, -0.2877474, 0.23631613, -4.345091, -0.25224996, -0.32331157, -0.36565405, -1.7450753, 0.2554683, 4.365746, -0.2830868, -0.34172955, 0.22411054, 1.705509, 0.4409803, -0.99164253},
    {0.0065211817, 0.7078621, -0.06870393, 0.9813924, -1.3365055, -0.22565004, -0.2751967, 0.35403582, 1.6409351, -0.5291557, 0.14110436, 0.14213173, 0.4925894, -0.16139795, -0.3942961, -0.18132846, 1.3566034, 0.18930654, 0.2793141, 0.372477, 0.26530161, -0.8246023, -0.5093923, -0.2780445, 1.4695562, -0.26870215, -0.00454407, 0.33532134, 0.4380944, 1.5463302, -1.2608575, 0.97328603, -0.21046783, -0.77862126, 1.4260473, 0.046129532, -0.43760258, -0.60238624, -0.26409784, -0.21388629, -1.297439, -0.16743563, 0.16897433, -0.12815988, 0.56014925, 1.1508857, -0.5962217, -0.20964882, -0.28675038, -0.030796623, 0.77140063, -1.0672233, 0.24191816, 0.31478003, 0.35245407, -0.4296236, -0.28108662, 1.0536001, 0.3829567, 0.12770015, -0.22817662, -0.8921982, -0.11822254, 0.061383825},
    {0.26257664, -0.24128133, 0.39380965, 0.446188, 1.1761122, -0.35830525, -0.25476336, 1.3113012, 0.15843372, -0.31036916, -2.2543626, 0.23681691, -1.2251936, -0.4067837, 1.6644346, -0.26787597, -1.1339594, 0.47648937, 0.3163654, 0.2406411, 1.0263715, -0.4650725, 0.9950135, -0.21119975, 0.66194016, -0.31626981, -0.31452453, 0.15705602, -0.12578608, -0.61599344, -0.24861589, 2.2810006, -0.2729182, 0.06929067, 0.06405904, 0.45223042, -0.17462675, -0.034691058, -0.2859323, -0.29456845, 0.9907509, 0.40968972, 0.50921094, -0.30808267, 0.4076025, 1.8949636, -0.20330559, -0.24455404, -0.35255608, 0.31502417, 0.73822284, 0.32631955, 0.35958242, 0.27218682, 0.16900745, -0.7910648, -0.39966482, -0.8491626, 0.36458263, 0.33509144, 0.06251805, -1.408027, -0.44107872, 0.091118135},
    {-0.48746577, -1.4019656, -0.39774537, -1.2995319, 3.9509382, 0.37522772, 0.40267122, -0.08255561, -1.044842, 0.600794, 4.0264397, -0.62347656, 2.817612, 0.44537553, 0.030490683, 0.680296, -0.9238884, -0.5279043, -0.9507002, -0.9157655, 0.61920613, 1.215917, -0.8667423, 0.8024801, 0.821723, 0.53246933, 0.45010403, -0.7452117, 2.8100865, 0.7326015, -2.512274, -0.46463993, 0.8332204, 1.2562636, -0.2485775, -0.45273614, 0.9179914, 0.95406985, 0.8645574, 0.637774, -0.4627626, 0.5523224, -0.61749405, -0.99606806, -0.9037521, -3.5157886, 0.4153302, 0.5445998, -0.5965438, -0.45247212, 0.7613187, 1.02465, -0.5578209, -0.6454712, -0.8699185, 0.2715963, 0.7583852, 0.02390919, -0.93825334, -0.5071347, 1.0650299, 2.6253366, 0.40469, -0.7459918},
    {0.9734551, -0.38486552, 0.9105179, 0.53099215, 0.650216, -0.78129697, 0.19493845, 0.4574264, -1.5005202, 0.8587153, 0.015545674, 0.8133216, 1.0395657, -0.92746276, -1.5908325, -0.89856714, -0.7700197, 0.9105602, 0.9218604, 0.71683776, -0.13195851, -1.0402825, 0.73310465, -0.78030455, 0.8960688, -0.69249713, -0.91737175, 0.7730648, 1.0832213, 0.7849708, -0.29167974, 0.9911152, -0.86421597, -0.1978585, -0.3559476, 0.83322567, -0.8385204, 0.9432007, -0.7617334, -0.9005016, 0.3604272, -0.44402218, 0.8075662, -0.15086254, -0.34544462, -1.4504838, 0.5299155, -0.9477828, 0.91513336, 0.94489795, 0.40229687, -0.07563913, 0.6431907, 0.81637055, 0.74668425, -0.85797834, -0.6839513, 2.1963673, 0.9308379, 0.927965, -1.555434, 0.040374544, -0.9980548, 0.20687528},
    {-0.98054355, -0.28994524, -0.7799156, -1.4458574, 0.56977534, 0.83780974, -2.3743124, -0.9223208, -0.6814603, 0.7303878, 0.48474976, -1.0021272, -0.41094655, 0.87508124, 1.5418514, 1.0872717, -1.8272363, -0.7013544, -1.1410602, -1.0403247, 0.25422966, 1.1513617, -1.5742762, 1.0678526, -0.054166842, 1.172318, 0.92526054, -1.1366491, 1.1091269, 0.11383775, -0.82001185, 0.34446776, 0.95261145, 1.2264781, -0.63794833, -0.83175665, 0.98043615, 0.22181311, 1.0983965, 0.9548695, -0.47919777, 0.69042057, -0.9257677, 0.1513971, -1.3581927, 0.75696427, 0.75405145, 0.75536406, -0.97947216, -0.8485203, 0.22598402, 1.0204059, -1.1382045, -1.194538, -1.2241904, 1.2758676, 1.0812188, 0.18459141, -0.8763201, -0.7932325, 0.4614204, 1.8555436, 0.75561845, -1.9795868},
    {0.5336531, 1.1367124, 0.5828169, 0.40572506, -0.5421366, -0.79674643, 0.5874677, -0.1905113, 0.010524771, -0.2904361, 0.454194, 0.7064998, -0.78553843, -0.5317148, 0.51584846, -0.5724556, 0.74977386, 0.48886243, 0.47095954, 0.5491326, -0.1633174, 0.47050318, 0.5636327, -0.7342582, -0.8702332, -0.4816771, -0.6040577, 0.6028137, 0.3244447, 0.7911419, 0.09450245, 0.09701096, -0.68102044, -0.89466083, -0.9177368, 0.6312902, -0.7421812, 0.011024772, -0.59770066, -0.65604764, -0.5637978, -0.0069502993, 0.4360852, -0.025771907, -0.011501361, 0.77294123, -0.33045214, -0.4756198, 0.4546479, 0.5335591, -0.2944178, 1.1367903, 0.5660829, 0.61476576, 0.6253571, 0.10354318, -0.5569824, -1.9889638, 0.54568267, 0.722349, -0.7304894, -1.3837376, -0.6031308, 0.82181615},
    {-0.5339204, 0.81879973, -0.6198783, -3.309672, 2.352394, 0.5622919, 0.2782859, 2.3422186, -0.90986824, -0.42137128, 2.4197767, -0.4555223, 0.22748598, 0.55202264, 0.054078653, 0.44236967, -1.7613587, -0.54638857, -0.65374917, -0.3220771, -0.15675303, -1.2524142, -0.82442546, 0.39187592, -0.51459324, 0.42919263, 0.5770047, -0.39384133, 0.48791742, -0.80581224, 0.31823242, -0.80130297, 0.2986814, 1.9074521, -1.7915304, -0.5507149, 0.3192286, 1.0479566, 0.38342777, 0.39166284, 0.061620124, 0.29507485, -0.5516719, -1.3645952, 1.7939537, -2.4744697, 0.59073913, 0.8383457, -0.057469234, -0.54538107, 0.5280246, 0.05526615, -0.49925166, -0.45689368, -0.4299824, 1.6133878, 0.43142027, 0.9862896, -0.21270587, -0.6442183, 0.12402544, 3.1266432, 0.7265438, -0.50584376},
    {0.90282834, 1.7897921, 0.90186507, 0.44925383, -0.94565094, -0.7484673, 0.16512835, 1.353465, 0.8131117, 0.33431935, 0.123155594, 0.8214009, 0.2593225, -0.76241934, -0.849568, -0.68596023, 0.6886093, 0.8346003, 0.97051996, 0.6524632, -0.032496702, -0.5533312, 1.0704663, -0.72208506, 0.35369533, -0.7663295, -0.7338546, 0.69914913, -1.1932515, 0.78656584, -0.2225023, -0.8717191, -0.66130424, 0.9716882, 0.75045305, 0.8866307, -0.6621537, 0.09714204, -0.80697584, -0.82787, -0.14354032, -0.14600496, 0.65036726, -0.17290969, 0.6196878, 0.10458593, -0.89683664, -0.79566514, 0.5887179, 0.74340236, -0.38985053, 0.3845065, 0.6502425, 0.71888083, 0.6446307, -1.2085489, -0.7191747, -0.281892, 0.7675942, 0.6734735, -0.1374962, 0.3155453, -0.79586905, 0.58524126},
    {-0.68435484, -0.89270073, -0.7226972, 0.43447855, 0.25964233, 0.97334445, 0.21135639, 1.4309702, 0.18143444, -0.074482076, -0.6510757, -0.58809394, 0.8263719, 0.59626234, 1.299206, 0.70862406, -1.856294, -0.83865416, -0.7386654, -0.7102542, 1.3685925, -0.2911295, -0.27747726, 0.727122, -0.20844962, 0.7649937, 0.7318167, -0.7162554, 0.20724726, -0.10282247, -0.99768573, 0.35512266, 0.92633426, 1.142307, -0.99551636, -0.8139799, 1.0182234, 0.16384092, 0.7089571, 0.674167, -0.73964036, 0.94542295, -0.61373365, -0.23001449, -0.3996069, 0.16985364, -0.26184025, 0.6064474, -0.900747, -0.7298019, 1.5032175, -1.5357435, -0.8103189, -0.7305394, -0.6938944, -0.0776914, 0.66083413, 0.50189674, -0.93589866, -0.7095696, 1.3965249, -0.0077461977, 0.9091788, -0.43343502},
    {1.0148622, 0.8844297, 1.0693418, -0.2720205, -0.06489695, -1.0129848, -0.34587705, 0.4442137, -0.04732451, 0.33490175, 0.35557392, 0.9745411, 0.31265417, -1.0152862, 0.19136383, -0.80982643, 2.8890903, 1.0078747, 0.98723394, 0.9993913, -0.54701406, -1.0410715, 0.92659307, -0.8964468, -1.3943489, -0.8168563, -0.9757459, 0.80467993, -0.64244616, -0.08408095, -0.24515131, 0.060115505, -0.84392256, -1.0804075, -0.20413153, 1.0330703, -0.9403638, -1.1514989, -0.8925612, -0.99100626, 0.93250895, -0.24810806, 0.9432241, 0.038668178, 0.01572833, -0.21927705, -0.5610685, -1.1583469, 0.13433671, 1.0973551, -0.42867658, 1.3650122, 0.9112713, 0.8456077, 0.72285044, -1.2628378, -0.82272243, -0.16046639, 0.93057936, 0.9659978, -0.010022909, 0.07094043, -0.9528297, 0.9719397},
    {-0.95272124, 0.16591908, -0.8766032, 0.6148354, 0.56297517, 0.8747472, -0.36458248, -1.254528, 0.83886665, -0.9322766, -1.5790305, -0.9398825, -0.011330302, 0.983671, -0.31956863, 1.0119158, -0.330408, -0.95769435, -1.1860838, -0.9628819, 0.54102445, 0.716521, -0.7794053, 0.9462874, 0.9584889, 0.91347206, 0.97253966, -1.073463, -0.24444675, -0.6267854, -0.5596836, 0.8668923, 1.1778076, 0.76631373, 0.7829336, -1.0017756, 1.0105352, 0.7766506, 1.156427, 0.96717054, -0.65868765, 1.2953267, -1.0308834, -0.19463648, -0.92385817, -0.124045946, 1.1761932, 0.72299033, -0.91974294, -0.82555103, 0.44496882, -0.47830114, -1.1275239, -1.1412705, -1.1656535, 0.594098, 1.1166012, -0.48450828, -1.194083, -0.93343174, 1.9197756, 1.1478125, 0.8903834, -0.8120893},
    {-0.43511885, -0.6240788, -0.43732545, -0.1796031, 0.4383371, 0.7490535, 0.15355852, -2.6384292, 0.8678437, 0.39645022, 0.25971943, -0.6504658, 2.0880668, 0.5215223, 0.17663296, 0.60552514, -1.1090515, -0.3691878, -0.70419, -0.95289797, 1.4347849, 1.1101614, -0.36767974, 0.7883461, 0.71200997, 0.8032869, 0.32377335, -0.87181866, 2.3987856, -1.8607905, -2.6674006, 0.27435812, 0.6379821, 1.2401011, -2.5423348, -0.47959244, 0.60481286, -0.46025592, 0.7565108, 0.40717337, -1.7277355, 3.3318582, -0.68965566, 1.0882893, -1.706981, 0.47692576, 0.72182953, 0.6750885, -0.40635517, -0.39494902, 1.8864498, -0.07642707, -0.79768777, -0.77906865, -0.8041232, 1.454337, 0.65608823, -0.4606406, -0.54390085, -0.4282047, 0.71749246, 3.489594, 0.4026117, -0.9309334},
    {0.84215343, -0.5111333, 0.6830972, -0.45350456, -1.4696091, -0.75859004, -1.4295181, -3.1269734, -1.1273113, 0.9667803, -0.19631651, 0.7775417, -1.643687, -0.9344695, -0.34650168, -0.9129091, -0.7486933, 0.78882194, 0.84464556, 1.051361, -2.01447, -0.5414583, 0.5069722, -1.0353156, 0.16583164, -0.976193, -0.8600181, 0.88809234, 0.052811794, -0.58660257, -0.29484206, -1.1763376, -1.0144378, 0.5405429, 0.8683951, 0.74147516, -1.0442334, -0.7321189, -0.929952, -0.7988794, 0.73748237, -0.44864947, 0.7949841, 0.9912847, 1.6155988, 0.3186582, -1.6406587, -0.88953125, 1.1380466, 0.8558867, -1.9222376, 0.1771548, 0.9163189, 0.9236093, 0.98772097, -0.14566281, -0.8827762, -0.062337313, 0.8806199, 0.85247076, -1.3391786, -0.30278376, -0.80010855, 0.78277767},
    {0.28477234, -0.08025419, 0.087604485, 2.3425877, 2.070371, -0.20762949, 0.15959266, 2.9305844, 0.08260764, 1.0213724, 1.865545, 0.19242537, 1.2621865, -0.2045653, -2.2358136, -0.11931109, -0.31803545, 0.21389975, 0.30064902, 0.28810737, 0.21579665, 0.1042008, 0.3655709, -0.21849816, 0.052242, -0.17639394, -0.3473014, 0.16496563, -0.3890477, 1.6865995, -1.1877416, -0.25171545, -0.21137126, 0.49647602, 0.8842398, 0.2613502, -0.31776452, 0.46943817, -0.20976603, -0.16592637, 0.38645807, 0.50510556, -0.025117919, -0.4689353, -1.2117168, -1.6323721, 1.5408713, -0.21351741, 0.06272008, 0.21371001, -0.25877377, -1.5060018, 0.06706443, 0.19092919, 0.29239675, 1.7474045, -0.17726184, 1.2368934, 0.22636962, 0.27020907, 0.09378847, 0.7490447, -0.2561112, 0.11904138},
    {0.7389862, 0.3437041, 0.7803427, 0.35224944, -1.9634221, -0.5270392, 0.6234006, -1.6907686, 2.3685298, -0.35923722, -0.7608599, 0.5989266, -0.7355443, -0.743269, 0.68898726, -0.6843771, -0.2699029, 0.66755265, 0.69887197, 0.7414275, -0.4887202, -1.2029465, 0.049637068, -0.508178, -0.6542762, -0.6166237, -0.75643593, 0.5954575, -0.05433028, -1.2988951, 0.18363486, -0.13394874, -0.59473854, -0.8399058, -0.5042889, 0.69891214, -0.51839954, -0.020618578, -0.58325213, -0.73641723, 0.11264047, 0.32435897, 0.6166092, 0.08027793, 0.06498932, 0.852907, -0.48860824, -0.75619537, 0.5091245, 0.68434024, 0.06975573, -0.42020348, 0.46319357, 0.6735161, 0.64032966, -1.5621271, -0.6280773, 0.41826236, 0.5925605, 0.6407306, -0.68737817, -1.5273839, -0.76295114, 0.66638654},
    {0.6026141, 0.2820334, 0.57159287, -0.22172292, -0.10450675, -0.6600128, -0.118067846, -1.8325216, 0.64437217, 1.1293669, 0.504074, 0.469315, -0.5927883, -0.6595199, 0.63278997, -0.4430803, -0.15778852, 0.59772474, 0.3679514, 0.5701148, 0.4757096, 0.2384446, 0.8058313, -0.3133561, -0.15962178, -0.5482508, -0.673217, 0.51339793, 0.39561382, -1.6701391, 0.049227767, 0.7157397, -0.37999272, 0.35617927, 1.0425626, 0.58870655, -0.39515042, -0.5094947, -0.37345836, -0.5266157, -0.7831083, 0.16467609, 0.50113726, -0.86429065, 0.11150433, 0.7702628, -0.82565093, -0.60580957, 0.41167402, 0.65438414, -0.0914709, 0.63223547, 0.4725819, 0.39368027, 0.40408376, 0.5761801, -0.36268738, -0.91340154, 0.26779568, 0.69666934, -0.015540403, -0.91535974, -0.6513751, 1.1262478},
