static const float agent_ac_actor_logstd[4] = {0.61801636, 0.66619337, 0.5605657, 0.656599};

static const float agent_ac_actor_pi_net_fcs_0_weight[17][64] = {
    {1.1933113, -0.46973753, -0.3954198, 0.0806468, -1.0218407, -0.8390708, -0.7897541, -0.71941566, -0.009011391, 2.2094064, 0.53428155, -1.2062324, -0.46296608, 0.09148429, 0.43292403, -0.94859153, 0.5579162, 0.95841223, -0.2931107, 1.0340427, -0.6719732, 0.32466325, 0.7415572, -1.7937424, 1.0354776, 0.09187613, 0.31821683, -0.22777668, -0.49540138, 1.6306984, 1.1256672, 0.5781059, -1.5149871, 0.07765501, -0.10022878, -1.4004992, 2.672381, 1.0292618, 2.4893897, -2.2144403, 0.059158247, 0.7693859, 0.44069335, 0.49092436, 0.7517293, 0.86026543, -1.0550282, 0.6928766, 0.58346856, 1.5693915, 0.8324651, -0.5530789, -1.0699874, 0.36268628, 0.1958723, 0.6175084, 0.30359626, 0.3728136, 0.14182056, 0.43040073, 1.5513439, 0.1653247, -0.5480983, -0.4432242},
    {-1.269254, -0.27121028, -0.57868165, -0.13454178, 0.124908604, -0.5482172, 0.09181196, 0.15160078, 0.33384863, -0.26929486, -0.9266939, -0.2603323, -0.0918701, -0.036890432, -2.3190935, 0.0021209475, 0.49290803, 0.7221443, 1.253364, -0.05714525, 3.3623831, 1.4575386, 1.1994748, -0.785448, 0.8618132, -0.9921189, 0.36505795, 0.9292512, 0.9642011, -0.2951753, -0.66279954, 0.48248965, -1.0268203, 1.4787536, 1.5294856, 0.42308223, -0.021983592, 0.6827291, 0.4452903, -1.8805399, -1.0339813, 0.2062629, -0.5917038, 0.738578, -0.026971009, 0.63043207, 0.76280075, -0.07003455, 0.4613487, -0.8532487, 0.6340685, -0.07156098, 0.82225424, 0.53107256, -0.57856697, -2.3634665, -1.6228492, -0.09073655, -0.08287481, -1.1676736, -0.73368376, -0.1656995, 1.1383413, 1.5870802},
    {0.03388138, -0.956508, -0.7747285, 0.1352083, -0.56024265, -0.3701686, -0.56543314, -0.9585992, -0.16421697, -0.3641599, 0.8993423, 0.41545776, -0.58350194, 0.43088916, -0.7267692, -0.97193974, -0.28091162, -0.47317237, -0.07094315, 0.08507721, -0.25664833, -0.48572046, -0.4837562, -0.4802624, -1.0010937, 0.08202201, -0.6506143, 0.5339039, 1.1853552, -0.29554123, 0.056763355, 0.29907128, 0.28126687, 0.062453456, -0.97315973, 0.6776741, 0.4220071, -0.17481478, 0.16032028, -0.0136700785, 0.7039321, -0.9741127, -0.4162949, -0.69723475, -0.428783, 0.2544503, -0.09188402, -0.7203058, -0.07199851, -0.3011471, -0.209552, 0.58332604, -0.588531, -0.5508229, 0.37133512, -0.42157784, -0.23639472, -0.100420885, 0.9657196, 0.38447088, -0.27172545, -0.49908984, 0.22659612, -0.6707215},
    {0.07069437, 0.14109507, 2.2580695, 1.5252622, -1.7474892, -0.21477586, -1.4029527, -0.97228175, -0.82823986, -0.94055873, 0.30357718, 1.9128187, -1.1577201, 0.6120792, 1.0035921, -0.51583344, -1.961861, 0.092675924, -0.98645157, -0.5737505, -1.9827343, -1.9197017, -0.074718796, -1.1009157, -0.32956052, 1.5839546, -0.16860971, -1.4670498, -0.9279507, -0.59274983, 0.58073944, 0.30084187, 2.3322608, -1.6260388, 0.10245766, -0.46906632, -0.8457097, 0.48529834, -0.9901928, -0.60312396, -0.24296877, -0.42114058, 0.70659935, -1.1561698, -1.6708242, 0.47470838, -1.3905619, 2.670196, 0.376659, 0.04272687, 0.36260206, -0.4014, -0.965895, -1.2752056, -1.1443607, 1.153253, 0.99446905, -1.2121208, -1.2643363, -0.14319107, -0.09217851, -0.8426406, -1.7022358, -0.7489444},
    {-1.062695, -1.3098475, -0.5643491, -0.23551571, -0.19993402, -2.0881798, -1.4645194, -2.0810652, 0.4607272, 1.0460336, 0.5933497, -0.37794104, -1.8621085, -0.6196676, 2.176668, 0.9659296, 1.8665559, -0.68936026, 0.3499312, 1.9031636, -0.30662838, 0.06708893, -0.94551957, -2.0755258, 1.7680788, -0.72804385, 1.4335437, 0.96124643, -0.94398695, 0.757578, 2.7994695, 0.24882132, 0.33922008, 0.64380443, 1.4686395, 1.2642524, 1.9623494, 2.0878098, -0.32239679, 1.4334699, -1.2577637, 1.6037364, 2.1546495, 0.47246024, 1.1714077, 0.7742463, -0.67284685, 0.30279, 2.2276592, 0.6125789, 1.0842981, 0.9697689, -1.9972525, 0.47996143, 0.71338046, -0.27703637, 1.385308, -0.4862591, -0.0034903942, -1.0741804, -0.4961433, 0.72498983, 1.9280733, -1.9810721},
    {-0.10042415, 0.22365995, 0.4565895, -1.5642701, 1.2366433, 1.0267044, 0.34529343, -0.19783042, 1.2941586, -1.1875056, -0.13973106, 1.0511142, 0.022674013, -1.4159633, -1.89001, 0.54117304, -0.81166685, -0.7552762, 0.40557474, -0.25450522, -0.15669993, -0.05431131, -0.107635416, 1.1072924, -0.10144882, 0.6427336, 1.2752547, 1.2077975, 0.25378647, 0.64779085, -0.35022718, -1.0182039, 0.9258094, 0.82009864, -0.19740862, 0.27621308, 1.4933335, -0.34085318, -0.7003442, 0.19526139, -0.062337074, -0.08630348, -1.4125527, 0.84349364, -0.93704563, -0.067368336, -0.22314556, 0.77634263, 1.1915376, 0.6375442, -1.1475563, -0.11070463, -1.308494, 0.5397308, -1.0424975, -0.26460293, 0.9731366, -0.71057516, -0.3834586, 0.23966327, -0.52706885, 0.421374, 0.15062863, 0.22616544},
    {-0.95171696, 0.4632874, 0.11833232, 0.71604, 0.01705362, 0.43868342, -1.5793867, 0.48776692, 0.33214274, 0.59926414, 0.1388433, -0.9247628, 0.048660044, -0.39274687, -0.43965438, 0.43807763, -0.46561748, 0.08683899, 0.091958724, 0.6927861, 0.070329554, -0.39220703, 0.17828675, -1.1468619, 0.28258392, -0.9074497, -0.3176478, -0.5401374, -0.019571252, 0.19626677, -0.18482822, 1.0562992, -0.6397727, 0.67398566, 0.44007897, 0.7377369, 0.5368957, 0.57800025, -0.42660743, -0.40282267, 1.7007462, 0.7106558, 0.8494988, -0.17462957, 0.83691585, -0.40783057, -0.36641797, -1.1602932, -0.846566, 0.9031285, 0.6765589, 1.0024326, 0.5327201, -0.12940152, -1.0657465, 0.1051596, 0.6215903, 0.98888785, 0.32612678, 0.4828481, -1.7292093, 0.88366294, 0.16235094, 0.5343437},
    {-0.07798906, -0.020543221, -0.20953964, 0.20569763, -0.81695473, -0.17206123, -0.048264805, -0.6376201, 0.27249765, 0.8839311, -0.23321956, 0.3769513, -0.48002002, 0.46226376, -0.14061694, -0.49219197, 0.11665534, -0.104534715, -0.3337689, 0.19504133, -0.37161073, 0.45148444, -0.09803408, -0.5133043, 0.55470335, -0.006108867, 0.050558135, 0.078242294, -0.46566194, 0.37344456, 0.3252634, 0.23623936, -0.45417675, -0.20791546, 0.04147499, -0.18873657, 1.3765811, 0.15540475, 1.2149192, -1.6167911, 0.035313345, 0.12346015, 0.2092709, -0.5512685, -0.2816886, 0.2570397, -0.5802586, 0.6270643, 0.5406271, 0.30351034, 0.29022413, 0.06752454, -0.7620651, -1.2136514, 0.38730028, 0.41862133, 0.15366958, 0.19087036, -0.24372396, 0.16565813, 0.49589556, -0.42412466, -0.280823, -0.2025723},
    {-0.51799756, -0.365566, -0.42790106, -0.22398962, 0.056683637, -0.2949377, -0.18700951, 0.058084454, 0.25249946, -0.58949566, -0.011354216, -0.08889848, -0.16622081, -0.003443542, -0.7842955, 0.021286698, -0.2969393, -0.03387281, 0.7114686, -0.14239417, 1.8630016, 0.7793823, 0.8299432, -0.6799485, 0.7235397, -0.34356743, 0.6025375, 0.5526371, 0.6260731, -0.16146202, -0.12612203, 0.560254, -0.3529201, 0.51099074, 0.27321687, -0.12771736, -0.3201361, 0.22693248, 0.22700857, -0.77688354, -0.009634399, 0.043329857, 0.3119144, 0.068419844, 0.06859541, 0.4677403, 0.19867286, 0.09646883, 0.47655955, 0.12726808, 0.10399291, 0.09639945, 0.5419974, 0.26662865, -0.42657012, -1.449089, -0.9227271, 0.051916104, -0.4621669, 0.07014599, -0.012132809, -0.4450331, 0.52478087, 0.5848628},
    {-0.32868025, -0.28062174, -0.7858894, 0.24596636, -0.27652258, 0.06309383, 0.18149027, -0.304862, -0.8965814, -0.31573156, 0.818853, -0.35577708, 0.024293013, 0.6132777, -0.403557, 0.0013631902, -0.7960243, -0.088779554, -0.6699154, 0.01381042, -0.41777563, -0.79275936, -0.043615915, -0.004291078, -0.89582175, -0.013583554, -0.24691391, 0.12146267, 1.1692241, 0.2773293, -0.035723947, 0.6286242, -0.09819795, 0.22786714, -0.4678455, -0.23682772, -0.19242714, 0.3941862, 0.5683457, 0.6281766, -0.4146633, -0.4311206, 0.31716603, -0.11773285, 0.22768423, -0.27801573, 0.29732478, 0.31999752, -0.18907815, -0.17734097, -0.23022136, 0.09669817, -0.36959547, -0.7540854, 0.38526177, -0.4379448, -0.106863365, 0.0065861326, 0.4547452, -0.08917446, -0.23230457, -0.18327083, 0.05775602, -0.97048396},
    {0.1258271, -0.21000794, 0.09963421, 0.13719092, -0.042406492, 0.09387155, 0.17790456, 0.020209836, 0.07453399, -0.15722226, -0.045735873, -0.009327802, -0.05927176, -0.08395591, 0.16377373, 0.0129363155, 0.06487683, 0.23127523, 0.15444851, -0.024120504, -0.031324316, -0.10032399, 0.3114223, 0.14085941, -0.13119176, 0.10088991, -0.07364064, -0.15736535, 0.052114073, 0.057706013, -0.032696486, 0.04144294, 0.08368251, -0.044724848, -0.020470768, 0.16625829, 0.029364998, 0.11205243, -0.11667472, -0.09593641, 0.07425955, 0.08375083, 0.05953545, -0.0061607184, -0.15206489, 0.2988711, 0.0036456867, -0.025550285, 0.16723095, 0.06849718, -0.044547625, 0.19989471, 0.054489776, -0.059147667, 0.1228782, 0.2247686, 0.11755038, -0.14612165, -0.034988515, 0.35020196, -0.11826576, -0.11139124, -0.14316447, 0.30546483},
    {0.2060388, 0.027613325, 0.009670865, 0.12375798, -0.1864517, 0.018927151, -0.083295986, -0.082313895, 0.10861449, -0.09521124, 0.11501982, 0.06155383, 0.05404056, 0.008955988, 0.048395053, -0.08849409, 0.001049595, 0.08237104, 0.27962878, 0.0035725143, 0.057374157, -0.17331095, 0.3307065, -0.09587329, -0.0030917434, 0.10199518, 0.3133652, 0.08614971, 0.012759984, 0.11464755, 0.11642626, 0.09487416, -0.012793788, 0.033259872, 0.046659302, -0.19586062, 0.0376795, 0.038975287, 0.1250155, 0.088729404, 0.23987785, 0.15934141, 0.062062744, 0.10905925, -0.047039237, 0.07947912, 0.03108816, 0.17212176, -0.0116743045, 0.058769923, 0.19487937, -0.061270352, -0.15386495, 0.21122742, -0.048471786, -0.20874618, 0.1036083, 0.2888378, 0.061972946, 0.0058267037, 0.17113823, -0.042234357, -0.010037388, 0.059220064},
    {-0.033790283, 0.2445975, 0.03850433, 0.021325564, 0.19618823, 0.007673957, 0.028679943, 0.019972734, 0.21304427, -0.13538578, -0.083472535, -0.10843269, -0.12441339, 0.11334163, 0.0146378735, -0.15915191, 0.06709804, 0.38711223, 0.17162715, -0.08661611, -0.22226156, 0.26143083, -0.17884617, -0.041782524, 0.027029872, 0.051752705, 0.0035780242, 0.00033534173, 0.32986444, -0.12800615, 0.079416886, 0.10557189, -0.013664208, -0.021066584, 0.009945622, 0.3158494, -0.094027705, 0.027698709, -0.0725626, -0.14971407, 0.024928678, 0.102502845, -0.08699036, 0.27997681, 0.027392948, -0.30873743, 0.072506875, 0.07999375, -0.18464905, 0.091873385, -0.16263019, -0.08048018, 0.025538005, 0.22573857, -0.09001491, 0.13768168, 0.15208967, 0.061516497, 0.060560234, 0.0010869796, -0.019297305, 0.2914304, 0.048876848, -0.13739309},
    {0.549593, 0.2312736, 0.0564667, -0.063223936, 0.038662445, 0.22012417, 0.06771055, -0.030530812, -0.44327107, 0.22552842, 0.1751542, 0.258933, -0.4478601, -0.24946363, 0.029036565, -0.08115616, -0.17236379, -0.21345834, -0.47225487, -0.2371376, 0.05772766, -0.12030109, 0.03086923, -0.31172863, 0.10718662, -0.4072681, -0.27526304, 0.27957186, 0.018511005, 0.2117636, -0.383712, -0.24409749, -0.100389436, -0.17302074, -0.028929336, -0.097000994, 0.021489894, 0.47715405, 0.056279115, -0.13882814, -0.13487686, -0.009050782, 0.27619576, 0.19305578, -0.18228707, 0.25155503, -0.35655433, -0.094625205, 0.16147429, -0.24435589, -0.06323734, -0.28492916, 0.07032793, 0.4092515, -0.019679928, -0.0059924317, -0.14289992, 0.13521574, 0.05232125, -0.10383159, 0.08579426, 0.14989375, -0.17098758, -0.08196032},
    {-0.11453439, -0.10523068, 0.066502616, -0.18803182, 0.14286758, -0.17621969, 0.040262733, -0.045449227, 0.5172228, -0.04049813, 0.028194807, -0.037589017, -0.053329196, -0.054576434, 0.052062802, -0.024432944, 0.40625072, -0.4556033, 0.017165339, -0.22460479, -0.06483209, 0.2345843, 0.426394, 0.03739206, 0.05069446, -0.1678675, -0.18355136, 0.14348078, -0.025962457, -0.92126626, -0.13730678, -0.04810451, 0.22887534, -0.10873482, 0.027996005, -0.4822204, 0.0717617, -0.09804301, 0.18707071, -0.09712938, 0.019175548, -0.026276127, 0.023907222, 0.15862145, 0.09074065, -0.31295466, -0.12273004, 0.3935392, -0.27605745, 0.10241624, -0.3843288, -0.33561102, -0.0986477, -0.33349186, -0.052261464, -0.092877105, 0.0064144908, -0.33134696, -0.14820075, -0.50115395, -0.07394515, 0.17269853, 0.26709875, 0.14961764},
    {0.052103374, -0.17883345, 0.04891951, 0.141349, 0.13767831, -0.18757308, 0.16284189, 0.0007568435, 0.4737195, 0.08092452, -0.15331122, -0.22369462, -0.073966496, -0.665767, -0.052296814, -0.27764085, 0.123264745, -0.41232583, 0.34456444, -0.5189274, 0.0816426, 0.026516475, -0.214651, -0.030486418, 0.023765476, -0.049061082, 0.21469061, 0.18977877, 0.043997504, 0.11106569, -0.08879183, 0.71757776, 0.1560562, -0.0010572918, -0.10872487, -0.19281922, -0.06580024, 0.15372871, 0.04070329, 0.12496181, -0.09822447, -0.24068224, 0.04373059, -0.33271393, -0.020299323, -0.31559646, 0.81485134, -0.20107393, -0.060091104, 0.22296575, 0.02008737, -0.16997467, 0.030959038, 0.014441421, -0.10079362, 0.03627096, -0.22265346, 0.755028, 0.21440837, 0.2590791, -0.09520882, 0.022189125, -0.41651773, -0.08903357},
    {-0.029692031, -0.09026903, 0.04068852, -0.3373031, 0.21830504, 0.033608925, 0.014136425, -0.022082536, -0.09787958, -0.077659726, -0.10149327, 0.15730987, 0.28060317, 0.22177517, -0.05472643, -0.16851327, -0.18353693, -0.18575652, 0.030371338, -0.22891448, -0.020715557, -0.20809284, 0.06680478, -0.0064189048, -0.14924602, 0.19336103, 0.15327887, -0.25987646, -0.06701157, 0.13853413, -0.25019932, 0.03717801, -0.0027127438, -0.12531735, 0.014084497, -0.2759539, 0.25587016, -0.11672411, -0.19326667, -0.12136621, -0.05858049, 0.011127945, -0.15406483, -0.15325114, 0.50958073, -0.0126834195, 0.15382019, -0.0065545077, 0.45090336, -0.016402682, 0.17531854, 0.1753079, -0.03499768, -0.4269503, -0.030173967, 0.31406128, -0.14301905, -0.14709489, -0.08567139, -0.29610416, 0.18428949, 0.0400209, 0.22135015, -0.08537325},
};

static const float agent_ac_actor_pi_net_fcs_0_bias[64] = {-0.41817802, 0.64898086, 0.74685514, 0.0063145645, -0.6647212, -0.34030452, -0.9334601, 0.45424175, 0.22956729, 0.4179795, -0.771157, 0.08594715, 0.8307017, 0.17129317, -0.24547346, 0.38871247, 0.42558044, -0.42509353, -0.5455886, -0.38919547, 0.07704072, 0.4172943, 0.2524884, -0.68496233, 0.5490238, -0.007913196, -0.17594253, -0.4827664, -0.707748, 0.15305518, -0.20907728, 0.5922368, 0.61099964, -0.7968314, 0.39019504, -0.12417708, 0.15114306, -0.1713995, -0.18295565, 0.20245463, 0.35941538, -0.017261734, -0.4916137, 0.35056672, -0.10171155, 0.6078092, -0.36853874, -0.45285252, -0.24405771, 0.22822088, 0.8643019, -0.24193683, -0.41601732, -0.08987248, -0.42226022, -0.20432605, 0.31577355, 0.45267192, -0.17339735, -0.31356972, -0.588504, -0.27814183, -0.60792726, 0.00941574};

static const float agent_ac_actor_pi_net_fcs_1_weight[64][64] = {
    {0.4986808, 0.30958897, -0.33474916, 0.23376526, -0.26278198, 0.26953638, -0.076031946, 0.05377495, 0.06612898, -0.06279677, 0.095215574, 0.15083219, -0.06927829, 0.003221332, -0.20976873, -0.30576342, -0.075971924, -0.37415636, -0.0346302, -0.14042826, 0.23366442, 0.05990455, -0.07224251, 0.105223335, -0.21897873, 0.2817018, 0.040873364, -0.16743302, -0.06627848, -0.07098969, -0.43804115, -0.022925112, -0.45945275, -0.13707265, 0.08946428, 0.08907457, -0.18043289, -0.15370516, -0.3105072, 0.15509346, 0.5250994, -0.09579472, 0.31133205, 0.012135693, -0.11616989, -0.12657346, -0.2742304, -0.27389023, -0.30801338, -0.0020723164, 0.058501616, 0.045448568, -0.06883045, 0.09657209, 0.19939974, 0.073916405, -0.110261425, -0.6497564, 0.027982738, -0.00091515866, -0.008222703, -0.26270178, -0.19563715, 0.0360278},
    {-0.24863154, -0.29965633, -0.37372205, -0.103830434, -0.035011414, 0.20854403, 1.0562024, -0.3758017, -0.02368996, -0.35765633, 0.36254814, -0.11476374, 0.07613531, 0.10133698, 0.2507894, 0.3947358, -0.27357933, -0.017507272, -0.016428761, -0.39884213, -0.041419774, -0.30252048, 0.10633859, 0.16294062, 0.3702175, -0.009784531, 0.06248029, -0.13304783, 0.17472495, 0.09409513, 0.39503983, -0.1149407, -0.0010024658, 0.34904647, -0.030702084, 0.3889834, -0.08307853, 0.03620899, 0.013944021, 0.41049215, 0.041285772, -0.16667883, 0.09636672, -0.39914507, 0.052705616, -0.028741766, 0.16250727, -0.096569724, 0.4037357, 0.051280025, -0.35680273, -0.12269299, -0.08218126, -0.15345913, 0.23588611, 0.23275355, 0.06081444, -0.38586202, -0.050449852, -0.066015065, -0.22839788, -0.22512227, -0.0056084977, -0.06661777},
    {0.17406382, -0.3248093, -0.4035791, -0.0032492343, -0.0023804146, -0.048103794, 0.61919636, -0.0069676097, -0.021959888, -0.3538968, 0.57839143, 0.033958565, -0.09986821, -0.076326035, 0.84650815, 0.39232007, -0.4632874, -0.4835536, 0.063364245, -0.91128767, 0.017878665, 0.47928128, 0.17959948, 0.08471231, -0.061183836, 0.00068430166, -0.152533, -0.6050618, -0.14209649, 0.033147886, 0.6414105, 0.10805474, -0.61624473, 0.33212972, 0.11537856, 1.0276862, 0.5410179, 0.044800594, -0.042062085, 0.07104742, 0.70421994, 0.086382024, 0.17879032, -0.054748356, 0.033800982, -0.023484834, 0.18444629, -0.7032343, -0.07016564, -0.16308849, -0.31456122, -0.04036245, -0.034778867, 0.04953266, 0.2973292, 0.08386586, -0.4700903, -0.6360157, 0.064705305, -0.027641809, -0.4791272, -0.14208533, -0.3298517, -0.047429636},
    {0.100032344, 0.1416695, 0.020182956, -0.0279923, 0.016430452, 0.38403705, 0.07238359, 0.06690756, -0.04878182, 0.21443558, -0.44503167, -0.08922411, 0.07826872, -0.013449932, -0.21212445, 0.23089997, 0.024446165, 0.26085198, -0.2112212, -0.4865042, 0.124563575, 0.48151898, -0.016053434, 0.034474414, -0.107465304, 0.052627254, 0.1317043, -0.52432674, -0.39271048, -0.03300969, 0.17784126, 0.23149572, 0.3570625, -0.30896094, -0.013789144, -0.06967063, 0.02360971, 0.13046971, -0.008012418, -0.2509374, 0.14137648, 0.49767786, -0.10234719, -0.005151188, -0.91905487, -0.15552081, 0.0003077629, 0.6002845, 0.25221083, 0.13996021, -0.17489086, -0.016173849, 0.14620347, -0.044313297, -0.0666797, -0.11578677, 0.17941745, 0.07105258, -0.017556828, 0.031277653, 0.116111025, 0.0026905087, -0.02685991, 0.040458452},
    {0.09672883, -0.6244079, -0.060343575, -0.07597768, -0.24220297, -0.5658542, 0.03307492, 0.17371602, 0.12251857, 0.13102545, 0.63698447, -0.15757741, -0.08800872, -0.014157981, 0.38354546, 0.030329397, 0.053468265, -0.14171568, -0.09903825, -0.17793287, 0.09121836, -0.435861, -0.048958614, -0.038928233, -0.02886978, -0.19914028, -0.08530845, 0.62090355, 0.13384828, -0.07454025, 0.13874918, -0.14343736, -0.20781483, 0.17607106, 0.056137286, 0.2332139, -0.61340845, -0.038884476, -0.009253116, 0.16872402, -0.15626909, -0.4279609, 0.18703204, -0.29338312, 0.7154231, -0.014183319, 0.66302514, -0.4918789, 0.14166525, -0.10604017, -0.008471476, 0.16958119, -0.026860876, -0.016366022, 0.13274126, 0.03213167, 0.20743859, -0.08089908, 0.18913874, -0.0056449086, 0.120994315, -0.07111249, -0.014276695, -0.066962026},
    {0.35339615, -0.28622854, -0.08956447, -0.05043381, -0.4427092, 0.47216317, 0.081131816, 0.067396455, 0.043938857, -0.18364999, 0.1402533, 0.07016712, 0.17114924, -0.01676903, -0.2938863, 0.1866528, -0.42816693, 0.21261354, -0.10241165, -0.098789, 0.15925018, -0.50174147, 0.18211658, -0.06477675, 0.11830786, 0.06703816, 0.09635267, -0.2785506, 0.24149907, 0.036580946, 0.030260138, 0.0670905, -0.4995115, -0.36889148, -0.08668126, 0.030945772, -0.058551777, -0.17795122, 0.08986951, 0.025650315, 0.0012034492, -0.34884042, 0.14482847, -0.41273022, 0.14003213, -0.10254544, 0.097519346, -0.24668336, -0.17667407, 0.30335355, 0.0830155, -0.17341621, 0.12181612, 0.08134552, 0.23139386, 0.0073762555, -0.67129767, -0.40720522, -0.017854428, 0.14664856, -0.07497791, 0.027141703, 0.061462246, -0.26470998},
    {0.14911045, 0.43626586, -0.05861609, -0.008160504, -0.2621262, -0.103157945, -0.15634114, -0.1387497, 0.03818673, -0.10007005, 0.22966227, -0.07390434, -0.49427176, 0.03714035, -0.16469681, -0.092549965, 0.028365923, -0.18776302, -0.18903926, -0.108374394, 0.0078008217, -0.60672504, -0.2297055, 0.15880089, 0.112095505, -0.15114656, -0.11593259, 0.6516606, -0.12992017, 0.12512922, -0.048762914, -0.11488924, -0.27669144, 0.056934007, 0.05085744, -0.06440871, -0.12718664, -0.003890997, 0.088147834, 0.01854417, -0.109416544, -0.5856652, 0.1582485, 0.39641505, 0.42570674, -0.06339162, 0.09254631, -0.3851586, -0.25229406, -0.21416295, 0.21765743, -0.14207494, 0.036687646, -0.007805344, 0.22089453, 0.18299888, -0.11955024, -0.7047591, -0.008268768, 0.044697996, 0.048070993, -0.070513435, -0.022298006, -0.21024244},
    {-0.18643594, -0.49700016, 0.22126955, 0.0030219918, -0.01110738, 0.56639296, 0.45374185, -0.2095229, -0.0883999, -0.18571499, 0.31879252, -0.06263618, -0.28954443, 0.11314084, 0.69669336, 0.18833885, -0.94334877, 0.9322815, -0.13296062, -0.5422604, -0.0037012836, 0.00981409, -0.3818457, 0.041282743, 0.30383378, 0.1196624, -0.103090376, 0.016253782, -0.1176588, 0.0068151616, 0.14885487, -0.104211934, -0.14776951, 0.12164112, 0.09916154, 0.15980972, -0.2061487, -0.055650003, 0.03778739, 0.23746823, 0.38666084, -0.30832657, 0.29206812, 0.036944948, -0.44811386, 0.053387195, -0.019164465, 0.08876287, -0.19758789, 0.11540402, -0.21616568, 0.010163173, -0.030945746, -0.10028513, 0.37954476, 0.049497556, 0.1838737, -0.21090636, 0.19316147, -0.2438942, 0.30942485, -0.060464885, -0.19608833, -0.3970714},
    {0.15527347, 0.037514485, 0.10025942, 0.12048629, 0.22952409, 0.014895235, 0.63194543, -0.058508165, 0.18628642, 0.22260219, 0.42299464, 0.084395945, 0.008391047, 0.039395526, 0.46128505, 0.1311933, -0.038371, -0.13749564, -0.11751721, 0.29206157, 0.15649371, -0.23504463, -0.061770495, 0.22212712, -0.25714415, 0.28694433, 0.16634317, 0.022017052, 0.27529308, 0.045871902, -0.012343981, 0.24540378, 0.33795843, -0.10992631, 0.122238666, -0.09697065, 0.0793449, 0.008404623, -0.20254523, -0.46071848, -0.29478973, -0.60190827, -0.21797785, -0.32399628, 0.17990829, -0.03152911, 0.14225769, -0.24832325, -0.18782115, -0.22357038, 0.283762, 0.2045793, 0.032139286, 0.08876006, 0.10852778, 0.08774755, 0.21439387, 0.03640014, -0.11670668, 0.13555387, -0.28122902, -0.04221541, -0.0969747, 0.19907235},
    {-0.11550883, 0.602464, 0.027403455, 0.11332863, -0.049611554, -0.23251438, 0.45106626, 0.10226818, 0.06589253, -0.050382536, -0.6369755, 0.09664251, -0.12957029, -0.040553972, 0.4424612, -0.46678507, -0.38457868, 0.5630434, -0.011458538, -0.051341258, 0.13464113, 0.2613542, -0.68303823, -0.048931092, -0.2041286, -0.11668516, 0.12740365, 0.109692395, -0.3803529, 0.08911826, -0.058782842, 0.18903065, 0.37491447, 0.26122993, -0.122314826, -0.09523936, -0.2310515, -0.011330179, 0.08042866, 0.14139317, 0.15171476, 0.44597542, 0.087214224, 0.35293522, -0.11416337, 0.06251224, -0.08634557, 1.0494411, -0.09549141, -0.07832692, -0.30952442, 0.020668859, 0.22632618, 0.059633166, -0.03714024, -0.23005298, 0.2780177, -0.05114558, -0.098937266, 0.18975665, 0.106089875, 0.05675318, -0.12720667, -0.08584206},
    {-0.0302195, 0.08049873, 0.094097346, 0.11012946, -0.23143384, -0.07688619, -0.5819262, 0.34113172, 0.0816692, -0.13739124, -0.2514665, 0.058333598, 0.57525516, 0.14928433, -0.6377998, 0.24564557, 0.32056546, 0.091372214, 0.07236246, 0.31161338, 0.020317279, -0.049403425, 0.11824929, 0.005450619, -0.06400476, 0.1436235, -0.18756784, -0.44303545, -0.19800179, -0.12980331, -0.45719045, 0.016049609, 0.018040828, -0.67051065, -0.1031135, -0.33603138, -0.055405512, 0.011649614, -0.13907072, 0.0932295, -0.29397237, -0.03491194, 0.026133068, -0.053119417, -0.16593936, 0.05017211, -0.100688994, 0.014644303, -0.14713901, 0.35689178, 0.23355496, -0.13083631, -0.13351618, -0.015174692, -0.024985118, -0.22208798, -0.1495677, 0.24089779, 0.012155305, -0.14800985, 0.031438287, -0.05530116, -0.08151434, -0.06609365},
    {0.18408632, -0.30416808, -0.17991589, 0.012533844, 0.1253238, -0.4610558, -0.4624928, -0.12519507, 0.030931761, 0.23773004, 0.38511342, -0.041198727, 0.35203785, -0.0449355, -0.38405478, 0.12790522, 0.36594182, -0.629721, -0.12951328, -0.23980187, -0.25383034, -0.364019, 0.62303936, -0.05259081, -0.17960404, 0.05317227, 0.13948429, 0.044856887, 0.009761019, -0.18016958, 0.14991195, 0.0268325, -0.25914, -0.050355375, 0.20810625, 0.36359596, 0.6559114, 0.01200132, 0.1914711, 0.13988352, 0.058607988, 0.26005358, -0.1369515, 0.19379209, 0.17125307, 0.099990636, 0.043403175, -0.44762203, 0.25753018, 0.20351575, 0.17224504, -0.021138763, 0.0054214727, 0.05370259, -0.17789723, -0.20601991, -0.6897841, -0.3541861, 0.16802862, -0.025580492, 0.04479578, -0.12627386, -0.10557401, 0.07966441},
    {-0.43177563, 0.02018169, 0.1281928, -0.008533728, -0.12780222, 0.37054506, -0.29189306, -0.12937686, 0.070463434, 0.27180415, 0.45789343, 0.15432385, -0.4748262, -0.0740905, 0.61361104, -0.02104745, -0.68169636, 0.33546725, -0.07574562, -0.3946339, 0.052509177, -0.12060858, -0.063721955, -0.01977352, -0.14686616, -0.1710788, 0.07439304, 0.26514697, 0.030966925, -0.16304575, 0.2731567, -0.0771008, -0.31441462, 0.10708815, -0.21293147, 0.3962767, 0.017723937, 0.2718625, 0.32023883, 0.17000043, 0.37225187, -0.08731871, -0.31230432, 0.4346552, 0.030788515, 0.097407825, 0.19595148, -0.12295616, -0.10921545, 0.039308175, 0.11018082, 0.049751673, -0.14172366, 0.097183004, -0.26123184, -0.32433218, 0.142213, -0.1495857, 0.058437828, 0.066852205, 0.059524953, 0.025450319, -0.21294956, 0.36722413},
    {0.12785792, 0.3243753, 0.013809559, 0.1416549, 0.2911913, 0.10863404, -0.351198, -0.005215991, 0.038670957, -0.06494351, -0.2578956, -0.18597923, -0.19402832, 0.11367289, -0.24418075, -0.062279265, -0.10001149, 0.104161255, 0.070107095, -0.2844928, 0.11512032, 0.24900548, 0.029866263, 0.036835216, 0.11577376, 0.03032178, -0.06775297, -0.24802451, -0.37444195, 0.1937867, 0.20353359, 0.06641319, 0.007589857, -0.035675026, 0.057424095, 0.18594489, -0.3255254, 0.0027195832, 0.07622023, 0.21827193, -0.03718982, 0.40999243, 0.21407391, 0.23192793, 0.2951689, 0.003277433, -0.20048817, 0.28808784, 0.11979656, 0.10843502, 0.23290007, 0.057556137, 0.03189428, 0.06054554, 0.072627604, 0.08980156, -0.0010346493, 0.027410388, -0.08554484, 0.23414092, 0.474339, -0.046307135, -0.10499193, 0.053810194},
    {-0.025591359, 0.45435575, 0.5011104, -0.2273484, -0.69995785, -0.36385646, -0.08585172, -0.2704905, 0.009669743, 0.27869323, -0.48217747, 0.13159782, -0.46430278, 0.18633729, 0.17871885, -0.55712384, -0.46365428, -0.43027923, -0.040749613, -0.75871116, -0.23488933, -0.081392966, -1.0529499, -0.06925935, 0.3015237, -0.3741507, -0.2514557, 0.7222593, -0.95699203, 0.24135283, -0.2702276, -0.44682515, 0.53722584, -0.045026354, -0.03530677, 0.36098546, 0.024450904, -0.31542572, 0.15175192, -0.013542525, 0.30185446, -0.11583638, -0.095153615, 0.8891053, -0.020524858, 0.05775448, 0.53886944, 0.11564047, -0.23476738, -0.6810281, -0.3210226, -0.18011157, 0.13607961, -0.17411011, 0.18256076, 0.3529253, 0.46470085, -0.027386378, 0.027130721, 0.051271655, -0.32463565, 0.19414203, 0.05331246, 0.29557613},
    {0.12959509, -0.35155293, -0.023402575, -0.06894043, 0.27561495, 0.16383007, 0.08918978, -0.015475593, -0.07484238, -0.06657447, 0.16934316, 0.18023911, -0.3679958, 0.33734533, 0.28150123, 0.19870558, -0.37481865, 0.44959944, 0.22742079, -0.17992514, -0.099567376, -0.22792207, -0.024218412, -0.13650101, 0.017046716, -0.026235346, -0.1282924, 0.12336308, 0.22912586, 0.2200182, 0.016043909, -0.0460817, 0.06791835, -0.7065446, 0.09609243, 0.46512806, 0.23123133, -0.08625965, 0.0011086002, -0.14476316, 0.32968086, -0.23337601, 0.070376374, -0.07583258, 0.51860744, 0.12711097, 0.38790768, -0.100137316, 0.046027374, -0.24586268, -0.40683332, 0.29459858, -0.1592207, 0.115979984, 0.12466403, -0.27678853, -0.25970808, 0.24243794, -0.10372153, 0.044495825, -0.2179135, 0.12586713, 0.030021233, -0.02540701},
    {-0.26589218, 0.48461738, 0.02754472, -0.120632604, -0.018212138, 0.00816746, -0.09413539, -0.13476938, 0.0019810472, 0.17717521, 0.20851444, -0.099138744, -0.66145074, 0.0566759, -0.085561626, -0.48491412, -0.55902517, -0.12189376, -0.037999053, -0.28191385, -0.066066414, 0.026283983, -0.3555045, -0.13923018, 0.2562567, 0.018424505, -0.018957138, 0.44468468, -0.056344118, 0.007397766, -0.5755867, 0.10911079, 0.36757356, 0.15770562, -0.10866243, -0.015750952, -0.30614656, 0.12217371, 0.2137271, -0.10878325, 0.2515129, 0.27082214, -0.38947645, 0.68241745, 0.050389472, 0.13181798, 0.37725648, 0.5122976, 0.119573176, -0.23305334, -0.12015263, 0.07029725, 0.08027816, 0.054354522, -0.031625163, 0.028261142, 0.5550216, 0.4077289, -0.15537219, -0.12860656, 0.2047554, 0.08748636, 0.04009323, -0.081887566},
    {0.08359917, 0.12472126, -0.17457546, -0.1324971, 0.05907307, 0.30032137, -0.119294725, 0.2362264, 0.03872931, -0.19025543, -0.14591369, 0.24006104, -0.27300176, -0.16230066, -0.26362863, 0.0508283, -0.12712927, 0.38909587, 0.12868994, 0.04456198, -0.07165861, -0.012387197, -0.24066964, 0.042997476, 0.08877029, 0.054883428, -0.13495189, 0.016125202, -0.08070137, 0.086551055, 0.5034176, 0.09215872, 0.028236121, -0.09566695, 0.0009255612, -0.050718058, -0.005175393, 0.041485585, -0.044594187, -0.008536791, 0.20099705, 0.41647574, -0.16202594, -0.09351953, -0.057040695, 0.08620738, 0.017420737, 0.19553733, 0.26731673, 0.20522343, -0.13092928, 0.07986286, 0.079926975, -0.012111125, 0.026765984, -0.05889434, -0.25716814, -0.088833675, 0.23373717, 0.042567234, 0.20977241, -0.013130841, -0.0014241345, -0.26780346},
    {0.07245302, -0.18534485, -0.2482778, -0.15060157, 0.26287585, -0.09005631, -0.14871405, -0.0171491, -0.08658009, 0.14803821, -0.04517854, -0.043756373, 0.30945972, -0.08017004, -0.26896992, -0.020416351, 0.13791847, -0.35470286, -0.0197458, -0.07841763, 0.12187351, -0.6009168, -0.13252772, -0.1955011, 0.13088359, -0.043232486, 0.08844929, 0.3697727, 0.3078607, 0.1515094, 0.0979631, -0.09465526, 0.23173259, -0.414059, -0.25647855, -0.24304704, -0.29185882, -0.2352521, 0.15732278, -0.23675293, 0.14730978, -0.24434792, -0.18597001, -0.46584275, -0.28028467, -0.08203835, 0.18573548, -0.230671, -0.20226307, 0.03427918, -0.2348656, 0.13327833, 0.29051837, 0.2946826, 0.037990093, -0.021066884, -0.059180565, 0.5242007, -0.22456756, -0.19708952, 0.035019062, 0.41198578, -0.026088279, -0.20584078},
    {-0.057813004, 0.13279144, -0.017483126, 0.098738335, 0.04633546, -0.1743809, 0.04168754, 0.06636276, 0.18161629, -0.19525293, -0.07981142, -0.1108603, -0.06635657, 0.020874247, -0.17759965, -0.085915275, 0.049691394, 0.047923435, -0.12483052, 0.23522906, 0.023700498, -0.17062631, -0.1638802, -0.116735406, -0.049106114, 0.010865561, -0.1926482, 0.1058524, 0.092605785, -0.088962875, 0.13292931, -0.20461985, 0.38588944, -0.3272253, -0.12102009, -0.1594581, -0.24813786, -0.0131455595, 0.11232672, -0.07561743, -0.43233958, 0.49807853, 0.06042236, -0.40451115, 0.14767127, -0.23867498, 0.19597523, 0.40685958, -0.040616848, 0.16436267, -0.6931099, 0.06929535, 0.21473123, -0.0488155, 0.03606498, -0.15594138, 0.010594788, -0.023360671, -0.00488546, -0.09289279, -0.16347405, 0.113724634, 0.035059284, 0.023521781},
    {-0.13650347, -0.5845077, -0.117401265, 0.18073481, 0.6091499, -0.103898145, -0.16840214, 0.043608587, -0.0028748973, -0.13671136, -0.572317, -0.049188085, 0.12252655, 0.18456979, -0.023909701, -0.43800768, -0.6573571, 0.5231078, 0.07438292, 0.12602109, 0.3608722, -0.5131518, 0.34446934, 0.0014367588, -0.09871083, 0.06826941, 0.18976358, 0.40915737, 0.7592507, -0.008083132, -0.0046337675, -0.011804357, 0.001105224, 0.42685702, -0.0041856365, 0.08380036, -0.8413649, -0.05423343, -0.17256509, 0.40090457, 0.013099659, -0.58478683, 0.04585865, -0.044438653, 0.1988131, -0.32456478, 0.38369432, -0.022755427, 0.15464248, 0.026257357, -0.032852326, -0.19240433, 0.05299896, 0.026079027, -0.0039303084, 0.1000156, 0.35076973, 0.42063347, -0.043935362, -0.0028518338, 0.75747406, -0.036855422, -0.23165433, 0.13269998},
    {-0.15335837, 0.15876502, 0.28538656, 0.28648695, 0.8303045, 0.088012815, 0.6043628, -0.21704465, 0.0474943, 0.026108766, 0.04420588, 0.075008705, -0.51874095, -0.024505818, 0.06647814, -0.37960705, -0.45852697, -0.1497302, 0.1411675, 0.18546164, 0.041631322, -0.048743684, -0.20932707, 0.11681439, 0.0039129904, -0.054742552, -0.21650697, 0.33555835, 0.1453734, -0.080359235, -0.24876837, -0.074757576, 0.20116538, 0.43850622, -0.021580433, -0.4923409, -0.2950141, 0.0057826363, -0.013130719, -0.03899291, -0.27779892, -0.22684057, 0.03646893, 0.0892862, 0.46193528, 0.09561661, -0.15109795, 0.28545183, 0.52356446, -0.4892387, 0.09458579, -0.12348225, -0.07203413, -0.0060673794, 0.15550944, 0.008135411, 0.43136328, 0.60196066, 0.065438785, -0.07795657, 0.24791238, -0.28575906, -0.04838668, 0.051874496},
    {-0.07308477, -0.2180489, -0.15983395, -0.15149419, 0.48918584, 0.28107554, 0.06604267, -0.09040302, -0.08637799, 0.08835059, -0.05761408, -0.06876509, -0.28955743, 0.034306023, -0.20797849, -0.13033378, -0.15226409, -0.12911186, -0.027506456, 0.031749073, -0.037277102, -0.15866905, 0.21053876, -0.09294331, 0.07833517, -0.110030174, -0.015968582, -0.342573, 0.47270438, -0.040656697, -0.028007543, -0.16775763, -0.4991388, -0.57733566, 0.19545758, 0.027830888, -0.38976306, 0.25954288, 0.032117154, -0.0061368346, 1.0438972, -0.03819696, -0.14088096, -0.10409772, 0.034493186, 0.022267485, 0.10463189, -0.27824694, -0.5619802, 0.21032557, 0.06294862, -0.028843695, -0.059327867, -0.107986376, 0.07067145, 0.1679299, -0.16464256, 0.09522814, 0.10803763, 0.06084054, 0.24082612, -0.012328001, 0.006397732, 0.19822276},
    {-0.06387433, 0.65988886, 0.30055806, 0.0015553676, -0.78963834, 0.39659753, -0.11889606, -0.11170024, -0.05963089, -0.17525533, 0.62012047, 0.093198515, -1.09855, -0.1040114, 0.19789334, -0.19016981, 0.09307438, 0.15073523, 0.14076197, 0.078413635, -0.025529677, -0.54292095, -0.21744505, 0.031687826, 0.20294385, 0.08735625, -0.059353806, 0.5417918, 0.008966187, -0.13410987, -0.325833, -0.17383964, -0.5480611, -0.56747085, 0.15666403, 0.15886676, -0.11430363, 0.16614588, 0.033403568, 0.40141693, -0.08394718, -0.81761736, 0.07872571, 0.19673027, 0.8566503, -0.17000261, 0.035590444, -0.86067927, -0.2673646, -0.24593379, 0.4577574, -0.057522394, -0.008265487, -0.097795345, 0.03665439, 0.2502923, 0.07146061, -0.83159745, -0.07357689, -0.18296178, -0.604795, -0.06587095, 0.014822665, -0.2228553},
    {-0.21321823, 0.059351288, -0.15541969, -0.06316217, 0.81694794, -0.6403954, 0.88225955, -0.12535988, -0.06911958, 0.047063775, -0.49648458, 0.06329726, -0.07982011, -0.11365001, 0.30735576, -0.5360946, -1.1634891, -0.12970212, 0.06639838, 0.079618365, -0.20306124, -0.14171213, -0.66611123, 0.062168732, -0.03102945, 0.14326032, -0.05308596, 0.20474952, 0.1616739, 0.040893197, 0.22565061, -0.15415524, 0.16859223, 0.45882767, 0.1500261, 0.24034703, -0.124748215, 0.12553364, -0.04362316, 0.088648014, 0.30400896, 0.33833182, 0.24794632, -0.18474315, -0.19884425, -0.060111795, 0.22058316, 0.7679032, 0.43593127, -0.15786543, -0.8466136, -0.10699425, -0.2800308, 0.0010441904, -0.26917928, -0.14263274, 0.3359859, 0.4131976, -0.10616864, 0.029143462, -0.30263078, -0.093937114, 0.07198668, 0.06270796},
    {0.11764532, 0.47664103, -0.22580004, -0.04128991, -0.026755141, -0.3009283, -0.28021124, 0.13246538, 0.013079699, -0.041851245, 0.28033248, 0.15426844, -0.39639091, 0.11589862, 0.039516203, -0.1962375, 0.18081787, -0.42849225, 0.014530407, -0.03983931, 0.11508326, 0.0704608, 0.12070158, -0.10525634, 0.021844355, -0.14879288, 0.02320983, 0.23752147, -0.3493016, 0.18266964, 0.24740882, -0.08359866, -0.35923147, 0.027504586, -0.19676054, 0.19499484, 0.06388537, -0.027436035, -0.12897842, -0.19144548, 0.2732639, 0.13437949, -0.09669878, 0.4116695, -0.0300466, 0.07501333, 0.046160657, -0.36553138, -0.36919856, -0.13060924, -0.036585703, 0.057889365, 0.13648725, -0.12961708, 0.08721663, 0.14244333, -0.7412858, -0.6740225, -0.0065781353, -0.111179054, -0.076531895, 0.12755126, 0.014735264, 0.04371666},
    {0.098586634, 0.008967797, 0.096094646, 0.05274894, 0.32571736, -0.54791147, 0.10107898, 0.14723127, 0.047209986, 0.107867315, -0.1309298, 0.015926147, 0.019073034, 0.03634621, 0.068657935, -0.2870178, -0.2632838, -0.36980164, -0.22690544, 0.27754074, -0.1633389, -0.5823378, -0.4190784, -0.07370516, -0.0096602505, -0.124832794, -0.11365926, 0.52699095, 0.18899426, -0.10170544, 0.37187022, 0.14593011, 0.19214094, 0.052384965, -0.012148291, 0.12438728, 0.34701318, 0.0771308, 0.11470227, 0.02752622, 0.028664289, -0.21378, -0.054750413, -0.30652696, -0.18571639, 0.18640931, 0.46272334, 0.20323439, 0.011580475, 0.03906491, -0.30373746, -0.14421548, 0.09544452, -0.13712728, -0.21119125, -0.18386419, -0.4814377, 0.0827905, 0.117523216, 0.09177469, -0.22710785, -0.00025415458, 0.10516558, -0.08636643},
    {-0.223857, 0.06509507, 0.22061779, -0.3253876, -0.13176374, -0.51557225, -0.2714114, -0.0765686, 0.057100683, 0.36338797, -0.045801885, -0.021131024, 0.062989935, 0.107062206, -0.46909934, 0.03774724, -0.0060297274, -0.46450144, -0.2550012, 0.46522295, -0.1253113, -0.8025048, 0.03482538, -0.0049371226, 0.0378356, -0.2584588, -0.19446409, 0.6915995, -0.059303697, 0.10493205, -0.8600104, -0.24026254, 0.29268816, -0.092864506, -0.067579366, -0.37377915, 0.0951963, -0.17863218, 0.17691286, -0.11324829, -0.44584423, -0.54261535, -0.044189066, 0.16846204, 0.3660547, -0.0384637, 0.38530028, -0.33459753, 0.05503396, -0.46136785, 0.60329, 0.096593745, 0.09851933, -0.004752762, -0.080316514, 0.016057575, 0.34690717, 0.011719357, -0.07951445, 0.016008537, -0.22585186, 0.11976013, -0.048900925, 0.19238402},
    {0.014795444, -0.15572277, 0.21252613, 0.04449527, 0.12194574, 0.22096777, -0.3397659, -0.22173093, 0.024480458, 0.20737912, 0.11474467, 0.17631957, 0.23978369, -0.0020858627, -1.0417379, 0.38130862, 0.9535805, 0.25959906, 0.028028885, 0.7133521, -0.06627371, -0.18938039, 0.53914434, 0.051018406, -0.14487194, -0.074830055, 0.088777415, -0.08688775, 0.43952805, -0.12932937, -0.122426674, 0.0029109456, 0.5128336, -0.32939592, 0.17657532, -0.70979834, -0.39486548, 0.11767367, 0.07939488, -0.29024985, -0.70708203, -0.29951498, -0.040643115, -0.35677958, -0.28018987, 0.035164356, -0.12794101, -0.41188452, 0.37097988, 0.120501935, 0.58153206, -0.24066666, -0.049272876, -0.07214848, 0.013734929, 0.17153029, 0.3618923, 0.16631983, -0.13113078, 0.25930905, 0.7910869, -0.017276151, -0.04019888, 0.0915311},
    {-0.2225032, 0.16397274, -0.0985812, -0.07720431, 0.13991977, -0.19075444, 0.13545671, -0.14293173, -0.08089894, -0.18373488, 0.005433875, -0.12265152, 0.07978756, 0.027175244, 0.46872386, -0.24501015, -0.32712302, -0.06548543, 0.001729691, 0.5787567, 0.13142815, -0.13674921, -0.23535836, 0.023338657, 0.14802787, -0.08650147, -0.35750443, -0.031081881, 0.65691185, 0.1495641, 0.0012556037, -0.09383646, -0.35932007, 0.18727471, 0.13389754, 0.3906438, -0.0026414276, 0.35980934, 0.25193936, 0.24903847, 0.014339242, 0.25071064, 0.14699167, 0.029719012, 0.3636354, 0.046684735, -0.28709102, -0.21256441, 0.2385322, -0.105246924, -0.15781109, -0.09765455, -0.31901294, 0.18178454, 0.230619, -0.16804837, -0.38018915, -0.004209552, -0.18677096, -0.20059131, -0.27534774, -0.043021925, -0.084962144, 0.12896039},
    {0.1658484, 0.28163552, 0.2886866, -0.117811434, -0.09289149, -0.33943483, -0.14304529, 0.031812493, -0.123804845, -0.26973993, -0.15307386, -0.0688017, -0.03918467, -0.16119504, -0.14259002, -0.42685983, 0.43608084, -0.30891457, 0.06923286, 0.106536776, 0.06427114, 0.24350683, -0.54464096, 0.037147943, -0.025264433, 0.15377803, 0.0030791166, 0.47242486, -0.296122, -0.014398799, 0.05220128, -0.10084322, 0.27426016, -0.024527058, 0.1970776, -0.23772667, 0.069719225, 0.07666966, 0.23512049, -0.38911238, -0.16135375, 0.81741816, -0.08509601, -0.023332624, 0.09972072, 0.0008147807, 0.08823191, 0.20060843, -0.14253145, 0.23965402, -0.21612836, 0.095517784, -0.114355214, 0.1792213, -0.120212264, -0.27992472, -0.12833227, 0.0951679, -0.024195204, 0.012532882, -0.29027703, -0.044884034, 0.09196174, 0.13018577},
    {0.024201194, -0.0730313, 0.047472615, -0.0173185, 0.34190232, -0.053753622, 0.09438122, -0.11213146, 0.037649166, -0.17636563, -0.4965231, 0.052374285, 0.17511907, -0.10083956, 0.42322403, -0.31697235, -0.18756695, -0.0277417, 0.19502501, 0.05551494, 0.04761522, 0.24856171, 0.021559443, -0.072133906, 0.094053194, -0.06286147, 0.16961111, -0.4511647, 0.10072102, 0.19949076, 0.38743293, -0.038334247, 0.2957288, -0.15177791, 0.0206182, 0.082226805, -0.09122541, -0.19675075, 0.33682564, 0.09496902, 0.20319594, 0.23280211, -0.1635292, -0.5398614, -0.12249839, -0.18056822, -0.12709714, 0.17726853, 0.3890883, -0.05483153, 0.06955689, 0.21654893, 0.15059859, -0.031634513, 0.19639818, 0.029901937, 0.5296573, 0.07463486, -0.24153545, -0.0074970415, 0.049281847, -0.025563836, -0.2666762, -0.56257},
    {-0.09133918, -0.68621844, 0.13639271, 0.17025465, -0.22616608, -0.10028658, 0.04495704, -0.042135764, 0.0011732632, 0.12736319, 0.53710604, -0.21105345, 0.061955955, -0.08056826, 0.3229457, 1.1677271, 0.23407611, -0.789816, 0.14228815, -0.46935925, 0.08971771, 0.4074154, 0.5861814, -0.014567877, 0.04934357, -0.0034532312, 0.17207833, 0.019173348, -0.6285145, -0.096267805, -0.18183602, 0.11750169, -0.07875001, -0.02570632, -0.054471485, 0.51384634, 0.9023282, 0.0846917, -0.036485683, -0.2216842, 0.42476845, 0.19022125, -0.19631909, 0.26329035, -0.30712748, -0.13127895, 0.37019324, -0.40013734, -0.09174981, 0.051637296, 0.16666527, 0.20384422, 0.1742441, 0.057035133, 0.16909319, -0.17182535, -0.21278387, 0.22743659, 0.09306795, -0.011690785, -0.16467558, -0.24049829, -0.0787742, -0.0762307},
    {0.03992249, -0.4823048, 0.4147749, -0.056949507, -0.006763504, -0.4076091, 0.06746272, -0.13078856, 0.027581243, 0.11722009, -0.08249073, 0.081370205, 0.37034672, 0.19189362, -0.18469805, -0.0635262, -0.19188063, 0.20437717, -0.07633096, 0.9089578, -0.10900772, -0.7693947, -0.30191243, 0.020347564, -0.053731732, -0.1611202, 0.10162904, 0.20463155, 0.5333238, 0.13898572, -0.047674526, -0.11873631, 0.18619068, -0.2266009, -0.026031852, -0.6867505, -0.057931464, -0.052402537, -0.023549626, -0.22654457, -0.4829352, -0.38318536, -0.04533509, -0.9223139, -0.12935778, 0.12362961, 0.23591919, -0.04778082, 0.0740881, -0.31351283, -0.20375134, -0.006320003, 0.12464398, -0.15354785, -0.0751188, -0.0013461569, 0.17840023, 0.4398646, 0.20028834, -0.12887998, -0.15015568, 0.025097368, -0.07722636, 0.10490067},
    {0.0079284245, -0.25071213, -0.0017586503, 0.0011812018, 0.26029712, -0.14886104, 0.34615523, -0.14783618, 0.027691724, 0.06345686, -0.14120466, 0.112890065, -0.091347754, -0.01904714, 0.07614203, -0.52881813, -0.46538752, 0.21476758, 0.008383154, -0.30888623, -0.03669702, -0.0040297587, -0.5019631, 0.041975804, -0.1257578, 0.03753766, -0.022812936, -0.021245793, 0.32741553, -0.111088164, 0.43827674, -0.21267192, 0.12745957, 0.11512881, 0.18632513, 0.49006566, -0.09225765, 0.19627795, -0.095390975, 0.2575385, -0.004221079, -0.028099667, 0.15659817, -0.29797682, -0.03167973, -0.0815583, 0.6131625, -0.068359375, 0.31737024, -0.20483261, -0.66357976, -0.15315162, -0.21702209, 0.016029477, -0.032266732, 0.20882052, 0.27571988, 0.51905185, 0.102925055, 0.020797145, 0.061362363, 0.043301474, -0.018936085, 0.10953527},
    {0.051420577, -0.33858728, 0.25113064, -0.05583002, -0.14429556, 0.2983733, -0.4549653, -0.17397638, -0.13000864, 0.007839258, -0.095721506, -0.016480263, 0.16042863, 0.2565648, -0.20024647, 0.13282566, 0.16416132, 0.08892896, -0.19807324, 0.19544116, 0.16498686, -0.26483813, 0.055737764, -0.051837835, -0.0035580427, 0.034529272, 0.12613326, 0.18325786, 0.14099859, 0.10419311, -0.34369802, 0.12435318, 0.25819194, -0.26931804, 0.053374905, 0.25725582, 0.051427126, 0.10623177, 0.04636886, -0.074874856, -0.5895903, 0.15977125, -0.0024208003, -0.18583095, 0.37639445, -0.014454615, 0.3615269, -0.28823498, 1.2521683, -0.14691804, 0.009991, -0.20527928, 0.12607075, 0.015403535, 0.19835587, -0.1512191, 0.3200838, 0.10792162, 0.12415196, 0.011877219, -0.2200995, 0.08756867, -0.059473123, 0.29474422},
    {0.17845166, 0.71053666, 0.116544574, -0.034362964, -0.061020102, 0.06661297, -0.019016692, -0.21384974, -0.045893233, 0.37575313, -0.07284425, -0.001508863, -0.24574216, 0.06642042, -0.07430767, -0.4447966, -0.06095965, -0.39543915, 0.081001826, 1.0639919, -0.1265496, -0.08748558, -0.4428261, 0.013706886, 0.16920625, -0.19295841, -0.32291868, -0.10786319, 0.5178898, 0.1701465, -0.53956366, -0.4672956, 0.091738105, -0.6871425, -0.08775919, -0.109890416, -0.12256116, -0.10723281, 0.14645667, 0.24320924, -0.3616486, 0.16962028, -0.07865609, -0.4766899, 0.44088328, 0.05706343, -0.20655465, -0.030362533, 0.19541205, -0.29482147, 0.36465815, -0.17861497, -0.16893873, -0.1365533, 0.11656556, 0.53288937, -0.06562985, 0.08390167, -0.058879986, -0.1658341, -0.99235755, -0.03621016, 0.042593278, 0.41166207},
    {0.0022878253, 0.09046365, -0.2609063, 0.08684019, 0.20090963, -0.3586531, 0.14732674, -0.05412781, 0.1244157, 0.003528844, -0.64886487, -0.0037848337, 0.5588616, -0.1827298, -0.25761265, -0.13573413, -0.20042369, -0.10794083, 0.27099654, 0.13393015, -0.04576474, -0.111361384, -0.6188718, -0.0052290983, 0.07208403, 0.0705674, 0.22058363, -0.22973041, -0.0690134, 0.2807636, -0.0694435, 0.06899481, 0.41780454, -0.22699949, -0.10380603, 0.24376525, -0.019948946, 0.03644597, 0.009739798, 0.0774874, -0.09195195, 0.27427578, 0.101258144, -0.52035487, -0.09650796, 0.19474532, 0.16699159, 0.33057785, 0.6029934, -0.021167455, -0.44562438, 0.12364706, 0.055460323, 0.110222995, 0.19328839, 0.05849831, -0.15735692, 0.20530581, 0.028872864, -0.13720083, -0.25432372, -0.17507884, -0.043936566, -0.02237078},
    {-0.1486427, 0.93851167, -0.29019544, -0.06542299, 0.16253594, -0.4108894, 0.0472079, 0.014256872, -0.20871335, 0.015836755, -0.20671055, 0.025094002, 0.1261633, -0.19052158, -0.47304574, -0.46098098, -0.06502829, 0.33570856, 0.14063956, 0.39755788, -0.17633142, 0.14229235, -0.38672474, -0.14905074, -0.12404489, -0.029892003, 0.13304146, -0.18602219, -0.08142233, -0.08863644, -0.07920087, -0.09880849, -0.22594878, 0.17483899, 0.19595873, -0.21237315, -0.31945124, 0.10469514, -0.12710775, -0.09031291, 0.16165324, 0.3756286, -0.26766446, 0.21905044, -0.49915996, -0.042223025, -0.574633, 0.37134078, -0.10316284, 0.20500068, -0.041268606, 0.12502585, -0.062074848, 0.07716162, -0.3694569, -0.037804082, 0.175499, -0.19612227, 0.14218083, 0.029966127, 0.23996411, 0.0195774, -0.10472866, 0.18290181},
    {-0.04395651, -0.49616414, 0.39614773, 0.030178374, -0.7571847, 0.09292141, -0.34106076, -0.38413048, -0.11721585, 0.29758304, 0.13040534, 0.063404396, -0.11339994, -0.35508996, 0.2298386, 0.47578448, 0.019418832, -0.06694463, 0.024534984, -0.64258265, 0.016850999, -0.10531307, 0.11113568, 0.020452851, -0.24867727, 0.028993607, 0.05893642, 0.6734836, -0.38741845, 0.057366844, -0.43343684, 0.20175065, -0.15187122, -0.5505361, 0.16283481, 0.4071077, 0.28833926, 0.062285457, -0.053798407, -0.08462811, 0.1657321, -0.26745164, -0.00023825758, 0.86821055, -0.08734094, 0.18332818, 0.0090003135, -0.5503532, -0.640308, -0.24987657, 0.091061994, 0.22663139, -0.10440189, -0.048466206, -0.13517211, -0.0013118848, -0.06896212, 0.066248484, -0.039951462, 0.16646227, 0.09200044, -0.04244404, -0.062125914, 0.15935074},
    {0.21948035, 0.36521626, -0.0031973908, 0.0697926, -0.23539227, 0.69172674, 0.25295934, 0.09875329, 0.038957976, 0.04221933, 0.104651034, 0.058209937, -0.20731829, 0.08348632, -0.1040054, -0.2735646, 0.04194091, 0.027416538, 0.13969727, 0.48029393, 0.092521295, 0.44888064, 0.24875422, -0.031812865, -0.057591602, 0.023402609, -0.15388922, -0.79516304, 0.6671609, -0.115382396, -0.07470105, -0.24463843, 0.0068605426, -0.478965, -0.016511088, -0.15257736, -0.07549294, 0.17564283, -0.059245136, 0.3397322, 0.24018584, 0.09275231, 0.2671665, -0.1253971, -0.14782551, -0.012698395, -0.61204505, 0.11961246, 0.00091755093, 0.28335506, -0.0018442824, -0.05838364, -0.20675859, 0.09219456, 0.21688406, 0.017033301, 0.08937287, -0.099096924, -0.0939717, -0.26025122, -0.19794239, 0.043789078, -0.032117832, 0.10803188},
    {0.14035378, 0.105853155, -0.22895662, -0.01468029, -0.06273187, -0.27165622, 0.31431976, -0.12118015, -0.10616083, -0.011988916, -0.21396074, -0.11188118, 0.033261333, -0.03638376, -0.2675885, -0.1702357, -0.5418126, 0.023799844, -0.019197674, -0.14396308, -0.07991456, -0.26762226, -0.7384047, 0.035049494, 0.1279991, -0.13451628, -0.025248928, -0.016140614, 0.35669884, -0.11226732, 0.3118722, -0.042592455, 0.22067758, -0.28655502, 0.15987831, -0.0204799, -0.19831486, 0.08586318, -0.14540464, 0.108239874, 0.14870785, 0.18609403, 0.08021443, -0.3408074, -0.06630386, 0.073440365, 0.5802022, 0.25693923, -0.08240244, 0.2802907, -0.87434524, 0.2366956, -0.25061888, -0.09079479, 0.09738178, 0.16771555, -0.29286322, -0.0148285525, 0.113302715, -0.080879174, -0.26026428, -0.2923613, -0.019463714, 0.047832526},
    {-0.21302564, 0.4505217, 0.22955532, -0.07682427, -0.4956393, -0.1694979, -0.06500284, 0.11655314, 0.059621993, 0.4137316, -0.9201097, 0.16757245, 0.01881158, 0.15095215, 0.009261263, -0.24829726, -0.27574018, -0.02408666, -0.24070306, -0.4453584, 0.10715005, -0.30364522, -0.7573672, 0.053822573, 0.084151454, -0.27773282, -0.051069375, -0.24164772, -0.09532275, 0.091978155, -0.23014092, -0.19293843, 0.40588737, -0.4763255, -0.20179647, 0.40675598, -0.18774892, -0.2752969, 0.17652664, -0.049273938, -0.070213564, 0.078551605, -0.14177747, 0.5096798, -0.0909663, -0.019302472, 0.49886036, 0.7492931, -0.32640442, -0.036635987, -0.49963874, 0.009533741, 0.27554852, -0.05164979, 0.21017788, 0.088592075, 0.52222013, 0.33212447, 0.045413163, -0.09099714, -0.124019936, 0.115481764, -0.10564816, -0.019138806},
    {0.015961599, -0.005374057, -0.21374837, -0.05506549, 0.3053165, -0.21059908, 0.6246736, -0.43215656, 0.018019557, -0.2541525, 0.43855244, -0.13480373, -0.25840116, -0.25596607, -0.34496012, -0.0033119505, -0.25062716, 0.10527031, 0.022904992, 0.22868884, 0.29118115, -0.2921567, 0.0019785021, 0.041516818, 0.2510214, -0.08370195, -0.0559142, 0.36212626, 0.16407013, 0.0697501, -0.19632739, -0.11744716, 0.06426782, -0.03773462, -0.057014793, 0.367089, -0.1754991, -0.000103709644, -0.024424788, 0.24691065, 0.26755074, -0.26290423, 0.06686611, -0.17255074, 0.45060283, -0.06901771, 0.45813054, -0.07963269, 0.17133456, -0.020031849, -0.4415489, 0.027076352, -0.046316687, -0.06740316, 0.22183065, 0.08205087, -0.14242615, 0.14926632, 0.081723824, 0.02288365, -0.045957305, -0.047401357, -0.15805073, -0.21591079},
    {-0.092308894, 0.018419543, 0.20223457, -0.23398708, -0.09253205, -0.29738414, 0.09208557, 0.115523845, 0.07767996, -0.11351568, -0.37381905, -0.21209416, -0.28028637, 0.056025025, 0.61881405, -0.25712645, -0.4680232, 0.26132843, -0.07391022, -0.033151656, 0.110918164, 0.00052086107, -0.6623285, 0.03835449, 0.12999158, 0.089325204, 0.08202337, -0.17914915, -0.19794865, 0.04529006, 0.12976342, 0.10732839, 0.5946526, -0.29432058, 0.103746004, -0.038618166, -0.78988826, 0.054044332, -0.09015885, 0.09411494, 0.41756833, -0.18322915, -0.13130511, 0.013694616, 0.053713627, -0.142553, 0.08836405, 0.12970096, -0.4431727, 0.14983575, -0.5434711, -0.16635874, 0.060472265, 0.12445365, -0.09968898, -0.08515036, 0.47597757, 0.27310348, 0.1294629, 0.07349665, -0.08369495, -0.06453628, -0.06580461, -0.2027716},
    {0.08424542, 0.1000309, 0.12315536, -0.013912795, 0.22602212, 0.17454596, -0.20924962, 0.18628348, 0.0034192768, 0.12912966, -0.04767654, 0.08090701, -0.18261005, 0.105678216, 0.11232147, -0.061861143, -0.10788944, -0.21237734, -0.1121465, 0.110764086, -0.12737252, 0.07049585, 0.12866159, 0.051018886, 0.032485653, -0.06349341, -0.1266988, -0.09110762, 0.2310301, -0.040663775, -0.17479105, -0.26232898, -0.30454206, 0.11972141, 0.19106929, 0.08949848, 0.21706368, -0.09758727, -0.0895463, 0.064477876, 0.22003394, -0.043653365, 0.11443888, 0.14982781, 0.022522856, -0.057173163, -0.0152610075, 0.053292546, 0.51035225, -0.14919297, 0.0061367024, -0.057771966, -0.05795348, -0.043268424, -0.08269659, -0.021521041, -0.23126028, 0.36497557, -0.034687266, 0.06865804, -0.0152507685, -0.075012036, 0.03300594, -0.01587894},
    {0.33494344, -0.089076385, 0.44592574, 0.091761254, -0.0014203079, -0.06266096, -0.23560187, -0.070281245, 0.03490849, 0.11975022, -0.18223327, -0.036019936, 0.09695915, 0.10945488, 0.21128243, -0.14529729, -0.21807945, -0.14692423, 0.22092511, 0.12584123, -0.0777862, 0.073947996, -0.099603325, 0.03413806, 0.06755466, 0.01637974, -0.07895748, 0.1207551, -0.016074928, 0.18252206, 0.10909994, -0.029056046, -0.2645187, 0.11522565, -0.09447923, -0.15376343, -0.3723745, 0.07304181, -0.13495599, -0.23961994, -0.2828962, -0.54315835, 0.29618165, -0.18614332, -0.13846685, 0.16007338, 0.2043271, -0.48002306, -0.12803319, -0.16633709, 0.13456962, -0.20228635, -0.07069861, -0.0058523067, -0.058404204, 0.02959893, 0.4890897, 0.05074283, 0.21039946, 0.04162478, 0.1618206, -0.112578586, 0.15316868, -0.0111851115},
    {0.36618042, 0.47252214, -0.7899823, 0.15220667, 0.6483554, -0.84437066, 0.12721904, 0.004028412, 0.124597214, -0.47171, 0.64301634, -0.23883806, -0.03034886, -0.08961401, -0.0061670546, -0.23782268, 0.18562062, -0.12554295, -0.082255036, -0.14331822, 0.13012089, 0.32052547, 0.27874258, 0.04600981, 0.11039118, 0.024946319, 0.21600036, -0.15223385, 0.16827743, 0.016360102, 0.47845915, 0.22401218, -0.49180216, 0.35564327, -0.047714375, -0.36130166, 0.043232113, 0.14223298, -0.08827902, 0.27917305, 0.3449852, 0.21350849, 0.2643771, -0.10011719, -0.06187185, -0.053946413, -0.10543745, -0.22662324, -0.37932956, 0.6203504, -0.21440484, -0.13720468, -0.00039107018, -0.102044456, 0.0461385, -0.11964312, -0.95307523, -0.5084316, 0.068969674, 0.009818243, 0.3314217, -0.13455486, 0.058252364, -0.21819922},
    {0.20659365, -0.0016224948, 0.029318122, -0.14319448, 0.10040826, -1.020326, -0.36899796, 0.29416794, -0.12113164, 0.1318011, 0.24773163, 0.1013907, 0.24375229, -0.12030329, -0.020044718, 0.04986612, 0.2566026, -0.6406967, 0.21041575, 0.08163025, -0.094715245, -0.38764593, 0.021714214, -0.02263385, -0.050639175, 0.15351288, 0.08460948, 0.36167726, -0.237064, 0.0150642255, 0.057430778, 0.043706186, -0.29421115, 0.12231509, -0.27549472, -0.005474935, 0.30990094, -0.11486044, -0.09415883, -0.20224318, 0.10653021, 0.13797684, -0.12407777, 0.1478861, 0.22722045, -0.0854819, 0.2294716, -0.07886071, -0.0734319, -0.31014153, -0.030902725, 0.115483396, -0.03184242, 0.040545214, -0.14575595, -0.12605892, -0.77922225, 0.012673762, -0.15326832, 0.17483895, -0.14379154, 0.056162734, -0.00910918, 0.19854942},
    {0.12290961, 0.25777435, -0.05612101, 0.07228989, 0.124933116, -0.04409552, 0.2628245, -0.21553908, -0.13391623, -0.044914212, 0.24620493, -0.07182792, -0.32435802, -0.038675006, 0.09142134, 0.28715533, -0.13733825, -0.03061565, -0.08300163, 0.25579083, 0.041023582, 0.27992082, -0.32238844, 0.0013435709, 0.18918878, 0.20374535, 0.24205849, -0.42471418, 0.31206563, -0.14285885, -0.09012518, 0.39151716, 0.1531941, -0.44772327, 0.14810914, 0.014696459, 0.034710873, -0.0626277, -0.12198496, 0.021218002, 0.11571326, 0.013433445, -0.15359831, -0.43434715, 0.053907096, -0.077450715, -0.04410675, 0.08810358, 0.5307566, 0.10127583, -0.30763528, -0.076327585, -0.065457165, -0.08665508, 0.05250325, 0.1658491, -0.13584386, 0.22395808, 0.030060206, -0.052982405, -0.63798743, -0.14617538, -0.14197679, -0.049055744},
    {0.060063396, 0.14295512, -0.27204612, 0.07622854, 0.3114046, 0.12035791, -0.1524098, 0.14046553, 0.12913765, -0.1942544, -0.547, -0.07399051, -0.1787605, 0.16191824, 0.2571169, -0.08308495, -0.56558776, 0.076283686, 0.060941476, -0.20860861, -0.03132221, 0.7217569, -0.29046226, 0.11034221, -0.054991376, 0.0055782977, -0.012582044, -0.09715537, 0.024683252, -0.1011273, 0.5502848, 0.028652143, 0.14043479, 0.28180283, -0.1878261, 0.17372717, 0.16743144, -0.11276822, -0.056559935, 0.10382707, 0.41407287, 0.77274203, -0.07179129, -0.006156542, -0.6330127, 0.11152814, 0.15001984, 0.7890534, 0.06784567, 0.18223594, -0.60101277, 0.016686358, 0.005102802, -0.054000273, -0.043807495, -0.027842926, 0.13462694, 0.22444652, 0.040006857, 0.03184926, -0.19637668, 0.025459869, 0.2527183, 0.18145795},
    {-0.0068869353, 0.0005612801, 0.027249284, -0.09354307, -5.946259e-07, -0.035800792, -0.20157585, -0.23501527, -0.088664055, -0.13875562, -0.016152266, -0.15171462, -0.026061742, -0.034749523, -0.034210436, 0.021930408, 0.31530324, -0.04407829, -0.09158811, 0.005832678, -0.03749172, -0.12274052, -0.0111245895, 0.02287275, 0.15724929, 0.11102909, 0.032476515, -0.1573695, 0.057651803, 0.03384213, 0.05021636, -0.12220623, 0.27892208, -0.6094998, 0.108054765, 0.016385015, 0.038411617, -0.0961917, -0.23942624, 0.042046536, 0.19428651, -0.13552967, 0.16673492, -0.21070066, 0.039384417, 0.02824964, 0.24757086, -0.20174079, 0.37230486, -0.08768958, 0.2797926, -0.26849797, 0.12809382, -0.04602703, 0.25221547, 0.34823626, 0.14541708, 0.1838837, -0.016366756, 0.038598605, -0.22339115, -0.15175515, -0.12047669, -0.14082618},
    {-0.03664625, -0.5757057, -0.21448418, 0.13600568, 0.67917854, 0.037748132, 0.3011889, 0.079511434, 0.019725043, -0.44436806, -0.100076094, -0.11237332, 0.06813959, -0.05660629, 0.027140303, -0.51701665, -0.6328586, 0.62692475, 0.118706405, -0.531324, 0.026034247, 0.38140717, 0.20332396, -0.109639294, 0.01017656, -0.012457563, 0.07630522, -0.043256614, -0.077265024, -0.095151074, 0.37371483, 0.10441423, 0.039360136, 0.5352342, -0.13500156, -0.36141255, -0.43362477, -0.0451523, 0.041999847, 0.15157644, 0.22897746, 0.081050076, 0.051981647, -0.037176125, -0.42540473, -0.06708813, -0.2677341, 0.08283547, -0.24466561, 0.3185119, -0.2194749, 0.0568145, 0.15556501, -0.017530046, 0.07040431, 0.055482022, -0.06585372, 0.083919555, 0.18790431, -0.14244185, 0.89805067, -0.093587965, 0.10384739, -0.6503404},
    {0.22125642, -0.11423576, -0.064338975, 0.034637026, -0.1861867, -0.40064734, 0.06809641, -0.104877554, -0.023730634, 0.04113787, -0.07859716, -0.10445456, -0.20862436, 0.13836397, -0.4429051, -0.07147123, -0.4745663, 0.47396246, 0.179265, -0.110785805, -0.005185788, -0.12237278, -0.23796062, -0.12119615, -0.14040267, -0.08302716, 0.042430043, 0.42530832, -0.1935907, 0.09368722, -0.25331172, 0.013010243, -0.42670473, -0.060226347, -0.037365805, 0.043627936, -0.18254666, 0.09387271, 0.12344067, 0.1502305, 0.43717757, -0.025459733, -0.056751266, -0.2265407, -0.24672006, -0.061115004, 0.045602, -0.34923592, 0.17659108, 0.2175255, -0.2937546, -0.03620307, -0.05102772, 0.025007509, -0.2657361, 0.033094767, -0.15699382, -0.031440165, -0.11036868, 0.04294972, 0.12471117, 0.0948468, 0.034177817, 0.03965662},
    {-0.04825079, 0.34589392, 0.17846735, 0.010987991, -0.19496115, -0.3453866, -0.3069514, -0.14304896, 0.16031605, 0.24586791, -0.38663176, -0.22150761, 0.30465657, 0.054392926, -0.11763597, -0.12628281, 0.15260525, -0.20488256, -0.009895073, 0.031553973, -0.18437485, -0.19552033, -0.19162485, 0.09102063, -0.050800897, -0.05069708, -0.15246524, 0.37786683, -0.7145072, 0.08957942, -0.01254475, -0.13373452, 0.17614019, 0.3199937, 0.042975355, -0.040860347, -0.23519461, -0.10609405, 0.08410765, -0.19611749, -0.29283807, 0.1196396, -0.28367332, 0.3092309, -0.3343443, 0.170005, 0.04160719, 0.44081372, -0.18074565, 0.0016352473, -0.08278011, -0.022001741, -0.06333809, -0.025607778, -0.08748765, 0.0308394, -0.0919453, -0.09131771, -0.004677955, -0.059143495, 0.2456722, -0.031360403, 0.04167293, 0.030275287},
    {0.04160043, 0.37335104, 0.0798748, 0.06131395, -0.18090324, 0.16658038, 0.17730239, 0.34950024, -0.054627486, -0.2543835, 0.5772273, 0.0029403318, -0.3712417, 0.10744833, 0.19558983, 0.1145919, 0.15770829, -0.33720908, -0.12989166, -0.25296286, -0.09807729, 0.47097158, -0.5787707, -0.24652839, -0.02286012, -0.24118645, -0.03498726, -0.18309307, -0.4290143, -0.30843303, -0.06321901, -0.04358991, -0.23720196, -0.36016378, 0.06027916, 0.23147307, 0.102466725, -0.033006486, -0.10928153, 0.11277497, -0.002750123, -0.02478939, 0.21786852, -0.16357319, 0.10711957, -0.09752565, -0.15178117, -0.29389453, -0.07069758, -0.16948119, -0.11813498, 0.022565741, 0.2861703, -0.18082862, -0.020572323, 0.2723467, -0.3580517, -0.19010669, 0.37991393, -0.073640786, -0.5942462, 0.27595398, 0.34121433, -0.050554007},
    {0.014619772, -0.17614958, -0.34325045, 0.09484889, -0.65913826, 0.08870098, 0.52251834, -0.015735317, -0.024746805, -0.043207303, 0.46446952, 0.22897896, -0.378453, 0.39487076, 0.032953057, 0.7253622, 0.0514186, -0.3227428, 0.073320426, 0.19029386, -0.037307322, 0.023651885, -0.28894788, -0.05921836, -0.0033742643, -0.055782363, 0.13412456, -0.081658155, 0.09344342, 0.3002661, 0.1454307, 0.15277703, 0.20350507, -0.18716696, -0.007642495, 0.27875218, 0.39980185, -0.21570526, 0.061593335, -0.13950507, -0.18447763, 0.10761021, 0.029292049, -0.2852724, 0.1233722, -0.1537785, 0.16450316, -0.21139096, -0.0044912947, 0.06187631, -0.41266164, -0.14216234, 0.009551456, 0.10653206, -0.12463, 0.07641742, -0.20260704, -0.09192354, -0.42704895, 0.060622722, -0.46350205, 0.16062582, -0.113688946, 0.0016262551},
    {0.037578344, 0.002569378, 0.12358231, -0.01474463, -0.14436412, 0.6197269, -0.16789699, 0.07465192, -0.10481302, 0.14862275, -0.66421205, 0.16815038, 0.10399921, 0.010186924, 0.052869983, -0.21680969, -0.49541557, 0.31583485, -0.13572544, -0.19477862, -0.021764994, 0.057236955, -0.3392514, -0.07687244, -0.13260542, -0.12817544, -0.3256624, -0.13278992, 0.21647203, -0.26268944, 0.07867196, -0.10592703, 0.13810965, 0.12767915, 0.1913684, 0.0105075715, -0.15864341, 0.018433284, -0.11955195, 0.01045556, 0.012237238, 0.02117683, 0.03795691, 0.025721008, -0.5486295, -0.08248042, 0.1837048, 0.1691145, 0.45652828, -0.3780521, -0.2319386, -0.20329687, -0.13843189, -0.14366244, -0.19588263, 0.22914697, 0.6981969, 0.12534742, 0.04732043, 0.19326997, -0.47713912, 0.12622893, 0.042501308, 0.15746759},
    {-0.1130546, 0.15300684, 0.13900499, -0.049801294, -0.22523649, 0.20294788, -0.3240301, 0.3431325, -0.07628801, 0.015236992, -0.32090217, -0.18136665, -0.14820035, 0.13297862, -0.1356213, 0.001456258, -0.25688624, -0.016065696, -0.17315608, 0.3791159, -0.22371182, -0.0067148535, 0.08473183, -0.045221783, 0.2336859, 0.012265463, -0.076343596, -0.07196969, 0.2333793, 0.05575075, -0.42675197, 0.011994208, 0.39760214, -0.35678735, 0.0971655, -0.22420599, -0.2129579, -0.09450912, 0.13310654, -0.062449265, 0.3496614, 0.10420718, -0.1307094, 0.22667849, -0.32704243, 0.07538172, -0.061589714, 0.097132415, 0.16911986, -0.15299627, 0.12262714, 0.17379603, 0.09225163, 0.083789825, -0.11677842, 0.1090513, 0.17240441, 0.24058142, 0.008273186, -0.06375463, -0.034022305, -0.02768935, 0.13814937, -0.13471077},
    {0.10677632, 0.022553451, 0.19002444, 0.11763442, -0.18972133, 0.56070197, -0.18036285, -0.2253919, 0.24295644, 0.083113, 0.30561677, -0.24474847, 0.3755443, -0.40167665, -0.36568037, 0.14715528, -0.14854774, 0.30674577, -0.0013284112, 0.13883837, -0.14526574, 0.058714196, -0.14086276, 0.18023118, 0.10524354, -0.09037087, -0.12932107, -0.19244963, 0.018610993, -0.19780952, -0.046846643, -0.08955244, -0.17284156, 0.11308981, -0.055536143, -0.34854984, -0.025638152, 0.17776026, 0.057880275, 0.106600605, -0.0063829734, 0.22858486, 0.10363887, -0.28681937, -0.23566715, 0.029059155, -0.3886803, 0.027597755, 0.48894313, -0.01428882, -0.0687781, 0.03883947, -0.086355075, 0.033343993, 0.050891284, 0.17459504, -0.39966545, -0.39614543, -0.11317675, 0.16940652, -0.06308312, -0.16536938, 0.008565659, 0.0072326744},
    {0.41093907, 0.6551219, -0.24637315, 0.26560032, -0.03833619, -0.12776549, -0.11307208, -0.15625544, -0.09427147, -0.12609729, -0.111356564, -0.124674425, -0.38441965, -0.24766506, 0.060455464, -0.5863745, -0.38746175, -0.14752282, 0.09516891, 0.0849032, 0.13136008, 0.32112116, -0.14293571, 0.01260018, 0.06268557, 0.26418427, 0.11952707, -0.18313384, -0.053836033, -0.058792055, 0.019641316, 0.06280337, -0.54119116, 0.2538656, 0.07987509, -0.3666391, -0.53992826, -0.010251103, -0.19921386, 0.32480738, 0.31583104, -0.0680787, 0.36408517, 0.39619192, 0.27424258, -0.11965687, -0.4000305, -0.49301758, -0.4539568, 0.2730838, 0.117179185, -0.1343858, -0.14831938, 0.09183522, 0.037651878, 0.17993622, -0.19893931, -0.7875575, -0.04733031, -0.22380054, 0.36450812, -0.31041652, -0.14132577, -0.06042202},
    {-0.111030474, -0.22176321, -0.16926433, 0.11114812, -0.41818172, -0.2005111, 0.5666036, -0.02241531, -0.08893106, -0.10688776, 0.04102043, -0.036475394, 0.28704163, 0.0051668324, 0.2503513, 0.26588547, -0.15480322, -0.28771394, 0.024915671, 0.06130844, 0.10874939, -0.041873183, -0.05629285, 0.003166763, 0.19317178, 0.087153465, -0.085602194, -0.055938527, 0.057210106, -0.013619381, -0.08313515, -0.0056669, 0.3085501, -0.013707489, -0.03488441, -0.08727795, -0.22462006, 0.002210727, 0.09923872, 0.33179006, 0.15349044, -0.13105068, 0.047470994, -0.18974452, -0.08195023, -0.0061730756, 0.40383762, -0.31347343, -0.20112687, 0.16520263, -0.44783568, -0.09459311, 0.019851003, 0.08060117, 0.07569332, 0.09458341, 0.09532039, 0.009504428, -0.024667978, -0.032890845, -0.3296852, 0.022339968, 0.04245175, 0.008853737},
    {0.31224144, -0.4780745, 0.11108483, 0.09663651, 0.024156746, -0.48347726, -0.5577348, 0.07098907, -0.043246675, 0.055262614, -0.09934341, -0.05272046, 0.07415424, 0.07387152, -0.16346437, -0.35167807, 0.01914841, 0.008985409, 0.093382716, 0.40813497, -0.08510549, -0.43973005, -0.0049844235, 0.023518918, -0.21026106, -0.049070366, -0.15956119, 0.12556115, -0.015938438, 0.026878078, 0.018586816, 0.10776272, 0.37256968, -0.47932026, -0.076930575, -0.20230027, -0.32117784, 0.0087039145, -0.00720033, -0.02143393, -0.22250468, -0.26068506, 0.104338415, -0.16910252, 0.7982083, 0.022518544, 0.4297347, 0.054922093, -0.47284472, 0.100058936, -0.18238086, 0.099266015, -0.22534072, 0.16660838, -0.31705973, -0.18807743, 0.13339376, 0.7993782, -0.05356869, 0.030420864, 0.16085707, 0.025378978, 0.048290722, -0.24109669},
    {0.07044748, -0.40584356, -0.013330384, -0.04796554, 0.42385656, 0.49638808, -0.25157142, 0.035574183, -0.20355342, -0.052228604, -0.06851534, 0.03287247, -0.18820024, 0.035127543, 0.43440646, -0.046075948, -0.5739247, 0.25146672, 0.0002810795, -0.018922081, -0.06653308, -0.035806183, -0.028436271, 0.052209392, -0.036233816, -0.070189, -0.28132576, -0.33526513, 0.70309705, 0.10100659, -0.20202759, 0.085347295, -0.2186278, -0.29884183, -0.12026287, 0.4413424, -0.38861617, 0.13835804, 0.17921163, -0.2834016, 0.31242907, -0.45301363, -0.13025658, -0.29848492, 0.1201942, 0.20496014, 0.15570743, -0.1032347, 0.2597789, 0.03692372, 0.08336442, 0.07261386, -0.13861653, 0.017236074, -0.04142827, 0.22080411, 0.2773616, 0.28165558, -0.10294791, 0.12067825, -0.13955875, 0.16285792, 0.27153355, -0.10953504},
};

static const float agent_ac_actor_pi_net_fcs_1_bias[64] = {-0.13259572, -0.22583684, -0.02822099, -0.06605934, 0.25186247, 0.5910428, 0.28925827, -0.108928494, 0.015603584, 0.03890416, 0.06913698, -0.07194031, -0.31225702, -0.11831668, 0.53225654, 0.17849068, -0.14249551, -0.20478445, 0.058765102, -0.012067735, 0.10331239, 0.42538312, 0.14806618, -0.03609173, 0.10098729, -0.15950659, -0.011938316, -0.12311327, 0.18786834, 0.16026473, 0.13195997, -0.18199132, -0.037465792, 0.4078773, -0.0398872, 0.5581129, 0.4266924, 0.07360245, -0.19663389, 0.33855057, 0.2528146, 0.3225401, -0.0011191142, 0.05950689, 0.2717822, 0.0385774, -0.15524831, 0.17679513, 0.37868732, -0.003067175, -0.1415967, -0.016621815, -0.06252703, -0.02648957, 0.1473911, 0.16933724, 0.34443036, 0.15587571, -0.03261518, -0.23049022, -0.29089105, -0.10015042, -0.044593446, 0.20914036};

static const float agent_ac_actor_pi_net_fcs_2_weight[64][4] = {
    {-0.0918595, 0.05820128, -0.011252236, -0.032764897},
    {0.58856356, 0.076052055, -0.63712126, -0.24361207},
    {0.04371255, 0.050698325, -0.22236021, 0.095588535},
    {0.034496963, -0.009170622, 0.02986501, 0.0069353157},
    {-0.006560468, 0.09441565, 0.43066618, -0.28332567},
    {0.48450574, 0.377221, -0.83857334, -0.051754024},
    {0.5583019, 0.093861364, 0.4918171, 0.0406577},
    {-0.066373445, -0.038319506, 0.04830585, 0.047516234},
    {0.023116535, -0.026142262, 0.024253186, 0.0052550514},
    {-0.056981035, 0.077508725, -0.18159328, 0.15541695},
    {-0.70508343, 0.6681692, 0.08454098, 0.37779573},
    {-0.002494843, 0.011953928, 0.004157894, -0.007377691},
    {-0.370198, 0.0091221025, -0.2582982, 0.12649919},
    {0.012485314, 0.007848426, 0.029141925, 0.05308542},
    {0.31180924, 0.1965139, 0.3079094, 0.11704811},
    {-0.104680695, -0.8570403, 0.3767702, 0.20031762},
    {-0.44450724, -0.724655, -0.20921521, -0.023947079},
    {0.003956014, 0.102300756, 0.420525, -0.5466258},
    {-0.021931019, -0.00042389112, -0.0035162515, 0.011271335},
    {0.16736531, 0.1907993, -0.46991494, -0.7600824},
    {0.035843354, 0.061722264, 0.011610955, 0.010109694},
    {-0.3875369, 0.61132604, 0.27428406, -0.5025067},
    {-0.6731891, -0.20246638, 0.46174622, 0.008050861},
    {-0.0020183807, 0.017651226, 0.030515801, -0.010602168},
    {0.014452238, -0.027717946, -0.0056813727, -0.03490012},
    {-0.022124037, 0.042510495, 0.049546085, -0.004520009},
    {-0.015438246, 0.03047858, 0.06328211, -0.023447834},
    {0.10658758, -0.6613329, 0.08640754, 0.6305683},
    {-0.034530785, 0.44073665, 0.010420281, -0.425576},
    {0.0042739655, -0.0019271286, -0.013071457, -0.005783798},
    {-0.1894466, -0.05750194, 0.33571127, -0.075916715},
    {-0.03885055, 0.042546164, 0.08691701, 0.023059646},
    {0.101143, -0.59096193, -0.29139084, 0.274788},
    {-0.2618251, 0.20508449, 0.3958686, 0.2796654},
    {0.0124675, 0.024111379, 0.018142257, -0.0042912676},
    {0.3048918, 0.12364802, -0.0028527484, 0.4116477},
    {0.15422352, -0.7088916, -0.062971525, 0.744966},
    {0.036308687, 0.0653538, -0.044060294, 0.0016826774},
    {0.011554864, -0.00053946645, -0.046079237, -0.007716369},
    {0.09280146, 0.007318159, 0.010351436, -0.20265718},
    {-0.059495714, 0.06261173, 0.23488863, 0.4471689},
    {-0.6495382, -0.019425683, 0.4907254, 0.03163802},
    {0.017513938, -0.0035183232, 0.086109556, -0.19000235},
    {-0.32252643, 0.44142932, -0.39567485, 0.5425391},
    {0.47584113, -0.005083714, -0.09901023, -0.17529036},
    {0.015487312, -0.026563682, -0.054276396, 0.022495897},
    {0.12150012, -0.3021911, -0.15348393, 0.16959302},
    {0.22238989, -1.0233964, 0.47807124, -0.026075348},
    {-0.03615631, 0.13161059, -0.23849764, 0.37082794},
    {-0.043829296, -0.07312191, 0.18184747, -0.24100764},
    {-0.17100717, 0.22403374, -0.28246677, -0.3894392},
    {-0.015048893, 0.0019768989, -0.028619753, 0.027257307},
    {0.019849228, -0.102034, 0.043208715, 0.013905381},
    {-0.013036605, 0.029424146, 0.007319314, 0.032966632},
    {0.12271729, -0.014900288, 0.0431631, -0.009511834},
    {0.08588097, -0.06512095, -0.03556739, -0.044715013},
    {0.4734323, -0.13393487, -0.57042134, 0.064383864},
    {-0.6346053, -0.3444299, 0.0106919985, 0.5113836},
    {-0.0145612825, -0.06497725, 0.012103825, -0.016599717},
    {0.010604311, 0.001319693, 0.015754335, 0.008758153},
    {-0.81242764, 0.019484332, 0.3904818, -0.30285794},
    {-0.034270935, -0.02250771, -0.044939086, 0.036293},
    {-0.025031714, -0.055352204, -0.001144512, 0.0063397908},
    {0.008124203, 0.14532684, -0.17162333, 0.010995078},
};

static const float agent_ac_actor_pi_net_fcs_2_bias[4] = {0.30296305, 0.43804258, -0.014335362, 0.33748546};

static const float agent_ac_critic_v_net_fcs_0_weight[17][64] = {
    {2.3655536, 0.4326379, -2.0401537, 7.5492783, 5.802356, 1.4061079, -7.3671284, 0.6695652, 6.89718, -2.767424, 0.5334551, 4.7138553, 5.232289, 3.1465824, 1.9549195, -5.705379, -4.4122586, -2.8238418, 4.858659, 2.0729718, 0.17647591, -2.6742554, 3.962993, 7.5017138, 3.8508565, 6.2925963, -7.3962517, -8.599729, 4.37629, 7.0310698, 9.920719, 3.0321827, 1.3356761, -0.33233753, 4.859286, -0.62259144, -6.3249726, -1.2258565, 5.0985126, 0.37249982, -1.9131273, -0.040480237, -3.4305484, 0.22967483, -2.6750195, -3.4932094, 3.448554, 1.446006, -4.144032, -1.9087948, -11.196968, 1.4188198, -3.2217612, 0.62087363, -0.9424224, -1.0411311, 5.184291, 9.308553, -3.4663618, -7.6052523, -0.042059373, 2.2429144, 1.2935095, -6.883316},
    {4.465319, -6.0335774, -0.8384573, 3.187446, -5.48954, -1.4725353, -1.950605, 4.096943, -1.0038651, 4.4152803, 6.4304476, -6.483901, 2.4474785, -3.448246, 3.6958833, 4.055448, 0.32621816, -0.10105133, 1.8621986, 3.6285758, 0.094108336, 0.9459946, 1.3212514, -1.4790432, 1.1189178, 1.537731, -2.2015584, -5.2640276, 5.8572254, 1.5845641, 1.4692497, -6.2963805, 0.19312079, 7.4297934, -5.237674, -3.9465976, 1.6615953, 3.2695267, -1.2809412, -3.2750227, 3.733133, 0.02583661, 15.429979, 2.013655, 0.42602143, -2.5553718, -2.3340259, 3.8276186, -6.4932833, -3.7536259, 2.0954175, -6.0265293, -2.57419, -0.7678745, 2.7420638, -0.9035298, -2.9191248, 5.795041, -1.5929837, -3.2377634, 11.925938, -2.6090043, -0.045248326, -8.125571},
    {-0.6579196, 0.33553618, -3.218093, -2.2870524, 0.9347235, -1.6564711, -3.3860574, -3.347438, 0.8940739, -1.8616456, -2.5478601, -0.63043725, 1.6358454, 0.6759159, -0.40270028, -0.59749216, 0.5916474, -0.8058867, 0.11239614, 4.3422666, 4.398242, -1.0849195, 3.9389765, -0.55725485, -1.1191723, 1.4598771, -1.9064715, -0.018494146, -0.017250119, 1.0817113, -1.2963121, -2.2592025, 2.8234973, 1.0748308, -0.45772657, -4.179223, -3.276334, 2.1860745, 1.8090352, -1.1404052, 4.143302, 1.9635705, 4.1560087, -0.08136038, 2.067712, -3.595783, 0.8974554, 3.7372715, -1.4130363, 2.687761, 1.5979558, -1.0104833, -2.7877264, 0.017618643, -2.2802186, 0.9092903, 1.6597525, 1.8515257, -4.714663, -2.2732542, -3.3082366, 2.2001436, -3.6518092, -0.86909443},
    {-2.43055, -1.4155867, 4.1438036, -1.7487549, 0.19486077, -0.039189093, 1.0893853, -0.31251046, -1.3491477, -3.3122952, -0.97360736, -0.289719, 4.077813, 1.9217006, -1.1240922, -0.21780597, 1.02143, 2.2844229, -1.9743177, -4.274977, -1.5283808, -1.7293898, -0.3853514, 2.1745777, 2.2995737, 1.3568325, -0.7269867, 0.15173337, 2.0244012, -3.117794, 1.1929108, -4.62172, 1.9140081, -3.6657102, -0.882072, -0.802926, -2.6358874, -3.9810102, -2.0293574, -3.5052602, -1.8110621, -0.22337136, -1.3562678, 0.064649515, 7.6546097, -6.426464, 0.06166038, -0.75577396, -0.9355089, 3.589661, -3.3379636, 4.0692945, 5.2498574, -0.45176274, 7.8650064, -1.5087574, -3.19714, -2.0083342, -1.2119548, 3.341705, -1.8865196, 7.45059, 1.4841802, -1.7486731},
    {0.8014188, -1.1531091, -1.9785688, 1.1722677, 5.285319, -4.121503, -0.3522451, -1.1984237, 0.31392512, 6.8453426, -0.33607695, 0.5514931, 1.5578264, 2.176795, -2.9636202, -0.52749836, -2.0599675, -0.007085561, 3.6112986, 3.0791638, -7.52942, 0.2548653, 2.122387, 1.5335622, -1.246848, 1.3718663, -1.0625442, -1.3008478, 0.01918527, 2.6080904, 0.49059504, 1.1215447, 6.827216, 0.4400329, -0.97455454, -0.92975223, 4.680004, 2.1750965, 8.884131, 0.6094532, 0.67715997, -0.033580653, 0.2507057, 0.86562365, 0.9032637, -2.2382002, -2.9521759, 0.41142005, -6.221143, -1.3408179, -0.5013335, 3.1068108, -1.7793148, 1.7201247, -1.1466986, 3.4362786, 0.74818623, -0.8453018, -1.4285944, 1.1600031, -0.5535953, 3.0634558, -1.9583654, -0.46183905},
    {-1.110365, 5.3203917, -4.155941, 6.9353695, -4.2326245, -1.9998007, 2.5856962, -1.1719759, -7.8530416, 0.11512524, -2.5117335, 5.9943886, -6.5241237, 3.1225257, -8.176891, -7.4726796, -10.17041, 6.9593544, -6.639735, 0.562277, 0.8554179, 8.822394, 4.968798, -5.7956324, 3.9614754, -8.42026, 7.8241186, -7.921634, -2.9571085, 6.217112, -0.30468684, -5.674377, -0.97054833, -6.1125693, -7.68684, -1.5366098, 0.5629961, -0.5795479, 0.49012426, 5.8318067, -0.47397953, 5.3173614, 2.342447, -10.294452, 1.9889766, 0.44980168, 2.3124359, 0.2291124, 8.010831, 8.720069, 1.58335, 6.233878, 6.838199, -7.6568217, 0.043935373, 5.6633124, -6.541782, 3.8160849, 0.72997755, -0.98869526, -1.0345563, 0.6403865, 1.7542483, 7.6570005},
    {-3.4618356, -3.5579743, -0.27707407, -3.2118723, 1.6132387, -4.0736275, -3.2946854, -2.3160224, 2.3244789, -0.5198458, 3.0736363, -3.946338, 0.3005008, -5.296669, 2.1463614, 3.3247974, 1.0198406, -2.1602366, 4.0826206, 3.135039, 0.744338, -3.15166, -3.212408, 3.0853326, -3.7762513, 1.8603134, -3.962114, 2.24409, 6.749312, -4.024714, 5.4946985, -0.3788646, 2.9776008, 2.41873, 2.438004, 3.1208956, -0.6343297, -1.0454985, 0.9823048, -4.3998804, -0.03290233, -7.7245536, 0.58853495, 2.853023, 1.3276732, -1.2416722, -5.357093, 2.7538693, 0.5484483, -3.4290376, 0.13165498, -2.1232858, -1.7837473, 2.2874825, -0.9096329, -7.1077847, 2.1392987, 3.3689666, 1.5023171, -0.91753006, 0.47544694, 0.43630975, -5.3091974, -0.56138587},
    {0.6872235, 2.2176206, -0.8002568, 1.4274553, 1.7718433, 0.36190283, -1.2470487, 0.17798617, 1.645913, -1.4803387, -0.97570175, 2.0095341, 2.795963, 2.0743835, -0.82652044, -3.4202576, -1.0561811, 3.076343, -0.12257473, -0.45072207, -0.3533395, -0.115966685, -4.0359354, -2.8551676, 2.4165723, -2.8767283, -0.564298, 1.2020167, 0.13268708, 1.2399396, 0.5512865, -0.7415569, -0.9944802, 3.302129, -0.19225541, -0.80304354, 0.24422458, -3.6585944, 0.605918, -4.0560594, -1.2944989, 1.5620227, -0.3842963, 0.61428815, -1.4029571, -1.2197232, 3.5673547, -0.97417074, -1.927771, 1.4585704, -1.4069813, 2.1122994, -0.004018307, 1.6409357, -0.13321918, -0.74986666, 2.9407866, 1.0689063, -1.8478963, -3.3904154, 0.94678384, 1.4363536, 2.419022, 0.77194846},
    {1.4963729, -1.8293324, 0.7347262, -1.6994973, -1.6965294, 3.3773453, 3.8344126, -0.47171247, 2.8027318, 3.2984383, -2.0664926, -0.6503582, -0.29235575, -1.0798881, -1.0809023, 2.1620445, 1.8075012, -0.91156995, 1.2228061, 1.7530589, 0.3848478, -1.8024336, -1.3944075, -2.5849972, -1.0914494, -1.4837966, 1.4870921, 0.97180885, -1.9655241, -1.5068821, -1.4589685, -0.10152029, 1.2959781, 3.03784, 0.34577325, -0.31687334, -1.3039862, 1.9998236, 0.71727777, -1.7310671, 0.85870427, -2.0064154, 0.95611817, 0.63041645, 1.0816314, 0.19991726, 0.45459902, -1.2923571, -2.6446054, -3.2387347, -0.48907706, -3.3696587, -2.1728277, 0.46022293, 0.8959363, 0.14475589, 2.2727842, 0.5451898, -1.9478469, -0.90071225, 1.6308416, -1.6130059, -2.2191055, 1.45035},
    {-0.8539209, -0.63302314, -1.1336207, 1.6964289, 0.07261448, -1.4155171, 0.18788336, -0.08424808, 1.323938, -1.0830117, -3.4031923, 4.218654, -2.1099086, -1.8825114, -2.1185005, 0.18436731, 0.07692946, -1.034112, -2.583298, 2.5742502, 1.739683, 1.6538961, -2.7100434, 0.4931321, 2.0683951, -0.59232265, -2.0139267, -0.63130736, -4.413224, -2.9011178, -1.336561, 0.40766487, 1.6071602, -2.0677361, -1.0074431, 0.5130758, 0.79561794, 0.3203725, 1.6386513, -1.8323845, 0.34446892, 0.31067774, -2.0810084, -2.3561723, -1.0729588, -2.9653275, -0.9376917, -2.2289472, 0.2903967, 1.2971746, -1.2060577, 1.0167356, -3.1125495, 1.0545925, -0.89894193, -0.27091628, 0.92046404, 0.22109008, 1.2789916, 0.8232574, 1.1094971, 1.6754397, 0.7474262, 0.8500785},
    {0.16261627, -0.12042072, 0.064365864, -0.00061740284, -0.025438033, 0.19002171, 0.29535672, 0.32194224, -0.042308845, -0.08953598, 0.120076515, 0.30324984, -0.19224787, -0.19455875, 0.110013224, 0.075747095, -0.10001938, -0.13456562, -0.036428265, -0.015006568, -0.10357484, 0.0766362, -0.06985659, 0.07343431, -0.21818607, -0.037150636, 0.35429868, -0.06003574, 0.15437388, -0.072866865, 0.06619475, 0.14263095, -0.15516528, -0.078550234, -0.026237022, -0.07756034, 0.48586303, 0.16289356, -0.0146498, 0.02560519, -0.44895548, -0.14442788, 0.028433172, 0.006447987, 0.066108316, 0.047722463, 0.043392733, 0.25028747, 0.12602389, -0.06511881, -0.05920078, 0.122980066, -0.013468891, -0.06500387, 0.16996829, 0.021490308, 0.121723495, 0.025538284, 0.24327229, -0.08974636, 0.083701536, -0.026958918, -0.105109125, -0.18219207},
    {-0.013238136, -0.14461821, 0.19080117, -0.35234514, -0.07835242, -0.059346437, 0.30771145, 0.07533651, 0.04654626, -0.07145698, -0.21546467, 0.0246669, -0.03396308, -0.09973361, 0.124484554, 0.1090162, 0.20054002, 0.16936304, 0.064688236, -0.013735879, 0.14448921, 0.02795899, 0.044114187, 0.24150121, -0.044547312, 0.17192867, 0.13506158, -0.04670193, -0.019171951, 0.02603297, 0.016582802, -0.0998991, 0.08262179, -0.010700471, -0.13789445, -0.052529093, -0.097709805, -0.1630882, 0.17232706, -0.01573508, -0.27636597, 0.04434736, -0.04943589, 0.27226818, -0.061311908, -0.100219384, -0.013963855, -0.20265692, 0.023923803, -0.0695089, 0.1824173, 0.0027533993, -0.14010237, -0.0461811, 0.18283139, -0.2800142, 0.308102, 0.011070055, -0.0907523, 0.103484295, -0.060110662, 0.026150322, -0.0640077, -0.08935401},
    {-0.02897013, 0.2866912, -0.02992045, 0.13172634, -0.30064067, -0.057323694, -0.5533706, 0.2913496, -0.15184489, -0.01251372, 0.25060153, -0.09671485, -0.3846244, -0.052066457, -0.18036436, 0.13389714, -0.15204161, 0.38082424, 0.291374, 0.4085684, -0.056781873, 0.45268634, 0.5291558, -0.13726205, 1.093593, -0.14545715, -0.13695806, -0.16385564, -0.23370409, -0.066759266, -0.58896184, -0.271465, -0.09126072, 0.1321631, 0.07823618, -0.28971478, -0.54501164, 0.46441627, -0.13078606, 0.0121281305, -0.008531654, 0.07484116, -0.15876302, -0.03356596, 0.011214369, 0.035994515, -0.5258642, -0.22844455, 0.28861162, 0.26412678, -0.123352796, 0.19053553, 0.13749531, 0.012544051, 0.15966567, 0.09893354, -0.25336877, 0.37102386, 0.075003654, -0.16947666, -0.004229192, 0.22176594, -0.117369704, 0.019657103},
    {0.0053328215, 0.11384091, 0.10547656, 0.037326746, 0.09983334, -0.31121618, -0.12337363, 0.5287755, 0.061880674, 0.04707418, -0.035558935, 0.07602705, 0.04242364, 0.033025444, -0.076178975, 0.13889046, 0.03921332, -0.047108326, 0.039322633, 0.07482493, 0.07873406, -0.057535592, -0.08643549, -0.19919258, 0.11470549, -0.06672415, 0.08799117, 0.06596575, 0.2550175, 0.24051332, 0.084000245, 0.007296945, -0.237732, 0.15581939, 0.100585386, -0.1494135, -0.07403712, 0.1448281, -0.0058991914, -0.0051946994, -0.2508148, 0.10949706, -0.056374457, -0.05131472, -0.0026081994, 0.10348107, -0.11990889, 0.07306613, -0.10692047, 0.14880797, -0.074987076, -0.0008035971, 0.13463894, 0.012592211, -0.03790807, -0.15537156, 0.037618127, -0.0393107, -0.012730709, 0.120239764, -0.025547083, -0.019384386, 0.16696317, 0.036381688},
    {-0.05107697, 0.26806074, -0.12518471, 0.02902096, -0.09958951, -0.052132398, 0.003825767, -0.3057785, 0.09589683, 0.013102046, -0.21579315, 0.08554902, -0.10883673, 0.03984327, -0.06734834, 0.110982746, 0.060792036, -0.04535082, 0.0932269, -0.02168593, 0.20807908, -0.03762427, 0.14537238, 0.0051690456, -0.084087044, -0.027423553, -0.15083347, 0.008481577, 0.1715568, 0.32755813, -0.102094665, -0.019329434, -0.14677222, 0.08940273, -0.37605602, -0.024193482, -0.09071216, -0.072550185, -0.046652287, 0.07850702, 0.45917025, -0.1425917, -0.053835984, 0.15559933, 0.035799846, -0.079582244, 0.08508153, 0.042343438, -0.05849984, -0.013007054, 0.03950751, 0.08352154, -0.024953933, -0.010950295, 0.14567053, 0.114161395, -0.017327767, -0.09154054, -0.06946144, -0.030132432, -0.10564862, 0.11814076, 0.1112312, 0.0131576285},
    {-0.0802377, -0.08592798, -0.00408857, -0.07950506, -0.17255561, 0.23807533, -0.20994529, 0.2850057, 0.116620146, 0.022165457, -0.15621205, 0.14770666, 0.09909747, 0.121603884, -0.09904658, 0.15013592, 0.15841675, 0.14958727, 0.15725905, 0.13789104, -0.011851807, 0.011771112, 0.09354627, -0.11035227, 0.06732938, 0.073418505, 0.16489479, -0.048971243, 0.038379114, -0.13209057, -0.06916277, -0.097292155, -0.07980048, 0.085875206, 0.09598973, -0.017033398, -0.24036108, 0.049744606, -0.025570828, -0.11595337, -0.3843127, 0.07055017, 0.022249293, 0.1234156, -0.038147945, 0.14751141, 0.019549029, -0.37783995, -0.2201548, 0.06090859, 0.020662278, -0.022100082, 0.019709071, 0.08235662, -0.034507822, -0.018643554, 0.020060293, 0.06383666, -0.010991272, 0.15410857, -0.07054018, -0.029379219, 0.21653609, -0.039322685},
    {0.12425307, -0.12145518, 0.07012155, 0.022820938, -0.19855033, 0.11825942, 0.027013524, -0.14599206, -0.14196149, 0.0038270587, -0.045540236, -0.030186065, -0.043858655, 0.050693948, 0.09580527, -0.04526656, -0.06547037, -0.122273855, 0.09856, -0.16321883, -0.0750464, -0.34309494, -0.08182536, -0.14028923, 0.048921313, 0.023030667, -0.05934468, 0.115603685, 0.17102413, 0.07508652, -0.009930248, 0.092180565, -0.083514325, 0.007158442, -0.18145907, -0.060362425, 0.38948533, 0.0013115468, 0.053415235, 0.030126134, 0.23245656, -0.082143314, 0.010961966, -0.008391407, -0.026338521, -0.030424416, 0.18461125, 0.13899055, 0.15550011, 0.09238923, -0.1457565, 0.113922566, -0.018880792, -0.12046631, 0.010163687, 0.20013446, 0.15032686, 0.054631125, -0.07059419, 0.038757447, -0.047158886, 0.20313664, 0.030753637, -0.076694556},
};

static const float agent_ac_critic_v_net_fcs_0_bias[64] = {-2.8480074, -0.2467057, -2.9902394, 0.7811185, -0.85546464, -4.481438, 0.79326004, -2.4423947, -0.8335415, 0.07496563, 3.632801, -2.181975, 0.55046856, 0.4709525, 1.5676761, 1.7223005, -0.39381674, 0.061883613, 0.5762669, -0.040513333, 0.6961556, 0.26186973, 0.70505, 1.332304, 0.7747424, 1.3300037, -1.4778092, -0.76687497, 2.4777198, 0.8655821, 2.1141503, -0.051893756, 3.1721354, 0.8880145, 1.1693102, 3.4138722, -3.5150023, 1.5674018, 1.3185924, -2.153834, 4.035122, -0.7592832, -1.9152765, -1.4366862, 0.12239757, -1.0854039, -0.015138829, 4.497242, -0.49220818, 0.18419915, 0.7280808, 1.6286398, 0.331393, 1.4373544, -2.8007543, -0.9207226, -0.5657991, -0.20676252, 1.2751454, -0.62031823, 1.9676334, 0.4181977, -0.5903379, 1.0613548};

static const float agent_ac_critic_v_net_fcs_1_weight[64][64] = {
    {-1.5550375, 0.4259419, -0.42973682, 1.4193813, 0.14431737, 0.82444435, 1.2001699, 0.26868454, -0.75926447, 1.048518, 1.2373245, 1.2193907, -0.35557795, 0.13346645, 0.4347413, -1.4132837, 1.394136, -1.0517021, 1.9797041, 0.14418767, -0.29745898, -1.4366995, 0.057484534, 1.1125247, 2.1086195, 0.61725235, -0.6094762, -0.55581975, 0.98336744, 0.07112635, -0.24060541, -1.1450388, 2.6444912, -0.045265004, 1.8050106, -2.4481566, -0.37040493, 0.8187046, -1.2792987, 0.871581, 2.849088, -0.5254815, -0.6337347, 0.43213227, 0.21202856, 2.8735275, 0.9876758, -0.59893477, -1.543609, -0.4230818, 0.5276416, -1.3828192, 0.9263954, -2.4902754, 2.1141706, 0.95069474, 0.033331227, 2.1464493, 0.24856752, 0.3918524, 0.0035985955, -0.856572, -1.9251823, -0.2709932},
    {-0.316676, 1.0807317, -0.11756938, -0.81729454, 1.2544725, -1.2264124, 0.60360134, 0.60668015, -1.4954348, -1.4443706, 0.8771676, -1.5024911, 0.13551325, -0.95039487, -1.0659661, -2.521917, -0.71935076, 1.0798409, -0.13805468, 0.7776525, -0.35077074, -0.07775377, 0.6185281, 0.91762275, -1.7171468, -0.40621552, -0.96404123, -1.3496732, -0.24479151, 1.5353076, -0.84535134, 0.5417416, -0.29478216, 0.59411305, 0.96851945, 0.3435415, -0.4358478, -0.096787706, 0.79147106, -1.3658577, 0.119512126, -0.4050887, -1.259909, 0.8327749, 0.2793935, -0.22136159, 0.61632925, -0.27584642, -1.6436001, -0.1092881, -0.37850457, -0.14938743, -0.23254305, 0.7883545, -0.5381295, 0.3374809, -0.29992417, -0.61471313, 0.23407398, -0.7590174, 0.88392305, 1.4282486, -2.2672963, 0.978293},
    {-1.7005458, -1.9539362, -0.0101469895, 1.0469174, -1.3757079, -1.4151938, 0.22507592, 0.9268451, -0.21095988, 1.1195027, 0.49183285, 0.84931874, 0.57153875, -1.4240435, -0.3057182, 0.13290282, -0.62367696, -1.0300168, 0.98610157, 0.08971647, -0.9274094, 0.7583417, -0.5310074, 0.31092054, 1.4346493, 0.6622787, -1.1027414, -0.50764686, -0.2752943, -0.32705373, 0.14976199, -1.0755522, 0.7786081, -0.58772475, 1.4678353, -0.5773411, -0.82193214, 0.82903165, -1.549296, -0.5962349, 2.3026142, 0.43726143, 0.8396588, 1.4433694, 0.95645565, 1.3262466, 0.43421358, 0.99726623, -1.1262717, -0.7620181, -2.3629646, -1.5536546, -0.013989317, -1.7092334, 0.9839897, 1.8305401, 0.6240073, 1.8377385, 2.4532137, 0.9799361, -0.62209827, -0.16046833, -0.025794076, -1.7477633},
    {-0.37625432, 0.58608836, -0.36543614, -1.1054189, -0.044202134, 0.4024849, 0.12160236, -0.13971142, -0.41364673, 0.66772103, -0.3962813, 0.29126117, 1.6421665, -0.6712003, 0.99025786, 0.6126463, 1.440637, 0.365195, -0.1898877, 1.1796489, 0.5086829, 0.79723215, 1.7519493, 2.8905926, -0.30788356, 0.4602287, -0.45328337, 1.0100616, -0.91707844, 1.7258548, -1.6072984, -0.04521268, 0.34121126, 0.8636988, 2.0963387, 0.17807314, -0.36659727, 0.3312002, -0.87382025, -0.06781405, -0.8277749, 0.40488297, -0.14330979, -0.24366459, -0.4305212, 0.8355709, -0.74415094, 2.5065937, -2.679707, 0.09179152, 0.8066234, -0.6582996, -0.7357301, -0.7532763, 2.4715884, -2.0736043, 0.6854326, -0.110873215, -0.9519405, 1.1970723, -0.7258518, -1.4884678, 1.1892447, 1.1318094},
    {1.2298026, 0.33980176, 3.0102391, -0.3931428, 1.1830277, -0.16344997, 5.1156015, -3.8302996, 1.096018, -1.6843765, -2.3376417, 0.10116062, -0.6968684, 2.4160068, 1.6637607, -0.84107846, -0.9979821, -0.71914846, -0.35315073, -1.3795823, 0.14091884, -1.2217401, -0.8903433, -2.3974144, -1.5463712, 0.6226264, -1.1974761, -1.0646952, -2.7099998, -0.28955686, -1.7377379, -0.6764891, 0.7744238, 1.137368, -2.088701, 0.116573624, -0.7999731, 0.47452706, 0.93375623, 1.6618234, -2.021959, 1.3011672, -1.0386178, 2.0781605, -1.3327702, -0.52286905, 4.2509084, 0.21159157, 0.8170867, 0.3248083, -0.057627834, 1.5505645, -1.6283963, -0.021877846, -0.6910649, 0.60252905, -0.576493, -0.20333792, -0.35665372, -2.1016307, -0.90737283, -0.55445796, -1.3214494, -1.964035},
    {-1.5872111, -1.2682348, 0.34386984, 1.2487094, -0.7186344, -1.1383474, 0.6850534, 0.9079986, 0.3861895, 0.19927862, 0.31208032, 0.5459823, 0.49397525, -1.3516358, -0.5584751, -0.25175852, -0.4759098, -1.442105, 0.79534346, -0.21085614, -0.4632358, 0.6888234, -0.95278126, 0.5299687, 1.2135648, 2.038887, -0.7651877, -0.7809941, -0.646639, -0.5112848, -0.7014821, -0.15662119, 1.4329704, -0.17643669, 0.8633295, -0.53822064, -0.77784395, 0.37821913, -1.2507503, -0.498505, 1.8314799, 0.18265328, 1.3163056, 1.2815391, 1.2581528, 1.6278787, -0.012785128, 1.2240486, -1.1349056, -0.09817845, -1.8474555, -1.3663996, 1.5616436, -1.1161171, 0.3303335, 1.3535991, 0.763995, 1.9282371, 1.395636, 1.1425115, 0.26655903, -0.10242191, -0.12779954, 0.4123276},
    {-0.84196645, 1.0121536, -0.4592378, -0.33565825, 0.95938045, 0.010146142, 0.30096754, 0.43782815, -1.1065614, 0.8197679, -1.447408, 0.45008728, 0.62449276, 1.5405815, 0.24156909, -0.3895138, -0.3204516, -0.6448826, -0.35941744, 0.7107398, -2.074716, -1.7082572, -0.528902, -1.1315309, 1.4293128, -0.56347466, -1.3865175, 0.38933045, -2.3813381, 0.3841885, -0.8141922, 0.9030299, -1.1487526, -0.6976707, 1.3585097, 1.2742614, -1.172547, -1.3653144, 0.6780946, 0.593092, -0.96775585, 1.2170924, 0.24006486, -0.6828497, 1.476684, 0.255566, 1.9079839, -0.83417016, 0.49873134, -0.012295647, -1.4376743, -1.2772418, 0.5404308, -0.6764544, -2.5831199, 0.3880671, -0.5165566, -0.21983722, 0.3053137, -0.9009804, -2.5631666, -0.5071177, -0.07992382, 1.5181445},
    {-2.0850196, -0.9262618, -0.5255811, 1.0441428, 0.75964856, 0.30671558, 0.97909635, 0.097031765, -1.1346737, 1.6646135, 1.3418963, 2.2995346, 1.2998387, -0.13893925, 0.6393063, -0.5588107, -0.018726494, -1.4773062, -0.13718128, -0.62810975, -1.2801846, -1.0883112, -0.38127688, 0.9845833, -0.15623558, -0.5237563, -0.80834526, -1.03017, -0.6194008, -1.0114181, 0.80329084, -0.32098833, 0.14434202, 0.14399794, 0.8242093, -1.9038215, -1.1734403, 0.19874269, -0.5370354, 1.6305096, 0.08118228, 1.5321348, -0.094311155, 0.38241008, 1.1696551, 0.30592853, 0.6665842, 2.128213, 0.14398648, 0.13602452, 0.66617703, -1.4664885, 0.57659775, -0.036455907, 0.7271591, 0.6191338, -1.2001652, 0.20459242, 1.0141681, 0.78012097, -0.9069109, -1.323682, -0.21116379, -0.44833508},
    {3.4453137, 0.85145265, -0.38139725, -0.65798783, -1.539747, -2.965121, 2.6186204, 0.81570745, 2.0219479, -1.6123524, -0.74762136, 0.09245673, -0.9813558, 2.2844033, 2.398523, 0.36796612, -1.4491309, 2.9781175, -0.5262457, -0.9211334, -0.32078987, 1.6696692, 1.4889618, 0.10667281, 0.6884753, 1.1282871, -1.0392001, 1.9434154, -0.10125693, -1.7925131, -2.6907709, 0.95496106, -0.41236895, -1.1992207, -1.8766348, 1.46468, 0.48804444, -0.20052312, -0.28590629, 0.1363877, 0.24424091, -0.33369365, 1.8793162, 1.5813966, 0.5847831, 0.15532926, 1.4944447, 1.4361683, 1.9993343, 0.22545446, -0.82543415, -0.13814418, -0.7863, 0.55493414, -4.191158, -1.178628, -0.16736336, -0.8298699, 1.0044053, -2.2548516, 0.4435441, -1.5441315, -1.8216257, 2.1477485},
    {1.3783654, -0.99618304, -0.47983044, 1.5578417, -0.60859084, 0.3897049, -0.92681044, 0.25262526, -1.9370574, 0.39509192, 1.6919643, 3.3491364, -1.2711822, -0.7452204, 1.2960837, -0.90120137, 1.2365535, -1.7958035, 0.35446766, -0.031130912, 0.0026250712, -3.878026, -2.5742126, -1.4388158, 2.403043, 0.8287385, -0.9807266, -0.012735016, 0.024019517, 1.6177968, -0.90141475, -2.5140603, 1.6200752, 1.7866268, 0.3801558, 1.3532969, -0.95015335, 2.5813756, 0.017705271, 0.3321112, 0.58173716, 0.6446016, -1.6100224, 1.2605392, 1.1359494, 1.2467182, 0.61472964, -1.4494498, 0.41492587, -0.25287607, -1.5794857, -0.08015059, 0.63294715, 0.07631771, -1.248982, 0.9478775, 0.50936395, -2.3678384, 1.235659, 0.30636758, -0.84783614, -0.6116987, 0.8449567, -1.3088592},
    {1.0720888, -0.5201581, -1.5649428, 1.6431413, -0.9663857, 0.8568146, -2.325791, 0.9002311, -1.9890575, 0.7029697, -0.31074208, 0.71543485, -0.78965926, -1.810106, 0.15109421, -0.48390704, -1.0061148, -0.027511323, -0.78965515, 0.9550395, 1.623622, 1.5043682, -0.5018089, 0.007432943, 1.4655223, 0.516285, 0.11188318, 2.5405195, 0.81648064, -0.73715085, -0.36133254, 0.98036253, 1.8115191, -0.7173084, -1.3190049, 1.2062978, -2.0592427, -0.8268253, 3.1900368, 1.3397479, -1.0138847, -0.099677674, 3.9444804, 0.36478168, -1.0131202, -0.9564423, -0.42693552, -1.3740058, 0.9405982, -0.12979338, -0.6453151, -0.82384866, 0.041100193, -0.9027374, 0.7072134, -1.309392, 0.19627485, -0.062701225, -1.5342883, 1.5879451, 1.1811346, -1.3489732, 2.2614183, -1.4356239},
    {-1.3223418, -1.8703156, 0.26082948, 0.39225236, 0.15026522, -0.5031571, 0.53598744, 0.9436438, -0.89104575, -0.06412217, 1.0621178, -0.028339691, 0.5916104, -1.5614511, -0.85651785, -0.023010777, 0.555853, -0.7479171, -0.03926523, -0.7509236, 0.07266494, 0.78058594, 0.36993703, 1.1029325, 0.42843693, 1.220223, -0.9902983, 0.76782846, -0.93039215, -0.31386095, 0.08512842, -0.5411952, 1.7939513, 0.19195063, 0.38310096, 1.0354621, -1.0247626, -0.9084419, -1.2292105, -0.6733926, 0.5782698, -1.2421836, 0.64112866, 1.2564368, 1.0872387, 0.5105366, 0.028539432, -0.83214754, 0.28378022, 1.0041962, -1.2170832, -0.9206433, -0.8883594, 0.044294126, 0.2626286, 0.3352557, 0.61263186, 0.7243335, 0.13757932, 0.59990835, 0.7475365, 0.8068853, 0.12804829, 0.130451},
    {2.6372256, 0.80663145, -1.7430468, -0.9164946, -1.4683783, -1.671434, 2.4978008, -0.86940324, 2.641452, -0.4337164, -0.46913484, 1.381387, -0.7884748, 1.0304176, 1.3378488, 0.2665612, -1.4046192, -1.2472844, -0.30169547, -0.8982116, -0.7491443, -1.9676087, -0.042851854, -2.2721636, 0.21988073, 0.051124632, -0.753831, 0.20454803, -1.0689958, -2.0428965, -0.9334504, -4.2940855, 1.8284469, -1.0107006, -2.011868, 0.046614833, 1.0705444, -0.6062288, 1.804975, 0.9792968, 0.30577692, 1.6997797, -0.01883479, 1.4033732, 1.5968202, -0.4771654, -0.21225044, 1.54776, 1.5501124, 0.39469272, -1.168403, 2.0885763, -1.9349663, 0.39997575, -1.4814756, -0.46467656, -2.230533, -0.2850472, -0.21082516, -1.8259997, 0.63130194, -2.9303234, -2.1695974, -0.19442666},
    {0.8274097, 0.9076408, -0.806795, 0.690168, 2.2285552, -0.31629068, -1.0337181, -0.26321483, -0.13090569, 0.71386945, -1.4644009, 1.1384515, 0.1343555, -0.09311788, -1.1523541, -0.11346678, 1.4284579, -0.92374986, -1.727594, 0.06086399, 1.3252872, -1.4525163, 1.0741767, -0.32285234, 0.7027821, -1.9176021, -0.50674343, -0.85584277, -0.09123038, -0.8903128, -0.29990506, -0.76846385, 1.1022459, 0.2628078, -1.7696136, -1.7843369, -0.06269574, -0.497059, 1.5392375, 0.3347196, 1.6121035, 1.884197, -1.367217, -0.3037849, -1.2017162, 0.42436147, -0.118525445, -0.09478688, 0.44348708, -0.5296646, 0.70925516, -0.028154833, -1.6784339, -0.581836, 0.14003332, -0.6066314, -2.5522132, -0.7510843, -0.82546324, -0.09972682, 0.21619482, -1.121302, -1.9218957, -0.49404854},
    {2.9866931, -0.41667363, 1.0995332, 1.2870739, -1.192513, -1.2717552, 1.5506908, -0.26796287, 1.0890112, -0.89736146, 0.41072452, -0.9964918, -0.23576461, 0.5440878, 2.963256, -0.81670254, -1.404774, -0.95851904, -1.6859432, -0.62381786, 0.03596187, 1.570403, -0.48111272, -0.53395694, -0.25576174, 0.96787035, -0.46259356, 0.7433905, -0.090779975, -2.301096, -2.1101966, -0.28024843, 0.52195203, -1.4082716, -1.9245833, 2.1031778, -0.64766014, -0.12249229, 2.4556363, 2.7474854, 0.33527452, 0.6117087, 2.3720498, 1.5895653, 0.4683343, -0.1305521, 2.170274, -0.39043137, 0.5953971, 0.25207683, -0.024645124, 0.12571722, 0.24002223, -0.5586851, -1.1808721, 0.30198574, 0.982628, -2.7512405, -1.954047, -3.1662505, -0.17209011, -0.89854056, -2.5969326, -0.20338795},
    {1.0210562, 0.6930657, 1.6372315, 0.70657766, -1.4101366, -1.3180901, 0.5244619, -1.3960851, 0.30085322, -0.31352982, 0.24130234, -0.7715735, -2.4031267, 3.4897568, 3.1584542, 1.2385871, -2.4610538, 0.24767447, 1.057135, -2.2748766, -0.5030334, 1.7308267, 2.0299137, 0.11613985, 2.4810128, 0.17864288, 0.3727274, 0.4724778, 0.9055189, -1.2166095, -1.6458708, 0.17209123, -0.51630044, 0.8482669, 1.2127681, 0.041257493, -0.73387164, 0.34555334, 2.357903, 1.7039801, -0.99632525, -0.45362076, 0.005723792, -0.37440956, 0.83325297, 0.69273704, 2.6719944, -1.5913601, 0.57172805, 0.042639464, 0.5791109, 0.41158518, 2.8759346, 0.02802273, 0.5451911, -0.16531868, 0.9660706, -0.4729101, -2.5411172, -1.0814226, 1.5835816, 1.3911891, 0.33171767, 0.8061802},
    {-0.46287188, -0.7680029, 1.6834568, 0.6857274, -1.2227895, -1.2531512, 1.8899248, -0.536499, 0.18597749, 0.054052807, -0.26184958, -0.9555837, -0.6179499, 2.776377, 2.0873334, -0.6362343, -0.94558316, -0.30396, -1.2665422, -0.4041023, -0.43686655, 2.2052336, 0.81195104, -0.8970743, 0.24051206, -1.3496585, -0.5748769, 0.53239554, 0.6952836, -0.6757116, -2.1900115, 2.0681942, -0.41874042, -0.5400828, 0.73435265, 2.8611898, -1.3653848, 2.8394933, 0.07380297, 1.3761033, 0.97819984, -3.3908098, 0.36912897, 0.0894671, 1.4273734, 0.19814238, 0.380815, 0.0029015285, 1.5615891, 0.054040667, 1.6455034, -0.2353564, 1.0611706, 0.95062184, -2.1761973, -0.78473854, 2.0573356, -1.050535, -1.7146379, -1.0514696, -1.1195046, 1.0428835, -1.0623952, 0.46128058},
    {-1.7875007, 0.4449928, -0.23613024, 0.9786188, 2.6292655, 1.2987001, -1.5543883, -0.09524606, -0.188785, -0.3532238, -1.296391, 0.64704794, 0.60769516, -0.23174801, -1.1919613, -0.2361483, 1.9074006, -0.3536374, -0.19148034, 1.996627, -0.45717403, -0.9945268, 0.38961515, 2.1894243, -0.774341, -0.30392846, 0.8856418, -0.60097647, -1.848092, 0.19048354, 0.2663846, 0.118142016, 0.4193225, -2.2279863, 0.7741589, 0.17271931, 0.21550202, -2.06577, 0.93284345, -0.227599, -0.4335673, -0.073169, -1.2865752, -0.17124227, -0.3889994, -0.33271998, 1.0599413, -0.30046305, -0.7532313, -0.042573072, 0.24235295, -0.6272198, 0.6220725, 0.11982387, -0.14061388, -1.8059696, -0.8589548, 1.4511285, -0.8196709, -0.6855447, -0.08293069, -0.45212638, 0.7593805, 0.9462099},
