#include "stabilizer_types.h"
#include "network_evaluate.h"
#include "network_evaluate_HJPPO2024.h"
#include "log.h"
#include "param.h"

static float hover_ratio = 0.5667f;
static float ctrl_range = 0.2f;

// float linear(float num) {
// 	return num;
// }

// float sigmoid(float num) {
// 	return 1 / (1 + exp(-num));
// }

// float relu(float num) {
// 	if (num > 0) {
// 		return num;
// 	} else {
// 		return 0;
// 	}
// }


// float elu(float num) {
// 	if (num > 0) {
// 		return num;
// 	} else {
// 		return exp(num) - 1;
// 	}
// }

// // range of action -1 ... 1, need to scale to range 0 .. 1
// float scale(float v) {
// 	return 0.5f * (v + 1);
// }

// float clip(float v, float min, float max) {
// 	if (v < min) return min;
// 	if (v > max) return max;
// 	return v;
// }

static const int structure[3][2] = {{17, 64},{64, 64},{64, 4}};
static float output_0[64];
static float output_1[64];
static float output_2[4];
static const float layer_0_weight[17][64] ={
    {-0.503291, 0.8890675, 1.2189746, -0.8590356, -0.29816592, -0.1273763, -1.2461939, -0.11673142, 1.0869938, 1.4108317, 1.9339126, 2.4303503, -1.7115601, -0.517409, 1.2311631, 0.1185647, -0.26373267, -1.3707969, 0.66252327, -0.004421399, -0.8335323, -0.27917585, 0.38307098, -0.33332458, -0.40613684, -0.39824143, -0.8191409, -0.932557, 0.8080483, -0.3804706, -1.1348865, 0.26516145, -0.618674, 0.06939255, 0.9322475, -0.79555297, 0.02817724, -0.6275564, -1.1878506, 1.301535, 0.17408456, -2.3899856, -0.102230184, 0.38894835, 0.21453795, 0.507228, 0.28934568, 0.28383934, 0.40643126, 0.50864124, -0.20016797, -0.13523649, -0.23961899, 0.8431007, -0.37672508, -0.3276467, 0.6916126, 0.15046145, -0.76863927, -0.90651405, -0.6276383, -0.5763244, -0.13615884, -1.1128658},
    {1.6336066, 0.06230528, -0.80838853, 0.21333064, 1.2221378, -0.8568663, -1.1818234, 1.3176157, -0.95074683, -0.47415054, -0.6437858, -0.14251871, -0.4432994, -0.19235258, 0.486035, -0.16782703, -0.43905976, -0.980888, 0.78576005, -0.33236846, 0.819536, -1.2274221, 0.58208305, 1.5866475, -0.2361239, -0.8759558, -0.1484019, -0.99043, 0.60602045, 0.970587, 0.01727164, -0.65638787, 1.5886226, -0.77240247, 1.5182741, 2.2525623, -0.41660655, 1.3869332, 0.5432101, 0.083783664, 0.6987145, 1.2431867, -0.3933009, 0.9301813, 0.9132937, -1.5765567, -1.338109, -0.57725996, -0.8069804, -0.2225893, 0.38573283, 0.28964418, -0.50735974, -0.005578391, -0.42783293, 0.24457404, -0.9688787, -2.4113643, -0.32986104, 0.72393394, -0.24688949, -0.81645554, 0.77099437, 0.830952},
    {0.8743216, 0.49403405, 0.5948477, 0.012235664, -0.38259426, 0.47937754, -0.3493086, -0.12077339, 0.50789064, 0.21518455, 0.49759993, 0.21744147, -0.22487171, -0.8293919, 0.53969103, -0.22008412, 0.95522743, 0.38057595, 0.6235649, -0.4907888, 0.6588096, 0.6068086, 0.30979893, 0.15128845, -0.7732658, -0.5865948, 0.37073424, -0.38499343, 0.975265, -1.0997461, -0.09439018, -0.70923764, 0.45636943, 0.13585061, 0.27385655, -0.14848216, 0.047924522, -0.056233715, 0.02902904, 0.1829005, -0.731779, 0.25216076, 0.3114441, 0.46684062, 0.5872304, -0.9165465, -0.6252584, 0.44733962, 0.56605095, -0.5168106, -0.98207426, -0.37884676, 1.14041, 0.6013676, 0.372231, -0.6244077, -0.10343251, 0.23042582, 0.69012064, 0.4352831, -0.27112117, 0.73514587, 0.5787394, 0.09247398},
    {-2.3627279, 0.89710504, -0.8563877, 0.02577169, -0.45706192, -0.02471453, 1.5646347, 0.07427985, 1.1996768, 0.69868994, 0.4756476, -0.16672425, -0.58892024, -0.033848137, 0.68256664, -1.0644414, -0.41545314, 0.73311347, -0.90985596, -0.5068129, 0.37195325, 1.5203456, -1.3143911, -2.131341, 0.0065535954, 1.9421962, 0.12800367, -1.3512831, -1.0062662, -1.2208174, 0.051568337, 1.2809587, -2.0555007, 0.57138264, -0.90036243, -1.8042207, -1.1976084, -1.7318273, -1.6548179, 0.8894239, 0.29017818, -0.28102085, -0.027433826, -0.32495493, -0.53567696, 0.9664877, 0.52358156, 1.6387049, 1.0539975, -1.0215374, -0.15525302, -0.43768036, 0.9167175, 1.1362947, -1.0183736, -1.2313528, 1.4236813, 1.9231516, 1.1245787, -0.8236752, 1.8901814, 1.2267954, -1.3250918, -0.46248734},
    {-0.39664862, 1.4007132, -0.6143951, -0.5467115, 0.7845067, -1.9696699, -0.6206851, 0.8262461, 1.0257578, 0.34195557, 0.2791621, 2.9706972, -0.39720744, -0.45681834, 2.1393197, 0.86481315, -1.3336948, -1.6529068, -0.51270497, -1.2125229, 0.9799007, 0.931781, -0.14347018, -0.21349469, -0.591059, -0.45793685, -0.0021575233, 1.6120725, -0.7199065, 0.12266344, -0.9351835, -0.39820248, 0.6671859, 1.1095119, 1.9649729, -0.3464504, -0.7649904, 0.012207101, -1.2366716, 0.91334057, -0.47109804, -3.1780982, -0.6143217, 0.77097344, 1.1922269, -0.25174367, -0.88819724, 0.77230245, 1.4139601, 1.7345414, 0.5895126, 1.3259076, 0.21097264, 0.34709778, -1.3303487, 0.23686212, 0.115163185, -0.33743393, -1.1181345, 0.418512, 0.95828784, -0.6725109, 0.1552621, -1.4802308},
    {0.5522467, -0.6109202, 0.62508595, 0.120678, -1.6840113, 1.2144853, -0.03276236, -0.28823847, -0.65295285, 0.6832424, 0.26165825, -0.46431592, -0.7086568, 0.16858508, -0.23900789, -0.8441837, -0.9991884, -1.9293256, 2.0391417, 1.6807604, -1.928902, 1.5310818, -0.11826884, -0.06179193, -1.7357767, -1.1251943, 0.6824256, 0.042916067, -1.3932173, -1.0991833, 0.20406705, 0.15461476, -0.53358597, 2.0444477, 0.5364315, 0.9363606, -0.8135609, -1.978531, -0.5836196, -1.6157559, 0.03764193, -0.40012848, 0.84431255, 0.25470096, -0.17150912, -0.35620552, 1.2616485, -1.6856695, -0.24926446, 0.22218236, 0.24736921, 1.05185, 0.56491137, -0.05130861, -0.2666051, -2.134771, -0.45207545, -1.1675287, 0.49324545, -1.0971814, 0.21104734, -0.84051204, -0.48450547, -0.5175498},
    {-0.74591273, 0.28108272, -1.1427311, -0.036736276, -0.56860745, -0.30220076, 0.061981987, 0.68691266, -0.39614818, -0.36301997, 0.04883961, 0.08534789, -0.10139066, 0.66349787, 0.30745983, -0.50538933, 0.8582161, -0.18330365, 0.6659162, -1.1080552, 0.67280453, -0.34105796, -0.049459442, 0.06558731, -0.7107293, -0.1168896, -0.14344855, -0.88683677, -0.146964, 0.53002256, 0.16575792, 0.00014376272, -0.25722715, -0.03729788, -0.27148175, 0.3639556, 0.7870711, -0.22726661, 0.73945856, 0.2176833, 0.83202153, -0.080960825, 0.37210384, 0.8742805, 0.13606991, -0.23603886, -0.634396, 0.74793684, -0.3986357, 0.4409353, 0.35742295, -0.37235028, -0.75224155, -0.23923133, 0.17508312, -0.27279702, -0.12753728, -0.10129999, -0.29382214, 0.4629643, 0.58513135, 0.24117634, 0.07978147, -0.13898313},
    {-0.34518477, 0.19132276, 0.1350739, -0.13721426, -0.4653008, -0.054902647, -0.93621355, 0.04484891, -0.20514274, 0.98037076, 0.92458665, 1.590365, -0.14921743, -0.20968772, 0.5372489, 0.14073695, 0.49275196, -0.26798004, 0.744959, -0.17511304, -0.4532686, -0.016354838, 0.29369625, 0.2666454, 0.5768998, 0.036242213, -0.7549457, -1.0813745, 0.053799864, -0.37884855, -0.6205241, 0.29532954, -0.090949684, -0.3757619, 1.2064734, -0.47155422, 0.18133184, 0.33750656, -0.19619805, 0.3254233, 0.4330789, -1.1863835, 0.4151178, 0.58985627, 0.9315145, -0.23854552, 0.42751667, 0.40521073, 0.0009408499, 0.18615212, 0.38252673, 0.39717284, 0.031959914, 0.30391368, 0.1474067, 0.53047496, -0.15418948, -0.27974552, -0.7911008, -0.5355941, 0.54216623, -0.08503665, 0.009973228, 0.15392852},
    {0.6644665, 0.68721443, -0.738482, 0.5155991, -0.14352052, -0.27381223, -1.1434094, 0.39021358, -0.5148175, -0.3300408, 0.18596606, -0.23366731, -0.86744297, 0.45770946, 0.6452763, -0.11670228, -0.839505, -0.6557079, -0.3685837, -0.22664468, -0.04925075, -0.08249944, 0.14689338, 1.240692, -0.02930767, 0.07115527, -0.367478, -0.16555738, 0.28007472, -0.42749748, 0.16571148, -0.88635665, 0.93946064, -1.1004403, 1.1533753, 1.7829964, 0.6791137, 0.18890014, -0.07929463, 0.16184738, 0.22548293, 0.5424134, -0.7639809, 0.5170646, 0.23961376, -0.48744345, 0.79344684, -0.620224, -0.7725491, -0.37912527, 0.26014954, 0.4627324, -0.318726, -0.9631478, -0.56305015, -0.0049724677, 0.47686896, -0.91856295, -0.31547275, -0.37231132, -0.00911015, -0.9552808, 0.5032503, -0.4470869},
    {0.8671388, -0.07996535, 0.012914339, 0.93600047, 0.46962443, -0.62199986, -0.36022773, -0.33285582, -0.4477217, -0.81091547, 0.77246094, 0.07932963, -0.63542247, -1.0551775, -0.7359584, -0.7139723, 0.4080373, -0.13708167, -0.5749414, 0.2648617, 0.10222238, 0.39763787, 0.94385314, 0.3957536, -0.20896123, -0.0868244, -0.46707547, 1.1991735, 0.6508628, -0.47370803, 0.7015001, -1.3542502, 0.51982737, -0.24234185, -0.054007277, -0.2394159, 0.26352313, -0.4798623, 1.0235305, 0.4726825, -0.00052626, -0.1987439, 0.58800036, -0.5048991, -0.12106261, -0.69816643, -0.57400924, 0.4015465, 1.2214464, -1.0365402, 0.2577447, 0.83318716, 0.74956954, -0.6337421, 0.24200498, -0.23227799, -0.17161967, 0.040773567, 1.0412551, 0.41407254, -0.83245265, 1.0329803, 0.23405172, -0.16044927},
    {-0.15773343, 0.23774046, 0.11166844, 0.16329145, 0.016556626, -0.04903764, 0.28766066, -0.0027201374, 0.15274951, -0.57095224, -0.00010574318, 0.07040347, 0.0074120383, 0.030724952, 0.25653502, 0.3282245, 0.17655335, 0.15693344, -0.062347747, -0.0046863835, -0.2438778, 0.10196596, 0.6774563, 0.07171885, -0.2135742, -0.053987116, 0.22315523, -0.18174013, -0.065140165, -0.0940899, -0.3362624, 0.02977577, 0.0035561514, 0.042886958, 0.011191986, -0.071451545, 0.14416882, -0.13826597, -0.023770344, -0.035468582, 0.035323713, 0.15719992, -0.2406057, 0.3794542, -0.06830822, -0.11081945, 0.18493707, -0.036675178, -0.09821048, -0.01764636, -0.0404351, -0.144966, 0.0563005, 0.03986643, -0.0072226906, -0.104921445, -0.28194964, -0.1451227, -0.0354103, -0.021840652, 0.029656583, 0.16590604, 0.15181424, 0.33712006},
    {0.07301726, -0.5218436, -0.05025912, 0.35761017, 0.16745995, -0.06984333, -0.15924174, 0.13682878, -0.015245704, 0.023334654, 0.0018145676, 0.18181926, -0.19508092, 0.007553757, 0.0192798, -0.22524779, -0.10295014, 0.03373416, 0.11192068, -0.17442292, 0.0008466512, -0.02011696, -0.11065352, -0.078651376, -0.0056248405, -0.22619073, -0.5048983, -0.048451778, 0.01907073, 0.05590189, 0.38811126, 0.04977344, -0.046756186, 0.041739095, -0.136058, 0.08984424, -0.055107534, 0.0008542932, 0.026315456, 0.26456314, 0.044284787, -0.12981005, -0.09563809, -0.06304883, -0.8266577, 0.017644417, 0.2164753, 0.1497764, 0.20313162, -0.36416495, -0.12345207, -0.17221934, -0.07284927, -0.02196866, 0.39659214, 0.10623344, 0.03182559, 0.03816042, 0.23496626, 0.027169442, 0.101358876, -0.12419956, 0.3287387, 0.025906658},
    {0.01995873, -0.34913403, -0.030383343, 0.16580375, 0.096741445, 0.016780775, -0.03916085, 0.08902506, -0.049550954, -0.23368423, 0.32583308, 0.15730125, -0.0059632706, -0.41639546, -0.20952672, -0.23742874, 0.06352317, -0.22318989, -0.18462083, -0.039729297, 0.012973456, 0.07696521, -0.15368216, -0.33610836, 0.10851171, 0.091178745, 0.3073879, -0.16612096, 0.19391052, 0.010311311, 0.45367587, 0.057864714, -0.07368503, 0.07766433, -0.3338097, 0.29713625, 0.16030185, 0.07372182, 0.13059554, 0.30444175, 0.0509978, -0.063129336, 0.083019696, 0.15039118, 0.09030883, -0.42179075, 0.122705095, -0.14313303, -0.14082482, 0.21360596, -0.144664, -0.06887032, 0.03939826, -0.0048666527, -0.1801127, -0.0001740225, -0.015995497, -0.3368179, 0.22556254, 0.0260791, -0.27126956, 0.3930356, -0.5674535, -0.15463296},
    {0.11659681, -0.0196935, -0.2966673, -0.37156788, -0.4020655, -0.0010018918, -0.3344667, -1.3413132, 0.3682977, 0.21838368, 0.30380177, -0.048838083, 0.2775015, 0.4209806, -0.12748352, 0.47544926, 0.18170841, 0.04525616, 0.2835431, -0.12125238, -0.11826561, -0.4088227, 0.5081925, 0.102578536, 0.11870083, 0.028095862, -0.19808127, -0.03128549, 0.018267399, 0.052651446, 0.47846624, -0.049022783, 0.0059597753, 0.048612665, -0.2851226, 0.00859528, 0.8537949, -0.1702783, -0.39000422, -0.20120183, -0.21620886, 0.08843894, -0.25831413, -0.09627867, 0.6046291, 0.18630156, 0.34855297, -0.20641834, 0.27583578, 0.68334204, -0.81747454, 0.036533363, 0.110337585, -0.6253421, -0.60221493, -0.12358317, 0.34079015, 0.10615728, -0.058712672, -0.5537405, 0.16927677, 0.16218252, -0.48282543, -0.46691057},
    {0.037192576, -0.37746334, -0.008498825, 0.17319204, 0.34368894, 0.1877382, 0.39317355, 0.20743209, -0.14459457, 0.023623401, 0.66953665, -0.0716892, 0.30637145, 0.087580234, 0.115374155, -0.50248903, -0.11426325, 0.10546193, -0.25253218, 0.15176725, 0.011801317, -0.048143946, 0.080875106, 0.35602316, 0.19209889, 0.62011147, 0.1621498, 0.6496269, 0.0035942348, 0.06754438, -0.014937921, 0.25956973, 0.32165855, 0.3724181, 0.20532121, -0.20646143, -0.11767824, 0.094876885, -0.3649291, -0.13493417, 0.20386288, -0.098581925, 0.21876857, -0.29877675, -0.36233643, -0.1896997, -0.33558494, 0.052982777, -0.23877862, -0.08778732, 0.01242361, 0.510142, -0.12916301, -0.06286047, 0.7626559, 0.101523824, 0.3718117, 0.1128852, -0.17236505, 0.23600611, -0.48657352, 0.07376376, 0.48597535, 0.059361454},
    {-0.22368874, 0.13358827, 0.38400003, -0.97659725, 0.12320197, -0.29555663, 0.18613213, 0.3388474, -0.2125694, 0.20428441, 0.34810245, 0.008932656, -0.51475537, -0.2768796, -0.3870537, -0.19930945, 0.1296736, 0.07122982, -0.14815089, 0.15209168, -0.114519365, -0.25131112, -0.24792993, 0.006182738, -0.15836838, 0.39974558, -0.864263, -0.49194053, -0.020175403, -0.09095349, 0.4689364, 0.24801646, -0.058654163, 0.5448637, -0.098044656, 0.059197564, -0.029657848, -0.12600482, 0.3861628, 0.14693671, -0.3743906, 0.091268435, -0.031356677, -0.6269659, -0.14493424, 0.25583822, 0.14924982, -0.30934465, -0.3211156, 0.10583897, -0.18487361, 0.38514024, 0.034772467, 0.07534946, 0.20942295, 0.0015192331, -0.6527254, 0.027334671, -0.25397953, 0.49360844, -0.21007904, 0.16804342, 0.35996115, 0.6378575},
    {-0.17398761, 0.18139558, 0.25873056, -0.022368604, 0.27096707, 0.09425721, 0.38356516, -0.06588454, -0.27755728, 0.2862725, 0.11000347, 0.11316127, 0.25117734, -0.40524748, 0.49576557, 0.47006652, 0.11438655, 0.07593379, 0.052404888, -0.22127144, -0.58442485, 0.24650733, -0.24650496, -0.06781728, 0.08346228, -0.3871443, 0.53042614, 0.005204117, 0.29216218, -0.105748735, -0.123426095, 0.009174447, -0.23881851, -0.13037182, 0.1511223, 0.045878023, 0.9779752, 0.34454054, 0.36633366, 0.32226166, 0.0688786, 0.15900034, -0.17858699, -0.061897047, -0.028742397, -0.24082601, -0.028494464, -0.23317575, 0.08574586, 0.069108225, 0.10783105, -0.3075419, -0.0776074, -0.45486706, -0.5737689, 0.33356774, -0.13187853, 0.007028643, -0.16204263, -0.119911164, -0.36594698, 0.024738725, 0.15191156, -0.8911735}
};
static const float layer_1_weight[64][64] = {
    {-0.008963536, -0.15993871, 0.028318338, 0.03734313, -0.045714, -0.014650613, -0.39174265, 0.068563186, 0.38273644, 0.25535813, -0.26445654, 0.5087186, -0.86789536, -0.024835458, -0.055500895, -0.14538868, -0.09413625, 0.19637218, 0.015192209, 0.49306414, 0.2241556, -0.041272, 0.86127555, -0.7463359, 0.33037952, 0.5448977, -0.371123, 0.41933164, -0.0350692, -0.24156715, 0.31104285, 0.09402937, 0.2787137, 0.09742734, 0.069353886, -0.046903316, 0.057379927, -0.58873135, -0.16893923, 0.67455584, -0.07274886, 0.14927082, -0.013059859, 0.09637327, 0.12429602, -0.14396855, -0.07531842, -0.0020291915, 0.1710658, -0.15775576, 0.06980902, 0.17966817, -0.061321706, -0.023035316, -0.09661529, -0.0324194, 0.055135448, 0.0738732, -0.24865273, -0.06820967, -0.0023422698, -0.084630385, 0.0013972453, -0.020942735},
    {-0.015915427, -0.12241395, -0.3202188, -0.04625028, -0.051117033, 0.09080285, 0.16259246, -0.029781016, 0.29872707, 0.08431986, 0.2268486, 0.025980825, -0.15020573, -0.23347856, 0.025891254, 0.10307556, -0.1837169, -0.2944475, -0.067184545, 0.26516718, -0.41612494, -0.004772003, 0.056171685, -0.45556194, -0.2965201, 0.1764315, 0.29652098, -0.16582386, 0.07303637, -0.5929686, -0.14108884, 0.01636014, -0.17942946, -0.31205535, 0.14257392, -0.05525169, 0.033285134, -0.2399917, 0.33063093, 0.12034781, 0.060262185, -0.06725825, -0.10065194, -0.017931372, 0.15111388, -0.0040817508, 0.01686163, -0.051577795, 0.3336608, 0.060592353, -0.024299359, 0.07794443, 0.026705591, 0.17632003, -0.12142865, 0.06476942, -0.2078742, -0.028717011, -0.100039676, 0.20218931, -0.021261008, -0.00032696791, 0.01838816, 0.017948646},
    {0.11040838, -0.26064837, 0.62553924, -0.03921941, -0.0034958315, -0.1990546, -0.0030561977, 0.034748595, -0.7286874, -0.072225824, -0.029304096, -0.118420556, -0.21281117, 0.046066917, 0.09922685, 0.027426764, 0.1772651, 0.34415516, 0.09636412, -0.0057481537, -0.0665647, -0.025319194, -0.048145015, -0.59334683, 0.052171838, 0.07084259, 0.40151054, 0.32479233, 0.104115784, -0.12926471, 0.20034909, 0.050947253, 0.116164796, -0.08647919, -0.13129176, 0.054560263, 0.119459555, 0.22115259, -0.079387486, -0.036265362, -0.13994393, 0.83098876, 0.03980946, 0.03247788, -0.011656188, -0.1822039, -0.15650517, 0.051163714, -0.20258941, -0.13970922, -0.0058722687, 0.58172107, -0.050838426, 0.46599257, -0.6979935, 0.055983525, -0.17702082, -0.00018204296, -0.16471349, 0.13418338, 0.10488539, -0.097427525, 0.061428145, 0.018873608},
    {0.019948818, -0.08818746, 0.08737558, -0.10239016, -0.037834883, 0.042185444, -0.12815961, -0.022607327, 0.13088977, -0.42008767, 0.21280497, -0.4916519, -0.21233304, -0.14724696, 0.012079307, -0.1073353, 0.0037970818, 0.0019623209, 0.13437898, -0.3876237, 0.019665193, 0.013929957, 0.6489709, -0.14163373, 0.13739115, -0.27787647, -0.06330545, 0.037641257, 0.13836479, -0.0039793183, 0.2552408, -0.015464243, -0.048642304, 0.016476622, 0.092627846, -0.015562919, -0.06139622, -0.26942888, 0.013556685, 0.66525215, 0.38534653, 0.079533435, -0.14118344, 0.046202548, 0.5643296, 0.020622393, -0.0030395137, -0.020137489, 0.08145684, 0.2294118, -0.026198724, -0.10953999, -0.07465312, -0.24601915, -0.06372061, -0.24804047, -0.004839534, 0.11575869, -0.22739625, -0.035978682, 0.011687693, -0.013439178, -0.0345073, -7.975001e-06},
    {0.022962091, 0.49210536, -0.087496154, 0.022937702, -0.05641459, 0.0015557217, -0.012877868, -0.049773034, -0.40348437, 0.22204165, -0.06510948, 0.23652081, -0.42355457, 0.1556106, -0.06424953, -0.085594594, -0.4979076, 0.10866864, 0.068403974, 0.47609138, 0.03712791, -0.005360219, 0.26423725, -0.22835948, -0.29010233, -0.2057653, -0.35931104, -0.2897214, -0.041324418, 0.04122801, 0.3589578, 0.039292164, -0.39740446, -0.07041132, -0.091011375, -0.015125748, 0.070308276, -0.02974908, -0.13257854, 0.11594042, 0.016989017, 0.08186108, -0.055275485, 0.055880275, -0.005765214, -0.39906693, 0.011128671, 0.023663286, -0.017398195, -0.08426153, -0.09387966, 0.28180355, 0.07602794, -0.55801, 0.2435597, 0.014743607, 0.07588703, -0.04482382, -0.067311265, -0.14893407, -0.019756043, 0.024341937, -0.044468578, 0.022195702},
    {-0.050129525, -0.3479285, 0.21074155, 0.1606482, -0.057624053, -0.12560172, -0.093778156, -0.09137606, -0.21544224, 0.143354, -0.0921217, 0.06675645, -0.017070433, -0.246473, -0.07650747, -0.015661072, 0.18192795, -0.057855476, -0.011189392, -0.47118574, -0.09323414, -0.067644715, -0.07392041, -0.04963166, 0.3772986, 0.080538325, 0.21144323, 0.25589016, -0.044956133, 0.28652427, -0.33956423, -0.16862944, 0.33301756, 0.07741525, 0.081701614, -0.047733683, 0.016914234, -0.017714813, -0.2596933, -0.03638387, 0.07593247, 0.3657957, -0.004367078, 0.06699057, 0.087481886, 0.31706798, 0.17423818, 0.10288241, -0.089989424, 0.24603008, -0.14413364, 0.4618236, 0.037477463, 0.070261136, 0.04801014, -0.035240617, -0.027933637, -0.07398235, -0.4040993, -0.17937338, -0.14102073, 0.02532354, 0.02819352, -0.062321737},
    {-0.041891247, -0.23919174, 0.4012303, -0.019446917, 0.027810508, 0.055238992, -0.42554438, -0.008862911, -0.21964696, 0.05678417, 0.24909173, -0.015772337, 0.36894768, -0.07319186, -0.08872368, 0.08335274, 0.22237144, -0.1301125, -0.08143101, -0.44323596, -0.027163234, 0.03710375, -0.31106123, 0.2679644, -0.4739674, 0.041124918, 0.2991327, -0.16428939, -0.09417299, 0.32664227, -0.060667563, 0.095492385, -0.2576551, 0.24227633, 0.22310007, -0.07393856, 0.020639008, 0.11388893, 0.16589887, -0.66498095, 0.15326725, 0.12855224, 0.21921845, 0.06655295, 0.30701408, 0.16608182, 0.024278525, 0.08903824, 0.18465023, 0.12940094, 0.0840864, 0.04661556, -0.0041915732, 0.25723174, 0.06662358, 0.059004024, -0.20676082, -0.11946264, 0.103048064, 0.0052350955, 0.03538206, -0.05047998, -0.009648574, 0.004057995},
    {-0.028184999, 0.14163825, -0.5298576, -0.028056627, -0.045805812, 0.024146544, 0.12249184, -0.011587263, 0.22128882, 0.07999086, 0.054591842, 0.12650721, -0.1067599, -0.35943738, 0.039171644, 0.12035831, -0.05229398, 0.35112932, 0.2974618, 0.0674144, -0.0015814123, 0.018833933, 0.3144327, 0.4170904, -0.94135356, -0.34142986, -0.09473571, -0.13796599, 0.16641696, 0.2820678, 0.34606168, -0.052042194, 0.030495716, 0.08771671, -0.12707846, -0.13979574, -0.1920129, 0.102749385, 0.017198322, 0.07817346, 0.18652599, -0.18225725, 0.05573449, 0.094141535, 0.20537098, -0.113874115, -0.01991932, 0.0690761, 0.11004803, 0.023724772, 0.01684879, -0.37465125, 0.023261115, -0.23068213, -0.13580951, -0.06764549, 0.26193547, -0.1441803, -0.4844363, -0.045703933, 0.060633007, 0.004743247, 0.054756615, -0.0019632268},
    {-0.036605764, 0.08896013, 0.0017224114, -0.046235714, -0.20653608, -0.092637844, -0.054710384, -0.012429148, -0.39692494, -0.13880816, 0.13166249, 0.19579545, 0.20427972, -0.12578404, -0.003199007, -0.07289048, -0.020069461, -0.05594493, 0.17393224, 0.18595605, -0.02657844, 0.06884044, -0.18789579, 0.012776069, 0.37891734, 0.121796034, 0.6141441, -0.2109222, 0.1428112, 0.3091577, -0.4484401, 0.055486113, -0.37411878, 0.058617286, -0.034818023, 0.043102317, 0.02674343, 0.043645952, -0.019621085, 0.22686656, 0.14232405, 0.2126249, 0.085010126, -0.015427828, 0.030463444, -0.5173922, -0.017105691, -0.044663023, 0.04997667, 0.20897087, -0.015349512, 0.06809502, -0.06812292, 0.26510212, 0.3906015, 0.057913985, -0.282413, 0.09940616, 0.20509447, -0.15972207, 0.006990433, -0.04376669, -0.06565484, 0.07969991},
    {-0.016179083, -0.096449144, 0.04054787, 0.06842348, -0.12254649, 0.060110517, -0.122941725, 0.026240047, 0.26911578, -0.18970574, -0.076785125, -0.12879805, 0.21849437, -0.053952605, 0.0037798835, -0.005106657, -0.2937066, -0.237404, -0.009823335, -0.015257033, 0.029043002, 0.052426413, -0.10621147, -0.030550508, 0.18185507, -0.44751886, 0.639609, 0.22542685, -0.12219128, -0.23511975, -0.07879178, 0.023407567, -0.08784634, 0.11837743, -0.033076156, -0.020880846, -0.13926649, -0.067315936, 0.024545627, 0.06699781, 0.09170759, 0.5564538, 0.03300579, 0.014428981, -0.09086229, -0.3863061, 0.06258801, 0.044900727, 0.1002768, -0.15337102, -0.1837363, 0.31349084, 0.09535809, -0.22381271, -0.3724777, -0.01782074, -0.37242633, 0.051771183, -0.04504221, -0.007924895, -0.10868923, -0.009057259, 0.0079560345, 0.0077253724},
    {-0.10937609, 0.3825594, 0.15113048, -0.1721025, -0.27268046, 0.110090256, 0.0007784841, -0.020564867, 0.04903154, -0.1286688, -0.10349097, -0.23060869, -0.43722495, 0.07655069, 0.10390293, -0.0009695901, 0.3425374, 0.091997005, 0.01622296, 0.30052114, 0.47809127, 0.032208234, 0.21614306, -0.1911051, 0.093685694, -0.12088066, 0.086366415, -0.19967116, 0.2280113, 0.04338164, -0.5119424, 0.014495566, 0.10092971, -0.12289509, -0.020113297, -0.06386817, -0.012806657, -0.16839519, 0.03388093, -0.55948293, 0.08688064, 0.32759407, -0.18273099, -0.043806534, 0.31626257, -0.20090277, 0.027135821, -0.084511444, 0.2690439, -0.15867282, 0.031717364, 0.31598145, -0.017304765, -0.11592178, -0.68785787, -0.03799371, -0.21378337, 0.09473102, -0.04387336, 0.09393179, 0.034694705, 0.02679637, 0.042921763, 0.03383041},
    {-0.03948241, 0.54360175, -0.5836652, 0.08229572, -0.044522308, 0.057905063, 1.0296482, -0.032728504, -0.3678459, -0.8352693, -0.07376515, -0.2814532, 0.02711632, -0.0026738674, -0.063169904, -0.042914215, -0.58474785, -0.13752273, -0.027465263, 0.76290715, 0.39571577, -0.0016898682, -0.073760696, -0.37857816, -0.119459935, -0.54679126, 0.5179444, 0.031147314, -0.09180764, -0.01620071, -0.13857779, -0.0102132475, -0.39479986, 0.03510728, 0.031791467, 0.026611306, 0.101768285, 0.042940237, 0.5631687, -0.38218135, 0.06810739, -0.07228319, 0.05545792, -0.0029123537, -0.11166481, -0.5127772, 0.036783148, -0.010581799, 0.12719838, 0.018369494, -0.025258383, 0.46753588, 0.07780056, -0.40404117, -0.41420636, -0.028173584, -0.2026983, 0.027093941, -0.24148928, -0.07385467, -0.0043219016, 0.058026552, 0.015149961, 0.017550075},
    {0.050165758, -0.18376844, 0.03896772, -0.08333873, 0.046512507, 0.06116025, 0.31428444, -0.022112427, -0.47919694, -0.19212994, 0.3139843, 0.2446434, 0.024686132, -0.07350733, 0.030578967, -0.06062466, -0.42652577, 0.23679556, 0.068580344, -0.3783295, 0.09747627, -0.124496855, -0.068976186, 0.14538641, 0.15478212, -0.13667187, -0.07834656, -0.24605225, -0.02222003, 0.27504987, 0.038579352, 0.18090351, 0.043331984, 0.05246272, -0.17869349, 0.04664983, -0.037584733, -0.0716493, 0.33557472, -0.3821803, -0.13217238, -0.18522352, 0.1581536, -0.033512477, -0.16219178, 0.54265076, -0.048882514, -0.07672159, -0.21806872, 0.0018110507, 0.046877913, -0.059964847, -0.009564646, 0.16679764, 0.45478085, -0.003879896, -0.20071913, 0.12635104, -0.12014395, 0.09174643, 0.17512177, 0.0030420537, -0.03065813, 0.08350583},
    {0.021638509, 0.03043846, 0.3298583, 0.045014843, 0.15704079, -0.013993054, 0.07572254, 0.068515494, 0.07682996, -0.14587098, 0.020827543, -0.010184646, 0.30291927, -0.026606472, 0.04037296, 0.16536702, 0.47415656, 0.035244472, 0.02094974, -0.296388, -0.12318476, 0.0097068995, -0.28821903, 0.27448195, 0.029928928, -0.14704129, -0.39323765, 0.1724343, 0.015138052, 0.26028943, 0.08128491, 0.12008907, 0.051854722, 0.1329932, 0.06620757, 0.13471305, -0.038880862, 0.39392716, 0.12967364, 0.110893965, -0.039247032, -0.23045166, 0.08634151, -0.11331491, -0.016568325, 0.34250745, 0.00551092, -0.105010666, 0.09209045, -0.08288334, -0.1990664, -0.25022352, -0.13738586, 0.1953147, -0.005628496, 0.09704929, 0.25835192, 0.005099132, 0.82814765, 0.17764804, 0.025657851, -0.07060572, 0.017499711, 0.024886372},
    {0.07928309, 0.09002869, -0.28422964, -0.010676942, -0.06100557, -0.021212162, -0.15228012, 0.0011758952, -0.21896891, 0.021230165, -0.10702215, -0.23659451, -0.08927039, -0.063206494, -0.020147419, -0.07410854, -0.04940289, -0.10032307, 0.12333123, 0.40662503, -0.0020169658, -0.08328682, -0.22726166, -0.24170372, -0.18881227, -0.3397496, 0.1406165, -0.19704252, 0.018190613, -0.55934906, -0.124594145, 0.10195143, -0.30384293, 0.05039877, 0.07131417, 0.0059661693, 0.010684623, 0.29043064, 0.36325502, 0.17435805, -0.15959553, 0.20894507, -0.024959208, 0.02534143, 0.28725687, -0.025228575, -0.06486797, -0.08740346, 0.2426993, -0.09654281, -0.01989486, 0.25291336, -0.0029812243, -0.17807335, 0.24623495, 0.00077282795, -0.1318696, -0.020895133, -0.07257586, -0.037168626, 0.003996443, -0.05192776, -0.025305757, 0.06606513},
    {0.01915452, 0.3069037, -0.06804093, -0.058632247, 0.034390684, 0.028639939, 0.04450901, 0.02633467, -0.8323473, -0.27132684, -0.04112266, 0.07185469, -0.06886763, -0.07097781, 0.10580411, 0.060475368, -0.12187213, -0.12706867, -0.057441093, 0.13447373, -0.18941885, 0.026361207, -0.055522915, 0.05044909, 0.4149595, 0.44879723, -0.20506355, -0.34682518, 0.04754521, 0.43582726, 0.46649393, 0.006405657, -0.040915232, -0.20799576, -0.06326628, 0.036291927, 0.018229613, 0.13317773, -0.10240981, -0.051696606, 0.17760283, 0.038578305, -0.11800385, -0.046841186, -0.04102174, 0.06010313, -0.085838206, -0.043570988, -0.10100909, -0.012522999, -0.07519911, -0.13607952, -0.006197289, 0.23680566, 0.25509983, 0.11409403, -0.15837435, -0.07520184, 0.2516779, 0.108003914, 0.009371492, -0.009181116, 0.041637614, -0.027288323},
    {-0.02120054, -0.0022079027, 0.12134939, 0.014483343, -0.016806964, -0.112281404, 0.06489331, 0.0044291764, -0.1551574, 0.6934809, -0.21818522, 0.45219153, -0.38493672, 0.13207872, -0.036449116, -0.03287502, -0.20626482, 0.4876235, -0.16009252, 0.2698929, 0.1088801, -0.01380481, -0.06725834, 0.37320092, 0.46690243, 0.54423344, -0.5141963, 0.07148523, -0.06610895, -0.09121896, -0.5118502, -0.093366705, -0.1442219, 0.07198824, 0.0508633, -0.013849842, 0.058437806, 0.4392366, 0.18598923, -0.21597049, -0.06121398, -0.5769966, 0.053260487, -0.07304062, 0.07273608, 0.28484926, 0.05590239, -0.12043346, -0.14335382, -0.037205905, -0.010813954, -0.0894102, 0.002275457, -0.08698412, 0.70337003, -0.03359201, 0.27502063, -0.046134572, -0.28175017, -0.0204701, -0.0107981665, 0.013665895, 0.01061534, 0.0136214625},
    {-0.08087627, -0.10966474, 0.3897762, -0.09937418, -0.044231772, 0.19064139, -0.32229915, 0.097328685, -0.2510166, 0.4425582, -0.070796415, 0.48485538, 0.3114997, 0.15056907, 0.084087476, -0.17962542, 0.087109946, 0.17221203, 0.00924777, -0.23209083, -0.25219482, 0.17302269, -0.09069609, -0.0017034332, -0.17453106, 0.11396545, -0.018807378, -0.7490543, 0.055003457, 0.22852032, -0.04959508, 0.018030606, -0.015177662, -0.30544385, -0.19272421, -0.1355154, 0.039406113, -0.09173034, 0.31121576, -0.025135685, -0.15496428, -0.223145, -0.17766894, 0.07985907, 0.1845202, -0.18957667, 0.03998364, 0.17682059, -0.07646582, 0.0747388, 0.037267722, -0.25505608, 0.04105796, 0.18369463, 0.38196966, -0.008753679, -0.25916323, 0.13745223, 0.23884837, 0.08266487, -0.12644324, 0.013889335, -0.0072561917, -0.11577144},
    {0.01912623, -0.37578985, 0.031740665, 0.015336755, 0.06442534, 0.0052997563, 0.29110423, -0.03599107, 0.049234416, 0.060447674, 0.08600412, -0.23235315, -0.69984925, -0.2290569, 0.07646771, 0.03205154, -0.12547739, 0.32478455, 0.27481347, 0.02707942, 0.3943623, -0.0039403476, 0.13249877, 0.49956453, 0.5261537, 0.6672997, -0.47685033, 0.79343224, 0.12476495, 0.59665436, -0.17514423, 0.04364442, 0.18550031, 0.17583288, -0.14866684, -0.030182052, -0.08945619, -0.104019016, -0.062261134, -0.5864838, 0.24445723, -0.31083095, -0.1487669, 0.02585733, -0.5397164, 0.38539448, -0.019847177, 0.093006425, -0.23200846, 0.08804969, 0.016248023, 0.19117232, 0.021931648, -0.21196152, 0.58930683, 0.09638514, 0.23517089, 0.001745883, 0.036696292, -0.06891845, 0.057666104, -0.011097009, 0.016072595, 0.043908548},
    {-0.030621517, -0.40491915, 0.12917243, 0.03324875, 0.18552771, 0.063387185, 0.07646228, -0.11809074, -0.939325, 0.26604643, -0.0029407511, 0.1505075, -0.68343353, 0.05969265, 0.025158582, 0.006053667, -0.30174938, 0.32989612, 0.009970053, 0.44329336, 0.16731574, 0.07829926, 0.069863394, -0.31583026, 0.21932767, 0.06987714, -0.21272628, 0.4001061, -0.024637017, -0.07612381, 0.6426015, -0.0440765, -0.05082557, 0.034746125, -0.035422258, 0.025595486, -0.0404302, 0.18906559, -0.5896507, 0.053071264, 0.067572825, 0.14625673, 0.14075223, 0.007267766, -0.6449569, 0.029984582, 0.151583, 0.019736102, -0.18397662, 0.010921034, -0.014681272, -0.21977137, 0.048064962, -0.04522687, -0.080008425, 0.19226068, -0.03342854, 0.01443051, 0.07676445, -0.023020975, 0.012706709, 0.018630035, 0.013259856, -0.005981598},
    {-0.038508918, 0.7512076, -0.76352775, 0.042081926, 0.09784407, -0.19920158, -0.1939799, -0.037155703, 0.672839, -0.080581516, -0.20410918, 0.5072767, 0.08674631, 0.05690152, 0.12076236, 0.07339032, -0.15872803, -0.5389822, 0.003411051, 0.7109502, 0.33128428, 0.110750586, -0.13972412, 0.12662764, -0.2733064, -0.11129916, 0.18169549, -0.5241533, -0.05475225, 0.07406276, -0.29201213, -0.1250019, -0.33461863, 0.24959832, 0.07118711, 0.038489316, -0.09529552, -0.19171387, -0.021736862, 0.07488629, 0.07727307, -0.94836843, 0.07736592, 0.030927623, 0.27176818, -0.5068698, 0.008089622, 0.10225083, -0.059113715, 0.08877778, 0.024528412, 0.239898, 0.05458411, -0.7427965, 0.7317469, 0.086490326, 0.12136925, -0.04187494, 0.01695831, -0.03420131, 0.03813084, 0.025321774, 0.00050817686, -0.054167345},
    {-0.027043954, -0.59305555, 0.061706748, 0.1054425, -0.047026213, -0.15246646, -0.070941165, 0.031095603, -0.09826497, -0.31497726, 0.016104424, -0.4685129, -0.11003441, -0.10964917, 0.05161834, 0.17340055, 0.1706527, -0.11215615, -0.12615734, -0.052005604, -0.06544887, -0.018961642, 0.5376958, 0.18735255, 0.075830586, -0.45381147, 0.48497447, 0.28822255, -0.11895646, 0.2657629, 0.22748573, -0.1266464, -0.05097477, -0.028835917, 0.011188572, 0.057147525, 0.07029793, -0.23497245, 0.27313447, -0.19131082, -0.24108478, 0.4439826, 0.05285379, -0.09195254, 0.18608046, 0.0489889, 0.039570723, -0.023283342, -0.16540363, -0.033125274, -0.143863, 0.6339699, 0.15544268, -0.2765216, -0.41288364, 0.05457224, -0.709885, -0.16041636, -0.39910522, 0.21616098, 0.019384056, 0.042319898, -0.066183075, -0.007135088},
    {-0.021972515, 0.18460599, 0.17932397, 0.047775853, -0.041492853, 0.0030098842, -0.24658033, 0.03783815, -0.35813305, 0.017863391, -0.10016651, 0.32337868, -0.41486034, -0.07812093, -0.02629036, -0.06328977, 0.37718153, -0.003082184, 0.070299365, 0.39871553, 0.2415294, -0.008162928, 0.133102, -0.20144162, 0.190429, 0.13697405, -0.24347231, -0.025952885, -0.13968287, 0.23136249, 0.0010618097, -0.072926566, 0.19463392, 0.13310379, -0.20498791, -0.10456786, 0.032938585, -0.08139367, -0.0145416865, -0.06963235, -0.0011728172, 0.46444362, 0.010753828, 0.04601562, 0.26200956, 0.15886728, -0.00058357994, 0.2122964, -0.22745915, 0.058202773, 0.057115734, -0.26228753, 0.081147105, -0.08411608, 0.2108938, 0.007782878, 0.028515246, -0.021823471, -0.13264698, -0.16841432, -0.09656818, 0.004740606, -0.026535071, 0.0014179993},
    {-0.0138619095, 0.20135146, -0.05893254, 0.12815818, 0.008816645, -0.02478498, -0.3235097, -0.119081445, 0.17102413, 0.04422267, 0.0324585, 0.11092326, -0.21610026, -0.32734624, 0.030701403, 0.07342686, 0.124481335, -0.077338345, 0.09064014, 0.21063262, 0.10582034, -0.066816926, 0.016292794, -0.5344555, -0.1890262, 0.3485648, -0.095596224, 0.34631014, -0.087111406, -0.5558834, 0.06822642, 0.22665676, 0.003584707, 0.09660165, 0.04038762, 0.053819746, -0.019323064, -0.3325708, -0.03223433, 0.0984677, -0.043212354, -0.11046633, 0.22754127, -0.0052166474, 0.033097412, -0.0496545, 0.040374912, 0.0629314, -0.17351654, 0.17000894, -0.17022264, -0.5117256, 0.14737985, -0.28187186, -0.38426656, 0.13679251, 0.13814999, 0.034276254, 0.07157764, 0.0413116, 0.1446214, -0.04572438, 0.050116353, 0.0054141358},
    {-0.046920963, -0.08464732, 0.47278106, -0.005562422, -0.031684972, 0.11949336, -0.34487507, 0.05128965, -0.14842156, 0.4807405, -0.061134953, 0.38747826, 0.20899798, -0.11044323, 0.07192474, -0.014450697, 0.17246643, 0.53898495, 0.022456476, -0.49293578, 0.13902853, 0.117903635, 0.07973974, 0.32482278, 0.5861861, 0.2347449, -0.007456759, -0.15767938, 0.08624602, -0.02769363, -0.22809896, -0.007917461, 0.3430283, -0.033748236, -0.14250928, -0.047406863, 0.08008043, -0.37386224, 0.10457973, -0.093631424, -0.13586499, 0.578058, -0.017873246, -0.017255077, -0.11260394, 0.26578605, 0.046833076, -0.030755999, 0.04083659, -0.07245493, -0.044771288, -0.6121284, 0.08712802, 0.6100065, -0.3581615, 0.1169468, 0.16039902, -0.057751473, -0.1086268, 0.013737435, -0.15844427, 0.04764036, 0.0048818416, 0.057863276},
    {0.09990662, -0.039740928, 0.30743492, 0.04878517, 0.03479196, -0.05051527, -0.17751046, 0.025731497, 0.24103871, -0.08713992, -0.21226272, 0.47842386, 0.29497623, -0.18821743, -0.015501711, 0.053002603, 0.11294866, -0.23268382, 0.1988132, -0.28912073, -0.021045767, -0.038567323, 0.0721646, 0.033226285, -0.4672987, -0.54172325, 0.16609079, -0.3686357, 0.13506939, -0.21705683, -0.13936347, 0.040374264, 0.10528796, -0.1496054, -0.24511664, -0.00049064786, 0.07018015, -0.24995525, 0.086588, -0.0009733126, 0.09619916, 0.16844542, -0.010140347, 0.078958616, 0.038168136, 0.12234317, -0.055770274, -0.02387598, -0.22802249, -0.14886108, -0.0027171613, -0.6645905, -0.073904544, 0.54989564, -0.34937662, 0.055120945, 0.07335541, 0.0021372372, -0.41795734, -0.06909683, 0.031041777, -0.07454557, 0.059777576, 0.042543583},
    {-0.0041865134, -0.23396881, -0.12134042, -0.015447503, -0.013590569, 0.073596984, 0.6295175, 0.052062668, -0.2831242, -0.10617113, 0.097393796, 0.26446235, -0.06398153, 0.012930066, -0.001477335, -0.119989835, -0.36821762, -0.21147342, -0.24765082, -0.05505054, 0.31795296, 0.11013225, 0.23324555, -0.45357662, 0.41210455, 0.028210733, 0.00079670706, 0.12213999, 0.022107424, 0.10684263, 0.15160725, 0.10986447, -0.20547342, 0.0014793429, 0.017955184, -0.05474791, -0.13902856, -0.24590978, 0.13660342, -0.5609549, 0.06073479, -0.05571503, -0.0052363914, 0.08882412, -0.21502466, 0.058371175, -0.030175475, 0.06669558, -0.30105573, -0.01365176, -0.058942858, 0.007889069, 0.009859772, -0.16528666, 0.5166135, -0.03223289, -0.42426285, 0.06961333, -0.26806238, -0.02163602, -0.06864815, -0.004503721, 0.011704479, -0.04988312},
    {-0.015863542, 0.12623632, -0.06317793, 0.040361464, -0.12313665, 0.007957916, -0.3395459, -0.018321533, -0.14411698, -0.3611502, 0.23860493, 0.016845852, 0.29951242, -0.024269035, 0.022694351, 0.073367946, -0.5648577, -0.088572025, 0.03168394, 0.30558935, -0.159765, 0.03489418, -0.28066996, -0.3977131, -0.12569606, -0.17965595, 0.30366877, -0.1980525, 0.04556192, -0.03275675, 0.8832812, 0.013315468, -0.432694, 0.07650029, 0.0024426628, -0.0047243284, 0.09652084, 0.11617128, -0.20048869, 0.3627005, 0.056266427, -0.111509815, 0.07922455, 0.004820222, -0.3112095, -0.4950471, -0.058023885, -0.035084374, 0.016479684, 0.055671092, 0.030770833, 0.1006049, -0.04389879, -0.5181679, -0.13257246, -0.05562737, -0.13639839, 0.032023568, 0.16349086, 0.013534183, 0.11606762, -0.009655294, 0.053513795, -0.023048334},
    {0.13848573, 0.27550325, -0.38751462, -0.026345607, 0.12982643, -0.06316863, -0.10597041, 0.035998486, 0.27726933, 0.3929419, -0.17980993, 0.5587283, -0.46222395, 0.007577374, 0.029175576, -0.008761453, -0.091211885, -0.16546817, 0.049654275, 0.44185033, 0.058672495, 0.08175765, 0.36566913, -0.5556887, -0.050833013, 0.20102155, 0.19543359, -0.20717764, 0.07669598, -0.00970258, -0.62926656, -0.12709734, 0.16646308, 0.10800349, 0.11793642, 0.046634704, -0.028185626, -0.31141034, 0.052418802, 0.2090916, 0.09429762, -0.30461532, -0.18605967, 0.03464868, 0.5750068, -0.4168138, -0.10138324, -0.03427944, -0.21066335, 0.17299715, 0.023273664, -0.094370805, -0.07614083, -0.0420134, -0.08089734, 0.16295092, 0.19647875, -0.137533, -0.41055435, 0.006515757, -0.22340895, -0.08093347, -0.020641001, -0.06368639},
    {0.054171965, 0.21516195, 0.113314055, 0.08085653, -0.027767556, -0.05316462, 0.2835061, -0.03334847, -0.16208597, 0.14365493, 0.0974704, -0.16870633, 0.055003017, -0.03401882, 0.14896527, 0.10698698, -0.38922304, 0.36762494, -0.12010191, -0.0849789, -0.29177263, -0.014116879, -0.47191027, 0.054393563, 0.018721126, 0.07220262, -0.62706167, 0.06900056, -0.068226814, -0.04487478, 0.4599708, -0.09783031, -0.16124234, 0.015842402, 0.17061883, 0.0019832165, -0.07320639, 0.3290546, -0.33024073, 0.14103009, -0.08624595, -0.1344493, 0.045467764, -0.03013414, -0.53432554, -0.048392612, 0.053809952, 0.015182433, -0.11689049, 0.0064909854, -0.020351246, -0.32917693, 0.08257814, -0.00942689, 0.38511854, 0.016456692, 0.6439574, 0.03736264, -0.094901256, 0.18716148, 0.08946673, -0.020592874, 0.03948315, 0.005250141},
    {0.05879486, -0.42392313, -0.020566698, -0.0076243295, 0.03677892, 0.02138806, 0.2303686, -0.004227186, 0.038578723, -0.062327158, 0.37392062, -0.055465642, 0.04337768, 0.12371379, -0.011172323, -0.025859965, 0.28905213, -0.054551877, 0.11252738, -0.30169177, 0.033968415, 0.019395774, 0.22504935, 0.39713007, 0.3120039, -0.028710036, -0.23326771, 0.090882964, -0.09260535, 0.25806803, 0.16730857, 0.14562392, 0.037251633, -0.09214764, 0.0776666, 0.050267603, 0.18743208, -0.27721667, 0.03536412, -0.24886706, -0.10116267, 0.105068, 0.2057553, -0.021812033, -0.15645134, -0.020763924, -0.077403925, 0.045165516, 0.37382656, -0.038454644, 0.0895465, -0.08377508, 0.035379484, 0.18543395, -0.03497471, 0.030746534, 0.007274317, 0.023802308, 0.37199962, 0.057030383, 0.08006281, -0.034754112, -0.0074927085, 0.015719695},
    {-0.06157886, -0.12846078, 0.41046003, 0.13352656, 0.07422886, -0.14436728, 0.107583046, -0.10016684, -0.7010213, 0.1479552, 0.1663312, 0.20303066, 0.21220872, -0.0410711, -0.07270088, -0.029082652, -0.17154351, 0.04038466, 0.04894889, -0.17633355, 0.24159852, -0.09104562, -0.3386756, 0.31834915, -0.25599328, -0.61374414, 0.17867388, -0.15166755, -0.11330636, -0.023535127, -0.10371828, 0.06666357, 0.051029798, 0.102210276, 0.046807762, 0.16145636, 0.063356265, 0.3222458, 0.016509896, -0.2511322, 0.01899019, 0.34390903, -0.08824595, -0.029303242, -0.41844496, 0.18302634, -0.029328477, 0.06209424, 0.043182567, 0.17277537, -0.120101646, 0.120422184, 0.070805535, 0.26976424, -0.310877, 0.03136529, 0.12263595, -0.0041472954, -0.28771007, 0.0018600152, 0.004163577, 0.029421242, -0.03300826, -0.12876649},
    {0.016816476, 0.04623678, -0.18242668, 0.037403863, 0.08905643, -0.124304466, 0.06235596, -0.047385696, 0.48564658, -0.037529346, 0.16957916, 0.28614235, -0.10059666, 0.024303705, -0.16035652, -0.048588924, -0.14317347, -0.05508049, -0.18353932, 0.4568922, -0.14072376, -0.06469272, 0.08344162, -0.6646992, -0.25279126, 0.19571139, -0.25008947, -0.045825157, 0.15296052, -0.745376, 0.48715174, 0.013187856, -0.16072932, -0.06391345, 0.022530455, 0.04793695, -0.16216685, -0.31436953, -0.2473835, -0.06946118, -0.11061058, -0.33343866, -0.020136334, 0.008945754, -0.043652363, 0.07065811, 0.064339295, -0.07967168, -0.115560316, 0.07009606, -0.040590167, -0.40303707, -0.021131402, -0.06587898, -0.1481813, 0.02130891, 0.015891755, -0.0073262947, -0.33574647, 0.12370608, -0.1062307, 0.014760733, -0.034933083, -0.0658779},
    {0.031238953, -0.29814246, -0.11381704, -0.015673947, 0.024019694, 0.094169706, 0.25947025, 0.037114978, -0.03396526, -0.7147712, -0.16877533, -0.38303152, 0.23651586, 0.043594852, 0.0631241, 0.008449097, 0.25018847, 0.09380524, -0.2613563, 0.3252976, 0.19631274, -0.083683014, 0.11337265, 0.10775894, 0.03115687, -0.11512611, 0.3363435, 0.56841606, 0.048457444, 0.5660721, 0.46137545, 0.021240171, -0.03422472, 0.015697544, 0.10837304, 0.05388334, -0.019148182, 0.1048981, -0.30619174, -0.35597622, -0.031928968, 0.022281135, -0.06450126, -0.12170781, -0.9313677, -0.1275679, 0.0060292855, -0.14181104, -0.10700121, 0.17804231, -0.051201932, 0.4939315, -0.048893154, -0.15836728, 0.22457318, 0.056812014, 0.056015655, 0.029319437, 0.32812113, 0.047630575, -0.10027221, 0.048802495, -0.048400305, 0.00959602},
    {0.028049052, 0.46383637, -0.001215619, -0.108361535, 0.21855487, 0.031139906, 0.20321515, 0.066620305, 0.225046, -0.3138059, -0.10477839, 0.18156633, -0.42850387, 0.040892754, 0.11214402, 0.06694514, -0.2580668, 0.07561383, 0.061141815, 0.43082845, 0.23196341, 0.1543683, 0.20607619, -0.2320324, 0.20865142, 0.36148325, -0.15934359, 0.25542864, 0.028068276, -0.52152115, 0.26476923, -0.09999647, 0.05220117, -0.00040666043, -0.08192743, 0.0091237025, 0.00023716864, -0.116661415, 0.122276194, 0.36214274, 0.05121653, -0.13389346, 0.0019405922, -0.01552811, 0.029731087, -0.094957605, -0.08865798, 0.0073274765, -0.09615078, -0.042264316, 0.23607808, 0.106332, -0.13831422, -0.44043067, -0.34855404, 0.018927911, 0.096980244, -0.039397728, -0.5549096, 0.027302813, 0.024110196, 0.049877875, -0.08546854, -0.019062031},
    {-0.069026396, 0.20263596, -0.6518254, -0.1002693, -0.06561116, 0.24116385, 0.4614103, 0.080549486, 0.248312, 0.3894104, -0.02955825, -0.08536928, -0.27857184, 0.052001018, 0.030284328, -0.10813298, -0.06932784, 0.24124931, -0.058512464, -0.02403064, -0.324789, 0.13312165, 0.8961892, -0.2922315, -0.08395321, 0.20074809, -0.68323565, 0.9711461, 0.024811642, 0.33759952, 0.4378342, 0.1385471, -0.08612859, -0.18799277, -0.10179601, -0.12791893, 0.1357255, -0.060211103, 0.15678677, 0.112866394, -0.032118335, -0.20925674, -0.01842754, 0.020139962, -0.49546042, 0.6769077, -0.016240407, 0.057000715, -0.04076076, 0.048691396, -0.03630151, 0.058522478, -0.025340475, -0.2011634, -0.09853186, 0.10671, 0.8457984, 0.0016282058, -0.088817105, 0.009379071, -0.08021324, 0.026744379, 0.018563163, -0.01487942},
    {0.027144562, 0.14244658, -0.12165191, 0.092226416, 0.14774221, 0.026671529, -0.12236934, 0.0016813735, 0.025386555, -0.043641314, 0.062009364, -0.3687451, -0.049152095, -0.21495046, -0.12486602, 0.13281082, -0.16352119, -0.14953838, 0.03850477, 0.078381665, -0.10298915, -0.0429386, 0.051179126, -0.24936622, 0.10771945, 0.030466892, -0.24137138, -0.35469317, 0.094754584, 0.061315734, -0.7405543, 0.049443685, 0.15801492, -0.0035358479, -0.04385279, 0.06513753, -0.19493793, -0.001894068, 0.6408473, -0.26327765, -0.09196473, -0.2789604, 0.2104566, 0.026719518, 0.2939876, 0.039629787, 0.019417055, -0.10262161, -0.011770014, 0.12395855, 0.07119475, -0.4967714, -0.1377323, -0.11214634, 0.39993846, -0.17802055, -0.10308379, -0.008233373, -0.32623073, 0.04432719, 0.13091847, -0.07473534, 0.050223567, -0.0677849},
    {-0.035625536, 0.33797362, 0.267061, -0.069621764, -0.07925431, -0.038057603, -0.21386895, -0.074517466, -0.45797893, 0.73396915, -0.3571127, 0.6030665, -0.3111238, 0.017172856, 0.0581185, -0.049996294, -0.29426372, 0.638901, 0.20427033, 0.056479216, -0.27497938, -0.04483856, -0.086173944, 0.26460284, 0.18485236, 0.14555553, -0.27888727, -0.029777825, -0.08810962, -0.37323877, -0.067064986, 0.0055505238, -0.03679596, -0.09507406, -0.18790612, 0.029276654, -0.067569785, 0.23924997, -0.08001755, 0.23337157, -0.051584058, 0.38100025, 0.0789888, -0.0600172, -0.0013930668, 0.2527886, 0.0061072554, 0.04141505, -0.019941013, -0.23983306, -0.1870983, -0.1828537, 0.031236053, 0.14737068, 0.2783091, -0.1367965, 0.34900194, 0.05238319, -0.3622399, -0.01881402, 0.06454363, 0.037307393, 0.016967682, -0.07706403},
    {0.020213362, 0.16383529, -0.17963904, 0.009220506, 0.10125712, -0.016878923, -0.36646572, -0.06557005, 0.46934947, 0.18923314, 0.061807286, 0.12879567, -0.2188962, 0.26339185, -0.10975998, -0.037838735, 0.007325303, -0.1732853, -0.25766242, -0.18406813, 0.11197857, -0.10014452, -0.033932097, 0.26132667, -0.07151736, -0.16566615, -0.6161804, -0.50960815, 0.08605281, 0.40236092, 0.13244085, 0.3867499, -0.059926882, -0.003554587, -0.15098295, 0.078481674, 0.06888441, -0.34900475, 0.23659877, 0.43666905, -0.0635279, -0.70549124, 0.25214222, 0.0015803719, 0.015593401, 0.07986951, -0.021198004, -0.023272512, 0.04945763, -0.14161731, 0.14527781, -0.0017828982, -0.11708382, -0.24859305, 0.48982242, 0.14070305, 0.3245682, 0.13969739, 0.28719795, -0.0719592, 0.16645859, -0.026368588, -0.011459183, 0.0035514776},
    {-0.023850987, 0.27786317, -0.1575746, 0.05655802, 0.100601904, -0.025652645, 0.07162997, 0.0011574746, 0.2131241, -0.13464269, -0.020030638, -0.042729966, 0.08802235, 0.015223594, -0.031135004, 0.04260104, -0.06704447, -0.26047862, -0.30239668, 0.17591146, -0.006559829, -0.13899541, -0.203663, 0.08964062, -0.40720457, -0.6074053, 0.30764934, -0.07299254, -0.11168696, 0.018174604, -0.057979185, 0.01434411, 0.16013005, 0.19435099, 0.10144165, 0.014684892, -0.123928644, -0.13026738, 0.30751675, 0.23583815, -0.022541016, -0.12923676, 0.011693739, -0.018581796, 0.35659897, -0.4083152, 0.055126783, 0.016714526, -0.079251125, 0.033972193, 0.028738402, 0.08945635, 0.03425846, -0.053990882, -0.047824945, 0.110801145, 0.1526946, -0.088289574, -0.027676882, 0.027275722, -0.05862191, -0.06047507, 0.00020126702, 0.020779144},
    {0.041023105, 0.020654427, -0.24100137, -0.04990011, 0.015856408, -0.0983655, 0.14189176, 0.058210652, 0.4363275, -0.18998247, 0.16188477, -0.3584351, -0.24708726, -0.057759173, 0.00017977931, -0.089142986, -0.02052954, -0.17846872, -0.12182716, -0.21970138, 0.16745943, 0.2305387, -0.1574896, 0.44591588, -0.15958768, -0.64624834, -0.12981427, 0.15351938, -0.08411984, -0.047407035, -0.20637496, -0.002463301, 0.11376819, -0.13254672, 0.028310392, -0.048759006, -0.04966244, 0.15358752, 0.19031665, 0.08807814, -0.05067773, -0.41047677, 0.100971214, 0.13742669, 0.28613907, 0.5843617, -0.115352966, 0.0823599, 0.1530562, 0.06967477, 0.15609047, -0.44923377, -0.0176992, 0.14718935, 0.15983708, 0.27431315, 0.2821462, 0.087247774, -0.60701, 0.025190873, -0.09048041, 0.014964942, 0.026607709, 0.028787483},
    {-0.008942107, -0.68164176, 0.43894032, 0.14154753, -0.04153444, -0.008577251, -0.9332079, 0.0064267274, -0.14695649, 0.9207249, -0.08839039, 0.798462, -0.37684435, 0.046793684, -0.060029313, -0.020983523, 0.27538222, 0.26076704, 0.047311697, -0.61090535, 0.18115404, -0.06496839, 0.42363927, -0.07161588, 0.15139969, 0.44977453, -0.72497517, -0.081777856, -0.14059232, 0.37393403, 0.41250816, -0.15651898, -0.020585952, 0.09671213, 0.077278495, 0.073575705, -0.024033943, -0.30941838, 0.34401143, 0.09945813, 0.1625984, -0.21541528, -0.17490909, -0.08327227, 0.17623828, 0.7453536, 0.011500875, -0.054682072, 0.07931643, 0.074770495, 0.12993895, -0.09584792, 0.1147583, 0.39673617, -0.00499576, -0.20247225, 0.18966569, 0.061086293, 0.28088453, -0.04073269, -0.04272158, 0.08793081, -0.035800256, 0.13384224},
    {-0.010725448, -0.29051575, 0.22351538, -0.009639947, 0.060301445, 0.03675762, -0.4947927, 0.018416788, 0.009115071, 0.107391365, -0.031083742, 0.038788147, 0.21684702, 0.012332022, -0.11800471, 0.07722247, 0.15346476, 0.09762593, 0.012245313, -0.22050816, -0.08497736, 0.056138735, -0.08458235, 0.22093637, 0.3457038, 0.19770646, -0.20896694, 0.29926193, 0.005211677, -0.21846691, -0.10586561, 0.033703666, 0.103011005, -0.16543002, -0.13957936, -0.014178514, -0.025892751, 0.23600286, -0.28431943, 0.26912174, 0.11987844, 0.26875708, 0.07736472, 0.01251249, -0.3528084, 0.6359584, 0.0047761863, 0.022605319, 0.16790442, -0.16155007, 0.17427427, 0.17637831, -0.018641002, 0.26224333, -0.024827305, -0.0052818335, 0.27013397, -0.11597868, -0.20773304, 0.14141378, 0.1658814, -0.0039211484, -0.07303939, 0.043081064},
    {0.026546907, 0.0053100623, -0.10781524, 0.05750357, 0.09201226, -0.019626936, 0.31103277, -0.033981606, -0.18656941, -0.03596914, 0.026438907, 0.051637985, -0.10202024, 0.05085424, 0.07856168, 0.1171758, -0.08731909, -0.18186654, 0.14773718, 0.25987256, -0.20845033, -0.08521301, -0.22410081, -0.42778072, -0.30275992, -0.46002734, -0.2311118, -0.050827585, -0.09893496, -0.24421394, -0.44981626, -0.028444143, -0.38948268, 0.08043734, 0.10702362, 0.083368085, 0.06695042, 0.38746676, -0.35428813, 0.18308602, -0.089101665, 0.14341518, -0.008636989, -0.05952524, 0.40959883, 0.2747952, 0.029977657, -0.048334315, 0.40984246, -0.03845515, -0.08469654, -0.01074514, 0.04245443, -0.17713508, 0.5714051, -0.0030786279, 0.0056946175, -0.0382455, -0.23731214, 0.07049297, -0.028779406, 0.010299378, 0.09720835, -0.024170222},
    {-0.040953156, 0.3509555, -0.5818682, -0.05961393, -0.066131085, -0.08844565, 0.12798601, 0.03975418, 0.20101275, -0.37101823, 0.26547897, 0.2900819, -0.16308454, 0.15941894, -0.002803504, -0.03037162, 0.019396689, -0.16979977, -0.13596386, 0.14899866, -0.09477799, 0.017371893, -0.13921537, -0.40855712, 0.13334927, 0.16436574, 0.17173389, 0.16818789, -0.023554157, -0.36957914, -0.21998633, 1.3526063e-05, -0.06355801, -0.0034893309, 0.20798655, 0.014966674, 0.03119509, 0.2349368, 0.051387172, -0.15295622, -0.10216674, -0.3624373, -0.07268456, -0.030269053, 0.28077915, -0.2782587, -0.09784809, -0.027290722, 0.2035774, 0.0537035, -0.03471577, -0.06522419, -0.0071089445, 0.13354015, 0.21902542, 0.046122063, -0.34774044, -0.036683105, -0.24231784, -0.07254906, -0.110613056, -0.022801269, -0.036662586, 0.014879152},
    {0.03014249, 0.08843586, 0.5146997, 0.03820248, 0.026697792, -0.06101387, 0.03150661, -0.009149141, -0.5066067, -0.3038198, 0.041632503, -0.28461328, 0.41840145, 0.009940975, -0.027456885, -0.046975195, 0.1799591, 0.11638624, -0.011908412, -0.17748334, -0.029651908, 0.01819057, -0.30648166, 0.3793946, 0.28493997, -0.09734726, -0.042556845, -0.08597474, 0.041580584, 0.42286414, 0.035799127, -0.023742525, 0.04878249, 0.065787785, 0.19757828, -0.014772712, -0.13037226, 0.28514615, 0.15601687, -0.0075016785, 0.11163463, 0.11945513, -0.01767377, 0.121392824, 0.010035103, -0.107929625, -0.025908569, 0.02844818, -0.06450533, 0.0820606, 0.124453895, 0.028611833, -0.023891075, -0.09777354, -0.2640457, -0.06936109, 0.1185416, -0.0030392113, 1.1297966, -0.06752479, -0.010872703, -0.011049376, -0.011522402, -0.040216852},
    {-0.032943074, -0.24526824, 0.37378857, 0.05701632, 0.15415585, -0.054588642, -0.065703996, -0.022798864, -0.38738856, 0.0074080126, 0.15219687, -0.39678073, 0.3632636, 0.04174817, -0.16172524, -0.022987036, 0.24039343, -0.08322835, -0.121806614, -0.40893027, 0.1772094, -0.0049844533, 0.25826564, 0.15531936, 0.20725097, -0.36993036, 0.20447631, -0.29649082, -0.025414214, 0.036439363, -0.34099594, 0.010724276, -0.057548583, 0.0026141286, 0.10750272, 0.012088554, -0.032421988, -0.340071, 0.089468434, -0.12426118, -0.21607648, 0.86528563, 0.024620578, 0.036172107, 0.4290989, 0.011204262, 0.032873962, 0.046608657, -0.091851965, 0.27984887, 0.1372669, -0.20956887, -0.03227342, 0.0058946987, -0.5744079, 0.18245408, -0.20170315, 0.056672923, 0.4259868, 0.13246085, -0.047389343, -0.010717063, -0.009476574, -0.028927885},
    {0.04893483, 0.51415324, -0.110389456, 0.004826273, -0.07126603, 0.12579969, -0.27828556, -0.08968849, 0.59460413, -0.38984698, 0.0030946764, -0.24776556, 0.7153419, -0.17970605, 0.07602141, -0.11053391, 0.2391514, -0.4677993, -0.080119446, -0.32330403, -0.017103188, -0.13206452, -0.06835461, 0.6408187, 0.01914218, -0.38847756, 0.44149804, -0.41228607, -0.021412654, 0.3758334, -0.60119534, 0.11914152, 0.3893439, 0.060559485, 0.09608222, 0.028232697, 0.17268619, -0.2050184, 0.44682908, 0.3037236, -0.064316176, -0.33292142, -0.044556692, -0.057994436, 0.29363033, -0.1971637, 0.0151517885, -0.03339844, 0.23853812, -0.18130665, -0.1285964, 0.0033367588, 0.03849055, -0.025336314, 0.16202438, 0.22099343, -0.26141998, 0.019222459, 0.2770429, -0.06019956, 0.1378854, -0.002629656, 0.02781989, 0.07364664},
    {-0.054071195, 0.06283966, 0.5080862, -0.012280096, -0.030282132, -0.039747864, -0.6584061, 0.010442457, -0.18957227, -0.02216193, -0.1459865, 0.038475234, 0.19506218, 0.08971648, 0.051484004, -0.097142674, -0.2742069, 0.19925958, 0.13785836, 0.2330505, -0.26264244, 0.06778064, 0.021345472, 0.38360518, 0.5795916, 0.07079872, 0.25603992, -0.30002525, 0.08709735, 0.26887608, 0.18196806, 0.067935646, -0.064808436, -0.06556064, -0.028607132, -0.02011168, -0.048707854, -0.20953023, 0.01444649, 0.36225578, -0.053939078, 0.11360734, -0.06521489, 0.06381677, 0.21783553, -0.4785646, 0.06339324, 0.0031847646, 0.042751078, -0.07963888, -0.13755463, 0.16177468, 0.11085853, -0.36487368, 0.33138978, -0.06869209, -0.30435756, 0.12127646, 0.08124003, 0.00716367, -0.056562513, 0.06456239, 0.027689617, 0.006586829},
    {0.085256174, 0.29685408, -0.08998969, 0.009648375, 0.021439863, -0.033388846, 0.5242732, 0.014431627, -0.33122832, -0.43719548, 0.17021735, -0.027460909, 0.23708968, -0.18735015, -0.033057913, -0.06518188, -0.76262695, -0.4067943, 0.1792166, -0.048256245, -0.007328328, 0.003569593, -0.26678768, 0.04244518, -0.18856752, -0.12732501, -0.12606081, 0.41822705, 0.06523413, -0.096402116, 0.013439819, 0.16827987, 0.14730681, 0.016277866, -0.03088528, 0.010405757, -0.018479858, 0.59587866, 0.38675785, -0.84156215, -0.01981431, -0.33159256, -0.048071586, 0.11979711, -0.31524783, 0.2972474, -0.016970294, 0.10197491, -0.092600524, 0.1641649, 0.010134517, 0.14218593, 0.000103159226, -0.038237475, 0.37048447, 0.124274716, 0.03455835, -0.023822939, -0.119022526, -0.025821175, -0.052479573, -0.0015283568, -0.04439424, -0.010374182},
    {-0.017960912, -0.31480423, 0.018806772, -0.07592381, -0.02118881, 0.075739846, 0.343145, -0.014740051, 0.35347974, -0.1879695, 0.008749509, -0.086092696, -0.04276433, 0.09041151, 0.04265462, 0.010331185, -0.08378882, -0.11908421, -0.012129346, -0.2988042, -0.20725168, -0.09806602, -0.14396712, 0.40926093, -0.46913505, -0.2955212, -0.124731064, 0.088786945, 0.110379115, -0.14496332, 0.43571392, -0.011064531, 0.03972232, 0.131932, 0.006824757, 0.08690741, 0.10807338, 0.09637557, 0.16889612, -0.08647732, -0.13389125, -0.5417168, -0.031663053, -0.09427704, -0.027041158, 0.5671656, 0.023096077, -0.090976246, -0.09486972, -0.05018247, -0.07707802, 0.0033551378, -0.10127885, -0.13507475, -0.055017818, 0.050150964, 0.19022866, 0.07876165, -0.55912703, -0.0068577626, -0.025170945, -0.058075912, 0.04608418, -0.01196755},
    {-0.0070636612, -0.41021574, -0.062767915, -0.15462571, -0.008130171, -0.14374928, 0.04232081, 0.043278493, 0.048058677, -0.24241614, -0.25601563, -0.0032242718, -0.20855817, -0.056146134, -0.035691578, -0.09748262, -0.4830009, 0.023664644, -0.018668156, 0.46504825, 0.08609935, -0.13300705, 0.13387546, 0.122507624, -0.1064021, 0.15099263, -0.11153356, 0.18262392, -0.0793467, -0.41078344, 0.7156865, 0.038377445, -0.15535745, -0.048908725, 0.13270566, 0.015834432, -0.121104635, -0.14297552, -0.12611195, 0.3559001, -0.12593238, -0.26833162, -0.0181211, -0.08842613, -0.327319, -0.12446545, 0.009124288, -0.07558032, 0.032818843, -0.0064944085, -0.009390064, 0.07117074, 0.05762301, -0.08958501, -0.25424498, -0.026991695, -0.34537792, -0.06373811, -0.09739213, 0.06485322, -0.08285126, 0.00985024, -0.040734176, 0.0129728615},
    {0.05998785, -0.29323253, -0.062411454, 0.0059366263, -0.011468425, 0.149091, 0.1554277, -0.09832436, -0.11861562, -0.19193494, -0.13307016, 0.5799389, -0.56763065, -0.027830586, 0.07860176, 0.022293149, 0.23945732, 0.1335908, 0.022781016, 0.33888164, 0.016911501, 0.040652446, 0.86901635, -0.3698639, 0.4235965, 0.50118816, 0.7759023, 0.10385683, 0.023266263, 0.13977686, -0.258698, 0.04096895, 0.20699376, 0.015608837, -0.107106246, -0.11455905, -0.005487111, -0.6059329, -0.09157351, -0.04459582, 0.053873226, 0.7396609, 0.038848087, 0.0972298, 0.0022045062, -0.2087958, -0.038567435, -0.06290432, -0.0432841, -0.14732215, 0.050075933, 0.7310613, -0.13249278, 0.31301337, -0.16272292, 0.18957415, -1.279724, 0.0068768295, -0.4545606, -0.098579004, 0.08423999, -0.049782224, 0.08982363, 0.06658782},
    {-0.03481625, 0.074527405, 0.2637178, 0.10469232, -0.007252318, 0.23436953, 0.3319226, 0.08144625, -0.10286584, -0.15306665, -0.20859563, 0.24059033, -0.08321216, 0.20077755, -0.18954039, -0.160091, 0.5101542, 0.2912852, -0.20863397, 0.18428133, -0.03332359, 0.040598948, -0.15410572, 0.2296754, -0.12496946, -0.21306872, 0.26350397, -0.053645924, -0.052731726, -0.02745546, 0.059129994, 0.18560605, 0.016668458, -0.12952541, 0.013690844, -0.0635999, -0.09163879, 0.197406, -0.340119, 0.35956916, -0.16886193, 0.10662499, 0.07374702, 0.064198285, 0.07745014, -0.03834611, 0.04082373, 0.015427603, -0.09300038, 0.018179322, 0.08958812, 0.4606427, 0.005863294, 0.4184123, -0.017646976, -0.23877223, -0.18231294, 0.22079645, -0.52150816, -0.05032084, -0.050535593, 0.01021758, -0.0025734918, -0.04180712},
    {0.04438113, -0.081384405, 0.17261633, -0.10402221, 0.1032743, -0.018850053, -0.25757453, 0.08625808, 0.3403853, 0.19234654, 0.16081244, 0.08439504, -0.19381055, -0.17558324, 0.037520435, 0.092569396, 0.5026927, 0.2939872, 0.048272017, -0.36129722, 0.1888688, 0.05736646, -0.17574783, 0.29927176, 0.09302705, 0.24390781, 0.06116183, -0.19772923, -0.04478921, -0.12327348, -0.4528874, -0.0334626, 0.38292506, -0.19228356, -0.2453318, -0.0025405975, -0.11470663, -0.24017656, -0.084111094, 0.4928731, -0.0012983629, 0.33215523, -0.01219034, 0.0013592603, -0.035616107, 0.22662035, -0.06008597, -0.069895655, -0.08151511, -0.3527054, 0.043800745, 0.30561242, 0.00037949983, 0.21884388, -0.527169, 0.07364991, 0.09623621, -0.08819703, 0.2170646, -0.020180395, -0.09803521, -0.05611988, -0.014409381, 0.012219241},
    {-0.005519434, 0.5760571, -0.09448943, 0.10678985, 0.0047966884, 0.047051772, -0.20033616, 0.05853194, -0.71536, 0.39689082, -0.10405257, 0.20458633, -0.03706284, 0.12853271, 0.025771897, 0.1387898, -0.16304448, 0.61121166, -0.067917466, 0.15151228, -0.30055836, 0.021302804, -0.41353163, -0.18383114, 0.0252027, -0.055649772, -0.25363407, -0.37156767, -0.07448587, -0.45579836, 0.11510127, -0.10639104, -0.24101369, -0.09762803, 0.18808931, -0.076506615, 0.011203529, 0.46201238, -0.20379105, 0.44533867, 0.14982319, 0.3971503, -0.07151923, -0.02982521, -0.16548268, 0.034876313, -0.008027918, 0.029331874, 0.07894599, 0.089683145, 0.019025538, -0.54969645, -0.024711912, 0.13813847, -0.2823913, -0.08395597, 0.48443314, -0.08313858, -0.4907978, 0.033534434, -0.02641433, -0.007583708, 0.027181135, 0.06401495},
    {-0.054779205, -0.0096828835, -0.27322438, 0.11578127, 0.062905334, 0.20911454, 0.038740057, 0.051054243, -0.2145312, -0.08914076, -0.123957135, 0.15177447, 0.34478688, 0.08424982, -0.12022422, 0.09180936, -0.39504892, -0.14845736, -0.09428349, 0.097002685, 0.24976347, -0.09222648, -0.046097055, -0.17723753, 0.53304374, -0.10742909, 0.13056223, -0.21645622, -0.023849254, -0.028938483, 0.14381272, 0.21771482, 0.18124342, 0.15713295, -0.05443151, -0.010238308, 0.2228142, 0.17194942, 0.017526513, -0.20397751, -0.17696838, 0.40662357, -0.030716306, -0.045688182, 0.49233085, -0.13426138, -0.0013401771, 0.1130891, -0.10508608, 0.00052437314, 0.24280715, -0.325521, -0.017067045, 0.10598222, 0.27029303, -0.006362081, -0.13229191, -0.014695413, -0.3800319, 0.13280262, -0.022995431, 0.019734763, 0.0014164507, -0.013353406},
    {-0.03665566, -0.03357998, 0.35490102, -0.14578493, 0.01922422, 0.014426984, -0.6582636, -0.010193976, -0.17392057, -0.095820606, -0.1233076, 0.12488756, 0.3141996, 0.089984566, -0.021591207, -0.07374206, 0.5679422, -0.21538702, -0.07320292, -0.4530026, 0.25436112, 0.05471191, -0.5644162, 0.28500772, 0.09044254, -0.055633485, 0.5084438, -0.51236624, 0.09329365, 0.15037774, -0.6797318, 0.043923263, 0.11867922, 0.043175552, 0.042512387, -0.030513633, -0.014795838, -0.35626858, 0.18099356, 0.23500049, -0.021366242, -0.08724548, 0.032002863, -0.0013778548, 0.3016467, -0.22190514, -0.074840344, -0.08446045, -0.20666872, -0.033631966, 0.039152656, 0.44341847, -0.083780915, 0.19393909, -0.091370665, 0.12623054, -0.20206358, -0.048582423, 0.37934405, 0.03600999, -0.12982033, 0.07281448, -0.06269175, -0.0019197861},
    {0.08079462, -0.28758103, 0.07252275, -0.07428486, 0.06751059, -0.13282537, 0.1515791, -0.04490748, 0.0025238004, 0.06681403, -0.1355969, -0.016307041, -0.16430071, -0.024565544, 0.07523696, 0.13627651, 0.38540956, 0.098640464, 0.020135015, -0.30196673, 0.24295902, -0.09242903, 0.5457149, -0.23758183, 0.26986107, 0.12526338, 0.30556205, 0.012843115, 0.17327982, 0.9924538, 0.15717198, 0.17639221, -0.024057765, 0.07976513, 0.065562285, 0.16719681, -0.19555572, -0.53842354, -0.0035972232, -0.20597644, -0.060313616, 0.29128847, 0.0068436963, -0.11939448, -0.04273821, -0.16261475, -0.0924074, -0.12135215, 0.22966094, -0.027587311, -0.044465978, 0.25960127, -0.15385202, 0.12554401, 0.34654915, 0.10492827, -0.1686591, -0.02234477, -0.13893574, 0.22643515, 0.07010229, -0.054861624, 0.019814655, -0.0059380066},
    {0.02649199, 0.26168013, -0.26607296, 0.060308352, -0.11074357, -0.06288891, -0.4193736, 0.0041483846, 0.2437029, 0.18725112, -0.043416895, 0.514394, -0.102832675, -0.07392143, 0.044969562, -0.035776038, -0.11977027, -0.018375423, 0.083222516, 0.22901334, 0.09106375, 0.047423825, -0.16823591, 0.0908647, -0.19515048, -0.22387612, -0.106177785, -0.04308712, -0.050494943, 0.08789963, 0.28078017, -0.13879237, 0.12528019, -0.09445844, 0.12837926, 0.0097031295, 0.079855755, -0.10939165, 0.09008166, 0.09530223, -0.1465569, -0.78387207, -0.111946195, 0.00506545, -0.15424657, -0.13174021, 0.011647851, -0.010330571, -0.039934408, 0.10682064, -0.17860873, 0.18368024, -0.06824018, -0.50792146, 0.57635003, -0.032862756, 0.31288013, 0.01023036, 0.20281714, 0.03179492, -0.13637872, -0.02577122, 0.006459537, 0.063392736},
    {-0.0053121196, -0.18519396, -0.16972712, -0.06545738, -0.17492175, -0.015063334, 0.087125584, -0.050746605, 0.32341588, -0.20832615, -0.08027552, 0.35138527, 0.43091652, -0.19538108, -0.08921428, -0.09584575, -0.23791532, -0.18179017, -0.0012145804, -0.0029704492, -0.09761995, -0.021803686, -0.35100406, 0.22803445, 0.07209652, 0.19186048, 0.20978144, 0.1922732, 0.087963454, -0.07126839, -0.10039607, -0.17104614, 0.11624011, -0.2544644, -0.0726128, -0.13056742, 0.03054444, 0.34210962, -0.04561216, 0.14989375, 0.031759106, -0.20707071, -0.03987663, 0.089575596, -0.06968815, 0.21108267, 0.006981284, 0.048285354, 0.056050103, 0.120675616, 0.15849145, -0.11910518, -0.02462479, -0.34334552, 0.53681445, -0.16632187, -0.08714191, -0.07528418, 0.4513956, 0.028128069, -0.053983238, -0.012875224, 0.0569878, -0.041751865},
    {-0.051785562, -0.19603679, -0.09330097, 0.033540152, 0.28619495, 0.043807685, -0.21816175, 0.009977474, -0.16586015, -0.020055529, 0.20253447, 0.2684561, 0.08653537, -0.13781236, -0.09301128, 0.13012265, 0.52288, -0.32350802, -0.03649358, -0.12196358, 0.3739456, -0.030798214, 0.748795, 0.0905672, 0.33837292, 0.10596719, 0.3615215, -0.2526798, -0.025729654, 0.54790825, -0.28956476, -0.14249939, 0.25029758, 0.24607831, -0.01676398, -0.069985874, -0.029343545, -0.32427827, 0.44429684, -0.5387418, 0.08563583, -0.07937776, 0.08862821, -0.012865465, 0.2821382, 0.3221414, 0.08192918, 0.08481369, -0.22128768, 0.29727426, 0.2075398, -0.07593924, -0.018380005, 0.26748648, 0.22132719, -0.025738621, -0.23729172, -0.12393637, -0.08214172, 0.0151708685, 0.08907401, 0.062200263, -0.0526646, -0.04791164},
    {-0.017354485, 0.16905828, -0.07167063, 0.04061746, -0.10175271, 0.17140284, 0.08897711, -0.012202336, -0.044396203, 0.21877122, 0.018066918, 0.016637107, -0.35440347, 0.012834737, 0.03771531, 0.024478206, 0.37630087, 0.5653832, -0.23725186, 0.16860813, 0.0058289324, 0.06058827, 0.07568716, -0.11547517, -0.079309516, 0.151957, -0.2119396, -0.065006375, 0.047079973, 0.1686328, 0.01444137, 0.031819094, -0.035903107, 0.03654865, -0.1423217, -0.0699061, 0.086722665, 0.124478646, -0.07712488, 0.23596361, 0.023830744, -0.12898865, 0.010348989, 0.036265217, 0.26363963, 0.03719806, 0.05493674, 0.042917445, 0.13848984, -0.16255662, 0.038899958, 0.40348625, -0.03755409, 0.1713571, -0.049610272, 0.024477588, 0.3035438, -0.0076609273, 0.020123748, -0.0834957, 0.09445113, 0.052217424, 0.030179508, -0.011535157},
    {-0.009675096, 0.060300667, 0.12604772, -0.006654258, -0.0068613347, 0.07628676, -0.18470258, 0.034288604, -0.31611758, 0.004969201, -0.0056509874, 0.31725222, -0.06557068, 0.12720874, 0.016480405, -0.022488844, 0.6843448, -0.02460831, 0.01092149, 0.015063597, -0.30188245, 0.004135821, 0.042932022, -0.017359432, -0.46401653, 0.09225373, -0.25509942, -0.113684736, -0.0070317313, 0.0799954, -0.15411593, 0.120047115, -0.27860233, 0.06669932, -0.050134014, 0.04146531, 0.045832396, 0.10037894, -0.11464454, 0.5039978, -0.10071794, 0.15755157, 0.0831345, 0.025600547, -0.14759052, 0.2844026, -0.031763818, -0.0021205132, 0.15348627, -0.035755828, -0.008251625, -0.1411519, 0.03285687, 0.6456021, -0.14037572, -0.0072629144, -0.114449054, 0.016943987, 0.4696814, 0.09993123, 0.06731736, 0.013063893, -0.012364989, -0.008218342}
};
static const float layer_2_weight[64][4] = {
    {-8.095097e-05, -0.0025881492, -0.01195909, 0.001943972},
    {0.42855078, 0.049310878, -0.62172705, 0.29834694},
    {0.30127248, 0.0124392565, 0.0218894, -0.14843789},
    {0.017671218, 0.009073253, 0.003977156, -0.0063574733},
    {0.012497535, -0.0017913484, 0.04443617, -0.027523648},
    {-0.027188215, 0.022169491, -0.011332096, 0.013100153},
    {0.31672746, -0.1216348, 0.22178715, 0.054103572},
    {-0.0012204209, -0.0023398735, -0.003169956, -0.0026240458},
    {-0.108892225, -0.28406227, 0.27578154, 0.3254054},
    {-0.1929424, 0.5120812, -0.0145785725, -0.113104925},
    {0.0264304, -0.01982298, 0.03608931, 0.08790898},
    {-0.33632943, 0.25684786, -0.18577214, -0.44868404},
    {-0.17234623, -0.0739666, 0.47252396, 0.44010243},
    {-0.012413956, 0.0046238913, 0.01624802, 0.05396019},
    {-0.008004378, -0.006943737, -0.046173714, 0.00863095},
    {0.007014467, -0.01135264, 0.010265892, -0.010969943},
    {-0.12577914, -0.057186734, 0.069665685, 0.119386025},
    {0.01958938, 0.25883022, -0.109904446, -0.1288597},
    {-0.0035238673, -0.02147484, -0.045080252, -0.00025507927},
    {0.22570632, 0.015734993, -0.61337894, 0.08114607},
    {0.018491194, -0.048384566, 0.047728892, -0.110617004},
    {-0.00940731, -0.0062435716, -0.009787248, 0.012262553},
    {-0.17214125, -0.12338585, -0.09432011, -0.30531377},
    {-0.014701614, 0.026941199, 0.2860679, -0.2574033},
    {-0.15829341, 0.27643818, -0.05391761, -0.20690155},
    {0.060590863, 0.23722337, -0.11521876, -0.20792314},
    {-0.4750578, -0.6128906, -0.041266534, 0.32727477},
    {0.3644602, 0.07409828, 0.017078677, -0.5312399},
    {-0.020178925, 0.0030407582, -0.030807238, 0.0068105026},
    {-0.1515938, -0.05867847, -0.08589353, -0.2935899},
    {0.40631935, -0.48140657, -0.3066285, 0.39711964},
    {-0.025118398, -0.011029633, -0.0011802497, 0.022374164},
    {-0.13099797, 0.0742415, 0.04650349, -0.08838572},
    {0.018777864, -0.06235048, 0.0062161055, 0.014096513},
    {0.00074636564, -0.028880741, 0.009182268, -0.012963098},
    {-0.003752858, -0.00235549, 0.006196804, -0.008000774},
    {0.004166742, 0.002517789, 0.0037096262, 0.00022236595},
    {0.18059017, 0.19591138, 0.09955152, 0.22391403},
    {-0.033397585, -0.07384693, 0.14882402, 0.034906775},
    {-0.009615552, 0.4289093, -0.09088954, 0.08677102},
    {-0.009516699, 0.0061242003, -0.021543792, 0.014105414},
    {-0.4687808, 0.12240541, 0.10197602, -0.13670917},
    {-0.002068935, -0.0069263023, 0.033493243, 0.0020692484},
    {0.0061303973, 0.0021341827, -0.009524764, 0.012832696},
    {-0.55951893, -0.119323425, 0.15308347, 0.040494278},
    {-0.013415348, 0.19950005, 0.20440447, -0.177061},
    {0.0038748244, 0.018253343, 0.015840814, -0.005969774},
    {0.021328872, -0.00034328367, 0.00040121347, 0.008731596},
    {0.008289048, -0.022075571, -0.032427605, 0.049090225},
    {0.054806296, 0.0034440437, 0.100682095, 0.046716686},
    {-0.010889997, 0.0026796497, 0.034375694, 0.0008119334},
    {0.13358796, -0.31749234, -0.41146752, -0.0005471319},
    {0.010522629, 0.011395064, 0.013281232, -0.0019473955},
    {-0.1782748, 0.26322663, 0.11694339, 0.02300104},
    {0.20812838, -0.039776593, -0.46162835, 0.05122639},
    {-0.010680499, 0.011880444, 0.014991424, -0.009884481},
    {0.28166535, 0.21415563, 0.049133644, -0.041381367},
    {-0.036119167, 0.02953835, -0.027956685, 0.023007251},
    {0.07502187, -0.118105926, 0.091394536, -0.008816852},
    {-0.0065005766, -0.0043066526, 0.0076483493, -0.012724583},
    {0.00070211914, 0.0052340124, 0.004588665, 0.014163732},
    {0.003545826, 2.2666007e-05, 0.005781842, 0.000819684},
    {0.001103685, 0.004580172, -0.0026050024, -0.00035230166},
    {-0.0040079607, 0.0036445418, -0.0053576594, 0.0067654075},
};
static const float layer_0_bias[64] = {-0.27187562, -0.1155392, 0.009609158, -0.56570494, -0.6257836, 0.3304145, 0.06753967, -0.12114585, -0.24784474, 0.24132682, -0.44126737, -0.16794546, 0.12339896, 0.22087668, 0.15241732, -0.43722194, 0.69846654, 0.14666103, 0.35327435, -0.38269442, 0.47297248, -0.20555764, -0.12629837, 0.04938376, -0.53834856, -0.17527252, -0.29477486, -0.22115971, -0.13049604, -0.023263546, 0.114501886, 0.42223692, -0.1569848, 0.22152723, -0.086981155, -0.093731515, 0.24270399, -0.39222363, -0.022971982, 0.028986672, 0.351984, 0.023737919, 0.9065882, 0.18185791, -0.10127914, -0.31251293, -0.4104746, 0.12596387, -0.34528428, 0.30966634, 0.08573916, -0.7047591, -0.5024162, -0.3069447, -0.05184253, -0.39816418, 0.33296788, 0.2212574, -0.43655396, 0.19617575, 0.14349894, -0.5484576, -0.3587917, -0.14794129};
static const float layer_1_bias[64] = {-0.039920118, -0.34357175, -0.038049687, -0.055154964, 0.022942754, 0.06969302, 0.0010297163, 0.012833814, 0.068036996, 0.0024356397, 0.08770977, 0.023476966, 0.3774756, -0.04187786, -0.0046450673, 0.00010734818, -0.10340766, -0.040481303, 0.05625166, -0.2614243, 0.07776197, -0.059576232, -0.5136092, 0.21255119, 0.20715678, 0.19852762, 0.045319222, 0.19651397, 0.019200472, -0.2966994, -0.5734187, -0.009972472, 0.22714935, -0.108172044, 0.015090575, 0.036743563, -0.049282517, 0.43211943, -0.18792942, 0.1996835, 0.0041534216, 0.009098021, -0.013844698, -0.03690544, 0.13096856, 0.16554603, 0.019743558, -0.001170623, 0.011515146, -0.07842869, -0.052631788, 0.4202266, 0.06373813, 0.22894388, 0.060838, -0.0067343847, 0.0056981784, 0.09132661, -0.3108889, 0.09907937, -0.06487999, -0.015847137, 0.0053147627, -0.0069496674};
static const float layer_2_bias[4] = {0.0986838, 0.12224753, -0.058344297, -0.0035164247};

	void networkEvaluateHJPPO2024(control_t *control, const float *state_array) {
	
		for (int i = 0; i < structure[0][1]; i++) {
			output_0[i] = 0;
			for (int j = 0; j < structure[0][0]; j++) {
				output_0[i] += state_array[j] * layer_0_weight[j][i];
			}
			output_0[i] += layer_0_bias[i];
			output_0[i] = tanhf(output_0[i]);
		}
	
		for (int i = 0; i < structure[1][1]; i++) {
			output_1[i] = 0;
			for (int j = 0; j < structure[1][0]; j++) {
				output_1[i] += output_0[j] * layer_1_weight[j][i];
			}
			output_1[i] += layer_1_bias[i];
			output_1[i] = tanhf(output_1[i]);
		}
		
		for (int i = 0; i < structure[2][1]; i++) {
			output_2[i] = 0;
			for (int j = 0; j < structure[2][0]; j++) {
				output_2[i] += output_1[j] * layer_2_weight[j][i];
			}
			output_2[i] += layer_2_bias[i];
		}
		
		// control->normalizedForces[0] = clip(scale(output_2[0]), 0.0, 1.0);
		// control->normalizedForces[1] = clip(scale(output_2[1]), 0.0, 1.0);
		// control->normalizedForces[2] = clip(scale(output_2[2]), 0.0, 1.0);
		// control->normalizedForces[3] = clip(scale(output_2[3]), 0.0, 1.0);
        // float f1 = output_2[0] - 0.5f * output_2[1] + 0.5f * output_2[2] + output_2[3];
	    // float f2 = output_2[0] - 0.5f * output_2[1] - 0.5f * output_2[2] - output_2[3];
	    // float f3 = output_2[0] + 0.5f * output_2[1] - 0.5f * output_2[2] + output_2[3];
	    // float f4 = output_2[0] + 0.5f * output_2[1] + 0.5f * output_2[2] - output_2[3];

        control->nn_output[0] = output_2[0];
        control->nn_output[1] = output_2[1];
        control->nn_output[2] = output_2[2];
        control->nn_output[3] = output_2[3];

        control->normalizedForces[0] = 30000 + clip(output_2[0], -1, +1) * 30000;
		control->normalizedForces[1] = 30000 + clip(output_2[1], -1, +1) * 30000;
		control->normalizedForces[2] = 30000 + clip(output_2[2], -1, +1) * 30000;
		control->normalizedForces[3] = 30000 + clip(output_2[3], -1, +1) * 30000;
    
	}

    // void networkEvaluate(control_t *control, const float *state_array) {
	
	// 	for (int i = 0; i < structure[0][1]; i++) {
	// 		output_0[i] = 0;
	// 		for (int j = 0; j < structure[0][0]; j++) {
	// 			output_0[i] += state_array[j] * layer_0_weight[j][i];
	// 		}
	// 		output_0[i] += layer_0_bias[i];
	// 		output_0[i] = tanhf(output_0[i]);
	// 	}
	
	// 	for (int i = 0; i < structure[1][1]; i++) {
	// 		output_1[i] = 0;
	// 		for (int j = 0; j < structure[1][0]; j++) {
	// 			output_1[i] += output_0[j] * layer_1_weight[j][i];
	// 		}
	// 		output_1[i] += layer_1_bias[i];
	// 		output_1[i] = tanhf(output_1[i]);
	// 	}
		
	// 	for (int i = 0; i < structure[2][1]; i++) {
	// 		output_2[i] = 0;
	// 		for (int j = 0; j < structure[2][0]; j++) {
	// 			output_2[i] += output_1[j] * layer_2_weight[j][i];
	// 		}
	// 		output_2[i] += layer_2_bias[i];
	// 	}
		
	// 	control->normalizedForces[0] = clip(scale(output_2[0]), 0.0, 1.0);
	// 	control->normalizedForces[1] = clip(scale(output_2[1]), 0.0, 1.0);
	// 	control->normalizedForces[2] = clip(scale(output_2[2]), 0.0, 1.0);
	// 	control->normalizedForces[3] = clip(scale(output_2[3]), 0.0, 1.0);
	
	// }



    PARAM_GROUP_START(nnForward)
    PARAM_ADD(PARAM_FLOAT, hover_ratio, &hover_ratio)
    PARAM_ADD(PARAM_FLOAT, ctrl_range, &ctrl_range)
    PARAM_GROUP_STOP(nnForward)


    LOG_GROUP_START(ctrlNN)

    LOG_ADD(LOG_FLOAT, output1, &output_2[0])
    LOG_ADD(LOG_FLOAT, output2, &output_2[1])
    LOG_ADD(LOG_FLOAT, output3, &output_2[2])
    LOG_ADD(LOG_FLOAT, output4, &output_2[3])
    LOG_GROUP_STOP(ctrlNN)
	