
#include "stabilizer_types.h"
#include "network_evaluate.h"
#include "log.h"
#include "param.h"

static float hover_ratio = 0.5667f;
static float ctrl_range = 0.2f;

float linear(float num) {
	return num;
}



float sigmoid(float num) {
	return 1 / (1 + exp(-num));
}



float relu(float num) {
	if (num > 0) {
		return num;
	} else {
		return 0;
	}
}



float elu(float num) {
	if (num > 0) {
		return num;
	} else {
		return exp(num) - 1;
	}
}



// range of action -1 ... 1, need to scale to range 0 .. 1
float scale(float v) {
	return 0.5f * (v + 1);
}

float clip(float v, float min, float max) {
	if (v < min) return min;
	if (v > max) return max;
	return v;
}

static const int structure[3][2] = {{64, 20},{64, 64},{4, 64}};
static float output_0[64];
static float output_1[64];
static float output_2[4];
static const float layer_0_weight[64][20] = {{0.09015157,0.9155276,-0.1635813,-0.68625104,0.7852457,-0.36984038,0.23002371,-1.0019988,0.86208713,-0.47505546,0.49554175,0.17070991,-0.76053596,-0.048415523,0.2848863,0.1077094,-0.15894985,-0.12829691,-0.30016828,0.033155136},{-0.27682272,-1.794612,0.22713625,0.98721206,-0.0923515,-0.707387,0.070577964,1.064133,-0.28775173,-0.50116456,0.10901425,-1.2685343,0.31711435,-0.29202425,-0.06060747,0.101193056,-0.2292029,0.076344706,-0.09310995,0.06519086},{0.5656801,-1.1931387,0.75358665,1.6422858,2.0137405,0.48899105,-0.029901931,0.54597896,1.7777909,0.19331124,2.069658,-0.9487544,0.94413114,-0.11097159,0.124288045,-0.18527575,0.068833426,-0.11202456,0.11714284,-0.131312},{-0.80157906,0.5309035,-0.64719975,-0.26853302,-0.2533926,-0.26639023,-0.3504453,0.08916882,0.060120188,-0.04844215,-0.76508844,-0.38217106,-0.2121539,-0.21254303,-0.39640886,0.34452492,0.057696294,0.06466706,0.17095007,0.0106482385},{-0.04273589,-1.4313071,0.5799477,1.6236169,-0.20180091,-0.7417188,0.6366466,1.3769655,-0.88595504,-0.8537639,-0.36244765,-1.4855727,-0.12060405,0.116262935,0.08642537,0.07073447,-0.02351871,0.13712455,0.041750345,0.08782106},{-0.1950531,0.07332931,-0.06512072,0.08743795,-0.8495358,-0.42015222,0.33615443,0.06800331,-0.5477783,-0.58195704,-0.7945047,0.628995,-0.70270306,-0.20294726,-0.22959831,-0.07930387,0.052660495,0.22226433,0.009649845,0.077567756},{-1.2672188,1.2889779,-0.27841094,-0.95579904,0.51046216,0.23121141,0.14442404,-0.816693,0.6618277,0.38388366,-0.08820566,0.34906632,0.0035856299,0.021268632,0.15240896,0.086696,-0.02125351,-0.23485138,0.039934453,0.08961335},{-1.4435339,0.7940939,-0.11589304,-0.23155722,-1.2333162,-0.11564964,-0.107428,0.12468239,-1.6429137,0.11403794,-1.2658362,-0.007683317,-0.8160841,-0.066364296,0.39971963,-0.09043781,0.13584428,0.055364426,0.041130986,-0.070564814},{-0.74110794,-0.1902299,0.6064561,0.6978798,-0.15723564,-0.37467688,-0.18047927,1.1286674,-0.43113622,-0.37921306,-0.950681,0.15506545,-0.32380623,-0.110392995,-0.06871078,-0.27543396,0.1747859,-0.27927294,-0.117144786,-0.15721913},{-1.12875,0.8644258,0.29259855,0.37596673,-0.17976573,0.32685366,-0.36341608,0.21379337,0.2692814,0.9008916,0.6428722,0.30914122,1.1489342,-0.10955798,-0.5862108,0.03949289,-0.06348869,-0.17518671,0.10120022,-0.13361579},{-0.037503798,-0.37972838,0.088126875,-0.0045205033,0.3632887,0.2772964,-0.055927336,-0.4682163,-0.24970442,0.48095483,0.631493,-0.7992122,0.6308912,0.26048416,0.34351793,0.061522115,-0.14931132,0.3556874,0.19330859,-0.031897306},{0.7259511,-0.18828082,0.22995384,0.1319845,-0.78677106,-0.56000125,-0.09071915,0.48210385,-0.4078158,-0.4718327,-0.009867918,-0.5209921,0.30184257,0.12113499,0.52276075,-0.2796636,-0.1191807,-0.011256527,-0.07710036,-0.13711253},{-1.3345077,-0.31836867,0.3541597,0.25600436,-1.3287693,0.06693917,0.37985092,-0.2706101,-1.5220786,0.00058145926,-1.2189018,0.28138617,0.36502868,-0.09141678,0.036952287,0.0027076025,-0.0054342276,-0.016646149,0.07717463,-0.008513631},{-2.9010553,-1.0482547,-0.4404135,1.7551209,-0.46151838,0.7774759,-0.011225729,1.2559693,-1.4605074,0.68599254,-1.3805658,-0.69022995,-0.10084744,0.07213456,0.054967232,0.034121733,-0.033145044,0.019053005,-0.017589215,-0.073414154},{0.6774593,0.7526633,0.51052356,-0.34657562,0.85446906,0.032532368,0.23314601,-0.29786938,0.821644,0.1629714,0.90115446,0.295229,0.62103504,0.18657215,0.073683016,0.109098,0.039765768,-0.026008246,0.2136005,0.090628184},{0.522641,0.076083586,0.49671334,0.27753228,-0.7923865,-0.35402286,0.38068974,0.32565725,-0.552901,-0.12872013,-0.22337642,-0.40904912,0.6875996,-0.023734456,0.06673668,-0.17016347,0.05449425,-0.14723612,0.056241874,-0.19085047},{0.35880592,0.14853369,-0.31315997,0.5415431,-0.39915755,0.09333673,-0.33814734,0.15152553,-0.36400595,0.4472298,0.41933602,0.11085859,-0.16189454,0.15289333,-0.2417086,-0.14250004,0.039845534,0.08811519,-0.0961629,-0.25565875},{0.101108894,0.31380123,-1.0003083,0.18262783,0.044924837,-0.40852046,-0.4341694,-0.016330592,-0.2527722,0.05201678,-0.2125706,0.12766838,-0.50426626,0.15523997,-0.12791115,-0.15037778,0.11400186,-0.093876824,0.16556995,0.088963814},{-0.8869247,-0.08712366,0.2862663,1.0591514,-0.15462525,-0.057010174,0.09116265,1.2165946,-0.42534402,-0.26940218,0.027613092,0.26108164,0.22936103,-0.008227913,-0.448171,-0.42870298,0.20307378,0.10739919,0.059436757,-0.1184367},{0.14243826,-0.3730394,-0.050439686,0.4202774,-0.68057066,0.19943026,0.16959345,0.20377494,-0.5408762,-0.046421666,-0.28416044,-0.37120366,-0.2833122,0.07749585,0.08990216,-0.10011148,-0.14744323,0.05481855,-0.03323154,0.008191592},{-0.41810748,0.19857131,0.610399,0.7098924,-0.16274327,-0.4622051,-0.20757556,-0.30531383,-0.10525344,-0.5314648,-0.3511476,-0.3845531,0.18895462,0.53926647,0.0008440282,-0.21367298,0.21281604,0.0028330984,0.19684583,0.07357577},{0.3829507,0.2611866,0.17167166,-1.0953847,-0.19220483,0.26245052,-0.44310737,-1.2637224,-0.28695258,0.58343405,0.7395844,0.1409682,-0.17052776,-0.6148367,-0.1373138,-0.3352627,-0.27723673,-0.21725228,-0.00989172,0.14144666},{-0.4361819,-0.6630892,-0.48159257,-1.7988923,-0.5993297,-0.872323,-0.3868441,-1.7864927,-1.0721794,-0.9477691,-1.0434035,0.9245532,0.48856494,-0.08710653,0.3082804,-0.07489824,0.054797303,0.07928662,0.012978689,-0.14829014},{0.8641408,-1.4449114,1.8545679,0.2097182,1.6522053,0.6446347,-0.07623026,0.17175406,1.6539276,0.78163135,1.836422,-0.50122136,1.504525,-0.20659873,0.04288195,-0.09149384,0.120758414,0.10279937,-0.1822037,0.2748168},{-0.7141062,1.7076672,0.1500751,-0.7707765,0.60871273,0.3997053,0.25333852,-0.27826846,0.78062135,0.11727684,0.31110194,0.16298006,0.10022914,-0.20470396,0.08594673,-0.11089137,-0.0958117,0.059014417,-0.13176742,0.0680896},{-0.48488066,1.7290949,0.6557049,-0.51162714,-0.4348156,-0.6475238,0.20772596,-1.0341399,-0.17480268,-0.6689082,-0.07555515,0.26236448,-0.84031385,0.111573875,-0.20229873,0.17318347,-0.15134634,0.04809024,-0.2119425,-0.0138650155},{0.06902786,-0.13534832,1.2497084,-0.032409623,-0.32858855,-0.3105401,0.12535885,-0.3908422,-0.72696835,0.07111611,-0.56530255,0.3619621,0.5756352,-0.14909121,-0.3224845,0.15676787,0.055976745,-0.05392565,0.024903748,-0.11756813},{-0.937221,1.3341616,0.94584596,1.0749581,-1.7486548,-0.8436544,0.12016899,0.99235433,-1.7676632,-1.0040482,-0.5395376,-0.5124297,0.0057416162,0.13100067,0.32699728,0.21657056,-0.07592271,0.05779633,0.12858637,0.08230549},{0.5036845,-0.075809576,-0.32347384,-0.3505468,0.7102575,0.9626415,0.18397427,-0.62864554,0.4926411,0.43242592,0.26740026,0.3409526,0.04900189,0.073971674,0.14037369,-0.08345902,0.19631374,0.20143081,0.086621955,0.23466942},{-0.029724695,-0.78019816,-0.02502916,-0.5681607,0.59202504,-0.079587705,0.038678013,-0.7464648,0.8836131,0.21140246,1.1187614,-0.41043812,0.51470006,0.18032794,-0.09964908,-0.13179144,-0.05570955,0.22330295,-0.12551084,0.19315739},{0.33518276,0.9178003,-0.038108516,-0.8222411,0.44794178,-0.45668072,-0.08968634,-0.43102363,0.4129864,-0.13139844,0.7519234,0.061887022,0.8075429,-0.1531702,-0.21171129,-0.12492643,0.05395863,0.0074308943,0.20041205,0.2486268},{-0.7435501,-0.19139287,-1.8552696,0.8720577,0.0022062282,-1.2295403,-0.15594901,1.5232008,0.102059916,-0.9592239,0.48507753,-1.0227401,-1.4010359,0.11354391,0.021326844,-0.0186771,0.08686472,0.077485055,0.01257841,-0.043578286},{-0.11781501,-0.5713274,-0.19495288,-0.41775173,-0.8828018,-0.22702388,0.5095321,-0.7719631,-0.6017706,0.22438855,-0.6210053,-0.34717715,0.23893133,-0.65424633,0.23635942,0.22014849,-0.14357364,0.066026516,-0.13818803,-0.14615685},{-0.4478764,0.863079,1.0794481,-0.29447103,-0.09643857,0.076898806,0.21446073,-0.30592394,0.13571224,0.36892855,0.84271884,0.27571496,-0.030929351,-0.09691501,-0.07905968,-0.15228224,-0.021120729,0.10165137,0.05910845,0.11725228},{0.13868932,0.09186571,0.9201004,0.5510878,0.6252749,-0.30259103,0.016883828,0.18131214,0.35272443,0.007937269,0.10554372,-0.18222931,0.078029476,0.17196165,0.15794441,-0.5338097,0.30077675,-0.14750662,0.089849144,-0.056253336},{0.3174609,-0.8578796,1.2833378,0.37085003,1.1244451,0.22568415,-0.26460007,0.027898086,0.8110734,0.2596865,1.3631833,-0.9414813,0.25900018,0.31962246,0.30555347,0.23539472,-0.06708891,-0.0042315894,-0.057193603,-0.06729216},{-0.5026663,0.75443256,0.32122788,0.022288093,-0.5520225,-0.22205995,0.043658286,-0.13944285,-0.52794117,-0.059690617,-0.4015482,0.14156419,-0.5041603,0.18453288,-0.13703103,0.07021496,-0.1567301,-0.14211093,-0.24815531,0.27229178},{-0.9154309,-2.939191,-0.96818644,0.9284055,-0.6004267,0.34738857,-0.069643766,0.54105824,-1.2648702,0.20262551,-0.9838439,-0.51263404,-0.77209294,-0.063872896,-0.15474847,0.083142266,-0.018905168,0.095864385,0.3476828,-0.04697132},{-0.78212744,-0.50334424,-0.7174058,0.22562732,-0.24478683,-0.09155033,-0.013093425,0.62484086,-0.6445616,-0.48165,-0.32577336,0.3442108,-1.1283641,-0.3832293,-0.52087337,-0.3505488,0.10928056,-0.43193546,-0.16229342,-0.33352318},{0.048373953,0.89401627,0.38566712,-0.989666,-0.3279591,0.008149903,0.04125699,-0.7760881,-0.58424747,-0.114874326,-0.71504277,0.6328954,-0.24548818,0.15251148,-0.072713025,0.29429665,-0.11416885,0.33507952,7.7662495e-05,0.14845343},{0.5017043,-0.51301545,-0.49025702,-0.21166994,0.57762986,0.29663706,0.48539773,-0.30652395,0.57560015,0.31619135,-0.032388486,0.4487368,0.026377793,0.06579033,0.0035228964,0.0017767897,-0.18148546,-0.056516085,0.05985763,-0.066582866},{-2.8256521,-0.33794823,1.3756255,1.1028358,-0.53994626,0.62652355,-0.054298766,0.26099408,-1.1969916,0.74939895,-0.7565854,0.33799967,1.967531,-0.0338476,0.1247158,-0.14785178,0.01904685,0.16165872,0.1069821,0.016590051},{0.25657055,-0.32866645,-1.261892,-0.15413296,0.1220947,0.75874054,0.31576657,-0.07090804,0.058607712,0.457848,-0.06538437,0.1961036,-0.4440114,0.11061654,-0.07969228,0.0401568,-0.151746,-0.06211956,0.10321287,-0.068690464},{0.7422783,-0.33186164,-0.018711342,0.21631424,0.2701439,-0.5853983,0.00048379143,1.2433805,0.15826032,-0.64458364,0.25977504,-0.8544762,0.28948084,-0.465152,0.05674731,0.27365685,0.09060515,0.021760995,-0.09487397,-0.105842344},{-1.5090836,0.23066673,0.5326985,-0.6688459,0.3674551,-0.5944598,0.21368611,-0.52500373,0.7103503,-0.47983074,-0.39958125,0.3376498,0.071692266,0.0495834,-0.0042196685,0.02352597,-0.07577124,0.03538597,-0.20868476,-0.14904143},{-1.1461163,-0.4548531,-0.44718143,-0.31884181,-1.5676576,-0.00026781534,0.11862824,0.014846928,-1.97671,0.34517464,-1.4968323,-0.7861661,-0.6552082,-0.25652537,0.042759378,0.09034409,0.12456643,0.07102131,0.10768336,-0.040426187},{0.4784559,-0.43845358,0.87463075,-0.00972623,-0.052332792,-0.49534637,0.17922293,-0.35756794,-0.055135213,-0.5760709,0.2863967,0.23288606,0.28987572,0.0014655868,0.25027883,0.034987167,-0.04876714,0.25105485,0.15603948,0.0014402954},{-1.0636549,0.32949808,-0.7110538,0.34147152,0.37188926,-0.03841466,0.1749449,0.33316886,0.37031534,0.4308016,0.19917224,0.31092736,0.3385274,-0.19622733,0.025757376,0.12407405,0.103955574,-0.09710304,0.016571628,0.050875302},{0.7794138,1.0182552,1.0324699,0.02782194,-1.2531056,-0.10248233,-0.047928657,0.0316975,-1.2119426,-0.35196528,-0.65265983,-0.37661242,0.9399389,0.06097256,-0.17508537,0.045353457,-0.08394558,0.049624678,0.027994405,0.07318865},{1.3964281,0.5825932,-0.21030429,0.046660982,0.12922986,0.09957144,-0.00840382,0.48729444,0.6617945,0.05532404,1.4008833,-0.857938,-0.9726686,0.59024215,-0.06132537,-0.08981605,0.07304304,0.06726678,0.02160205,0.18808143},{-0.8647154,-0.35254228,-0.23665676,-1.0725217,0.5784144,0.24991438,-0.03793057,-1.1406213,0.45840126,0.32163423,-0.25004476,0.70804405,0.07978176,-0.081848994,-0.0022512812,0.25199714,0.11550523,0.09722274,0.079268105,0.2746884},{-1.2242867,1.5262775,-0.07849899,0.9376076,-0.8645782,0.03818982,0.24590926,0.9376256,-0.67677313,-0.01207331,-0.1862522,-0.26889446,0.44866174,0.15541388,0.06102969,-0.045059588,-0.23280966,0.08863889,0.06153455,-0.22232156},{1.1641595,0.055687282,0.67970836,-0.048334714,-0.7932038,-0.3420055,0.54566807,-0.24575832,-0.416617,-0.26985255,0.18042919,-0.23799758,0.8741414,0.23258598,0.013161864,0.08951622,0.1199053,-0.13890556,0.13382486,-0.059002645},{0.7452989,1.7797151,-0.938804,0.24929477,0.7248735,1.9507099,-0.08184962,0.14804097,1.0630333,1.7398269,0.5659931,0.22221206,-0.50060976,-0.06367524,0.0046051033,0.30591902,0.122512236,0.17080384,-0.17621656,-0.007778985},{-1.1821936,-0.058087073,-0.20835705,-1.1394637,-0.46731746,0.6706256,-0.07317415,-0.92742264,-0.43652165,0.9871017,-0.75181764,0.4124625,-0.21958072,-0.16293103,-0.08791124,0.3515926,-0.1919617,-0.0559408,0.031915333,0.013239975},{-1.0283284,-1.3199365,-0.5240053,-0.52554756,0.36262855,0.3909318,0.08043688,-0.6949885,0.3412988,0.43770564,-0.50135213,-0.04473649,-0.44824442,-0.18521024,0.2513603,0.43648154,0.073991515,0.019150145,-0.092784114,0.0008232556},{-0.06781335,1.4728085,0.48316076,-0.736799,-0.46004084,-0.11182839,-0.07076439,-0.99386585,-0.6818805,-0.07645403,0.43963906,0.12695882,0.532335,-0.5977333,-0.29126483,-0.21913758,0.22816978,0.14998926,0.06512202,0.0008568854},{-0.77648515,0.3779235,-0.61040705,-0.5993162,-0.14318535,-0.07990822,-0.08437429,-0.09836791,0.41372773,-0.22181502,-0.028456815,0.67693555,-0.029591324,-0.17266572,-0.03387861,-0.33104673,-0.10863758,0.1111565,0.20775135,0.13337427},{0.5571037,1.1180289,-0.10587158,-0.91877013,0.6465317,0.80713487,0.14429314,-1.0426098,0.5612703,0.60751855,0.11036246,0.6334557,-0.079868004,-0.076607846,0.13611801,-0.0713435,0.17878921,-0.022684941,0.04841206,-0.0014847531},{0.71304667,0.44513428,-0.5529019,-1.1411597,0.66711634,-0.65381986,-0.35015994,-1.121301,0.49568856,-0.88109434,-0.11905484,0.78365976,-1.3836584,-0.09477355,-0.118714444,0.20359647,0.022598112,-0.20097187,0.05199736,-0.10809286},{1.7384567,-1.8021122,-0.08655364,0.69286174,0.91337436,0.2880064,-0.1733541,0.71067905,0.4751786,0.2850195,1.2198843,-0.42122903,0.46300265,0.052337658,0.4140058,0.16855797,0.17403883,0.18731788,-0.049451437,0.12176925},{-1.6658024,-1.3788332,-1.1156242,1.4391538,0.38047123,0.114078365,0.08734421,1.4167302,0.4840731,-0.05044387,0.3044647,-1.3400093,-0.17702153,0.29748413,-0.14189349,0.14309181,-0.06263023,-0.20037892,-0.038751047,0.14674829},{2.2983022,-0.27163413,-0.09197258,-0.29372808,0.95960253,-0.4943037,0.0762862,-0.14816397,0.77067506,-0.14312679,1.9927146,-0.10878247,-0.083696336,0.045108616,-0.022400506,0.12848446,-0.103501335,-0.09824775,0.109866224,0.02701918},{-0.8053566,0.7037821,-0.027642975,0.64336854,-0.663949,0.6767778,0.19239686,0.14994055,-0.81753916,0.35140195,-0.21315874,0.26706266,0.3111152,-0.084517755,0.09156851,0.2289695,0.059264082,0.03866538,-0.018330963,-0.1120256}};
static const float layer_1_weight[64][64] = {{0.059314925,0.058726374,-0.2243861,-0.3001161,0.25441298,-0.082592405,0.1872473,-0.52308893,-0.08478774,-0.20342256,-0.3776393,-0.33343604,0.08858596,-0.27211615,0.11594147,0.28622067,-0.18117195,-0.49565873,-0.33732215,0.30110112,-0.55995554,-0.29404375,-0.60030794,-0.12643966,0.2441517,-0.053191874,0.044975955,-0.29211247,0.19396059,0.15105002,0.14729957,-0.28218165,-0.009197646,0.39536154,-0.6234258,-0.10297091,0.053426214,0.08577406,-0.49144667,0.13527499,0.16830838,-0.19408666,0.06456316,0.06611144,-0.04654914,0.02207002,-0.22227927,0.11261147,-0.04846086,-0.3974163,-0.1288706,0.05190048,0.10244679,-0.1844265,-0.16387533,0.045057178,0.22126345,-0.0019160662,0.08076011,-0.68586624,-0.530811,-0.28928214,0.11621496,0.124422},{0.2944623,-0.109678574,0.046685785,-0.09088853,-0.012305666,0.33740112,-0.26746282,-0.1949331,-0.14057742,-0.28645706,-0.082071446,-0.15398261,-0.13555561,-0.53453684,-0.058389377,-0.046680454,-0.12736785,0.032023918,0.08505036,0.03985519,-0.29002354,-0.20242226,-0.79506856,-0.06765088,-0.09412366,0.6470471,0.08754332,-0.09493095,-0.0943617,0.0033727037,-0.01679327,-0.12729777,0.20700991,0.1322794,-0.3587509,0.03513197,0.14993382,-0.07110623,0.18897158,0.032965537,-0.009488052,-0.5977928,-0.257335,0.06533806,0.030204792,0.12551226,-0.24158342,0.004242507,0.031291433,-0.29538494,-0.083652884,0.105962425,0.22455235,-0.5045431,-0.19118658,0.09785489,-0.002107391,-0.088082366,-0.41236755,-0.39665896,0.056190435,-0.013243814,0.47982177,-0.0076966356},{-0.012975962,0.17853817,0.42198494,0.120710455,-0.117057286,0.048516247,-0.27709913,0.13100334,0.07787591,0.13468155,0.37508154,0.16930512,0.07522449,0.36906284,-0.17885125,-0.124133,0.011203073,-0.007907652,0.01171923,0.24843585,0.23311637,-0.26457414,-0.0124416705,0.13993883,-0.27763823,0.4081334,-0.12835337,0.17625055,-0.53447604,-0.40466803,0.025679372,0.06289117,-0.660194,-0.31226984,-0.06211848,0.07599565,0.23172706,0.095091365,0.25166392,-0.04918507,-0.46303284,0.021094108,-0.20527217,0.2921747,-0.30899134,0.052362572,-0.22492896,-0.39062747,0.47127447,0.32555988,-0.5644089,0.3285256,-0.04347874,-0.1684538,-0.21393616,0.058710568,-0.3035077,-0.40727714,-0.30916545,-0.10787622,0.025208496,-0.0020874753,0.15996328,-0.025001876},{0.07947446,-0.005754815,0.06504574,0.21667653,-0.06650781,0.16230403,0.053954978,-0.193516,-0.03669742,-0.38654575,0.08391201,0.008972105,0.2651186,-0.27831262,-0.021465529,0.101681374,0.1478128,-0.220822,0.053731762,-0.033901952,0.23372844,0.13167839,-0.047884088,0.098014936,0.30881292,0.27147037,0.19216643,0.3206916,-0.36326516,-0.09223896,0.037666176,0.18479109,0.2242086,0.121613875,0.119039685,-0.60084474,-0.04219416,0.039554257,-0.015162436,0.09268224,0.0016137583,0.16722892,0.078647114,-0.03854183,0.030843481,-0.053029615,0.02781111,0.047011252,-0.025585271,0.3074695,-0.052936494,0.090043336,0.10327666,-0.5965242,0.27702487,0.0987651,0.03287631,-0.22366773,0.057558622,-0.19158016,-0.553425,-0.0013625713,-0.4496508,0.18500312},{0.17929822,-0.12308506,-0.5052389,-0.16777767,-0.69404286,0.01242544,0.15914908,0.68911487,0.20530294,-0.011354899,-0.1380992,-0.06946068,-0.024750616,0.4087971,-0.35723364,-0.45124748,-0.15970609,-0.24269691,-0.48152366,-0.10785806,-0.3014015,-0.4417101,-0.11768657,-0.026991362,0.6221758,-0.35277098,-0.12615013,-0.47239643,-0.3322654,-1.0520256,-0.3898574,-0.23320617,-0.18635285,0.07121023,0.09289299,-0.38415706,-0.15842278,0.32857516,0.023090942,-0.20367403,0.06993945,0.11203929,-0.16284768,-1.4098225,0.20627442,-0.021723855,-0.5595049,0.11280853,0.044010602,-0.50863206,0.010146166,0.7173801,-1.0457063,0.11588466,0.20443878,0.35221374,0.063722864,0.40048224,-0.051468957,0.22078536,-0.5388955,-0.1152503,-1.0301194,0.14271928},{0.23928271,0.7102789,0.29159275,0.15390965,-0.17423002,-0.13369437,-0.02761556,0.10185116,0.24984542,0.14058565,0.21576102,0.3765574,-0.17458059,0.103631444,0.103407115,-0.0739344,0.1490805,-0.19324946,0.052232638,-0.33634132,-0.11597307,-0.021289015,0.3092528,0.05781346,-0.37675545,-0.07753629,-0.0026692138,-0.44220302,-0.44494674,-0.053385127,-0.22804229,0.5541297,0.18103792,-0.8357911,0.19356444,0.15387382,-0.058895174,0.3188427,-0.045912124,-0.52740794,-0.11657899,0.16810985,-0.01529671,0.11055549,-0.17704426,-0.11261394,0.1003876,0.024739629,0.045092963,-0.023456007,-0.41841483,-0.018783202,0.022372756,-0.2890002,0.02968012,0.33744505,-0.15550561,-0.70624167,-0.25927228,-0.05841623,0.4108156,0.34017682,0.4134884,-0.14336652},{-0.32807273,0.035312124,-0.67619973,0.23699799,0.43958628,0.27929804,0.011967174,0.03229822,0.095917106,0.35008922,-0.062173102,-0.08931622,0.13856176,-0.23315193,-0.22862141,0.30653286,-0.29032546,0.24961704,-0.06719653,0.3623475,0.045731872,-0.2368228,0.07043645,-0.6509961,-0.24471132,-0.274154,0.08134363,-0.04904577,-0.046383366,0.2870026,-0.38240364,0.02199709,0.18147957,-0.46296215,-0.06599132,-0.36613226,-0.03701608,0.31151083,0.26342058,-0.21517716,0.27728122,-0.19786124,0.2809514,0.14888689,0.24166095,0.31430864,-0.12688793,0.14159083,0.1507662,0.08187171,0.1928479,0.13999103,0.1365559,0.08067667,-0.0627023,0.14644958,-0.033721607,0.04368727,-0.12648512,-0.08598059,-0.24875392,-0.11380486,-0.76391304,-0.040551163},{-0.1419749,-0.53837866,0.049986947,-0.07182995,0.27979007,-0.2170476,-0.07620505,-0.31524166,-0.2546674,-0.044917766,-0.09695772,-0.11809671,-0.46522784,-0.342058,0.14523216,0.122612976,0.038872577,0.017933642,0.20110796,-0.08909179,-0.054444138,0.05361392,0.04462167,0.110882044,0.26116946,-0.19634676,-0.018605463,-0.12071617,-0.0016063884,-0.062306512,0.07564438,-0.32712618,-0.20032392,0.37831837,0.14008887,-0.1544478,-0.048771665,-0.5613697,-0.08211263,-0.028717972,0.14735347,-0.48349747,0.19127373,0.06867712,-0.4193376,-0.19264382,0.23365028,0.08793489,0.19551826,0.41821575,-0.07217257,-0.08205664,-0.094155096,0.22419101,-0.035445023,-0.36824587,0.30336747,0.01147124,0.032315306,0.23210913,0.41866347,-0.74279493,0.5550346,-0.1601817},{-0.100638434,-0.5252703,0.5724219,-0.3823845,-0.17726777,-0.098083846,0.16712375,0.715442,-0.11481073,-0.08897792,0.26064876,-0.16369806,-0.33977932,-0.22385061,0.049894694,-0.015011925,0.029608166,0.0074865753,0.16584978,0.07510238,-0.21060362,-0.12782279,-0.09139038,0.1495161,-0.015338636,-0.8165075,-0.5915415,-0.08754272,0.05863003,-0.22672416,-0.5766188,-0.2387687,-0.011715929,-0.07717637,-0.32563674,-0.107207425,0.024806043,0.0826701,0.3400972,-0.4345623,-0.03175965,-0.07875601,0.060865797,0.24444558,-0.074626215,-0.06945245,-0.324158,0.00927259,0.012808639,-0.2895832,-0.031202395,-0.20549187,-0.1594271,-0.10799213,-0.16131963,0.07554039,-0.14215238,0.56580704,0.14728422,-0.09813359,0.027302358,-0.22102453,-0.09268334,0.17157221},{-1.032247,0.0024818783,-0.5897712,-0.06584806,0.25510696,0.18616453,-0.31432846,0.042824946,-0.16951479,-0.24231042,0.049922995,0.3420034,-0.16903056,-0.2027561,-0.1569868,0.242799,-0.08905861,0.19072303,-0.28805646,-0.08061592,-0.24397734,0.01054607,-0.30847296,0.10342997,-0.63477916,-0.25121978,0.088791154,0.12383441,-0.06862023,-0.06115732,-0.11504391,-0.08185813,0.1592373,-0.3540709,0.09745374,0.23106317,-0.232803,0.17008604,-0.007576621,0.37937477,-0.05717122,-0.29264295,-0.078353144,0.42040312,-0.4826652,0.20460679,0.14493488,-0.17213196,0.14164224,-0.23721384,-0.09170773,-0.29729173,0.27793434,-0.14623585,-0.088123515,0.1029062,0.1499546,-0.033915836,0.121261954,-0.3349227,0.22547954,-0.24501164,0.7874511,-0.55869865},{0.22290336,-0.0008389036,-0.02904668,-0.012389414,-0.47013733,-0.0789672,-0.07356577,-0.14150725,-0.26530874,0.042175736,0.32129985,0.22257854,-0.03005845,-0.4872454,0.19295296,0.0732466,0.09284631,0.35793436,-0.24510911,0.004312119,0.09416659,0.21464036,-0.008422161,0.029132722,-0.12799187,-0.1033044,0.21984537,0.013013147,0.22646046,-0.08352566,0.0082565155,-0.2873025,0.024968334,0.20198078,0.21667573,0.034763176,-0.19773504,0.4294277,-0.2565778,0.41451707,-0.26744172,-0.7437171,0.05573274,-0.047485836,-0.4073752,-0.17319414,0.086970136,-0.1815469,0.054367732,0.40644488,0.1382236,-0.4187457,0.022439737,0.3296469,-0.049572907,0.12542361,0.4776835,0.07462634,0.22504884,-0.015064461,0.14613484,-0.4084268,0.0623527,0.17087974},{0.892044,-0.3007756,-0.5980321,0.5485403,-0.14398167,0.13169153,0.3607616,0.076277815,0.30292237,-0.2986233,-0.11476522,0.0876635,-0.23739454,-0.038779855,0.020399507,0.13669662,-0.21585725,0.09547057,-0.17774156,-0.06775114,-0.0695811,-0.24612339,0.17695391,-0.44843996,0.09373307,0.5720096,0.1805617,-0.028660025,-0.010908942,-0.2706359,0.33439112,0.041738905,0.14056945,0.019584492,0.05797797,-0.022949902,0.33748454,-1.0023665,0.070730396,0.14678067,0.15799074,0.13479818,-0.1324362,0.58800143,0.22198254,-0.28979436,-0.031674173,-0.08081025,0.12869455,0.1655,-0.09965799,-0.13562535,0.11715257,0.29108527,0.15221903,-0.21807198,-0.094765946,-0.08407228,0.49868622,0.798872,-0.7063988,-0.697436,0.31019878,0.17400846},{-0.21972781,-0.9643174,-0.64609337,0.19898923,-1.8005873,-0.031392395,0.23911236,-0.025098966,-0.07902859,0.011720038,-0.25860605,-0.18681554,-0.8153147,-0.049852397,-0.3732886,-0.24692002,0.25947252,0.22390276,0.011886229,-1.0021408,0.06665505,-0.067708075,-0.3584974,-0.2973423,0.16896965,-0.2563656,0.33230728,-0.10953003,-0.34081015,-0.42061177,0.12090865,-0.3245631,0.2907823,0.16439131,0.0316153,-0.0013618546,-0.031827714,-0.54036623,-0.33132082,-0.16885312,-0.48293546,0.20001356,0.01434222,-0.27411926,0.5398696,0.1822082,-0.23128396,-0.099385485,-0.057637114,-0.7280755,-0.028507998,-0.75143296,-0.5989587,-0.47158724,0.45830414,-0.053577457,0.13392474,0.0058041145,0.06474993,0.2036844,-0.6053343,-0.06620273,-0.11927779,-0.22641252},{0.032866374,-0.11492746,-0.044844516,0.05597617,0.04138288,0.056214474,0.04713785,-0.11938346,-0.2779361,0.13960172,-0.21104096,-0.25662518,-0.043439213,-0.24726269,0.16016857,0.30288795,-0.05592383,-0.041261945,0.109891795,0.052440576,-0.20803696,0.39514676,0.54245585,0.108148776,0.24063815,-0.006601217,0.16388984,-0.31541583,0.30441982,-0.15836176,-0.04186995,-0.2727809,0.28256062,0.13193004,0.2504749,-0.26524338,-0.2696904,-0.08523618,0.18179196,-0.07582728,0.1860073,-0.5037317,0.22739497,-0.0116159925,0.09400383,0.36759323,-0.16632295,0.12151041,0.059103094,-0.23965271,0.20227198,-0.22413859,-0.07996865,0.00900893,0.36382097,0.0873695,0.005344289,-0.06381,0.30582753,-0.0038759038,0.14653228,-0.042278353,0.23516864,0.2243407},{-0.34905282,-0.28267497,-0.27721372,-0.14025576,0.14816311,-0.17380898,-0.09727793,-0.19911589,-0.14078285,-0.17717768,-0.32210344,-0.01271828,-0.34235433,-0.8565832,0.08923842,0.20489,0.12974824,-0.35064664,0.03867605,-0.010626036,-0.3561559,0.045344565,0.0011481408,-0.14846107,0.15182135,-0.33730128,-0.30283478,-0.013379964,-0.19732109,-0.39242902,-0.021460658,-0.5951192,-0.17559052,0.04494071,-0.26113525,-0.049052577,0.114864655,-1.2044877,-0.3116804,0.26776224,-0.193098,-0.44515765,-0.075677365,-0.13008104,-0.5687574,-0.16991992,-0.07078733,-0.21626815,0.5994835,-0.042994507,-0.038332004,-0.14036202,0.09287618,0.21139905,-0.00335014,-0.5380996,0.05445235,0.12308205,0.2739551,-0.038022492,0.42375508,-0.6579151,0.70019215,0.0052149026},{-0.17167358,0.04503047,-0.23888923,0.37741303,-0.16792361,0.12479495,0.3029234,0.064190835,-0.10121829,-0.013199996,-0.07070632,-0.46602085,-0.046916403,0.034658033,-0.14872506,-0.22656766,0.008002828,-0.21869169,0.17370702,-0.038269907,-0.15730146,-0.034432516,-0.011244418,0.1423845,0.23466909,0.017128032,0.13466583,0.087576784,-0.11403243,0.07921407,0.024639713,0.18313521,0.12523004,0.019424126,-0.055160817,-0.33522385,-0.11638391,0.16215087,0.25543582,-0.07109858,-0.07213077,0.22956549,-0.08417967,-0.0836982,0.0005580876,0.23232669,0.14192331,-0.012378831,0.14156261,-0.2794998,0.31842357,-0.10874674,-0.113459006,0.09243147,-0.03332941,0.5116599,0.094830155,0.1552461,0.11121128,0.13480374,-0.29533967,-0.07560265,-0.12992541,0.48962757},{0.005344646,0.006455697,-0.24952358,0.18964808,0.19630729,0.45813182,0.08538011,0.2505345,0.2108824,-0.06852184,-0.36006516,-0.13230266,-0.09891567,0.20869659,-0.09747224,0.13008529,-0.13480987,0.049463198,0.25823736,-0.0067552854,0.28824505,-0.059182685,-0.10354836,-0.745818,0.32220882,0.10424112,-0.23414458,0.22657911,0.016140698,-0.1379289,0.030315664,0.48996276,-0.17761248,0.07105011,-0.17610125,-0.2620107,-0.051992003,0.050677415,0.18370768,-0.13186637,-0.29316714,-0.23715869,-0.1573435,-0.12688823,-0.30323565,0.10148835,-0.17691882,0.072472125,-0.26362547,0.16868494,-0.06780043,0.22689047,-0.16166736,-0.08006666,-0.2776526,-0.23179881,0.25127265,0.14775008,-0.14931555,0.17862102,-0.16511668,0.41759762,-0.16529584,-0.16282322},{0.36535344,0.012266989,0.112623274,0.001984675,-0.18545745,0.14784542,0.038175173,0.10465694,0.14620218,-0.1988626,-0.406482,0.13273466,-0.15478674,0.02808064,0.046072982,0.192816,0.14612812,0.37922278,-0.33823884,-0.26248586,-0.038147066,0.1928831,-0.098978885,-0.19359757,0.088105775,0.2961441,0.2512445,0.1561705,-0.18468106,-0.2929887,0.056913033,-0.019819023,-0.34263176,0.18642637,0.020738024,-0.03865441,0.3214195,-0.6229871,0.18852739,0.14684659,-0.260206,0.008731487,-0.40289044,0.08831736,-0.025154768,-0.2454368,-0.07812591,-0.2020373,0.7192452,0.21182123,-0.6790994,0.1374813,0.31254837,-0.04269401,-0.12026093,-0.15715173,-0.13977242,-0.2426733,-0.20502253,0.224194,0.0076818266,-0.5916507,0.33648953,-0.046724543},{-0.12582688,-0.27186415,-0.00058017555,-0.38029122,-0.19937016,0.06328109,-0.17824656,-0.13505796,0.06797641,0.14086491,-0.15883136,-0.34512335,-0.008482436,-0.019135842,-0.17544699,-0.06801526,0.10816067,-0.16729775,-0.015250868,0.22555384,-0.02101881,-0.17900836,-0.12317388,-0.110359795,-0.09471565,-0.2503481,0.063524984,0.09220083,0.12744199,0.09589477,0.025513332,0.008878013,0.052532993,0.2439547,0.013479439,0.034984946,-0.32532775,-0.048914164,0.032977894,0.12015852,-0.020900428,0.05466121,-0.05177985,-0.051499087,0.06929495,0.05749805,0.04329764,0.2038422,-0.007484066,0.17257157,0.011013138,0.004031304,0.1517441,-0.056669936,-0.14867924,0.029470693,-0.176116,-0.08930812,0.10793062,-0.089310326,-0.21837452,0.20159583,0.069874994,0.19731538},{0.25727376,0.15705746,0.29061264,0.11999781,0.22874084,0.15048362,-0.2290101,0.036069192,-0.030449733,0.20698057,-0.23074432,0.40294465,0.021560462,-0.30309278,-0.043481432,-0.07666879,0.37040243,-0.043574337,0.038286563,0.086165555,0.065803714,0.19698977,0.17302969,-0.4159546,0.17566828,0.10873536,-0.0489,0.11827877,-0.02082999,-0.20286974,-0.01898653,0.33085752,0.061221905,0.0044428306,0.49657893,-0.08625846,-0.1569874,0.3291369,0.051468063,0.015963849,-0.3959714,-0.38776973,-0.16761029,0.037593987,0.019911777,-0.28143603,0.10315397,-0.2072362,-0.11080041,0.24978441,-0.09780458,-0.17792797,0.2684173,-0.38922253,0.002980995,0.27872616,-0.0010109382,0.027138108,-0.2620432,0.049358845,0.12370213,-0.18243371,-0.41092497,0.008366829},{-0.07044496,-1.3252194,-0.39346588,0.42223498,-0.48005977,-0.13682449,0.6048607,0.8528307,-0.17022224,0.4773146,0.12975468,-0.31486163,0.025360446,0.80056804,-0.083866775,-0.48685133,-0.05658359,0.013254124,0.075883314,-0.33768165,-0.04256703,0.301817,0.046790738,-0.45777032,0.37341428,0.12569712,-0.036027633,-0.05462397,-0.013652756,-0.1801712,-0.062924035,-0.080219015,-0.50832677,0.13196562,-0.26775062,-0.1584832,0.22929688,-0.2829539,-0.16668561,0.24584521,-0.3981923,0.7014374,0.20355272,-0.7846437,0.34732765,0.041830763,-0.23123845,0.091057405,-0.33961347,-0.13781427,0.2780073,0.41191727,-0.42589477,0.35670155,0.7299442,0.30870417,0.28856787,-0.093822524,0.14213991,0.3716604,-0.63991755,0.27011803,-0.7606485,0.15681411},{-0.19026421,-0.040383793,0.32071504,-0.057300802,0.037268467,0.34369317,-0.25272498,-0.28602737,-0.10316415,-0.21922441,0.15604235,0.10690063,-0.2360037,-0.43652123,0.23040819,-0.06658364,-0.15106697,-0.03605012,-0.29618162,0.10413457,-0.11179745,-0.0041084695,-0.1698091,0.091754735,-0.058012843,-0.34525993,-0.67986465,-0.31967348,0.38521045,0.0011301991,0.17645155,-0.22663927,0.13895367,0.008929811,0.22860982,0.12029526,-0.0031337158,-0.15525566,-0.25393343,-0.07366176,0.36221862,-0.52961904,0.2236131,0.03373883,-0.30723763,-0.08738123,0.03800575,0.07259703,-0.10272023,0.3205103,-0.059456356,0.05932257,0.0643613,0.1890119,-0.16335163,0.049587876,0.14986093,-0.16453871,-0.2808104,0.09743766,0.50867885,-0.04427465,0.50015485,0.09328564},{0.12400857,0.047470797,0.7503263,0.3208216,-0.22805598,-0.64724374,-0.11548118,-0.3376112,-0.13940625,0.7671884,0.36699077,0.5547937,-0.5537903,0.046718482,-0.046373516,-0.31894568,0.67124575,0.4711848,-0.16563372,-0.36183023,0.028360322,0.24723504,0.06957456,1.0754384,-0.34983137,0.031674985,0.028746614,-0.06731915,-0.13146041,0.13742782,0.14965387,0.2526307,-0.25847325,0.07862966,0.23907785,1.3168062,0.5000069,0.03309354,0.24319567,-0.38027728,-0.38539755,-0.039110303,-0.7309984,0.39180994,-0.1412673,-0.54744995,-0.07397902,-0.104062624,0.25752497,0.17607981,-0.17918713,-0.12443223,-0.360458,0.12535499,-0.25636518,0.2082998,0.034159787,-0.14248136,-0.44776833,-0.14445662,0.32553124,0.01787191,0.5041691,-0.54034585},{-0.034604378,0.18902135,-0.027177114,0.07969924,0.2249614,-0.012411394,-0.53086,-0.62018585,0.14881597,0.3071614,0.12664567,-0.3621687,-0.07884583,0.4678766,0.11517331,-0.21887259,-0.013338563,-0.10699734,-0.06573797,-0.23022151,0.14434606,0.12127746,0.67790174,-0.025825664,-0.5097267,-0.6276127,0.20561606,-0.6898021,-0.0012316741,-0.04689611,-0.052323494,-0.12330607,-0.02595859,-0.20115326,-0.13390851,0.14653313,-0.37485728,0.22099182,-0.23442401,-0.08611164,0.40985262,0.6249183,0.0058059543,0.0789476,-0.10551607,-0.5895252,0.48419622,0.02124548,-0.33657795,-0.33568767,0.23099796,-1.2874693,-0.076758005,-0.1259922,-0.10468331,0.0697943,-0.47872818,0.022983683,-0.16841125,0.21634777,0.34772632,-0.12421644,0.375648,-0.25592095},{-0.41767535,-0.20826764,0.711205,0.062989645,0.18450356,-0.33282393,-0.15667929,-0.02609062,-0.11351883,0.3344813,0.0633496,-0.17039251,0.06710703,-0.16890006,0.023172531,-0.010236957,0.00050876,-0.16391917,-0.06755878,-0.32037073,-0.08101333,-0.020706406,-0.23610902,0.22213966,0.22315861,0.08612724,0.017162185,-0.06170656,0.10078403,0.13653775,-0.09017379,-0.53062546,0.12841539,0.013092235,0.071687676,-0.21906163,0.07355221,-0.49742305,0.14588508,0.1725664,-0.11256201,0.13657477,-0.049339756,-0.27536353,-0.3312804,-0.19164948,0.052485578,0.18867251,-0.047040284,0.20150302,0.24335903,0.28264073,-0.10846881,-0.0141105605,0.024711376,0.3856207,0.2883675,-0.15392372,0.14227773,-0.0772942,0.094172634,-0.17198694,0.19351736,0.21561468},{0.24607596,-0.32409692,0.24485365,0.10393121,-0.0810593,-0.13680781,0.1350383,-0.080386035,-0.30566508,0.2955526,0.24716721,-0.24351738,-0.19741762,0.22668318,-0.08781574,-0.17076768,-0.14364484,-0.21674706,-0.23930109,0.0034215357,-0.2942339,-0.075426646,-0.11088625,0.059563395,0.25047547,0.14671554,-0.07884174,-0.16309611,0.18023098,0.17096601,-0.006725548,-0.0877449,0.0015928722,0.2976724,-0.20711304,0.008347428,0.1048637,0.1726066,-0.1474824,-0.09387056,0.028419869,0.6974783,0.2667501,-0.05078288,0.59667736,0.038932912,-0.12812312,0.28482687,-0.23906183,-0.029422285,0.15208852,-0.16378026,-0.27493343,0.33130783,0.15656875,0.15268153,0.057266086,0.092132226,0.20942506,-0.24751218,0.065160275,0.29091296,-0.38699183,-0.07009554},{0.43460584,-0.5852065,-0.53279084,0.21013501,0.1184931,0.25405627,0.42869815,0.42550707,0.009934981,-0.010522321,-0.21112236,-0.20465375,-0.09972443,-0.037066963,0.21386759,0.054269355,-0.06362129,0.03088308,0.27557552,-0.07335208,-0.058637824,-0.13497463,-0.12596354,-0.4964438,0.4990309,-0.087145835,-0.00095477,0.04776855,0.24339576,-0.105670646,-0.17074007,-0.16482349,0.17005935,0.11429182,-0.2607968,0.04032106,-0.043246053,0.012431828,0.16265246,0.3524379,0.084295586,-0.14214477,0.18195555,0.0786297,0.1144405,0.21391964,-0.31526622,0.1863172,-0.33847147,0.0552882,0.13545609,0.32158738,-0.12447805,0.13245922,-0.16543187,0.082935326,-0.26373062,0.56624264,0.14992128,-0.0014460727,-0.58860946,0.061761893,-0.11662238,0.28133062},{0.18412131,0.07213995,0.23760495,0.096296534,-0.034046657,0.042626098,-0.22310807,0.8073525,0.43107143,0.12611392,-0.05506549,0.21602389,0.18029837,0.47839883,-1.0964501,0.08664305,0.2073581,0.31249917,-0.19305392,0.23252212,-0.11652231,-0.049278397,0.41812673,-0.11182663,-0.14798689,0.44118086,0.025926499,0.035357192,-0.6745662,-0.49870166,-0.8331426,0.120595545,-0.07438546,-0.61003274,-0.0484768,0.06646785,0.513862,0.47889885,0.4222904,-0.54089266,-0.07588648,-0.066073544,-0.33307856,-0.19667424,0.231981,0.97748065,-0.14862894,-0.16513705,0.5123644,-0.13904387,-0.363789,0.25068498,-0.5172364,0.15467164,-0.06126446,0.34238607,-0.4820109,-0.0836531,-0.29498693,0.093697615,0.07612127,-0.010647464,0.24971129,-0.29418418},{-0.09208141,0.07282371,0.1162816,0.06500851,-0.11968794,0.027429175,-0.1034956,-0.032914035,0.0042766356,0.15294716,0.6287536,0.2332406,0.22580585,-0.4007282,-0.16937123,0.02681391,-0.04212755,0.025350166,0.13628729,0.05009119,0.20688139,-0.09501501,-0.31983724,0.20780309,0.2157758,-0.090708785,-0.021739747,0.37215656,0.40327886,-0.41139793,-0.2956392,-0.0036813836,-0.08084429,0.1767084,0.121947095,-0.22191152,0.037056908,-0.06907953,0.080116674,0.06338397,0.0032713253,0.06797826,0.007623002,-0.20299143,-0.15178552,0.040114265,0.099544086,-0.17653266,0.02030182,0.29310447,-0.15048589,-0.036251735,0.3087688,-0.1600165,-0.12873657,0.07490781,-0.07457308,-0.20214649,-0.08216407,-0.33284044,0.62183726,-0.4181179,0.26837677,-0.12321578},{0.03927212,-0.30215597,-0.20372143,0.0032549498,-0.13625719,-0.14149328,0.21963413,-0.12966691,-0.2884363,0.118816786,-0.017812543,0.072344765,0.18565483,-0.1462893,0.25297478,0.15506034,0.037860304,-0.09034954,-0.1011594,0.10462971,0.05491057,0.10543933,-0.005760746,-0.2958081,0.28015488,-0.13018598,-0.099100254,0.09985395,-0.1627152,-0.14026237,0.14507326,-0.8384141,0.17869546,0.22347292,-0.030303093,-0.6402229,-0.22116043,-0.041340396,-0.1862909,0.2325191,0.05976185,0.070628494,0.15609707,-0.30367458,-0.13480704,0.017626163,0.05283581,-0.30655712,0.038617507,0.19210221,0.32094467,0.22315809,0.37490353,-0.10936825,0.18257695,-0.007980839,0.13354431,-0.22041927,0.14267908,-0.15749802,-0.23134264,-0.2009582,-0.12295274,-0.019062215},{0.50460833,0.32588056,0.38645968,0.28101072,0.10977355,-0.12699811,-0.062630765,0.09691152,0.21847883,0.45474577,0.048279822,0.18628667,-0.266275,-0.07662937,-0.052825853,-0.13616481,-0.11188196,-0.090780765,-0.050832056,-0.0024046872,-0.09648675,0.396681,0.15716338,0.70049584,0.10808477,0.14922462,-0.14427336,-0.25489503,-0.0052583455,-0.108699374,-0.31829777,-0.053647425,0.01878894,-0.00016605345,0.08940391,0.225245,0.058601152,-0.013711705,-0.009564738,-0.3084745,0.030707313,-0.45631546,-0.23390701,0.3712084,-0.19924732,0.17636937,-0.000616339,0.08684772,-0.071760185,0.14424154,0.038228303,-0.20120843,0.076313116,0.03471549,-0.09893226,-0.09659164,0.24948715,0.16495615,0.0013221649,0.2140983,0.109076545,-0.025705084,0.272604,-0.20041871},{0.21913515,-0.36515915,-0.6439919,-0.13008344,-0.1931489,-0.12050193,0.22597843,-0.23021537,-0.0750686,-0.12811552,-0.33890292,-0.0807095,0.16922787,-0.3672583,0.48759344,-0.040418718,0.11325927,-0.19885266,-0.36647692,-0.22371234,-0.15278251,-0.34355205,-0.18526775,-0.57637614,0.39629638,0.3960188,-0.15198685,-0.18987137,0.12040012,-0.1675786,0.4264952,-0.063928425,0.09129832,0.022318363,-0.3806535,-0.14190248,-0.012776533,-0.8771611,-0.35058364,0.30628914,0.23352961,-0.44176126,-0.043787334,-0.123651564,0.27503663,-0.40035415,-0.45478436,0.21848203,0.30273005,-0.026705006,-0.035456423,-0.03902212,0.00723033,0.12596387,-0.03557287,0.021150563,0.12598777,0.21607749,0.33066952,-0.07947378,-0.54086506,-0.6331346,0.041659914,-0.018122733},{-0.03697206,0.37564573,-0.07637617,-0.0764676,0.23762643,-0.061431058,0.047969,0.11839819,-0.053857323,0.08891605,-0.08297745,-0.33916762,0.10572156,0.06654685,-0.058530528,0.42285305,0.030839236,0.005695423,0.16758375,0.1315914,-0.3036757,-0.4228484,0.17852506,0.05939832,-0.055272523,0.06342727,0.21436483,0.11771563,-0.18594901,0.005677267,0.43905392,0.20822613,0.018888138,-0.014407039,0.028588291,-0.2971417,-0.18024787,0.14162283,-0.14074478,-0.1739756,-0.03373904,0.16823073,0.025645245,0.18368094,0.079650834,-0.004723396,0.057656646,0.25811067,0.099629715,-0.3438986,-0.09389115,0.1927292,0.3407887,-0.6375323,-0.28905496,-0.26919806,0.043339144,0.081545584,-0.2668866,-0.09226377,-0.1361668,0.23667939,-0.25892505,-0.19175594},{-0.112179354,0.34985647,-0.024018131,0.12745434,0.22171767,0.32907513,-0.22726698,-0.11704714,-0.01256929,0.15178843,0.17208612,0.5516049,0.21240509,-0.054728996,-0.04984077,0.35518947,0.24301139,0.2891959,0.116291165,0.17576931,0.046177935,0.1247635,-0.28621176,0.0051927157,-0.32977107,-0.091098495,-0.1702868,0.08519631,-0.04558552,0.30703923,0.21361126,0.04181934,0.5338341,-0.111894876,0.34364155,0.07130044,0.0073597906,0.49893135,0.48641136,-0.016716788,0.17683284,0.0367485,-0.13537073,0.23637024,-0.10756838,0.28298283,0.36257532,0.22853811,-0.124250345,0.03801421,0.04213614,-0.35800552,-0.1417623,-0.4004236,-0.10781956,0.09588414,-0.18681552,-0.13997579,-0.19246538,-0.23429088,-0.0236613,0.11400493,-0.24236922,0.16610312},{0.1569328,0.061988343,0.63556474,-0.37394273,-0.14100105,-0.38178593,-0.17269927,-0.1362879,0.429683,0.68642986,0.16438791,0.3600672,-0.45741323,0.34822845,-0.9344249,-0.35026264,0.80610293,0.5826851,-0.17985281,0.14937241,0.081056796,0.5918254,0.02975806,0.26009893,-0.06261863,-0.49593753,-0.2510687,-0.3843599,0.014935211,-0.02630162,-0.1750598,0.45943856,-0.73137957,0.03263071,0.048904203,0.6647245,0.2402838,0.49425325,0.18540151,-1.1259168,-0.03751583,-0.07627631,0.04068279,-0.5005508,0.14671014,0.06147153,-0.39325085,-0.15768628,0.025648259,-0.101173975,-0.19068041,0.005405983,-0.82853186,0.277904,0.36097363,0.3503882,-0.06350071,0.19329263,-0.38283414,0.27253488,0.5862294,0.47115675,0.13675909,-0.2815722},{-0.0015939544,-0.06531068,0.16688988,-0.3622017,0.053026833,0.08054075,0.039184112,-0.42064384,0.1022177,-0.10711261,0.042500537,0.08425684,0.1306087,0.06790862,-0.013034986,0.06545716,-0.030298669,0.13619235,-0.0118278,0.27412152,-0.018369963,0.11219289,-0.06878045,-0.063510336,0.006438071,-0.020176819,-0.04603485,0.0011831335,-0.030912653,0.05305608,0.23530234,-0.026383935,0.2653726,-0.10796089,-0.00596063,-0.03958458,0.05053875,0.23914327,-0.061046552,0.0060777985,0.0027241602,-0.013765623,0.26680863,0.092199445,0.13382058,-0.18129621,-0.19951104,0.17402221,-0.17546792,-0.028533062,-0.22335975,-0.17430262,0.24243413,-0.036308054,-0.53391105,-0.047561858,0.121059254,0.08702747,0.033996746,0.04671005,0.23323373,0.22120062,0.06706504,0.0055351136},{0.37683344,0.06446983,0.46184388,-0.38856128,-0.7040029,-0.009970872,-0.18672143,-0.8807664,-0.50264275,0.6287533,0.4251942,0.1503098,-0.45699894,-0.25491723,0.15901011,0.08296326,0.15377134,0.26042202,-0.059204902,-0.049552377,-0.16635524,-0.33247697,0.13973778,0.42092612,0.4287191,-0.17201321,-0.1808904,-0.47066918,0.3323888,0.38669717,0.66760117,0.2886681,-0.080206744,0.30617005,-0.046798695,0.22384149,-0.3115683,-0.3562064,-0.2905525,-0.29761153,-0.07488739,-0.33359852,0.22699866,0.16310513,-0.5821758,-0.038638942,0.008897457,-0.04079814,0.035049025,0.36248723,-0.23816146,-0.39124906,0.0030720118,0.2088052,-0.15181895,-0.08460323,0.39105117,-0.2002925,0.26984423,0.16575313,0.41905376,0.01695778,0.7194789,-0.19322342},{0.06889924,-0.16589937,-0.18236753,0.09228516,-0.1414024,-0.17291613,0.528873,0.4180895,0.07743666,0.025415111,0.06892417,0.0048251017,-0.1376032,0.3418772,-0.22596994,-0.14738399,-0.09222151,-0.12837498,-0.06938719,0.009953536,0.013422903,0.037290223,-0.09136383,-0.10802123,0.016119279,0.54214805,-0.095559634,-0.25426653,-0.004628259,-0.026072543,-0.52030826,0.24746218,0.14983027,-0.13079111,-0.004796163,0.29722473,0.28400803,0.094578266,0.44252616,0.13491777,0.23249902,-0.059190653,0.28009722,-0.6434313,0.49844402,0.6706876,-0.3348702,-0.20928554,-0.48398814,-0.03785326,-0.11202942,0.02747597,-0.11335469,-0.22867663,0.2299847,0.5633877,-0.21863884,-0.046032913,0.11580543,0.31834978,-0.24440514,0.35026032,-0.45093006,0.27353406},{0.007953102,-0.14842997,-0.39365137,0.2164292,-0.10606816,0.016272362,-0.8621424,0.4392121,-0.04344849,-0.04505796,-0.13846728,-0.048563834,0.022359408,-0.40991852,0.099569134,0.088863336,-0.25579602,-0.019058611,-0.03418151,0.12631752,0.18541566,-0.2179714,0.24720936,0.17603627,-0.24674109,-0.050309815,0.58729714,0.26097727,-0.33393446,0.028484834,0.09120917,0.16599128,0.06412091,-0.3432319,0.13631153,0.11714218,0.49135143,0.09215677,-0.08483175,0.06092339,-0.10191067,-0.42178348,-0.23693982,0.08611138,0.02510472,-0.034676954,0.28681788,-0.48382238,0.30875325,-0.052883554,-0.2354458,-0.3240546,0.19604602,-0.54702866,-0.060493242,0.095723994,0.10164186,-0.21663348,-0.17101845,-0.074967,0.037322115,-0.11152904,0.43459463,-0.5854101},{-0.30854622,-0.015739087,0.3117041,0.4761948,0.0071340404,-0.7945513,-0.1338181,0.061200622,-0.25389487,0.4984277,0.35811478,0.102694735,-0.72143,-0.73036754,-0.2914761,-1.002122,0.5047543,-0.1697829,-0.18907365,-0.32467142,0.1855728,0.114447765,-0.23584159,-0.30002916,-0.56376404,-0.1647033,-0.28840837,-1.2088575,-0.06871283,0.04811838,-0.23643847,-0.0486922,-0.18070698,-0.46099752,-0.04354439,-0.32810542,0.713244,-0.24713546,-0.034297734,0.093752414,-0.055160593,-0.3703165,0.22192825,0.076545574,-0.6720537,0.119384155,-0.63491696,-0.0020893193,0.7063199,0.6276507,0.24362014,-0.42266127,-0.83716416,0.41036803,0.25495583,0.53545815,-0.078037634,0.002905248,-0.47887918,-0.3132611,0.47094536,0.18053247,-0.14100362,0.011708456},{0.01195204,-0.14683361,0.52755916,-0.100145586,0.030718205,-0.44802776,-0.44616628,0.2117681,0.0015413985,-0.14007172,0.3172138,0.18216625,-0.58677,-0.48638484,0.065175265,-0.08207789,-0.14955212,-0.20243351,-0.013781118,-0.20472102,-0.092138305,0.1451722,-0.0044331667,0.47879025,-0.47801092,-0.2671005,-0.32117447,-0.1488699,0.13088296,0.19460358,-0.024035681,0.15361977,-0.17747805,-0.1808969,-0.3142872,-0.049058683,-0.29236296,0.054877747,-0.18052857,-0.16072589,-0.09198548,-0.6718347,-0.41770992,0.28167775,-0.5485636,-0.7042489,0.036584996,-0.2903218,-0.15506868,0.219281,-0.294659,-0.30342183,-0.045986753,0.3462979,-0.08516442,0.07443297,-0.20874384,-0.46156573,-0.12744646,0.18098769,0.5698476,-0.01386476,0.5014111,-0.07518236},{0.47430488,-0.34129065,-0.14346609,0.36315203,-0.784923,-0.26593322,0.13111944,-0.2283837,-0.11733946,0.05490584,0.3529891,0.29369062,-0.5457876,-0.26390806,0.1746127,-0.0866724,0.3255282,-0.06718083,-0.096326716,0.21999824,0.5590193,0.2861969,-0.21947666,-0.048289757,-0.21414404,-0.21734524,0.12915319,-0.4536841,0.04443197,0.31539023,-0.061969526,-0.31983298,0.05536677,0.10858083,-0.017025461,0.079931475,0.16608974,-0.24387825,-0.05852892,-0.009029074,-0.2540815,0.15227091,-0.10462965,-0.17587298,0.058216427,0.39631432,0.25275323,-0.019088645,0.37881333,0.33690903,0.21869478,-0.509738,0.19873862,0.19434799,0.6687784,0.44748303,0.033808257,-0.06757376,-0.22005393,0.13947065,-0.07312413,-0.060172748,-0.1445734,-0.2137039},{0.13170235,0.29437885,0.61555046,-0.084592074,-0.16679186,0.04960909,0.2767056,-0.40584588,-0.36793768,0.22920746,-0.19865794,0.12826793,-0.14616786,-0.74909836,0.09804921,-0.018367272,-0.13102561,0.0040166015,-0.0114385635,-0.08496458,0.09182258,0.028036052,0.043887403,0.48570064,0.1913098,0.14720383,-0.23965584,-0.23266512,0.08820139,0.37176582,0.3126447,0.48312873,-0.04035029,0.032030843,-0.027562812,-0.39037257,-0.3122602,-0.046142712,-0.05330344,0.020399278,0.08744299,-0.8734785,0.123587705,-0.19241542,0.22777031,-0.5807503,-0.072263785,0.11771308,-0.6842411,0.35315216,0.12002793,-0.4728044,-0.05182501,0.17609565,0.20464292,0.15976675,-0.2189193,0.265146,0.16372697,0.39616397,-0.0022316936,0.25699103,0.6062177,-0.2534242},{0.100565545,-0.3281672,0.8259841,-0.25601998,0.12939298,0.15402997,-0.15094984,-0.56886804,0.04067056,0.2879031,-0.12933923,-0.2569067,-0.097061455,-0.2575919,0.25132373,0.314728,-0.23547894,-0.0025714356,0.0046257684,0.2437152,-0.05757076,-0.4228981,-0.22820245,0.64742213,0.02135048,0.13096328,0.33481315,-0.056185905,-0.24657406,0.10366513,0.07295403,-0.23807968,-0.37894633,0.1016091,0.13236637,-0.08739357,-0.2558878,-0.04629683,-0.48422098,-0.26969796,0.01020816,-0.09811495,0.059942916,0.21743225,-0.17838727,-0.51684266,-0.022624163,-0.10660313,0.2539497,-0.0014423757,-0.3907187,-0.200403,0.19795127,-0.46739045,-0.24957584,-0.2908628,0.16575158,-0.12714669,0.3759182,0.006945249,0.47463202,-0.06918742,0.6628455,-0.0540375},{-0.4560312,-0.20540105,0.5277668,0.02668498,-0.22441442,-0.23027124,0.26839828,-0.12183022,0.0144711975,-0.09462239,-0.023479454,-0.21439411,-0.31272423,0.609724,-0.011684836,-0.0546547,-0.08212278,-0.033639092,0.29599482,0.03474741,-0.11657771,-0.025787676,-0.27965507,0.44371942,0.5093286,-0.36967906,-0.8091143,-0.2370832,0.33681822,0.3204985,-0.012240817,0.6193019,-0.043991484,-0.59754443,-0.21439521,0.08637612,-0.14967445,0.23855028,0.19358085,-0.35642663,0.036707904,-0.30537796,0.06364705,0.18332212,0.15138452,-0.09716951,-0.14123048,0.35434237,-0.3600651,-0.06736041,0.0240261,-0.03771037,-0.06253031,0.025772754,-0.28824118,-0.14655837,-0.10856105,0.56122434,0.36709478,-0.45415258,0.1767872,0.62921643,0.40235886,-0.011287631},{-0.2863006,0.4388971,0.75003064,-0.16899161,0.10149714,-0.23503742,-0.60858375,-0.16899513,0.36183956,0.0055150804,0.009683234,0.008838442,-0.0066986596,0.15400921,0.18890281,0.08661387,-0.05113446,0.077714816,0.32870853,0.116669245,-0.21374032,-0.24882546,-0.33772457,0.8053388,-0.39475688,-0.2791293,0.5307457,-0.30169326,-0.1902029,-0.0012913878,-0.4444122,0.17351668,0.31632426,-0.39451838,0.056033112,0.17406182,0.03356745,0.40114117,0.37478998,-0.40236485,0.082198,0.4478265,0.004615459,0.36858276,-0.10869502,-0.096076034,0.24262033,-0.084687,-0.046506602,-0.013044265,-0.21874619,-0.12536874,0.017341083,0.22738029,-0.16093768,-0.034234527,-0.3179557,-0.35079563,-0.45266235,-0.40620744,0.6903819,0.22830132,0.32344234,0.07654441},{-0.32523334,-0.051986754,-0.11143101,0.6941541,0.11632616,-0.085726276,-0.5069055,-0.22118321,-0.085727766,0.4386319,0.06300483,0.4392823,-0.4403084,-0.15723988,-0.28588027,-0.11947331,0.53934896,0.7130184,-0.14010337,-0.08316308,-0.006470789,0.09634933,0.46366578,0.011630804,-0.61955106,0.03660637,0.21974728,-0.09548812,0.018734667,-0.30959275,0.30247867,0.56445783,0.465781,-0.2529296,0.32676998,0.32000676,0.6667174,0.0570872,0.31721863,0.20683046,-0.2268269,-0.24086656,-0.42425323,-0.23006846,-0.25853392,-0.20124543,-0.13276532,-0.48776308,0.5239664,0.13557796,0.021112207,-0.15929605,0.0610825,-0.1422213,-0.3298829,-0.3238418,0.22084405,-0.31269142,-0.6631671,0.17486334,0.122466065,-0.01146863,-0.14271238,-0.004290369},{-0.26289555,0.010159541,-0.5256838,-0.4129524,0.10564171,0.05657647,-0.27214476,0.20171407,-0.03505292,-0.14281258,-0.3888681,-0.18089654,0.37287208,0.429497,0.11478475,0.03368337,0.019082816,-0.113657065,0.14969817,0.27645552,0.1346254,-0.32680264,0.07569838,-0.4118587,0.017661873,0.15154545,0.24321367,0.12994339,0.09944345,-0.06642878,-0.239424,-0.14485633,-0.004736529,0.38556215,-0.30175668,-0.75300825,0.09575193,0.41899294,0.18359555,-0.024616547,0.027263423,0.55087405,0.25166872,-0.32744175,0.07846923,0.34100863,-0.20120962,0.26599276,-0.097595066,-0.34937727,0.09881613,0.20242675,0.11746612,-0.12425046,0.09868074,-0.077582695,0.032532636,0.04867775,0.24891932,-0.15724587,-0.35278007,-0.07981262,-0.6681861,0.41442704},{0.20583811,0.46165225,0.24774171,-0.1475826,-0.49362952,0.09037635,0.11997397,-0.8046724,-0.5028264,0.15192634,0.14341465,0.21631916,-0.123453096,-0.70203453,0.3169302,0.24457663,-0.12653373,-0.33361697,0.06269064,-0.09997746,0.024936412,0.07836308,-0.20136203,0.23070909,-0.0044866456,-0.099085204,0.228756,-0.10499368,0.3985896,0.30733612,-0.0049267914,-0.1845308,0.2760441,0.14289704,0.20309599,0.026206048,-0.09823298,-0.27054358,-0.26071224,0.11697901,0.3471009,-0.13022691,-0.30571204,0.028741064,0.10898565,-0.7013731,0.3732439,-0.03350471,-0.10279708,0.2431798,-0.17095642,-0.15867735,0.36562917,-0.019333905,-0.26928845,-0.1816243,0.14825106,-0.22748293,0.08292058,-0.13045818,0.045837108,-0.18156959,0.3183259,0.12045143},{0.10240512,0.008468477,-0.21847032,0.30502322,0.14586383,-0.16211058,0.07077923,0.30617172,0.18845934,0.18716918,0.18260567,0.45712352,-0.010455443,0.24022962,-0.20419928,0.12396341,-0.16638431,-0.27682316,-0.047180526,0.3960482,0.066938445,-0.19040348,0.42016894,-0.50880325,-0.03853728,0.037593797,0.06319471,0.31743184,-0.32661107,-0.1488643,-0.19338438,0.3219692,-0.2440884,-0.21177642,0.1888774,-0.088936485,-0.01700182,0.07852549,0.16891576,-0.1184561,-0.31321213,0.47466883,-0.032853507,0.27403644,0.0061381096,0.58380795,-0.07235461,0.2885366,0.19534415,-0.038656317,-0.16925298,0.6696529,-0.1600182,-0.15412588,-0.091430515,0.06972097,0.07574031,0.14382078,-0.4360395,-0.07093865,-0.64314246,0.0021008255,-0.0041418704,0.19060789},{-0.50148046,-0.020129766,0.18935128,0.013800524,0.4402773,-0.06198702,-0.29872304,-0.1312651,-0.21264775,0.0807345,-0.111947976,-0.03646218,0.09736025,0.19870293,0.17950104,-0.2655568,-0.49419487,0.017657747,0.23213236,0.05476153,-0.18509562,0.083544225,-0.042989038,0.12487365,0.024514614,-0.43496767,-0.32752758,0.0056795035,0.106119856,0.20693786,-0.20753278,0.30520546,0.13615818,-0.3497153,0.014712049,-0.22051607,-0.41012412,0.40655482,-0.16948839,-0.25883213,0.013147819,0.13629273,0.015829958,0.1974855,-0.22991678,0.2713229,-0.02644504,0.16188982,-0.25136292,0.21665436,0.0068490747,-0.18392569,0.18103468,0.15217935,0.019900743,-0.06440252,-0.27871963,0.04588907,0.034234446,-0.3912068,0.34975755,0.066986784,0.5482882,0.12418018},{-0.29604706,-0.15337516,0.60680085,-0.4925146,-0.1824939,-0.06833967,-0.26588544,-0.2622151,0.1738882,0.010271204,0.051121224,-0.19754003,-0.21369606,0.035357255,-0.0017513372,0.17540947,0.040776476,-0.14907387,0.05540448,-0.016400618,-0.11020518,0.15889306,-0.36580658,0.29935953,0.09778555,-0.31003693,0.19683956,0.15521225,-0.16960852,0.02412341,-0.034088686,-0.9079101,0.09627437,0.1288979,0.08894329,0.29441705,-0.2188683,-0.42676032,-0.4879536,-0.17428112,0.23094462,0.2377866,0.17214411,-0.22119609,-0.0008494886,-0.18516822,0.06223301,0.18660678,-0.0010854637,-0.19031797,-0.08984482,0.073947705,0.26489496,0.28710255,-0.02403427,-0.09463728,-0.13074137,-0.13329254,-0.05218168,-0.6362223,-0.23805356,-0.5287408,-0.07012229,0.38424414},{-0.030457305,0.43034002,0.25612727,0.26339212,-0.05466491,0.076322034,-0.08579878,0.011569791,0.48108703,0.01827511,-0.089614905,0.25534213,0.08743491,0.7772189,0.06890235,0.13612446,0.0875125,-0.019983202,0.29601175,-0.013392586,0.33979046,-0.10398186,0.23976417,0.21819365,-0.11905808,0.09470955,0.15929896,0.35789397,0.14386992,0.018891972,-0.016273225,-0.1566515,-0.2173166,0.0119549045,0.023647789,0.15893458,0.12143572,-0.007322929,-0.23523526,-0.078591414,-0.34579843,0.9226181,-0.340526,0.19096968,0.4548793,-0.1274601,-0.043637913,-0.043365877,0.141855,-0.5050807,-0.021807365,0.16416325,0.037146073,0.0068533206,-0.06132297,0.1407669,-0.2332258,0.010093643,-0.3078848,0.5054292,-0.26223615,0.46422997,-0.5152888,0.021334741},{-0.30572438,-0.204488,-0.26062134,0.13390468,-0.16787274,-0.0040759956,0.37230062,0.457318,0.16808993,0.008117881,0.10160627,-0.024366768,0.26013947,-0.21174191,-0.42333153,-0.19997333,0.12683648,-0.21483384,-0.15829931,-0.011717402,-0.043865774,0.06608399,0.16484615,0.116190284,0.01111845,0.17295364,0.05310644,0.00046770094,0.07783536,-0.40465608,-0.1252141,-0.468145,0.013642936,-0.10999181,-0.42943302,0.4297252,0.011512813,-0.22085743,-0.036438428,-0.10013944,0.004259586,-0.31518555,-0.0056425193,-0.5839553,-0.26008433,0.0029187275,0.20254447,0.10699167,0.30651194,-0.061965548,-0.3900486,0.12068519,-0.020739738,0.28966123,0.23383799,0.3134662,-0.05067004,0.13084382,0.29072255,0.25049785,-0.24103664,-0.26503414,-0.18627857,0.0803258},{-0.3889223,0.33294883,-0.30160227,-0.18174239,0.19428411,-0.06788931,-0.7748443,-0.5666706,-0.2796932,0.2354147,0.19115868,0.05555015,-0.20121977,-0.4244726,-0.28394154,0.1704146,0.16681717,-0.02138477,-0.15926932,0.014528822,-0.010308338,0.1990647,-0.2759781,0.3215749,-0.50639737,-0.19050734,-0.39965555,-0.016271004,0.3494431,0.17517056,-0.369089,-0.1798955,0.051639523,-0.7075124,-0.117613286,0.39519915,-0.11806346,0.28941587,0.13730216,-0.45766476,0.12356011,-0.4013775,0.14430566,0.14901547,-0.40851462,-0.039801322,0.11502107,-0.6294653,-0.4995433,0.41932037,0.12294663,-1.5323613,-0.20581691,0.19092678,-0.21258311,-0.14492665,-0.46459392,-0.07507931,-0.34854004,-0.10222237,0.6263656,-0.48403117,0.6325162,-0.37507865},{0.06463483,-0.37506655,-0.2704353,-0.0102844,0.3394493,0.07239809,0.28775302,-0.034355275,-0.14510238,0.16483575,0.09659728,-0.21633844,0.027478125,-0.45137796,0.37374958,-0.10812456,-0.24023809,-0.29018143,-0.27966285,-0.22705643,-0.10464394,0.058146786,-0.0057066027,-0.121836685,0.20294635,0.2267545,0.29327,-0.038515642,0.10178498,0.119777106,0.33394346,-0.15811509,-0.014852115,0.3300396,0.14602417,-0.08916673,-0.14304017,-0.49338412,-0.11365732,0.083577946,0.0018231407,-0.07398016,-0.004971683,-0.03765834,-0.21790345,-0.40015823,0.17260489,0.11426413,-0.35748833,0.13852566,0.12666629,0.016550384,0.23422478,0.19313501,-0.0067407824,-0.048433084,0.22826318,-0.08930497,0.26926675,0.12408491,0.022701502,-0.017432828,0.06425347,0.021556215},{0.01520563,0.18545592,0.15302643,-0.37045273,0.23169845,-0.09384127,0.17427897,-0.36855224,-0.33724287,-0.0462947,-0.2967881,0.040310334,0.36753726,-0.29738638,-0.20019522,0.16536207,-0.18397667,-0.3422459,-0.018426318,0.31644425,-0.41147113,-0.54725355,-0.2865104,-0.22871944,-0.23203523,-0.37456152,-0.48315036,-0.39349964,-0.19397871,0.3994859,-0.15722874,-0.00455745,0.18440078,-0.090037,-0.016987404,-0.41280136,-0.037399154,-0.09698492,-0.13852933,-0.30822685,0.2911619,-0.3271698,0.41276905,-0.2230195,0.0755375,-0.13217258,-0.22879863,0.013397331,-0.10726397,-0.09331983,0.03314658,0.23908998,0.22071211,-0.13532095,0.10043915,0.1822788,-0.20911591,-0.1883076,0.047475174,-0.9565655,0.0124215875,-0.18480602,0.06893521,0.016813638},{-0.5165803,0.6015974,0.13898796,-0.14761342,0.36816233,0.004458005,-0.4890991,-0.63285935,-0.32034147,-0.23055647,0.33879915,0.3220264,0.12467471,0.36707485,0.18852648,0.046749376,0.034281816,-0.16513513,0.199174,0.32409418,0.04101613,-0.107620224,-0.33578262,0.1050257,-0.47735712,-0.43396837,-0.07732139,0.047511578,0.07114627,0.18585432,-0.06951899,0.07008618,0.18288909,0.030588584,0.20340282,0.01583576,-0.08509195,0.019015364,-0.25890827,0.036086146,0.23560531,0.0918048,-0.39592224,0.17507386,-0.259242,-0.1218606,-0.068934835,-0.17103924,-0.14078589,0.31898424,0.011286622,-0.50626135,0.10860665,-0.23412085,-0.34342042,-0.14838569,-0.06483031,-0.38196102,-0.27201542,-0.342641,0.58705395,0.4221139,0.09147251,0.056657102},{0.16989051,0.11020997,0.21565355,-0.05568129,0.41344258,0.0471466,0.20291631,-0.045183487,0.08960389,0.19414829,0.058376957,0.2605358,0.0400472,-0.10644671,-0.0008602697,-0.03456307,-0.15324092,-0.14795057,0.035928663,0.08881608,-0.092715114,0.045960166,0.23028263,0.044515394,0.15502718,0.30921945,0.21328205,0.030439202,0.04219071,-0.1518489,0.14039375,0.083741605,-0.14576767,-0.07987523,0.18215555,-0.18616836,-0.023587054,-0.06136187,0.03166244,-0.041106205,-0.03417802,-0.21763296,-0.16508947,-0.102293186,0.12462164,-0.16357741,0.3775132,-0.09188703,0.15715064,0.056056384,0.066423275,0.2860509,0.090893,-0.2444849,0.04738635,0.16169082,-0.15795451,0.14065045,0.0639645,0.11397215,-0.10805524,-0.3138885,0.016901167,-0.058774192},{-0.665809,0.2804625,0.10508911,-0.33263826,-0.340497,-0.16825065,-0.042390656,-0.22379214,-0.44325447,-0.03112392,0.2965185,-0.0036410054,-0.056625858,0.009714238,0.012255789,0.3655892,0.12762322,-0.03285922,0.042560857,-0.46716008,0.30218202,0.010370042,0.4324571,0.6056542,0.2211011,-0.22929734,0.32360664,-0.17574577,-0.2833487,0.1547063,0.39535028,-0.47669291,0.0046709776,0.22751355,0.07074284,0.3367778,0.059206255,-0.18103124,-0.6200833,0.047398828,-0.2679241,0.6163474,-0.69273746,0.057710234,0.098765284,-0.27430964,0.09116767,-0.17364697,0.21388417,-0.22058035,0.09165079,-0.058080893,0.3341265,-0.4165002,0.024162304,-0.2729136,0.2938315,0.078418665,-0.32979843,-0.02832842,-0.26563984,-0.0012511248,-0.34861076,0.20724003},{-0.20714661,-0.17308205,-0.29372898,-0.02678724,-0.09043942,0.15141945,0.240401,0.22002673,-0.27450392,0.1354508,0.26451227,-0.2545282,-0.25837564,-0.30154264,0.09209447,0.09073967,-0.41598105,-0.22807588,0.22926164,-0.06869416,0.051455874,0.22232637,0.23378235,-0.31622574,0.16344163,0.006905195,0.21199593,-0.117595084,0.04329226,0.027716998,0.15110852,-0.22627331,0.34733054,0.22652362,0.3760462,-0.24439424,0.16078551,-0.24951111,-0.45675787,0.31281227,-0.24125397,-0.24969448,-0.18726355,-0.11652916,-0.23179784,-0.01630846,0.2539421,0.17464602,-0.119981445,0.21978357,0.30570176,0.03705896,-0.16602084,0.03464007,0.07206114,0.049226593,0.07124505,0.07612685,0.08831195,0.09121836,0.1234771,-0.34532222,-0.01603264,-0.20450108},{0.0052029337,-0.0496091,0.68393546,-0.2181016,-0.07410602,-0.2514727,-0.11085185,-0.25847065,-0.0032345736,0.32554477,0.26370195,0.19811338,0.17435849,0.43541312,-0.21024348,0.084418446,0.15402716,-0.13752449,-0.020608911,0.11097212,0.18563333,-0.1230178,-0.23095033,0.823624,0.22038403,-0.6578793,0.5063555,-0.5275759,0.11450587,-0.11928135,-0.01823043,-0.48354736,-0.10807191,-0.039574523,0.2707771,0.32497764,0.06341018,0.34734306,-0.13572201,-0.24466552,-0.006750298,0.45296136,-0.28456968,-0.4339949,-0.12771647,0.11967041,-0.5472248,-0.13797171,0.5783348,-0.32740122,-0.030375727,0.024476532,-0.17353974,0.29619402,0.3813257,-0.049994577,0.17944022,-0.22173992,0.11149861,0.046501677,0.5018606,-0.35765448,-0.049096186,-0.13072881},{-0.5184894,0.035728883,0.5793817,0.5187151,-0.14879219,0.08691882,-0.13529307,0.10525545,0.31118482,0.4012272,-0.0719705,-0.079793245,-0.1573643,0.16249773,-0.22358458,-0.37327003,0.6093432,0.28738132,0.036266763,-0.31911424,-0.15104693,0.8050518,0.19047917,0.21307911,-0.13182187,-0.47141615,-0.1096394,0.060488455,0.052947868,0.04722435,0.16318141,-0.049358394,-0.30358252,-0.23576275,0.1677229,-0.059040118,0.2259832,0.2309716,0.10989792,-0.3717773,-0.5091462,0.10764856,-0.17636341,0.078297876,-0.43538815,0.2557322,-0.36819586,-0.08006891,-0.53520757,0.022019627,0.1952012,-0.049682595,-0.33293378,0.22570805,0.11678023,0.12747763,-0.07505054,0.16200763,-0.034317542,0.21623552,0.5097576,0.3406068,0.031147102,-0.10681546},{-0.3610413,0.25456515,0.110300496,-0.20499834,0.028247405,-0.23252714,-0.25972247,-0.21324071,-0.058811095,-0.5731296,-0.19564645,-0.25786823,-0.025438724,0.038938813,-0.19743104,-0.075434536,-0.33393133,0.00892194,-0.11911593,0.1502172,0.00088086014,-0.33451775,-0.2848412,0.3547762,-0.1312889,-0.43552962,0.0679156,-0.50553054,-0.40899506,-0.3750124,-0.20455413,0.02942492,-0.6982942,-0.21741346,-0.14454901,0.10641998,-0.2544958,0.20482981,-0.04157938,-0.047358733,-0.23546599,-0.20064984,-0.22369374,0.30709434,-0.42960894,-0.42291957,-0.09668628,-0.11059079,-0.19472167,-0.12211726,0.21339189,-0.42564,0.036151595,0.108031906,-0.41317117,-0.069964595,-0.5934948,-0.47059187,0.0064480975,-0.114472464,0.19078201,0.12535763,0.48471215,-0.20984802}};
static const float layer_2_weight[4][64] = {{-0.12497714,-0.02888532,-0.13560426,-0.58740985,-0.4449795,-0.3671938,0.31113544,0.3981264,0.26368406,0.4482268,-0.15279746,-0.512082,0.3348567,0.00032090474,0.66089904,0.1516187,0.33781332,-0.20716189,-0.08777805,-0.5156173,0.5431728,0.1511766,0.077619456,0.024002166,0.0062647965,-0.039225597,0.24469002,-0.6082265,-0.2734716,-0.26184812,-0.15534832,-0.28000817,-0.28809026,-0.13240282,-0.61018974,-0.08092884,-0.21834317,-0.42347756,0.49791917,-0.294815,0.19735767,-0.46159303,0.32900196,-0.25822622,0.63170254,-0.34773102,-0.1272797,-0.043359444,-0.6828747,0.12513128,0.4140155,-0.0039644055,0.22142565,-0.33910066,-0.14437869,0.14935371,-0.30613378,0.29832834,-0.23454423,0.4567241,0.59651506,-0.3091494,0.11867164,0.59925425},{0.14212035,-0.67181045,0.019836653,-0.13882433,-0.08797351,-0.17521735,0.681924,0.4880017,-0.58177817,-0.32417846,-0.23397785,0.11239534,-0.74285996,0.37690333,-0.06607958,-0.19639455,-0.011594977,-0.38724574,-0.16969955,0.3443158,0.40707114,-0.115374,0.22550103,0.6523438,0.059130944,0.04680276,-0.15236107,-0.030643634,0.081472374,0.3046838,0.48956382,-0.29475838,0.15433769,-0.019640792,1.0966296,-0.15769908,-0.118123524,-0.045709178,0.13115896,-0.39008024,0.17985852,-0.69127196,0.4628728,0.04134301,-0.6249917,-0.6475053,-0.6271596,-0.4974481,-0.16014838,0.061715,0.34088263,-0.069466285,-0.10538131,-0.08674502,0.32596004,0.2776588,0.33782429,-0.575279,0.19701777,0.016730044,0.09419583,0.23528878,0.7744652,0.576528},{-0.023393473,0.22872013,0.53467524,0.27547464,0.7172024,0.4842407,-0.43023914,0.11714754,0.088104956,-0.39333612,-0.079419486,-0.5665149,-0.46655405,0.19632207,-0.35563836,0.46398243,0.10562581,-0.1154113,-0.07513338,0.095457055,0.23895565,-0.08134695,-1.1530926,-0.113999255,0.24310666,-0.2268837,0.09116704,0.5797226,0.50195,-0.21974431,-0.040967617,-0.17192508,0.027395982,-0.42556533,-0.11441609,-0.22218715,-0.52052534,-0.36273226,0.19728433,-0.55026287,0.6606015,0.27314705,0.5390889,0.24487306,0.22199537,0.07688985,-0.7775407,-0.5367876,0.24165751,0.7040168,0.26287374,-0.6400886,-0.1474153,0.6784638,-0.24277936,0.14042524,0.42979625,-0.17356826,0.069835536,-0.062864654,0.2465651,0.34991986,-0.27481416,0.42856863},{-0.6020321,-0.18235031,0.06998349,-0.05538572,-0.47734103,0.44318295,-0.03172004,0.33433145,-0.105571374,0.16420142,-0.515129,0.25738642,0.14105155,0.25642112,-0.038908217,0.122036874,-0.3115747,-0.13569422,-0.078518756,-0.2395212,0.4952794,0.47991616,-0.36893982,0.12717642,0.6122346,-0.3942792,-0.39683554,0.24317563,-0.37033743,0.10939385,-0.20244002,-0.37420836,0.50676274,-0.42232567,-0.21048456,-0.12321881,-0.45068258,0.44988018,0.27102086,0.2676821,0.23667921,0.29397076,-0.00489009,0.4400316,0.02478109,0.35945296,-0.052393697,0.15205751,-0.2308264,0.10207753,0.10869962,0.5059752,-0.65343046,-0.17319544,-0.41634837,0.4032926,-0.40837815,-0.24569239,-0.15326339,-0.71073616,-0.00687443,-0.34286943,-0.2767587,0.106667}};
static const float layer_0_bias[64] = {0.037491955,0.09748373,0.009597517,0.09169498,0.2837403,0.09341698,0.04441898,-0.026476344,-0.016564773,-0.07987883,0.039253406,-0.028954681,0.20105352,0.011022675,0.05979993,0.13688816,-0.066292,-0.09246685,0.07852319,0.19104008,-0.03999234,-0.22414061,-0.13943832,-0.02701255,0.05332114,0.045717992,0.141491,-0.0121051725,0.091779605,0.058163334,0.03212413,-0.11579286,0.23189998,0.07902428,0.16210517,-0.19248645,-0.06550164,-0.017442333,0.0010386502,0.015159569,0.27711517,0.044004913,0.19772853,0.025388826,0.027076393,0.02508528,0.1916219,0.08660107,0.01927638,0.123758785,0.019787688,0.073688306,0.2225558,-0.031678353,0.023177164,-0.018662533,-0.030569686,-0.11329917,0.040625263,-0.2615619,0.05043554,-0.01559723,0.041472387,0.13897665};
static const float layer_1_bias[64] = {0.12243917,0.062432084,-0.16584738,0.0691583,-0.22171848,-0.04012016,0.2505113,0.09067529,-0.15632059,-0.05804214,-0.01051307,0.102820985,-0.31716588,0.20363966,-0.06616977,-0.045042425,-0.07297015,-0.0056326343,0.17784041,-0.071862794,-0.25507623,0.06482335,-0.19718277,0.030501246,0.023153588,-0.00847913,0.017005252,-0.27821657,0.041101996,0.08840298,-0.048568796,-0.12919854,0.05689505,0.13124311,-0.3822907,0.15977341,0.044052716,0.068426654,-0.05598042,-0.19891793,-0.09854208,-0.0061526853,-0.010662833,0.16911249,-0.07991661,0.0819266,-0.03358531,0.10759184,0.12068735,-0.0023342934,0.077172585,0.09046202,-0.015642134,-0.030083917,-0.0343105,0.11634876,0.12762722,0.038333442,0.1569116,-0.16250744,-0.069584124,-0.16539651,-0.16283154,-0.15365525};
static const float layer_2_bias[4] = {-0.13974832,-0.011290348,-0.04060956,-0.02304171};

void networkEvaluate(control_t *control, const float *state_array) {

	for (int i = 0; i < structure[0][0]; i++) {
		output_0[i] = 0;
		for (int j = 0; j < structure[0][1]; j++) {
			output_0[i] += state_array[j] * layer_0_weight[i][j];
		}
		output_0[i] += layer_0_bias[i];
		output_0[i] = elu(output_0[i]);
	}

	for (int i = 0; i < structure[1][0]; i++) {
		output_1[i] = 0;
		for (int j = 0; j < structure[1][1]; j++) {
			output_1[i] += output_0[j] * layer_1_weight[i][j];
		}
		output_1[i] += layer_1_bias[i];
		output_1[i] = elu(output_1[i]);
	}
	
	for (int i = 0; i < structure[2][0]; i++) {
		output_2[i] = 0;
		for (int j = 0; j < structure[2][1]; j++) {
			output_2[i] += output_1[j] * layer_2_weight[i][j];
		}
		output_2[i] += layer_2_bias[i];
		output_2[i] = tanhf(output_2[i]);
	}
	
	// control->normalizedForces[0] = clip(scale(output_2[0]), 0.0, 1.0);
	// control->normalizedForces[1] = clip(scale(output_2[1]), 0.0, 1.0);
	// control->normalizedForces[2] = clip(scale(output_2[2]), 0.0, 1.0);
	// control->normalizedForces[3] = clip(scale(output_2[3]), 0.0, 1.0);
	float f1 = output_2[0] - 0.5f * output_2[1] + 0.5f * output_2[2] + output_2[3];
	float f2 = output_2[0] - 0.5f * output_2[1] - 0.5f * output_2[2] - output_2[3];
	float f3 = output_2[0] + 0.5f * output_2[1] - 0.5f * output_2[2] + output_2[3];
	float f4 = output_2[0] + 0.5f * output_2[1] + 0.5f * output_2[2] - output_2[3];


	control->normalizedForces[0] = clip(hover_ratio + ctrl_range * f1, 0.0, 1.0);
	control->normalizedForces[1] = clip(hover_ratio + ctrl_range * f2, 0.0, 1.0);
	control->normalizedForces[2] = clip(hover_ratio + ctrl_range * f3, 0.0, 1.0);
	control->normalizedForces[3] = clip(hover_ratio + ctrl_range * f4, 0.0, 1.0);

}

PARAM_GROUP_START(nnForward)
PARAM_ADD(PARAM_FLOAT, hover_ratio, &hover_ratio)
PARAM_ADD(PARAM_FLOAT, ctrl_range, &ctrl_range)
PARAM_GROUP_STOP(nnForward)


LOG_GROUP_START(ctrlNN)

LOG_ADD(LOG_FLOAT, output1, &output_2[0])
LOG_ADD(LOG_FLOAT, output2, &output_2[1])
LOG_ADD(LOG_FLOAT, output3, &output_2[2])
LOG_ADD(LOG_FLOAT, output4, &output_2[3])
LOG_GROUP_STOP(ctrlNN)