static const float agent_ac_actor_logstd[4] = {-0.079476066, 0.050965995, -0.006400344, -0.023810042};

static const float agent_ac_actor_pi_net_fcs_0_weight[17][64] = {
    {0.5090395, 0.2116091, -0.6231975, 0.007919788, -2.495209, -0.490254, -0.7150422, -0.018308122, 0.20110899, 1.0238662, -0.2629347, -0.33888698, 0.4950362, -0.016695391, -0.81384444, -0.8265582, -0.6262323, 0.024556676, -0.43951917, 0.78139377, -0.92381686, 0.52414864, 0.44406357, -1.3074799, 0.5570018, -0.42404386, 0.44156036, -0.48798066, 0.076947086, 0.731949, 0.83722264, 0.6303929, -0.98747396, 0.24569038, -0.8723661, -0.81683314, 1.7582402, 0.9321923, 1.3837317, -1.2973748, 1.1078254, 0.12984996, 0.38501376, 0.44090247, 0.23180464, 0.23905967, -1.2437123, 0.39160374, 0.12245003, 1.2541237, 0.14993995, -0.7496406, -0.8383808, -0.26227614, 0.02848034, -0.2634355, 0.07726906, 0.18952174, 0.2494202, -0.8608094, 0.5234196, -1.1418343, -1.4253343, -0.5269839},
    {-1.036709, 0.71387774, -0.6723837, -0.1493017, -0.19963868, -0.0013468729, 0.764931, 0.25453755, 0.56575924, 0.27224275, -0.35898826, -0.17995048, -0.013115394, 0.376627, -0.26411632, -0.11474756, 0.68807006, 0.5843544, 1.1538562, -1.3368192, 1.4526643, 0.6460231, 1.0647115, -0.9366337, -0.22437161, 0.1948912, 0.10218413, 0.3298237, 0.994859, 0.29841772, -0.31079817, 0.54395944, -0.9497836, 1.0546432, 0.44611004, 0.25872126, -0.8001759, -0.12881403, 1.018676, -0.75172657, -0.49161097, 0.10204388, -0.70508254, 0.5418087, 0.4748063, 0.5797689, 0.8594511, -0.13749924, 0.5101614, -0.5364505, -0.04605049, -0.23191692, 0.83472425, -0.053586755, 0.35445958, -2.2862701, -0.78094035, 0.18941897, 0.4690284, -1.1090356, -0.28094232, 0.7765416, 0.40094832, 0.49461317},
    {0.6395886, -0.57567865, -0.6362041, 0.36368975, -0.049338806, -0.14548466, -0.3702284, -0.83131874, -0.30976096, -0.3009124, 0.6998022, 0.36107603, -0.7523019, -0.2754218, -0.2984617, -0.56899685, -0.15624118, 0.4408418, 0.53525704, 0.0789235, -0.14227481, -0.12499773, -0.1904865, -0.48062629, -0.5493986, 0.27281144, -0.75645435, 0.47036391, 0.5594391, -0.30183834, 0.04434074, -0.2046972, 0.4229563, 0.34962216, -0.46263343, 0.69318163, 0.17617512, 0.18083815, -0.08798998, -0.41106763, 0.34991607, -0.55117196, -0.1573065, -0.33368495, -0.49009863, 0.18694799, 0.33734363, -0.44063902, -0.30835682, -0.27892125, -0.26946616, 0.5844967, -0.51157, -0.5879722, 0.25114518, -0.0015958734, -0.5368901, -0.32986394, 0.6148049, -0.1774217, -0.1550861, -0.075908944, 0.18270327, -0.43974367},
    {0.044282142, -0.60746926, 1.7163306, 1.1619533, -0.24871412, -0.25394237, -1.3348417, -1.054376, -0.52754897, -0.73387, -0.17248985, 1.3518974, -0.15795045, 0.21983482, -0.1604388, -0.3534601, -1.9550307, -0.4705899, -1.0259154, -0.45086142, -0.54958695, -1.1115797, -0.48735827, -1.253554, 0.06314936, 0.36654174, 0.47920066, -0.5699913, -0.9189178, -0.7732581, -0.11182054, -0.05772133, 2.009083, -0.90155864, -0.14957531, -0.3387306, -0.31042936, 0.21936585, -1.2865443, -0.35607457, 0.3262142, -0.21535262, 0.8850153, -1.057243, -1.0975294, 0.89929104, -1.287844, 1.5036523, -0.035806447, -0.22548199, 0.026798114, -0.1102111, -1.0712868, -0.9972885, -0.98317164, 1.3910613, 1.1821662, -1.4534146, -0.85435736, 1.0387149, -0.6253962, -0.95183194, -0.8771406, -0.55388737},
    {-0.65828234, -0.11597454, -1.478134, 0.3527317, -0.5949135, -0.69583946, -0.40161985, -0.6797974, -0.44566905, 1.0371265, 0.05088215, -0.578759, -0.72962636, 0.08610996, 0.8749564, 1.1104249, 0.72059345, 0.7589053, -0.71416533, 1.5264755, -0.32362428, 0.26132122, 0.16519997, -1.225903, 0.87805825, -0.675468, 1.2087305, 0.91386145, -0.31409696, 0.21193776, 1.3080679, 0.6571269, -0.5413683, 0.63579595, 0.26914164, -0.3398739, 1.1934072, 1.9132019, 0.06621656, 1.1159027, -0.94494295, 0.52215934, 1.7386047, 0.44144407, 1.3535697, 0.27730146, -0.81400406, -0.89362633, 1.407988, 0.0737741, -0.049967963, -0.09581423, -0.6098819, -0.42898956, 0.7422408, -0.43901557, 0.15705046, 0.765166, 0.0015118128, -0.69705355, -0.58183765, 0.33347967, 0.51913357, -1.6778611},
    {-0.12872626, 0.29007706, 0.44459152, -0.53155714, 0.15859751, 0.8241756, 0.05921622, 0.13368471, 0.8417464, -0.92490155, -0.23211111, 0.53429615, -0.1438223, -0.61463594, -1.0748415, 0.5293, -0.26522368, -0.14624955, 0.2894871, -0.1127181, -0.095874265, -0.3179713, -0.09095903, 0.4204331, -0.5203534, 0.10739977, 0.62101465, 0.9347331, 0.13613772, 0.8844394, -0.6593593, -0.056568656, 0.7370456, 0.46865544, -0.29547793, 0.46363565, 1.0029402, -0.32606342, -0.7705839, 0.020007612, -0.026701452, 0.047692243, -0.8581437, 0.92386144, -0.5625756, -0.26201764, 0.16705559, 0.45770732, 0.81932527, 0.26610276, -1.2319204, 0.3273074, -0.59383893, -0.03264447, -0.54634, 0.07937232, 0.63566345, -0.52492493, -0.10131516, -0.97679985, -0.5804645, 0.10066153, 0.17627206, 0.09735814},
    {-0.14791778, 0.30383155, 0.11313517, 0.73389715, 0.17059658, 0.6971362, -0.7595938, 0.3546791, -0.20071389, 0.4708336, 0.55828094, -0.8015861, -0.2648003, -0.32706723, -0.5711627, -0.001968694, -0.3114782, 0.00870745, -0.12741356, 0.31402555, 0.020316819, -0.74085605, 0.099171765, -0.8901087, -0.027631665, -0.9224061, -0.47397253, -0.6403554, 0.06263204, 0.09105782, 0.15367144, 0.037093587, -0.5365721, 0.5127547, 0.31708485, 0.38988027, 0.40706348, 0.27950585, -0.35300475, -0.45248106, 0.8130906, 0.4667549, 0.45151225, 0.085448556, 0.86196953, -0.7216773, -0.26673943, -1.4170939, -0.69673514, 0.89225125, 0.653377, 0.5295966, 0.55010784, -1.0318171, -0.48046383, -0.16773795, 0.54937714, 0.6631462, 0.4533495, 0.35861143, -0.97454256, 0.5455154, 0.11759786, 0.82751787},
    {0.11624166, 0.10199424, -0.21867257, 0.3799724, -1.0617999, 0.30570596, 0.044395287, -0.0902807, 0.24370907, 0.62905973, -0.20506787, 0.14945404, -0.07599041, 0.5571759, -0.5807703, -0.32063356, -0.25287065, 0.026161741, -0.32349774, -0.1432526, -0.29675263, -0.027198948, 0.2820517, -0.8287011, 0.14205945, -0.0499013, -0.056339696, -0.01959604, -0.24559635, 0.5241964, 0.13124323, 0.26440537, -0.60483223, -0.13450685, -0.29713503, -0.39062008, 0.92547715, 0.51260054, 0.6359851, -0.9618709, 0.41023168, 0.19086999, 0.51049936, 0.07775139, -0.16796519, 0.26979768, -0.5208389, 0.19722542, 0.33340302, 0.50569475, 0.14521898, 0.10099528, -0.5934989, -0.41885385, 0.1212399, 0.28813735, 0.02704604, 0.16796914, 0.33026046, -0.5037403, 0.018963594, -0.05517569, -0.513746, -0.25368783},
    {-0.6380832, 0.6180275, -0.39161056, -0.20298687, 0.097312756, 0.05208633, 0.10100134, 0.15888597, 0.08930298, 0.15256545, -0.09962947, -0.3619875, -0.049119078, 0.6223144, -0.16572402, 0.45513076, 0.061755702, 0.34465414, 0.5619935, -0.56678426, 0.52172464, 0.33830196, 0.747063, -0.93762445, 0.1808733, -0.17833734, 0.5131373, -0.14501506, 0.7067612, 0.22063434, -0.3372602, 0.25564378, -0.31891152, 0.13333422, -0.34078327, 0.26699, -0.44094974, -0.15802749, -0.009787558, -0.41175255, -0.21307394, -0.09047198, -0.27170846, 0.22739317, 0.31083825, 0.05239414, 0.49195054, -0.15229385, 0.14024776, -0.15419708, -0.5428662, -0.4928506, 0.4757582, -0.2032394, 0.085044846, -0.9611952, -0.46787614, 0.24240272, -0.23390906, -0.48396373, -0.15018694, -0.31149745, 0.5773317, 0.14684218},
    {0.14740348, 0.0862381, -0.65623534, 0.24870569, 0.32989433, -0.120540805, -0.2273669, -0.8983263, -0.49233264, -0.068608604, 0.23111542, 0.4278156, -0.21833791, -0.1794092, -0.57247126, 0.42680493, -0.14029665, 0.22759819, -0.24760918, -0.06697964, -0.35796583, -0.46884277, 0.11033444, 0.20043556, -0.2974664, 0.30741766, -0.06952645, 0.057566997, 0.6277243, -0.35970902, -0.13488573, -0.07132427, 0.052167565, 0.11192701, -0.59921426, 0.3674367, -0.2461782, 0.42251843, 0.361738, 0.22213623, -0.07089667, -0.769314, -0.11265837, -0.32190058, -0.07562419, 0.22368343, 0.476526, 0.1520646, 0.22107154, -0.2906499, -0.022820948, 0.46581677, -0.536654, -0.6649019, 0.08693401, -0.25158733, -0.6295468, -0.2569996, 0.021561442, 0.25735998, -0.16513519, -0.19412175, -0.4993696, -0.33105877},
    {0.28013346, 0.036610994, 0.07108849, 0.06266426, -0.061603695, 0.14724967, 0.08070139, 0.04422415, 0.03108448, -0.008578771, 8.432517e-05, 0.122017466, -0.11819142, 0.39238575, 0.08167854, 0.0016129583, -0.04270148, 0.044625755, -0.067779906, 0.15080565, -0.08638242, -0.18190637, 0.2463057, 0.12025089, -0.0058987644, -0.053094216, -0.1365128, -0.05698291, -0.14450647, 0.056366835, 0.0075583654, -0.13218972, 0.08169842, -0.045408238, -0.22475123, 0.13109992, 0.014741047, 0.0014733562, 0.041508824, -0.0055662906, 0.008357469, 0.017777272, -0.036770765, -0.06361712, -0.045183536, 0.5025593, -0.07352566, 0.0016920535, -0.038226742, 0.054013476, 0.10580145, 0.045205314, -0.054394286, 0.26036388, 0.0034642702, -0.0024977222, 0.034429535, -0.09139497, 0.113642, 0.066349946, 0.08998445, -0.10795317, 0.0316071, -0.04028832},
    {0.04873547, 0.104198016, 0.004864137, 0.20333223, 0.0789369, -0.048318338, -0.10778532, -0.16830447, 0.06562227, -0.0030252954, -0.013593449, -0.07224722, 0.15949215, -0.08742403, -0.078325905, -0.026005846, -0.19606951, 0.030777209, 0.018735014, 0.054218095, -0.12170126, 0.06676569, 0.41571566, -0.061239045, 0.054920197, -0.054909244, 0.1840038, -0.090511076, -0.01529256, 0.08988395, -0.017321516, 0.15018192, 0.038930714, -0.011526679, -0.01715961, -0.23466535, 0.04611679, 0.102865, 0.106373504, -0.01981293, 0.04814097, 0.2392989, -0.058111392, 0.065997146, 0.08024313, -0.02182379, -0.014587985, 0.09876138, 0.14541037, 0.09440273, 0.06728475, -0.036056228, -0.12184698, 0.04947818, -0.019750157, -0.16574524, -0.005842948, 0.011456869, -0.04362814, 0.11343714, 0.09309418, 0.023831824, 0.13094744, -0.097883955},
    {0.062073153, 0.22940856, -0.0420703, -0.10911284, 0.35585967, -0.15804762, -0.057479937, -0.035803556, -0.1081025, -0.06639869, -0.15622099, 0.016117055, -0.15827043, -0.2952003, 0.0045240577, 0.039046478, -0.034141716, -0.065981284, 0.047707185, 0.0007370112, 0.028067729, 0.012247583, 0.0824312, 0.17649303, 0.10365733, -0.050033152, -0.19598463, -0.206603, 0.004891666, -0.092848875, -0.020154726, -0.34408143, 0.021829244, -0.006801724, 0.2615947, 0.106057964, -0.11481191, 0.011968097, 0.12885247, -0.2027152, 0.081168436, 0.1510744, 0.06338091, 0.060435627, 0.026110888, -0.22323841, -0.050279994, -0.06982598, -0.00033800892, 0.028364314, 0.054403428, -0.39634335, -0.013780701, 0.11007297, 0.11785319, 0.200985, 0.0779701, 0.0403192, -0.050029553, -0.25612667, 0.018102357, 0.132817, -0.12390553, 0.04162887},
    {-0.107566975, 0.3588858, 0.06903337, 0.109111026, -0.19129135, 0.42544183, -0.047526073, -0.11330351, -0.3361496, 0.19770241, 0.46263945, 0.3752752, -0.34259146, -0.2055885, 0.030535722, -0.24973005, 0.12570189, -0.0337205, -0.06404379, 0.2511812, 0.12149577, -0.11902154, -0.16746946, -0.18442726, -0.03738566, 0.15163948, 0.19059753, -0.23976922, -0.15895605, -0.027991468, -0.33287492, -0.43483844, -0.12592436, -0.08007498, -0.14307083, 0.008117913, -0.16683622, 0.11371808, 0.039591104, -0.21193129, -0.15010515, 0.63445705, -0.13147734, -0.15182577, -0.20465443, -0.0010281833, -0.14632566, 0.1665027, 0.42892137, 0.2575121, 0.08299892, 0.18070191, 0.108948246, 0.052661583, 0.21506794, 0.11390615, 0.032077145, -0.24971506, 0.2642507, 0.18715025, 0.16297118, 0.21615018, 0.12938741, -0.15692839},
    {0.04497815, -0.24992672, -0.062219676, -0.7031666, -0.1398351, 0.073468246, -0.2612897, -0.056264386, 0.40023208, 0.36412957, 0.107014954, 0.12552018, -0.13790593, -0.114832945, -0.20693263, 0.029926626, 0.020972284, -0.04586292, 0.08173528, -0.1536249, -0.11204529, 0.25610718, -0.17182197, 0.15159969, -0.003747309, -0.04473453, -0.1251307, -0.23838644, -0.15336888, -0.03523115, -0.13485989, 0.26557747, 0.22112177, -0.13971409, 0.24146023, -0.40377578, -0.06665665, 0.11160877, 0.24774668, -0.00048438425, 0.2428675, 0.052043, -0.18570909, 0.06340617, 0.12568282, 0.1890564, 0.065089524, 0.16239375, -0.113323994, 0.04953093, -0.26586053, 0.2497973, -0.32856995, -0.08790039, 0.026370017, -0.053736497, -0.024531683, -0.07781233, -0.0936479, 0.045805447, 0.16903007, -0.022683622, 0.30940372, 0.12923935},
    {-0.17237036, -0.051418047, -0.07361941, -0.03854737, -0.2139906, -0.012442044, 0.34347337, 0.0334154, 0.07745455, -0.1517685, 0.0015117597, -0.05804701, 0.124756575, -0.28870007, 0.17733058, 0.18175314, 0.006890827, 0.11203336, 0.010414123, -0.14803757, -0.22970533, 0.087829225, -0.4825754, 0.006872704, 0.09994217, -0.1299987, -0.054823525, 0.021165837, 0.14270167, 0.09820043, 0.1451003, 0.33105722, -0.029691271, -0.09475055, -0.33371094, -0.1558045, -0.30308196, -0.013700416, 0.00812848, -0.2979849, 0.15548757, 0.017481936, 0.24378924, -0.15474631, -0.013884049, -0.19001815, 0.16293752, 0.17201546, 0.062910676, -0.102760635, 0.10556155, 0.074110545, 0.035771824, 0.05852866, 0.1403486, 0.3883184, -0.052361395, 0.025278188, -0.11587807, -0.10833072, 0.035054985, 0.034848858, -0.45187223, 0.1401095},
    {0.25923443, 0.036739178, -0.022934414, 0.03377705, 0.07627126, -0.18608886, 0.15385135, -0.05151473, 0.1587446, 0.19086428, -0.06654816, -0.009855843, -0.17368506, -0.08308864, 0.23047708, 0.04805922, -0.15819126, 0.0002345359, -0.2691368, 0.08105968, 0.06722664, -0.06047698, -0.32278436, 0.14060646, 0.16201773, -0.040805772, -0.05063712, 0.17766075, 0.15626612, 0.2418355, -0.25400734, 0.16687085, -0.036589146, 0.0031996889, 0.07557432, -0.0893827, 0.2104729, -0.3115473, -0.16378106, -0.03261041, 0.116867624, 0.04779433, -0.25266406, -0.108143814, 0.23607746, -0.24687982, 0.2197597, 0.15082544, -0.33403772, 0.2669528, 0.09095869, -0.048672244, -0.066851236, 0.08459973, 0.16568707, 0.0011409743, -0.08890395, 0.06310357, 0.14215402, 0.10651731, -0.382338, -0.082952976, 0.019514643, 0.18233605},
};

static const float agent_ac_actor_pi_net_fcs_0_bias[64] = {-0.4026519, 0.15552999, 0.4689343, 0.11164903, -0.13720383, -0.44837487, -0.6395114, 0.40716884, -0.12560146, 0.23139596, -0.5413252, -0.0085074995, 0.4455089, 0.34082147, -0.108923174, 0.043111127, 0.2597328, -0.38098198, -0.22464214, -0.22557694, 0.09190752, 0.39063063, -0.063593835, -0.6118603, 0.56866264, -0.22158283, -0.33576223, -0.34030285, -0.5929669, 0.335768, -0.100103185, 0.39333224, 0.53899366, -0.66282654, 0.24351276, -0.026363974, 0.19976468, -0.061112, -0.23057276, 0.32960984, -0.116697825, 0.44292828, -0.36161014, 0.48774663, -0.21038392, 0.45067218, -0.07593743, -0.16704533, -0.3602558, 0.17362295, 0.45144847, 0.07748421, -0.34681097, -0.28735647, -0.0055402, -0.31562516, 0.2672642, 0.15290831, -0.34393844, -0.43184316, -0.3850048, -0.03767475, 0.14994533, 0.07342528};

static const float agent_ac_actor_pi_net_fcs_1_weight[64][64] = {
    {-0.038039483, 0.20169693, 0.02301346, 0.063436314, -0.21003032, -0.023492398, -0.33771962, 0.022773832, -0.051512633, -0.046103545, 0.10634472, 0.110418886, -0.008993561, 0.066545635, -0.3158711, -0.32091624, 0.21632531, -0.38362327, -0.09175869, 0.38800544, 0.078536004, 0.20186314, 0.0017345261, 0.04554822, 0.02981442, 0.2822175, 0.017434591, -0.15896958, 0.19021516, 0.0066772117, -0.44806817, -0.11831193, 0.2646953, -0.18568894, -0.040987886, 0.09385383, 0.22203854, -0.081903085, -0.13823901, 0.07083149, 0.07834951, -0.108771704, 0.3483905, 0.26591936, -0.21055263, 0.02361625, -0.09619055, -0.2465299, 0.43799168, -0.25139666, 0.024209177, -0.024223339, 0.07452755, -0.138726, 0.14386724, 0.04689905, 0.24398746, -0.058142934, 0.0075942096, 0.06391547, -0.2487133, 0.029795326, 0.028286733, 0.17778015},
    {-0.1507266, -0.20013884, -0.2256952, -0.012651595, -0.18510385, 0.11227564, 0.16547044, -0.2197965, 0.05314213, -0.1414887, 0.10125266, -0.045520715, 0.09815543, 0.011708102, 0.05375993, 0.12371239, -0.1978778, 0.08373034, 0.19647798, -0.2501769, -0.057525855, -0.2776469, -0.08569515, 0.051065, 0.005896425, -0.025731297, 0.031535648, -0.15978283, 0.35370955, -0.03036952, 0.27150467, -0.030472668, -0.16967683, -0.16420075, -0.012324709, 0.12468723, -0.11646203, 0.069067165, 0.025995852, -0.067991905, -0.037562307, 0.036837276, -0.3757543, -0.16376719, 0.21163204, 0.07909888, 0.1141615, 0.050658647, -0.020637846, -0.019108847, 0.07865099, 0.108536296, 0.06999913, -0.016498292, -0.006824525, -0.17669123, -0.4597502, 0.1986828, 0.06786211, -0.08737922, 0.0563686, -0.09176534, -0.10003453, -0.13661341},
    {0.022447597, -1.0142256, -0.29175365, 0.07977878, 0.032994546, 0.070360415, 0.42498213, -0.05611463, 0.104518965, -0.14808649, 0.6955597, -0.07557063, -0.67025125, -0.084336646, 0.53227985, 0.14436463, -0.3209959, 0.103319585, 0.06247687, -0.16225992, -0.026751708, 0.42107457, 0.3521885, 0.022286806, -0.06531419, -0.41825536, -0.089789264, -0.2805745, 0.10350035, 0.08794728, 0.46836963, 0.08793692, -0.39833957, 0.019822393, -0.015809773, 0.014308715, 0.6317405, -0.05054684, 0.04715331, -0.18447532, 0.24659364, -0.31163836, 0.5844884, -0.3619636, 0.16223446, 0.16353408, 0.58420706, -0.32021412, -0.35556757, -0.19933176, -0.056193586, 0.1251162, -0.07970711, 0.1229558, -0.010569189, 0.15726805, -0.2533367, -0.516859, -0.04504082, 0.6466868, -0.22078675, -0.09187973, -0.17916265, 0.005330656},
    {0.052437153, -0.04338973, 0.06935556, 0.01153941, -0.052120633, -0.049473405, -0.2590867, 0.09103899, -0.13504532, 0.007007499, -0.28964508, -0.05322503, 0.1208306, 0.16362107, -0.15687019, -0.23259899, 0.13316458, -0.060876112, 0.06243842, -0.06744608, 0.037108965, 0.61055523, 0.18184194, -0.078846455, -0.05506177, 0.2014248, 0.047747355, -0.44627255, -0.07718533, -0.06582823, -0.020821808, 0.06152431, 0.04528502, -0.009560372, 0.014111232, -0.118226334, -0.18337344, 0.072897635, -0.11029627, 0.051755186, 0.030357277, 0.27978617, -0.40071937, -0.12038676, -0.24463849, -0.17089806, 0.14281754, 0.16691734, 0.30712488, 0.16433585, 0.045290086, -0.26544893, -0.009443335, -0.020238463, 0.10180755, -0.11302359, 0.015363341, 0.34893534, -0.12083585, -0.2095691, -0.09375017, 0.08566789, 0.03706193, 0.13366394},
    {0.11153827, -0.3685868, -0.10621879, -0.010118084, 0.19688275, -0.10715891, -0.0019203156, 0.13640831, 0.029636785, -0.18981986, 0.10569283, -0.03904905, -0.12945037, -0.07965543, 0.020187117, 0.085747324, 0.32440746, 0.14148551, -0.11604568, -0.045787077, 0.12825084, -0.06687746, 0.18246579, -0.010807498, -0.027573466, 0.061800912, -0.008052381, 0.3388797, -0.14105639, -0.07884098, -0.38378024, -0.096291766, 0.09725431, 0.33205017, 0.08327296, -0.13809673, -0.18147166, 0.045301076, -0.05682315, 0.01447504, -0.118333645, -0.2842026, -1.6398699e-05, -0.079884805, -0.13328719, 0.023182143, 0.44473115, -0.24997221, 0.14639628, -0.028374715, 0.060351603, 0.09420022, -0.014508812, 0.07323783, 0.14297505, -0.05768494, 0.031070359, -0.3015505, 0.02270408, 0.45110866, 0.028215403, -0.07059643, -0.15959308, 0.12689246},
    {0.1027562, -0.08279143, 0.046968807, -0.002923288, -0.022643222, 0.03402776, -0.23948404, -0.01273491, 0.11340073, -0.5297464, 0.15442084, -0.03439258, 0.28448278, -0.05142857, 0.04435433, -0.007884607, 0.1593127, -0.2194852, 0.0328105, -0.041774735, 0.109981224, -0.22620453, -0.09302219, -0.044391625, 0.021536179, 0.15770614, 0.10309361, -0.19985722, 0.24787742, -0.010852108, 0.082881935, -0.09556829, -0.048913825, -0.23754214, -0.1077885, 0.03323474, -0.23366351, 0.02160727, 0.014726824, -0.1542144, 0.024711698, -0.18737617, -0.031331696, -0.485477, -0.118368, -0.051492885, 0.16797107, -0.2535536, -0.03210214, -0.08447042, 0.049039055, -0.06616805, 0.035753965, 0.10596369, -0.019425156, 0.1726357, -0.18664186, -0.032261543, -0.11934428, -0.17083855, -0.47520825, 0.04567427, 0.13790788, 0.2696333},
    {0.047018073, 0.061076544, -0.16167112, -0.0034797254, -0.0051795347, 0.005939897, -0.037214693, -0.0777062, 0.045933817, -0.26774776, 0.12108862, -0.08004669, -0.20312262, -0.14379023, -0.15454338, 0.049289934, 0.23023716, -0.097989656, -0.07085765, 0.05917074, 0.011746279, -0.63596123, -0.2893888, 0.11665549, -0.08488348, -0.32605487, 0.0016731687, 0.51640266, 0.009785885, -0.013019663, -0.013909442, -0.037263773, 0.06189736, 0.0072993664, 0.020235037, 0.032098707, -0.09519828, 0.088714205, 0.042370014, -0.01962549, 0.0147880735, -0.33100462, 0.24897338, -0.04623072, 0.03878296, 0.013422359, -0.24912924, -0.21902083, -0.091265075, -0.05434633, -0.06589542, -0.06137618, -0.027475333, 0.046595264, 0.075598896, 0.26594657, -0.1647094, -0.29296935, 0.08181018, 0.18815535, -0.0072035426, -0.1496583, -0.009210687, -0.008032421},
    {-0.07831894, -0.34706175, -0.34285966, -0.07872834, 0.0054031853, 0.04758482, 0.042892903, -0.14908502, -0.0050041694, -0.44061214, 0.05983193, -0.0009319207, -0.59692276, 0.027727045, 0.67687464, 0.23997854, -0.29309013, 0.21459343, 0.06050891, -0.16345823, 0.008207494, -0.0528484, -0.44213098, -0.0021370184, 0.06792402, -0.27216882, -0.0007263631, 0.35011792, -0.11112399, 0.048984725, 0.49510697, -0.14226599, -0.11293658, 0.06523918, 0.058429863, 0.0049450444, -0.24309346, -0.03901872, -0.14928944, 0.023621194, 0.08447419, -0.39352614, -0.19178216, 0.048376486, -0.0017058995, -0.046844393, -0.1913474, -0.07019807, -0.34238377, 0.07037702, -0.0096269315, 0.007161549, 0.06199438, -0.06823197, 0.0625459, 0.43941292, 0.31499794, -0.40243924, 0.11394368, 0.10097899, -0.06141756, -0.049961478, -0.1696831, -0.096659444},
    {0.042388994, -0.15052828, -0.35592765, 0.02885168, 0.05053747, -0.09922387, 0.017365389, 0.15979525, 0.085092306, -0.051311407, 0.036627527, -0.15718496, -0.052903138, 0.07876034, 0.09798284, -0.13214643, 0.22607929, 0.2546526, -0.06349036, 0.30426508, 0.042885024, -0.25514936, -0.080581196, -0.0033915173, -0.071482584, 0.11723691, 0.035203777, -0.047383618, 0.31512076, -0.006302931, 0.18672575, 0.08018502, 0.13272871, -0.1988519, 0.03898185, -0.1438715, 0.39515737, 0.17782792, -0.058627788, 0.06450448, 0.4122459, -0.2761071, 0.013362705, 0.069210224, -0.14929412, -0.08817423, 0.21997765, -0.2917535, -0.12129568, 0.076536775, 0.06377972, -0.035099097, -0.0109549025, -0.09123722, -0.07453474, -0.047457375, 0.063882634, -0.23941979, 0.061023436, -0.34203115, -0.06865033, 0.036269665, 0.07912359, 0.23655201},
    {-0.09986961, 0.42278168, 0.47206756, 0.0745499, -0.15560804, 0.11415579, 0.024570309, 0.023729179, -0.10687245, -0.15286236, -0.44446808, -0.01652519, 0.04719419, 0.044488393, 0.26732254, 0.17688319, -0.290571, 0.19650468, -0.019363971, 0.004383206, 0.089831255, 0.009324639, -0.33282083, -0.04512968, -0.08509983, -0.23336513, 0.07774976, -0.013767451, 0.059960257, -0.049964257, 0.16315335, 0.04080783, 0.10189188, -0.10259172, -0.055644758, -0.077830754, -0.30167377, -0.005225945, 0.0037656566, 0.025948098, -0.016216591, 0.23001198, -0.24082367, 0.37720063, 0.038150806, 0.1311701, -0.3215568, 0.5722419, 0.011347494, -0.21099035, -0.033986732, -0.052370064, 0.040722374, 0.046330944, 0.0053938483, 0.18124841, 0.29232833, 0.36245048, -0.029548155, 0.10849481, 0.12853393, 0.006860852, -0.16133279, -0.0073958565},
    {-0.010050847, 0.1674951, 0.22566743, 0.026471142, -0.010515898, -0.032247715, -0.31144696, 0.065441385, -0.040417004, -0.20402142, -0.13580431, 0.07821998, 0.16990349, 0.11711079, -0.35728085, -0.011800292, 0.3562754, -0.59571475, 0.15575677, -0.033277895, -0.024212182, 0.07655282, 0.08583532, 0.0147303315, 0.097018726, 0.18521427, -0.060358398, -0.13683444, 0.08232647, -0.044778455, -0.22299537, -0.1042298, 0.075712934, -0.22905499, 0.048489545, -0.16214511, -0.2786308, -0.031447608, -0.07782422, 0.17152421, -0.2435749, 0.11151676, 0.050408144, -0.09606178, 0.040771317, -0.055457495, -0.021130536, -0.06168859, 0.2258711, -0.34234253, 0.040392876, -0.12147217, -0.07990924, -0.090238534, 0.06578357, 0.0066639823, 0.22960398, 0.38427603, 0.09462523, 0.012649415, -0.19995758, 0.0619594, -0.100224964, -0.028255071},
    {0.032753702, -0.124080755, 0.022046147, -0.02723925, 0.060444705, -0.086668335, -0.41683912, 0.00903544, -0.102196954, 0.36997086, 0.46945137, -0.009208853, -0.21664527, -0.03371111, -0.06311093, 0.110864505, 0.11479357, -0.25542688, -0.014735278, -0.23710504, -0.12550174, -0.12941857, 0.48717508, -0.04742028, -0.09220215, 0.106897935, -0.09824544, -0.006793422, -0.1259663, -0.06064865, -0.04549712, -0.02336991, 0.030666918, -0.2059445, 0.08629758, -0.13701937, 0.50662166, 0.013420583, 0.16533399, 0.032954242, -0.016958129, 0.12664302, 0.5293775, -0.10700601, -0.036185607, -0.003325245, 0.24487746, -0.2476695, 0.21322027, -0.24293564, -0.08653876, -0.22033809, -0.048949543, 0.055397417, -0.14727634, -0.25708452, -0.27219924, 0.19544752, 0.08033492, -0.16269076, 0.034699485, 0.043939594, -0.06208011, -0.117053956},
    {-0.1712128, -0.23027429, -0.081503354, -0.04758077, -0.12909824, -0.0055647045, 0.39230388, 0.026778882, 0.053301796, 0.04533837, -0.045348905, 0.06105654, 0.025342504, -0.003473979, 0.39765626, 0.20002028, -0.46571255, 0.3064433, -0.041873332, -0.13302737, -0.11433846, 0.046833556, -0.1501328, 0.014172609, -0.10136432, -0.25633463, 0.06893741, -0.048018765, -0.042345997, 0.048010003, 0.32884395, -0.09817572, -0.27254936, 0.17011662, -0.06414317, 0.0024438344, -0.005461107, 0.04049761, 0.14005364, 0.15230295, 0.44589368, -0.3283405, 0.10605211, 0.04288027, 0.1754858, -0.0104463175, -0.2585284, 0.07674738, -0.022037234, 0.15328534, -0.05035722, 0.047902554, -0.07019005, -0.01161282, -0.18954422, 0.016796937, -0.03612076, -0.35237315, 0.12501194, 0.13336904, -0.0054695136, -0.07564187, -0.0793825, 0.061575573},
    {-0.09719678, 0.03217435, -0.10965661, 0.046595465, 0.08650396, 0.048150092, 0.0013931212, 0.081846885, -0.09430288, 0.020602051, 0.04140398, -0.023228947, -0.12076211, 0.09838814, 0.4576915, 0.20381448, -0.26593181, -0.27243057, 0.16231333, -0.06498198, -1.8237937e-05, 0.10252149, 0.029192727, -0.00043184112, 0.09242516, -0.23421265, -0.031546988, 0.08196617, 0.013542768, -0.047602218, 0.105081536, 0.087205045, -0.2746615, 0.15325505, 0.04348112, -0.13435979, -0.061766274, 0.027586779, -0.034571283, 0.06933705, 0.23104344, -0.03519016, -0.089920215, 0.088274725, 0.055325054, 0.069536425, -0.32114097, 0.29741502, -0.0048107407, 0.0975966, 0.0100407405, 0.09766079, 0.010690384, 0.22032982, 0.0029465512, 0.027197842, 0.086867586, 0.01383678, 0.00227673, 0.011173226, 0.34879443, 0.098788425, -0.11005107, -0.002783895},
    {0.014677336, 0.06441655, 0.35279545, -0.04125934, -0.17591552, -0.08038595, -0.019307356, -0.18532498, -0.012984305, 0.0077882474, -0.1830131, 0.10089785, -0.13765158, 0.03460727, -0.05389842, -0.07520728, -0.20053492, -0.12881762, -0.09482106, 0.11690462, -0.046791323, -0.13277587, -0.22212698, -0.016953196, -0.01843615, -0.09324096, -0.03940482, 0.59631115, -0.2872275, 0.09086279, -0.27127254, -0.019487819, 0.24051127, 0.20878479, -0.007928528, -0.048583243, -0.20242812, -0.12064443, -0.008990964, -0.018055325, 0.09601262, 0.010770515, 0.14560919, 0.27425563, 0.0193447, -0.02958799, -0.26986328, -0.061192513, 0.04835963, -0.50523835, 0.06592081, -0.13843864, 0.034417193, -0.03909606, 0.1242436, 0.25803345, 0.053489953, -0.072544925, 0.009923975, 0.59800667, 0.2856009, 0.10355741, 0.028559048, -0.04237842},
    {-0.07956246, -0.06004458, -0.1443263, 0.116564766, -0.0337703, 0.15365313, 0.10971745, 0.092800096, -0.00039079037, 0.031132, 0.12953135, -0.021096451, -0.18041542, 0.11415561, 0.12320822, 0.17207891, 0.20959173, 0.020476082, 0.1924265, -0.21915942, -0.04480029, -0.37047726, -0.3662694, -0.031188188, 0.05865446, -0.02806691, 0.06297454, 0.18366227, -0.08412038, -0.018006766, 0.2456862, 0.0857746, -0.013019781, 0.14464411, -0.06441293, -0.11401801, -0.15708338, -0.07017722, -0.038551826, -0.020334806, 0.19683021, -0.1610031, -0.4124255, -0.18803664, -0.055161398, 0.17255439, 0.29881886, -0.29324993, -0.13190971, -0.27628255, -0.04716258, -0.050602693, -0.07104037, 0.28140515, -0.056208204, 0.067998715, -0.31230623, -0.43748906, -0.0855089, 0.02613755, -0.059832666, -0.024832737, 0.15691324, 0.13394456},
    {0.058955394, 0.16813068, -0.11820597, -0.0051037814, 0.020028006, -0.022495566, 0.25198108, 0.038856, -0.06989096, -0.28043514, -0.15979871, -0.11878909, -0.26759288, 0.17378935, 0.05234093, -0.028247736, -0.25675884, -0.16705613, -0.023997504, -0.2703026, -0.03239942, -0.42851973, -0.027747057, -0.11025323, -0.04174702, -0.15892942, -0.05430682, 0.6108659, -0.17627303, -0.018971471, 0.18395361, 0.20072009, -0.09395002, 0.08355182, 0.040342957, -0.14041393, -0.46737376, 0.08891234, 0.06412188, 0.09622977, 0.0046747993, -0.07346847, -0.30400625, 0.21619458, -0.039372407, -0.034888167, -0.34058505, 0.031673357, 0.027529253, -0.26991084, 0.06603791, 0.042900827, -0.105346054, -0.020084638, -0.10281567, 0.2096796, 0.2199441, -0.08195036, -0.05007735, -0.0005441007, 0.25345856, -0.0006252235, 0.20664704, 0.015466481},
    {-0.09765179, 0.28189087, 0.18044703, -0.00047047905, 0.046631236, 0.08714607, 0.048899174, 0.1396436, -0.10677149, -0.01978195, -0.20765276, -0.01927224, 0.30606863, -0.0062500816, -0.030468974, -0.015566672, 0.17247108, -0.11838254, -0.0150448, 0.031734306, -0.09834867, -0.084728815, -0.05769625, -0.06361103, -0.00071596354, 0.03724752, 0.022986235, 0.09671654, -0.10264276, 0.010339155, -0.056491703, 0.1272124, -0.029562928, 0.19285862, -0.030509263, 0.026290242, -0.05252444, 0.12262638, 0.04756225, 0.023388892, 0.47290856, -0.07330734, -0.1469893, 0.38320714, 0.07353685, 0.060600437, -0.029949008, -0.035781845, 0.27176315, 0.15887798, 0.012485509, -0.05557992, 0.023498591, -0.025239749, -0.027251063, -0.17346314, -0.07068906, -0.046715666, 0.031381395, -0.07816768, 0.014152961, 0.018679462, 0.1383051, -0.009227199},
    {0.042609364, -0.23220608, -0.28194237, 0.006049069, -0.049406983, 0.0035144864, 0.18233444, -0.06519894, -0.08263224, -0.11945207, -0.028682062, 0.021307949, 0.3299788, 0.054945413, -0.30518338, -0.20453914, 0.32548586, 0.06512678, -0.1340929, 0.22202532, 0.00450428, -0.34156278, 0.11399414, 0.014102703, -0.038726274, 0.20823771, 0.09068449, 0.3414677, -0.07607362, -0.07577026, 0.049655646, -0.018112907, 0.17080697, 0.08799542, -0.033233933, -0.07181126, -0.073126286, 0.03970748, -0.015790226, 0.03283889, 0.15751414, -0.123246685, -0.05401061, 0.08360826, -0.07198934, 0.044132072, -0.101681344, -0.316981, 0.07003383, 0.27088943, -0.028216464, -0.16955338, 0.069424376, 0.025856402, -0.03776653, -0.4875294, 0.12215953, 0.008492468, -0.06192106, -0.30608487, 0.28473905, 0.04104, 0.04512962, -0.0005687137},
    {0.061255354, 0.27303424, 0.34741876, 0.04136474, 0.19330378, -0.03472342, 0.13070208, -0.07867433, 0.10599066, 0.19664387, -0.22423561, 0.06178605, -0.08704581, -0.10745865, -0.10349338, 0.046221815, -0.25651813, -0.33318666, -0.0030132278, -0.24684109, 0.04159596, 0.18008655, -0.1938603, 0.08377407, -0.024698595, 0.18492189, -0.019197969, -0.07059728, 0.105838574, -0.06526985, -0.13847706, 0.06443332, 0.25011283, -0.34250268, -0.01765024, -0.12858006, -0.20086539, 0.06395524, -0.027633037, -0.19619992, 0.104152255, 0.30242974, 0.064043805, 0.14144556, -0.16639209, -0.120874465, 0.15725502, 0.13828854, 0.26743144, -0.29597554, 0.057433743, -0.15309438, 0.04590134, 0.037595812, 0.30235416, 0.1241307, 0.1329271, 0.35718873, -0.037127852, 0.06608978, -0.44778815, -0.036242947, -0.22069536, -0.10076423},
    {-0.12076385, -0.27771536, -0.2289692, 0.06796763, -0.14655864, 0.0942028, 0.048049293, 0.13009784, -0.033829425, -0.35522965, -0.14204001, 0.08167806, 0.05431452, 0.09579107, 0.025234785, 0.04724475, -0.052518725, 0.008752712, 0.07518978, 0.037728682, -0.003645036, -0.19918221, 0.09063804, -0.094967075, 0.0070761656, 0.0129503105, 0.11829953, 0.1937792, 0.08292886, -0.10689572, 0.12667035, -0.037584007, -0.055207375, 0.28422126, 0.0026640708, -0.009177179, -0.39287066, 0.08406014, -0.091041036, 0.21444069, -0.2741281, -0.31280056, -0.39075953, -0.42190006, 0.18754348, -0.16817927, -0.052387975, -0.0238157, -0.10336495, -0.031357903, 0.067519546, -0.10100129, 0.022803819, -0.035344083, 0.07416463, 0.095046364, 0.24755141, 0.2104766, -0.0023305137, -0.18535791, 0.45105296, 0.020068632, 0.0074808155, 0.06180522},
    {0.041422814, 0.26125678, -0.3805271, 0.048282657, 0.08421134, -0.12504683, 0.30602813, 0.102719374, -0.10532617, 0.26682618, 0.032475196, 0.18292604, 0.037872273, 0.01702378, 0.091208, -0.057632733, -0.20526847, 0.20569184, 0.09383139, 0.096367605, 0.019099195, -0.36426368, -0.0875705, 0.051040065, -0.00046807242, -0.1179382, -0.05963283, 0.27535102, -0.23715717, -0.0555685, 0.33349517, 0.035045046, 0.01911666, 0.11360845, 0.14309196, -0.07469912, 0.0101436395, -0.08534648, -0.0641278, -0.09744815, -0.14270659, 0.04757685, -0.06580924, 0.29658484, 0.09104849, 0.035475522, -0.543348, 0.19206505, 0.026879815, 0.18185048, -0.049367223, 0.04713506, 0.03903668, -0.077585846, 0.06944078, -0.2720719, 0.09114656, 0.038420767, -0.028896892, -0.07916803, 0.34752142, -0.0767407, -0.19231717, 0.08664476},
    {-0.053187296, 0.13523205, -0.027507914, 0.032267533, 0.1468108, -0.16979025, 0.06255238, 0.01663624, 0.010623729, -0.37577656, 0.030288983, -0.12847574, 0.059670053, -0.02972149, -0.10547628, -0.06573672, 0.2081856, -0.24482048, 0.029173955, 0.2974499, -0.041867435, 0.08120164, 0.25077006, 0.02847968, -0.03690713, 0.24488354, 0.00052194, -0.017823288, 0.26538315, 0.017889285, -0.028146079, -0.012245798, 0.12116796, 0.03193192, -0.01250539, -0.025037343, -0.32250577, 0.0656076, 0.119840525, 0.012036889, 0.43702564, 0.18889625, -0.24528424, 0.27980483, -0.05442546, -0.015216169, 0.0026465137, -0.24080496, 0.3229969, 0.17737588, -0.037178818, -0.0027370483, 0.025351964, -0.16671252, 0.021086201, -0.48695126, -0.056846198, -0.067078866, -0.045926567, -0.11840167, 0.1829659, -0.025579238, 0.07223066, 0.13821353},
    {0.009793074, 0.51641643, 0.08755543, 0.016196398, -0.06216418, -0.0002881109, 0.008510175, 0.00835117, -0.050180737, -0.19706936, 0.30185384, 0.13769327, -0.481495, 0.024296673, -0.4033001, -0.5045823, -0.361749, 0.09913064, 0.03627938, 0.38398623, 0.03235829, -0.59175587, -0.32782364, -0.09724063, 0.020066943, 0.10048863, -0.021758212, 0.60565764, 0.28616282, -0.022110462, -0.29895118, -0.0185327, 0.119331345, -0.6230015, -0.0196453, -0.015613702, -0.28035638, -0.039697282, -0.13300009, 0.12074288, -0.06334034, -0.83632934, 0.7424416, 0.007305408, 0.15464142, -0.08092275, -0.10696513, -0.85855764, -0.2161954, -0.23225728, 0.092036985, -0.08902055, -0.04003801, -0.10117453, 0.14720026, 0.2936852, 0.17068137, -0.70486784, -0.032890476, 0.0008556664, -0.51124066, 0.08728454, -0.05109461, -0.07130812},
    {0.068001255, 0.059520815, 0.13213982, -0.049176004, 0.101182394, -0.050147638, 0.23420411, -0.04713456, -0.12023674, 0.248511, -0.21467593, -0.08093398, -0.11308804, -0.041876882, 0.34808657, 0.08489231, -0.45314518, 0.093692504, 0.052963693, 0.030853296, -0.016812304, 0.2059238, -0.36889493, -0.08925941, -0.055746872, -0.21896903, 0.024270501, -0.08931982, 0.026120454, -0.023190975, 0.28411478, -0.011097647, -0.26101503, -0.051636625, -0.09331072, -0.11154022, -0.010334096, 0.1238323, 0.032953095, -0.07717189, 0.21489793, 0.44599196, -0.32005027, 0.5044524, 0.060185775, -0.0149681745, -0.22954646, 0.5453673, -0.09742974, 0.08036033, -0.058200184, -0.06922653, 0.006244717, -0.035840247, -0.21057306, 0.042173687, 0.28105873, 0.18943834, -0.07399471, 0.24282674, 0.18906038, -0.08150099, 0.17252384, -0.083646104},
    {-0.0138796205, 0.057402674, -0.17817183, 0.047143523, 0.038482547, -0.09249728, -0.023187088, 0.053049367, -0.0026649528, 0.074615926, 0.18697996, -0.0013446521, 0.2651875, 0.011655109, -0.05931397, 0.0069565, -0.058462363, 0.1793456, 0.054417282, -0.052283622, 0.07930365, -0.18331338, 0.32222664, -0.08371074, -0.02064134, -0.04103484, 0.19285269, 0.22711639, -0.14152515, 0.04494686, -0.2452932, -0.06302364, -0.095631965, 0.18357512, -0.09276868, 0.0590257, -0.067336604, -0.0045182197, -0.14938824, -0.02233498, -0.27529895, -0.1003777, 0.4451813, -0.30039442, -0.083246015, 0.07134028, -0.063916475, -0.1700193, -0.12432962, 0.0034483, -0.06572635, 0.05791526, 0.0106804, -0.067206666, 0.035797484, -0.13522291, -0.4355608, -0.27048418, 0.041649718, -0.022417309, 0.2811524, -0.00014672967, 0.013432224, 0.12320939},
    {-0.0058262344, 0.0011378578, 0.4731075, 0.08617947, 0.008495779, 0.06813492, 0.37448788, -0.050937045, -0.009544088, 0.39494175, -0.37612975, -0.0067605954, 0.23644125, 0.010358611, 0.2814365, -0.033785213, 0.11922767, 0.24027818, 0.03159807, -0.04377905, 0.07540199, -0.10361104, -0.2512912, 0.025895711, 0.14200385, 0.035139624, -0.027659971, 0.18938273, -0.06899381, -0.05866583, -0.0818655, 0.003514078, 0.07655598, 0.030219436, 0.032685757, 0.099351436, 0.49731517, -0.018159049, -0.11069072, 0.1326231, 0.1279851, -0.33200106, -0.12484795, -0.20909798, -0.17425072, 0.009687328, 0.06922069, 0.3232214, -0.2967774, 0.12645397, 0.14047788, -0.07936288, 0.03544838, -0.16142145, 0.13709822, -0.08695066, -0.6631186, -0.044912998, 0.033937056, -0.0882235, -0.13075444, -0.08682315, 0.081410006, -0.08623178},
    {-0.035960246, 0.11495086, -0.09834219, -0.0753727, -0.0569266, -0.050852355, -0.21296233, -0.028213734, 0.021660613, 0.35288835, 0.14422666, -0.09818626, 0.00908664, 0.0021544138, -0.2810534, -0.15249039, 0.35226226, 0.038703166, -0.023039024, 0.0012055963, -0.0063616536, -0.51707757, 0.08282407, -0.034419764, -0.05597102, 0.05471973, -0.096730955, 0.28342137, -0.19822638, 0.05810424, -0.09784916, -0.06405067, -0.023044856, -0.046285037, -0.034415193, -0.039444763, -0.004467573, -0.054300774, 0.054245166, -0.13253923, 0.06542003, -0.6116606, 0.18899712, -0.23261058, 0.0006474955, -0.029979305, 0.046060275, -0.34165806, 0.08939824, -0.049738526, -0.031246707, -0.00017139857, 0.060532674, 0.21268028, 0.029888157, 0.3194382, -0.173647, -0.39244637, -0.077205546, -0.3607225, -0.23616953, 0.02469349, -0.13412493, -0.045550976},
    {0.07943887, 0.08033122, -0.19528306, 0.00741548, 0.018727405, 0.13061284, -0.13665128, -0.06751695, 0.034032244, -0.1309142, -0.17661363, 0.03964586, 0.69945943, -0.1611588, -0.62032145, 0.030455397, 0.7187648, 0.11639805, -0.110626884, 0.20840342, 0.086998545, -0.3947735, 0.08348299, -0.0062442143, -0.06290684, 0.28438023, -0.031149875, -0.08957, -0.09948949, 0.031504378, -0.15763655, -0.020527916, 0.29450333, 0.33928153, -0.008846043, -0.014829001, -0.18731245, -0.13011439, 0.061744764, -0.07245719, -0.094172455, -0.30671185, -0.15310292, -0.040636696, -0.09466592, -0.05606445, -0.15663972, -0.2259419, 0.14692596, 0.3636499, -0.03922909, -0.039931707, -0.07098684, 0.04366846, 0.0121739535, -0.2205071, 0.07715255, 0.106739625, -0.024322882, -0.32534724, 0.31833318, 0.06176638, -0.050935294, 0.05694067},
    {-0.007923723, -0.061419018, -0.30126864, -0.010112575, -0.0727241, 0.011544835, -0.04619418, 0.10291768, -0.03615574, 0.09389726, -0.16892518, 0.07299319, 0.08532214, -0.04455433, 0.33650815, 0.03853591, 0.061985806, 0.18098727, -0.03829753, 0.16775502, -0.048962202, -0.26856604, -0.15751761, -0.04626076, -0.045242835, -0.2054913, -0.020873986, -0.34719807, 0.3991878, -0.01790673, 0.48322833, -0.026779665, -0.05602692, -0.35643107, 0.042105358, 0.07673485, 0.12677915, 0.019173631, 0.09837849, 0.0016945619, 0.6534111, -0.109419875, -0.12517352, -0.034930553, 0.14407964, 0.038292836, 0.04986966, -0.13316613, 0.07421972, -0.0022242572, -0.061096992, -0.0020680183, -0.013918862, 0.15592861, 0.029347358, 0.18146914, 0.11454714, 0.09827496, -0.041129112, -0.41986752, -0.11260367, 0.11825392, -0.029496582, 0.011797962},
    {0.05229265, 0.058215864, 0.38644397, 0.11561742, -0.038007695, -0.021591738, 0.20006286, 0.07737869, 0.0833646, -0.0057551647, 0.011706618, -0.051555917, 0.0554879, -0.09097802, -0.23358788, -0.08813268, -0.12754682, 0.14493495, 0.05796137, -0.19676402, 0.016346348, 0.28357604, -0.21990614, 0.016553361, -0.04985419, 0.00030757723, 0.08733576, 0.16245446, -0.49447897, -0.0060270736, -0.1944272, -0.036494777, 0.009535103, 0.10141862, 0.07410128, -0.012363788, -0.14188534, -0.08532451, 0.06066088, -0.1344302, 0.07210938, 0.34701374, -0.073868744, 0.40823326, -0.04101689, -0.053139884, -0.12212343, 0.19703442, -0.06266091, 0.31343117, 0.13304481, 0.024894966, -0.027865727, -0.13926573, -0.07454477, 0.28106463, 0.09206998, 0.015003923, 0.012672329, 0.087157905, -0.11900811, -0.060961105, 0.10540897, -0.09037932},
    {0.025991471, -0.058265947, -0.045234755, 0.07532837, 0.08304371, -0.02926294, 0.08710311, -0.053692114, -0.015318294, -0.0060711238, -0.27747858, 0.063531354, 0.21079841, 0.008483259, 0.32321414, 0.09922992, -0.016117308, -0.22209308, -0.09550909, -0.054169506, 0.035186537, 0.11268284, 0.21685407, -0.0001503311, 0.114754, -0.098912165, 0.072333425, -0.22023906, -0.31907013, -0.074709095, 0.05913881, -0.045290545, -0.15177542, -0.003461942, 0.11079801, -0.03858032, -0.08995233, -0.07244416, -0.06161035, 0.1092764, 0.35968333, -0.09230583, -0.22144632, -0.024885738, -0.0576912, -0.07631882, -0.3899034, 0.26182878, 0.09475326, -0.30918533, 0.03914903, 0.027734656, -0.018444274, 0.02684028, 0.09428049, -0.043689553, 0.219067, 0.005526303, 0.00657125, 0.022185588, -0.010801603, -0.035591748, -0.17370792, -0.10237337},
    {-0.08180842, -0.5691529, 0.108748466, 0.08857798, -0.111153, 0.026306897, -0.15153721, 0.015377031, -0.036070343, 0.6545437, 0.25182855, -0.032263886, -0.07442762, 0.022827288, -0.05146921, 0.3293774, 0.41132322, -0.52915895, -0.0029808476, 0.02936738, 0.059855286, 0.053257845, 0.6836663, 0.04472582, -0.041166246, -0.050855715, 0.0973736, 0.20125124, -0.46623614, -0.12351026, -0.20328209, -0.051343992, 0.06539282, 0.31129, 0.07098023, 0.05388585, 0.7503733, 0.039530594, 0.012264693, -0.05204043, -0.09677757, 0.20446393, 0.04300357, 0.11385128, -0.14745925, -0.116600715, 1.08607, 0.04954639, -0.12046467, -0.41035023, 0.0094834585, 0.0084441425, 0.10866519, -0.08040305, 0.06675277, -0.33055195, -0.09049751, 0.2239941, 0.040725574, 0.35917845, -0.09073939, -0.12283372, 0.011481249, -0.03228734},
    {0.15850191, -0.0707467, 0.2035118, 0.08040837, 0.08433096, -0.15882508, -0.30384967, 0.07463764, -0.03182098, -0.2167742, -0.15156756, -0.016401818, 0.4012846, -0.1092919, -0.43912122, 0.005635709, 0.4805507, 0.14591211, -0.12768637, 0.15532759, -0.11284558, -0.48511624, -0.2524865, 0.1905876, -0.04355526, 0.39431804, 0.01492779, -0.28780645, -0.14587687, 0.059706055, 0.119122416, -0.12197446, 0.27778912, -0.042775463, 0.17352504, 0.005000555, -0.2706752, -0.028923472, -0.07227664, -0.0772298, -0.0967766, -0.19533393, -0.45061797, -0.64181, -0.11844616, 0.02433548, 0.123447075, -0.18947582, 0.03759994, 0.010129687, -0.18504845, 0.052375033, -0.08549232, -0.22163944, 0.00809125, 0.09444711, -0.14490715, 0.16046512, 0.022331519, -0.8963379, -0.21381798, -0.2085956, -0.05314936, -0.01108274},
    {-0.1296435, -0.32031798, 0.058670077, 0.049115237, -0.09533178, 0.13854852, 0.22647782, -0.033828735, 0.0925488, -0.10574394, -0.09248838, -0.016374558, -0.18918985, 0.0013575049, -0.09745963, -0.0018496604, 0.022782221, 0.35709062, 0.038534224, 0.045455478, -0.03934241, -0.12957017, -0.07623616, -0.008060967, 0.10547347, -0.07006922, 0.02609364, 0.34424877, -0.10264368, -0.062065523, -0.025708042, -0.090032324, 0.11627643, 0.11446984, -0.02888106, 0.014222345, -0.0656602, 0.067202486, -0.01773162, 0.04718658, -0.0962469, 0.3003831, -0.09723807, 0.12120441, 0.08060649, -0.14323008, 0.32910258, -0.014922868, -0.17304398, 0.13323961, 0.02823801, -0.14445807, -0.010841711, 0.09964211, 0.05612079, 0.19363017, 0.16974472, -0.12329797, 0.0027682744, 0.3096795, 0.10569401, 0.05599293, 0.09715016, 0.029330831},
    {0.10076426, -0.19842431, -0.35446087, -0.0015022522, 0.056625478, -0.00093419704, -0.47835776, -0.112894244, 0.10271981, 0.033643868, 0.06780313, -0.018305901, -0.15296215, -0.058669902, -0.08414317, 0.26388612, 0.39377037, -0.31432286, 0.0033302323, -0.14416601, 0.123451926, 0.079756655, 0.2180856, -0.12013001, -0.009025675, -0.18269633, -0.038068496, 0.093010925, -0.23935607, -0.012733517, -0.13424817, 0.016928447, 0.080388285, -0.061150305, -0.10709054, -0.05047202, 0.044704903, -0.012693243, 0.00899383, -0.07062635, -0.2599517, 0.28940004, -0.3875635, -0.0802917, -0.006674455, 0.028494947, 0.22544678, -0.1850043, 0.18058902, -0.12062973, -0.052239813, 0.008371331, -0.04929016, 0.07010701, -0.07669294, -0.041848533, 0.3106634, 0.19895877, 0.044807006, -0.19909303, 0.038386654, -0.13636532, -0.0925548, 0.027091429},
    {0.18016577, 0.31259233, 0.14697395, 0.017228695, 0.09420887, 0.09460621, 0.06215234, -0.10316533, -0.019709872, 0.3340585, -0.029017325, -0.09375701, -0.14173059, -0.012084198, 0.09706583, -0.3660306, -0.13292487, -0.075677134, 0.12326773, 0.262097, 0.005080472, 0.09081847, -0.3034435, 0.08047787, -0.08717184, 0.03277321, -0.063143805, -0.32566196, 0.35566482, 0.0018659121, 0.29652718, -0.067313634, -0.016958717, -0.6392459, -0.059899263, -0.16550282, -0.06507409, 0.096269146, 0.16490816, 0.09982669, 0.123992346, -0.029103065, -0.08055057, -0.1089519, 0.034645155, 0.016521767, -0.09393814, -0.013109921, -0.2718612, -0.04220442, 0.01532288, -0.23187721, -0.04671451, 0.1034725, -0.010843886, 0.19981188, 0.37910175, 0.08911769, 0.014433395, -0.73064435, -0.72229725, -0.14092822, 0.21141326, 0.01335694},
    {-0.042628143, 0.29659927, 0.48181087, 0.09270384, 0.09468535, 0.051393125, 0.18078363, -0.0064833895, -0.0022277192, 0.42070398, -0.504369, -0.09996495, 0.31647593, -0.05324836, -0.1676595, 0.084851146, -0.27662313, -0.16873668, 0.06238814, -0.244236, -0.029307656, 0.094845854, -0.29998147, 0.15181062, -0.08208322, 0.025331028, 0.01517227, -0.13449521, -0.069472365, 0.07110036, -0.039476085, -0.044337705, -0.023016088, -0.39150402, 0.031536426, 0.13927394, -0.1718532, 0.04827588, 0.049825475, 0.07017692, 0.3027378, 0.7491621, -0.396459, 0.3817131, 0.12040865, 0.05713213, -0.034813255, 0.6673079, 0.24474752, 0.28883588, 0.049264487, 0.17182656, -0.005189975, 0.10370666, -0.12895115, -0.14895533, -0.2726071, 0.43183136, 0.08774438, -0.2984727, -0.38386595, -0.13457426, -0.046095893, 0.06561481},
    {0.032932535, 0.4074158, 0.03846529, -0.03432468, 0.01213524, 0.08403287, 0.26699257, 0.036169723, -0.10163996, -0.43593624, -0.061230805, -0.013342977, 0.26519644, 0.01103142, -0.19725719, -0.10678598, -0.3169415, 0.25632367, 0.09637665, 0.23989423, -0.1274736, 0.023931812, -0.3361868, 0.10179904, -0.07946327, -0.19850451, -0.16423632, 0.024404146, 0.15551342, 0.046763778, 0.15199372, -0.086446315, -0.26566046, -0.07532422, 0.07329364, 0.09981012, -0.35648683, 0.023055056, -0.009988019, 0.03761623, 0.05639357, 0.37452915, 0.1680032, 0.12486777, 0.035513025, -0.06293411, -0.6203839, 0.15376969, -0.07227196, 0.21745506, 0.0419527, -0.041977104, -0.05635222, -0.10249497, -0.06650744, -0.28131893, 0.06170115, 0.15570267, 0.04559824, -0.260727, 0.28424814, 0.012830055, 0.009684235, 0.04868332},
    {-0.11891209, -0.15308924, 0.3331553, -0.105682515, -0.077682674, 0.252288, 0.47404414, -0.24660033, -0.10318365, 0.09746355, -0.20038366, -0.101821356, -0.3718647, -0.10171038, 0.2846902, 0.0446216, -0.33873078, -0.18022157, 0.19708483, -0.23666221, -0.080444574, -0.13628417, -0.08228579, 0.060205452, 0.024041036, -0.30452943, 0.042984795, 0.6760413, -0.44142288, 0.02145562, -0.10974229, 0.05930953, -0.09813873, 0.3194572, 0.08364439, 0.14601259, -0.048595596, 0.02390198, 0.039081935, -0.14687195, 0.060604896, -0.13654126, -0.0689276, 0.06942626, 0.020800173, 0.16163187, -0.016448366, -0.24212004, -0.11059227, -0.6494645, -0.019014403, -0.043134015, 0.05429133, 0.03615161, -0.07667412, 0.35531855, -0.021898646, -0.063529566, 0.14512907, 0.37961, -0.06423748, -0.04268627, -0.04390201, 0.025710367},
    {0.054810014, -0.060959276, -0.03986729, -0.047161754, -0.09090897, 0.0559835, 0.048166018, 0.08307559, -0.045773495, 0.12991872, -0.027447067, 0.10528885, -0.0076777977, 0.03814346, -0.24573158, -0.26573747, 0.14213325, -0.045215026, 0.0679015, 0.11365299, -0.0927513, 0.2526142, 0.17890751, -0.09421061, -0.014082893, 0.032866467, 0.06139657, -0.43691996, 0.27541646, -0.011021381, 0.1842325, -0.091625586, 0.13229534, -0.28337908, -0.06414194, -0.18433845, 0.16506806, 0.0029380184, 0.030310817, 0.09367727, 0.09899081, 0.09667442, 0.07412518, 0.1933373, -0.034358423, 0.04117374, 0.16678865, 0.11136237, -0.27033594, 0.054466005, -0.08049578, -0.025183566, -0.047830217, 0.18363394, 0.19110449, -0.08970089, 0.46077588, 0.10901461, 0.06849565, -0.10141581, -0.32419485, 0.06792474, -0.09818951, -0.14302905},
    {-0.05239034, -0.15917729, 0.025805052, -0.0075457455, 0.0857076, 0.03371517, 0.49360776, -0.019988652, -0.06493931, -0.14689088, -0.11587444, -0.105423026, -0.06673062, 0.037776668, 0.3789763, 0.17762117, -0.4179153, 0.15688391, -0.1596339, 0.0008119844, 0.054696325, -0.21476911, -0.09025398, -0.048560623, -0.104436904, -0.18371761, -0.07560143, -0.18059474, 0.65458703, -0.027607404, 0.45888683, 0.025947431, -0.3103197, -0.21550895, 0.073439166, -0.105247386, -0.008590577, 0.06955024, -0.024568109, -0.12236696, 0.3044709, 0.13444455, -0.09007015, -0.025015032, -0.096811965, -0.03500029, 0.19366305, 0.22360368, 0.046614632, -0.14173372, -0.030387105, 0.11358598, -0.039621964, 0.06248982, -0.024258101, -0.4157322, -0.033015057, 0.19813308, 0.048306696, 0.0653077, 0.13301165, -0.079150535, 0.050769113, 0.09246126},
    {-0.0073270877, 0.2878522, 0.7410289, -0.05002401, -0.09641918, -0.08436001, 0.11208651, 0.03771048, 0.05075964, 0.18552992, -0.46546495, 0.14204267, -0.107320175, -0.05526449, -0.17452422, 0.2085753, -0.2867478, 0.2543133, -0.20182072, -0.26956567, 0.06779454, 0.2818244, -0.532381, -0.10079982, -0.024890663, -0.25782087, -0.09942241, 0.11519472, -0.2386294, -0.015212258, -0.30808562, -0.1069149, -0.014677312, -0.45630735, -0.17026573, 0.11129894, -0.20142221, -0.05858535, 0.0024406968, -0.05356876, -0.23755349, 0.2593958, -0.20767571, 0.643549, 0.1740349, 0.02144383, 0.0029904034, 0.52725583, -0.24429491, 0.035177805, -0.122415796, 0.039791074, -0.008192902, -0.0048606005, 0.06468663, 0.19558138, -0.028081493, 0.22843993, 0.011857016, 0.49981478, -0.2889866, 0.099380344, -0.04472866, 0.042545572},
    {-0.012150733, -0.20307148, -0.1146453, 0.002690404, -0.014447425, -0.0074866707, 0.26332405, -0.02488366, 0.035404075, -0.010035722, -0.049887586, -0.11499139, -0.14929448, -0.004666253, 0.056250308, -0.24326576, -0.051759202, 0.043544218, 0.06765703, 0.012658598, 0.08955845, -0.37925974, -0.23860654, -0.076097384, 0.035683203, -0.22663613, -0.077022076, 0.017243251, 0.17570314, -0.010145731, 0.44690916, -0.15149687, -0.16160695, -0.12288261, -0.14184971, 0.09980479, 0.02052026, -0.045544773, -0.019130778, -0.035188682, 0.39855194, -0.29099876, -0.12135988, -0.122088954, -0.0068709454, -0.013750856, 0.25609946, -0.071048565, -0.0963546, -0.07223062, 0.008885616, -0.0071804128, -0.034168184, -0.069495745, -0.06457655, -0.028942935, 0.097398624, -0.32698256, -0.017846182, -0.5324533, -0.009296121, 0.10522729, 0.16478465, -0.09403765},
    {-0.026290376, 0.24952458, 0.6388327, -0.04849957, 0.073005855, -0.08336924, 0.29788002, -0.03840532, 0.07908949, -0.5134807, -0.7526656, -0.055681843, 0.03748926, 0.10798928, 0.17861904, -0.1222376, -0.1432215, 0.15998812, 0.12636556, 0.3290929, 0.022317644, -0.15182969, -0.8434777, -0.013995643, 0.03724124, -0.06702505, 0.013993865, -0.17237379, 0.03268035, 0.03033441, 0.110730566, -0.05942387, 0.14251865, -0.13850418, 0.06488323, -0.015184974, -0.54815906, 0.04542745, 0.028723242, 0.14010222, -0.028868224, 0.06275252, -0.5448471, 0.12740076, -0.051157072, -0.10878312, -0.31168163, 0.1517089, -0.3089996, 0.034742177, -0.028961355, -0.141279, 0.060251426, -0.04294711, 0.086248755, 0.2219342, 0.34614813, -0.116730236, 0.058582112, 0.07916524, -0.04214144, -0.07037506, 0.029696573, 0.013635868},
    {-0.0634598, 0.044985343, 0.02502595, -0.04505679, -0.07588104, 0.12715079, -0.2019273, -0.09634526, 0.07487498, 0.03896735, 0.17841837, 0.091240875, -0.2305013, -0.07557836, 0.25178206, 0.1351904, -0.022510108, -0.47429067, 0.056795657, 0.108944945, 0.035623327, 0.13391359, 0.26075146, 0.025131773, -0.0009580843, -0.18433939, -0.0012289695, 0.15998606, 0.020503111, -0.04408186, 0.011541475, -0.2309254, -0.14718516, 0.09654406, 0.03897178, 0.052076496, 0.29160884, -0.013224095, -0.08177672, 0.081814, 0.18029085, -0.029568236, -0.013708953, -0.011869723, 0.17259322, -0.10687806, -0.17517117, 0.08159603, 0.11134447, -0.37550974, -0.051110808, -0.12888259, -0.018883714, 0.026328744, -0.058842998, -0.23677269, -0.05954268, 0.27778482, 0.0663128, -0.08923934, 0.29312265, -0.05573446, -0.005622751, -0.09255088},
    {0.021859426, -0.03103167, -0.12295714, -4.6007925e-05, -0.13225798, 0.14623831, -0.15526746, -0.1945194, 0.06724318, -0.13371079, -0.09278716, 0.0030672832, 0.0024778654, 0.030183326, -0.0018473419, -0.12594385, 0.57693577, -0.30705124, 0.1871985, 0.14319967, 0.042188585, -0.382769, 0.19451663, -0.046538275, -0.026152343, 0.1261986, -0.060719363, 0.26752442, -0.060288526, 0.069662295, 0.03505502, -0.05102246, -0.12584297, 0.45884654, -0.13685937, 0.028637556, -0.102582246, -0.04016604, 0.024899445, -0.03311125, 0.041397102, -0.47640318, -0.011018362, -0.11670368, 0.1348013, 0.02165374, -0.07816949, -0.3689577, 0.09757959, -0.07534434, 0.018479796, -0.22003053, -0.08207811, 0.18176877, -0.01210385, -0.13286568, 0.48839203, -0.24629207, 0.07749219, -0.057981744, 0.33625862, 0.021864643, 0.098739594, -0.090222},
    {0.09810033, 0.10653942, -0.24615084, -0.04525614, 0.09430998, 0.10053374, 0.17799903, -0.0791004, 0.028591873, -0.18031006, 0.37929505, -0.07665636, 0.14427204, -0.078138635, 0.25306416, 0.042688087, -0.020820856, 0.22827719, 0.06572133, 0.10737173, -0.013284006, 0.16441825, 0.1816308, 0.058310773, 0.005919059, -0.15591906, -0.013927584, -0.057592664, 0.28579822, 0.05291946, 0.17089182, 0.006215266, -0.22799733, 0.27269325, -0.07983137, 0.029916735, 0.123468995, 0.05192322, 0.11783518, -0.07561872, 0.09166908, -0.08154389, 0.63652796, -0.2194908, -0.062582776, 0.08657751, -0.22169396, -0.14990246, -0.1419989, 0.2849373, -0.10285396, 0.039598323, -0.06343944, 0.02394451, -0.23746106, -0.26491684, -0.51611704, -0.4426589, 0.006313819, 0.11302569, 0.4401511, -0.103701726, 0.17046851, -0.0874887},
    {0.04856532, 0.16600698, 0.38623348, -0.0761335, -0.04615613, 0.016349263, 0.22417025, 0.08771527, 0.14929979, 0.2479299, 0.06371411, 0.06971756, 0.25872636, -0.025292646, 0.14786565, 0.1885252, 0.005803941, 0.041219037, -0.031557556, -0.037423614, 0.06324825, -0.25877634, 0.08577553, -0.10196485, 0.07424683, 0.09703675, -0.005273534, 0.25584123, -0.14925763, 0.011405291, -0.14583474, -0.17368436, -0.06378603, 0.0851123, -0.14031076, 0.0039756773, 0.21174294, -0.06633812, -0.1444126, -0.16705933, 0.34853345, 0.06052956, 0.11434366, -0.1153192, 0.09302705, 0.0040943627, -0.014377031, 0.29160854, -0.13023335, -0.23165578, -0.007073014, 0.15702815, 0.01781099, 0.1397338, -0.06907458, -0.1392378, -0.57099897, 0.16627027, 0.01771643, -0.1306467, -0.030681303, 0.113134705, 0.015384785, 0.07325599},
    {0.021689374, 0.15628923, 0.11433459, -0.0155297825, -0.033515975, -0.02336542, 0.084478244, -0.15980369, 0.014356552, -0.010069529, -0.19738515, 0.053450596, -0.20200555, -0.054983955, 0.10450138, -0.021682704, 0.0021572744, -0.20651683, 0.05775723, 0.052954726, -0.0069329855, 0.24203232, -0.2169721, -0.057544436, 0.0601912, -0.24650294, 0.1124453, -0.58957654, 0.5391131, -0.06506308, 0.25619268, 0.13259135, 0.0316641, -0.38124442, 0.020462122, -0.025106778, -0.012935275, -0.108478405, -0.01528805, 0.07247126, 0.2902251, 0.17230824, -0.12140975, -0.08679402, 0.13826479, 0.067704014, 0.12807028, 0.13676552, 0.06810688, -0.037454616, -0.057445876, -0.015882077, -0.0032648582, -0.0026916254, -0.017645342, 0.1561381, 0.3404031, 0.28440303, 0.05791545, -0.21633904, -0.2985364, -0.05351978, -0.027608003, -0.12207003},
    {0.057408802, 0.0046988353, 0.0595045, -0.0055286344, -0.042089798, 0.09464602, 0.014347777, -0.18189742, 0.078760445, -0.32248694, -0.13959107, -0.14674167, -0.1284981, 0.02245539, 0.21328461, -0.048912734, -0.41522706, -0.030112075, 0.124072805, -0.19530725, 0.09252494, 0.72024655, -0.23730858, 0.004123258, 0.09233099, -0.15804835, 0.012830118, -0.090365306, 0.20947523, 0.021313205, -0.013547298, -0.007800238, -0.16417357, 0.14339028, -0.016353233, 0.0052000307, -0.40922692, -0.043001328, -0.025072632, -0.10064693, 0.12677597, 0.40212753, -0.030180663, 0.50702065, -0.003828043, 0.04168993, -0.118844986, 0.47564122, 0.09530849, 0.27320343, -0.015894255, -0.15517356, -0.011957746, 0.124629796, -0.042127077, 0.06909552, 0.36688468, 0.32281262, 0.020052187, 0.36000368, 0.17507492, 0.011787824, 0.17780456, 0.09944366},
    {0.015691679, -0.020625394, -0.11133734, -0.016525488, 0.041363962, -0.15460193, -0.16117191, -0.13413882, 0.030991493, 0.03668051, -0.093337305, -0.075549155, -0.08092746, -0.091000944, 0.027970297, -0.048805244, 0.44746125, -0.75852674, -0.06191934, 0.004308025, 0.036196824, 0.14339143, -0.007602004, -0.01806705, -0.11316076, 0.17080376, -0.044683874, -0.13425104, -0.058845073, -0.02137729, -0.009769594, -0.14896855, 0.18909523, -0.10537871, -0.03237761, 0.055588167, -0.08686241, 0.08129972, -0.020772057, -0.11771327, 0.24690111, 0.0011978187, 0.16696782, 0.1405486, 0.019472279, -0.06549202, 0.12808701, -0.08305495, 0.2949211, -0.26484224, -0.043176673, 0.04417392, 0.090720974, -0.15613341, -0.04835637, 0.25559527, 0.27933022, -0.102667205, -0.07818481, -0.19885974, -0.32021502, -0.15167218, 0.033498857, 0.10457421},
    {0.1647288, -0.17978188, -0.22287413, 0.08858431, 0.028775157, -0.040101767, 0.28883567, 0.11232613, -0.06211486, -0.834961, -0.077044524, -0.0019304174, 0.05523517, 0.029164454, -0.053852707, -0.10336406, -0.2852787, 0.15540786, 0.06847555, 0.010763197, 0.031468496, 0.22561872, -0.12902482, -0.022196228, -0.111890905, 0.034238316, 0.029299228, 0.1290866, 0.25997174, -0.0466943, 0.095770165, 0.027349845, -0.20397742, 0.39478913, 0.006488978, -0.123639755, -0.51694024, -0.010757964, 0.09564675, -0.040124457, -0.2750823, -0.09154822, -0.10536807, -0.30411208, -0.06315787, -0.060482144, -0.43424425, -0.43117523, 0.055735614, 0.31511283, 0.0021596027, 0.02829432, 0.06042961, 0.11493483, -0.009777616, 0.14148188, 0.055081416, -0.0972554, -0.0024233067, 0.44080132, 0.39352244, 0.031479154, 0.049696866, -0.18866824},
    {0.0050454764, -0.069297574, 0.003319448, 0.014929875, -0.0080149565, -0.0444888, -0.023419388, 0.09735421, -0.010803639, -0.1191898, 0.19908658, 0.008678785, -0.27866027, 0.016756328, -0.22437525, -0.053107843, -0.35577312, 0.0009329636, -0.10023136, 0.32140246, -0.030672884, -0.27198854, 0.05588958, -0.050762855, 0.00881573, -0.25687128, 0.018146878, 0.070507795, 0.16019782, -0.033468388, -0.12136198, -0.13672695, -0.03811255, -0.070854016, -0.040094767, 0.10951056, -0.19868544, -0.053609412, 0.04342677, 0.032746233, 0.2062307, -0.14657803, 0.07436827, 0.06678731, 0.080942236, -0.02442956, -0.39001563, -0.41388074, 0.4023355, -0.067279406, -0.10827454, 0.09413494, 0.032289512, -0.041565083, -0.12383665, -0.111807175, -0.006628471, -0.31922272, 0.0046622925, 0.04906292, 0.049218316, -0.03383522, -0.05728759, -0.008835278},
    {-0.00041747058, 0.24242695, 0.029533962, 0.04747719, -0.05359064, 0.034528743, 0.052672006, 0.12830302, 0.05242983, 0.14389683, 0.12672181, -0.088746615, -0.017669313, 0.018528126, -0.0750539, 0.057714585, -0.017194195, -0.1595085, 0.050550055, 0.036673162, 0.03008493, -0.104199, -0.1477707, -0.0505501, -0.11412136, -0.13315324, 0.029418983, 0.009756691, -0.070111215, 0.082505874, -0.02374529, 0.01740367, 0.010150036, 0.10771221, 0.07048558, -0.08826496, -0.17647396, -0.043241665, 0.09489667, -0.052445043, -0.06073128, -0.01503456, 0.027078949, -0.03771788, -0.09154121, -0.03916171, -0.2405016, 0.20497076, 0.08267265, -0.10347803, -0.028230641, -0.01981826, -0.061782908, 0.14799474, -0.017077705, 0.01113498, -0.0277295, -0.043433513, -0.07376386, 0.058046136, 0.33900017, 0.03772911, -0.14243601, -0.011458727},
    {0.009482632, -0.08520312, 0.39076757, 0.07104857, 0.0344008, -0.101003475, -0.27101597, 0.03200736, 0.050180174, 0.31130815, 0.5658714, -0.07850458, -0.23256056, -0.02360713, -0.2743867, -0.12263515, -0.056585632, 0.12885538, 0.095646776, -0.20261465, -0.0921074, 0.31999364, -0.11413527, 0.079292834, -0.009204729, 0.08011878, 0.12703612, -0.19485134, -0.073309906, -0.05406191, -0.06, -0.10796108, 0.28467897, -0.5657014, 0.01281239, 0.043632846, 0.30681023, 0.08332819, 0.04323468, 0.14116652, -0.56229764, 0.08483933, 0.629192, -0.12704252, -0.24025631, -0.062318265, 0.24152857, 0.0070967604, -0.40273786, 0.1718381, -0.02530213, -0.053968903, 0.035201155, -0.016664796, 0.17627865, 0.40247643, -0.32093158, -0.17418598, 0.09335626, 0.025359165, -0.5994729, -0.04636619, 0.021487067, 0.05949072},
    {0.07513319, -0.6178216, -0.079946764, -0.046859846, -0.041993078, 0.08012699, 0.2223341, -0.045961995, -0.092285655, 0.16186732, 0.25825685, 0.2144083, -0.38762945, 0.044806313, 0.110612586, 0.095359474, -0.12179936, 0.16834825, -0.08068422, 0.059522357, 0.039613467, 0.27071556, -0.22251335, -0.09742023, -0.07027769, -0.102226794, -0.011484687, -0.30523843, 0.17862952, 0.11288828, 0.42705005, 0.021250369, -0.03667106, -0.4609339, 0.040151447, 0.023184655, 0.14071248, -0.12600078, -0.03996106, 0.018470021, 0.14539751, -0.002596206, 0.10174738, -0.16783042, 0.06632896, -0.10133268, 0.6342226, -0.0957429, -0.11540991, 0.019303448, -0.008940072, -0.10293585, -0.070057176, 0.008713701, -0.0013747192, 0.15696652, -0.24750055, 0.024756577, -0.0017622872, 0.13029192, -0.5923907, 0.09614409, -0.08079697, -0.1655324},
    {0.03752832, 0.09245136, -0.010520616, -0.020970961, 0.02903953, 0.011300785, 0.12232185, -0.11786105, 0.06924471, -0.20331076, -0.16405506, 0.0465509, 0.07200147, -0.15669489, -0.06062858, 0.01698044, -0.0978409, 0.14757761, -0.034739308, -0.14054666, -0.054163877, -0.014297855, -0.51593584, -0.022953672, -0.043978207, -0.12885068, -0.021995978, -0.124212235, -0.07867706, -0.10196439, 0.1381644, -0.088031515, 0.06968535, 0.107148446, 0.021506784, 0.13484287, -0.40201914, 0.11154916, -0.067313366, -0.055218358, 0.11256926, 0.19145703, -0.6520029, 0.1443829, -0.03127999, 0.054759957, -0.27734992, 0.35375556, -0.15080275, 0.16546693, -0.07048374, 0.03531937, -0.0100983875, -0.09434781, -0.07334576, 0.4073732, 0.4144072, 0.098516725, 0.068830796, 0.0089154, -0.2480696, 0.00016560883, -0.090905964, -0.071228124},
    {-0.1579714, 0.0234851, -0.12122545, 0.07598968, -0.0110440785, -0.040455822, -0.3181255, 0.231633, 0.0328659, -0.16674098, -0.074309304, 0.07224755, 0.122378066, 0.013508528, -0.30509773, -0.070555285, 0.17308548, -0.22997792, -0.16776477, 0.16878863, -0.06161843, 0.07256502, -0.05912999, 0.07475987, 0.08915746, 0.22998849, 0.08842065, -0.2873011, 0.25793713, -0.022012556, -0.06355281, -0.056948103, 0.08800488, -0.08498386, -0.01538556, 0.18415184, -0.26681983, -0.039047867, -0.05515564, 0.017701376, 0.121262446, -0.095859155, -0.0677848, -0.10176939, -0.16023603, 0.065109, -0.06151578, 0.047701754, 0.18598628, -0.2604075, 0.007147944, 0.21087034, -0.055715445, -0.12874211, 0.112725824, 0.06961596, 0.32338864, 0.4939252, 0.09454452, -0.24388641, -0.25744024, -0.018697055, 0.045205258, 0.026718816},
    {0.033815, -0.0043906835, 0.38383186, -0.026215518, 0.0608175, 0.08207895, 0.15254593, 0.14796172, 0.03667672, -0.05966883, -0.20791732, 0.020610934, 0.10792908, -0.024416361, -0.10101034, 0.12941186, 0.03671975, -0.07693134, -0.027944835, 0.04849979, 0.008134602, 0.2752206, 0.017208902, -0.1145345, -0.031813364, 0.070349514, -0.054738984, 0.041550856, -0.12305866, 0.021502543, -0.55287784, -0.09972367, 0.18193789, 0.2656958, -0.13289489, -0.029377785, 0.15802628, -0.0031592252, 0.021110335, -0.01896322, 0.22949062, 0.18519944, -0.0051848656, 0.08322961, 0.018900564, 0.072858885, 0.011039867, -0.101533905, 0.29981, -0.35850874, -0.111895524, 0.09505872, -0.04781455, 0.15849097, -0.1556429, -0.14674106, -0.19254728, -0.1892128, -0.10627942, 0.8379771, -0.062616006, 0.06451287, 0.09796712, -0.075952776},
    {0.11470565, 0.39026746, 0.06742034, 0.055234294, -0.0482479, 0.02515304, 0.03406874, -0.09344382, -0.05548223, -0.19208854, -0.110599145, -0.05694354, -0.036599245, 0.02374127, -0.0019865949, -0.22013924, -0.3266316, 0.07485516, 0.11447908, 0.22634012, 0.052272536, -0.0071814116, 0.0018027854, -0.08059951, 0.063475646, 0.16188602, 0.12521754, 0.1245828, 0.008059452, -0.07946181, -0.039632615, 0.06927847, 0.02476198, 0.12017361, 0.040903635, -0.13836004, -0.13504681, -0.033978965, -0.063959174, 0.12590279, 0.13922234, -0.034083165, 0.5717268, 0.15215786, -0.05443634, 0.008654167, -0.28648663, -0.2451215, -0.05562236, 0.09739381, 0.007622794, -0.25888678, -0.026044833, 0.100155264, 0.2907781, 0.0017992164, 0.0751803, -0.341079, -0.10241873, 0.08685596, 0.050748046, -0.07553092, -0.081865214, 0.03893269},
    {-0.073263034, -0.28491005, -0.09259641, 0.03731641, -0.10374819, -0.03040926, 0.089809485, 0.029747374, -0.03879243, -0.2338119, 0.0073955134, -0.020140989, 0.06621488, -0.026575753, -0.07618638, 0.02704454, 0.031234132, 0.00306505, 0.026212556, 0.03329622, 0.010112356, -0.17239514, -0.19313744, 0.059580956, 0.024523431, -0.043360054, 0.062857494, -0.045975927, -0.055432335, 0.024198558, -0.025631452, 0.007225224, 0.08033404, 0.08058673, -0.041994065, -0.02728962, -0.30545327, -0.025310582, 0.07617499, 0.024726693, 0.08505231, 0.059311807, -0.080492586, -0.046275973, -0.015519296, 0.09978581, 0.2278384, -0.04088698, -0.10049049, 0.08488377, -0.07376225, -0.08276863, 0.09080517, 0.11915423, -0.15101153, -0.10787508, 0.037676144, 0.025244553, 0.0046937, -0.029820474, -0.05360382, -0.021269737, -0.11262218, 0.008838817},
    {0.16893062, -0.19824883, -0.038836382, 0.009083619, -0.0695651, -0.19696154, -0.12899704, 0.07728342, 0.08684498, -0.15660346, -0.2749834, 0.16402976, 0.27289698, -0.044315796, 0.19327386, -0.073940285, 0.15319532, -0.046184, -0.07188969, 0.024606269, -0.14634623, -0.2989099, 0.32831034, 0.035956815, -0.050130047, -0.00654447, 0.017704107, 0.3020914, -0.12534782, 0.1389484, -0.05003779, 0.174431, 0.028616814, 0.25656408, -0.0052320966, -0.00041331147, 0.011745458, -0.17471953, 0.13920663, -0.06703091, 0.061410457, -0.024412422, -0.26859227, -0.11887387, -0.043133255, -0.01970672, 0.19870368, 0.085330315, 0.013882622, -0.5026643, 0.044992317, 0.06992723, -0.0927139, 0.04003283, 0.11994439, -0.24239452, 0.2867026, 0.3351334, 0.009693567, -0.03469464, 0.12115562, 0.1044891, -0.0375921, -0.18688467},
    {0.02593769, -0.6595432, -0.31241134, -0.041406102, 0.26538935, -0.085535064, -0.117109925, 0.057388194, -0.064085394, -0.7321998, -0.0052322145, 0.0019249425, -0.21417946, -0.11376749, 0.3275013, 0.18154643, 0.2261396, 0.074181326, 0.055271495, -0.05347001, -0.031021781, 0.13718885, -0.22183098, 0.1755777, 0.0041688564, -0.179348, -0.19265111, -0.15828434, 0.29572064, 0.11031766, 0.30894732, 0.060836636, -0.20919377, -0.03793478, -0.0026115794, 0.09827871, -0.35533544, -0.06254888, 0.06737589, -0.16115324, -0.35698098, -0.22410114, -0.12089735, -0.3654176, 0.042983834, 0.1134101, 0.079588264, -0.19060735, -0.3028692, 0.17486525, 0.07244712, 0.10404692, -0.018403843, -0.12827982, -0.14270602, 0.37997773, 0.450238, -0.16344726, -0.05340578, 0.31188193, -0.06590377, -0.015180728, 0.09884521, 0.061277594},
};

static const float agent_ac_actor_pi_net_fcs_1_bias[64] = {0.028720407, -0.2835289, -0.14023362, -0.011998485, -0.009198401, 0.14083879, 0.075942144, -0.0015536672, 0.039745066, 0.3267271, 0.0759795, 0.018339392, -0.2831742, -0.05958631, 0.37257627, -0.07504179, -0.19688268, -0.19119467, 0.13025859, 0.016930113, -0.02760025, 0.2649649, 0.09268894, 0.02017741, 0.09451082, -0.34768006, -0.008423055, -0.1442822, -0.06966058, 0.08611303, 0.4149843, -0.10300261, -0.2774948, 0.052575883, -0.025788223, 0.14810063, 0.28984872, -0.033556033, -0.15284659, 0.1231551, 0.13459729, 0.008086293, -0.23762125, 0.08476296, 0.19877927, 0.07847582, 0.056346703, 0.19697525, -0.07084449, -0.023792919, 0.018509505, 0.03666055, -0.035084236, 0.009192812, 0.0005073816, 0.16348436, 0.47896338, 0.0671858, 0.012265815, -0.23657058, -0.14004546, -0.038126387, 0.032145757, 0.017473908};

static const float agent_ac_actor_pi_net_fcs_2_weight[64][4] = {
    {-0.0038652248, -0.0051398124, 0.0031811537, -0.0029527682},
    {0.16999924, -0.008632428, -0.45058164, -0.14984423},
    {0.18830836, -0.1833142, -0.21500163, 0.18555455},
    {0.000473421, -0.0025086815, -0.0022471906, 0.00012300703},
    {0.004530349, -0.012649381, 0.006063268, -0.0027596564},
    {0.0042084567, -0.0051998794, 0.004376164, -0.0013312608},
    {0.22060941, 0.14567168, 0.1726884, 0.0060168565},
    {0.013680912, -0.0054073813, 0.008327824, -0.0059786127},
    {-0.016300764, 0.0006551864, 0.0039526913, 0.0049231094},
    {0.1215437, -0.16806525, -0.3403209, 0.2834207},
    {-0.33435687, 0.26905638, 0.033443473, 0.1563437},
    {0.003290894, 0.013243769, -0.0049776337, -0.0034575535},
    {0.037143737, -0.032107595, 0.054056037, -0.21425599},
    {0.012399131, 0.00086484564, -0.006776869, 0.0043225535},
    {0.178157, 0.23176078, 0.28689125, 0.25364494},
    {-0.011973976, 0.0050812424, 0.057340726, 0.0304494},
    {-0.31851897, -0.27345425, 0.0447331, -0.3132878},
    {0.17142987, -0.050264865, 0.20227875, -0.079155535},
    {0.009066069, -0.009445368, 0.004887597, -0.0046068267},
    {0.053793512, 0.012102535, -0.039918326, 0.013147897},
    {0.0022627614, 0.0006670854, -0.007060297, -0.002253318},
    {-0.16112795, 0.29501835, 0.1707693, -0.50112724},
    {-0.37575072, -0.11847294, -0.015488568, -0.017948112},
    {-0.0075808875, -0.0038640476, 0.006471942, -0.0028553263},
    {0.0047033736, -0.0073608826, -0.00059403956, -0.0046069524},
    {-0.034587424, -0.08520101, -0.06717758, -0.054666772},
    {0.006078347, 0.0026723512, -0.0020757546, 0.0026219557},
    {0.11764024, -0.5212122, 0.095255084, 0.25745198},
    {0.17654185, 0.047729127, 0.022400642, 0.008989359},
    {-0.014770535, -0.00046690804, 0.0023119499, -0.0023855732},
    {0.15852413, 0.28436854, 0.1758862, -0.05843397},
    {-0.0014504906, 0.013261114, 0.022370743, -0.0059129745},
    {-0.035822175, -0.09386927, -0.050499246, 0.015229736},
    {-0.24176736, 0.05160005, 0.11374646, -0.0076566315},
    {0.0033543247, 0.005602609, 0.0078900205, -0.0038142377},
    {-0.012286434, 0.006418834, -0.016701391, -0.010303166},
    {-0.23491722, -0.31002197, 0.17493956, 0.52662915},
    {0.0067330836, -0.0041972757, 0.0033065693, 0.0049709557},
    {-0.010854408, -0.0018359667, 0.016909184, 0.007133097},
    {0.020736296, -0.0038228554, 0.003351054, 0.0022843245},
    {-0.027960597, 0.12997542, -0.047623653, 0.08409122},
    {-0.38625067, -0.09707053, 0.16462079, 0.07851621},
    {0.060107652, 0.4196202, -0.10485567, -0.5176602},
    {-0.012265894, -0.13526493, -0.10388728, 0.11031554},
    {0.015786182, 0.024704931, 0.009937138, 0.0018908603},
    {0.0019075572, -0.006122928, 0.016556986, -0.0059394953},
    {0.0905844, -0.46509767, 0.27426955, 0.022795971},
    {-0.17128156, -0.37140304, 0.41124988, 0.04289227},
    {-0.05829238, 0.083533734, -0.099085316, 0.05106881},
    {0.041487854, -0.045392137, 0.082071826, -0.1814792},
    {-0.008760801, 0.0061442703, 0.001565689, -0.0025811833},
    {-0.0013854385, 0.0067119296, -0.0019657493, -0.0071433154},
    {-0.00021394673, 0.007755363, -0.014771207, -0.00059963163},
    {-0.0072572734, -0.0058264676, 0.022201875, 0.016994666},
    {0.005169968, -0.011225264, -0.019687768, 0.005970725},
    {0.12798734, -0.021551171, -0.10587612, 0.04836015},
    {0.27761614, 0.14025806, -0.35888916, 0.2908153},
    {-0.28693953, -0.10715769, 0.12731722, 0.005892985},
    {0.0029085074, 0.005164777, 0.009911638, -0.0014276056},
    {-0.09921468, -0.28478837, 0.19997296, 0.4866861},
    {-0.2481729, 0.32282776, 0.20159198, -0.16388434},
    {-0.0020333645, 0.0027968413, -0.0036988766, 0.0014582683},
    {-0.02802317, -0.01693936, 0.024929415, -0.00999803},
    {-0.0075586326, -0.01876813, 0.013154837, 0.0055459123},
};

static const float agent_ac_actor_pi_net_fcs_2_bias[4] = {0.30083388, 0.33048224, -0.11015416, 0.030572189};

static const float agent_ac_critic_v_net_fcs_0_weight[17][64] = {
    {-5.5404067, 0.47091538, -5.3235784, 4.992118, -0.8218524, -2.9205167, -3.1540692, 6.833979, 0.06600234, 0.7695534, 4.1839304, 1.9378856, 1.6510868, 5.2071958, -0.88844126, -2.1143472, 3.5570471, -3.3905323, -2.1315966, 4.842708, -1.9027134, -3.356711, -0.22134927, 3.9140012, 0.23503108, -3.6177726, 1.1768043, 2.5923834, 2.5964215, -2.2817116, 0.22484042, -2.6264844, 3.7881472, 0.032323886, -2.1577933, -3.8717372, -0.39330304, 2.4008439, 1.7447292, 7.6139474, -0.84089965, 1.5491669, -1.7941746, 3.2416873, 3.4820452, 1.8969798, 6.204933, -2.476624, -4.327905, 2.8949761, -2.4553108, 0.10417731, -0.5107525, 0.0059284894, -0.09402896, -8.992463, -3.9285116, -4.49596, -2.2452142, 2.350097, -10.700782, -4.3898735, 2.5599847, 4.5816665},
    {2.0372396, 1.8301977, -2.4397554, 2.1333544, -2.8632834, 1.7358932, 1.736127, 5.708055, 1.0969197, 4.0692215, -4.0893035, -1.1267498, 1.9593602, -0.20363629, -0.4770408, 2.0729213, 2.524948, 4.205134, 3.1274843, -4.1337523, 1.4483744, 2.7592459, 0.004471123, -2.9505415, 6.7514133, -0.9806503, -3.6282628, -2.2851903, 2.6331692, -3.6351368, -0.77298206, 2.9175212, 7.39685, 1.94648, 1.3400359, 5.5441656, -2.977204, 0.49788696, -5.2595153, 3.0524824, 2.6621547, -0.28195274, 4.473746, -3.220833, 2.8041728, 5.3065844, 0.42224172, 4.8172903, -1.6193101, -2.6191607, -4.0073457, 3.9948864, -4.149974, -0.71513635, -2.7200925, 5.0612693, -4.0779757, 1.13989, -3.3346014, -7.3751764, 5.340222, 3.6223156, 4.0517745, 9.585891},
    {-2.6169314, 0.59415257, 0.87981063, 0.4291485, -2.4331205, -1.7273413, 0.5535746, -0.2938829, 3.1380408, -1.5219904, -0.23400185, -2.2328496, 0.3057791, 1.1928098, 1.6896782, 0.1521972, -0.28191188, -0.10138285, 3.476385, -2.585738, 0.6801836, -1.9329429, 0.7971051, 0.26726526, -0.6779594, 0.52300155, 0.66255707, -0.23632674, 1.3586332, 1.3388585, -2.8011858, -3.307864, 0.16288471, 1.6205095, -1.7685395, 0.0075309244, -1.3296235, 2.3000484, 1.6503254, 0.28908336, 3.0995967, -1.0804403, -1.6223463, 0.4801285, 0.14478989, -2.0255802, -1.4104556, -1.1554551, -0.34506258, -0.53808975, 1.6799613, -1.0750169, 1.3369699, 1.6934615, -2.1884093, 0.43470758, -1.7367994, -1.2970809, -1.5467188, -2.815783, 0.59192437, 2.6815426, -1.1478989, 0.002155611},
    {-2.6040683, -1.3619941, -3.931339, -0.83884764, -1.1510589, -0.14172745, -1.2815559, -0.5254479, -3.5367417, -5.2034163, -0.60971755, -3.7832413, -1.3835227, -2.064404, 0.21904492, -1.6093991, -0.49002713, 0.4710248, 0.4440836, -0.475471, -1.827736, -0.3116027, -2.241012, -1.9212512, 2.740186, -1.3165941, 2.694802, 3.567314, 2.1977708, -1.7892979, -0.2038616, 0.6059238, 3.8229558, -0.10042228, -0.8063171, -2.3396978, 1.833966, 0.13300134, 1.840342, 2.040041, -5.6380672, 3.2037923, -4.3256664, 1.7542783, -1.4409282, -0.8216808, 0.50284374, -4.162493, -1.012601, -0.9208527, -1.7717619, 2.0294995, -1.6334907, -1.2898384, 0.9485407, -1.3712312, 1.0687706, -0.66020286, 4.521299, 3.8673658, 1.036285, 4.7555723, -0.5237836, -1.3941152},
    {4.2627206, -0.2883646, -3.3635793, 2.813782, 0.9873508, 1.0500959, -0.11812158, 2.176431, -2.47024, 0.27766407, 0.89346653, 1.4121885, -0.54821974, 3.6820846, 1.1005737, 1.2066275, -2.3082306, 0.32910645, -0.7591213, 2.5706666, -1.5595189, 2.2157128, 1.6444689, -1.1844018, 1.4492571, -5.5632453, -0.09907727, 1.8457403, -1.4785074, 0.7832347, -1.517838, -0.034154333, 1.7094498, 0.19894557, 0.69332933, -1.6798342, -0.46450573, -5.7939296, 0.4224331, -2.2469203, -1.5085088, -2.58858, -0.17173481, -1.9404031, 0.34738746, -3.235338, 3.6371286, -2.6825461, 1.9265065, -2.0871773, -4.4267344, -4.1160297, 2.402371, 0.48922807, -4.330799, -3.666673, 2.5740345, 2.7394724, 0.0696201, -1.3747019, -1.5609438, -1.0102599, -0.4026479, -0.04046936},
    {0.31039858, 1.5029631, 4.470006, 2.3327591, -0.43436036, -1.3478274, -6.2572203, 1.2072101, 0.9349043, 2.9103444, 5.6176033, -1.1499827, 0.21378767, -3.35228, -4.976311, -4.771937, -3.906059, -4.876285, -1.8578756, -1.4659938, -0.26565847, 2.8268642, -4.172572, -2.1003351, 3.3271558, 3.9115865, 3.7211204, -1.1172974, 1.2260076, -0.77398866, -2.0343611, -0.71680486, 2.620191, -0.6139531, 1.8647665, 2.7541869, -2.574353, 2.1653073, 2.2535248, 2.0661418, -0.4611928, -0.8310359, 1.1374242, -2.8301737, -4.074216, -1.5961806, -3.757672, 0.87213045, 5.2347326, -1.23717, -0.0082794055, -0.254224, -1.111925, -1.4797344, 0.84586227, 0.30164805, 2.3360665, 4.3856115, -4.708464, -0.5432579, -0.36260104, 0.38718325, -2.6688812, -2.3576577},
    {-1.4653097, -6.924012, 1.653517, -2.4303217, -0.4927538, -1.6631025, 2.4136958, -1.9880519, 1.0547916, -2.2482696, -1.738279, -2.732572, -1.2952448, 1.4009295, 2.1743116, 2.4821255, 1.825555, 3.2063851, -0.15472496, -1.3336391, 4.4090257, -0.92919225, 2.3598173, 6.1383586, -2.1330972, -2.118258, -3.7916253, 2.430359, 2.0492253, 1.2710348, -1.2721018, 2.7470837, -0.3173023, 0.7218422, -4.034886, 0.36128837, -1.277187, 1.3709701, -0.7302553, -0.37993315, 1.2022154, 3.6208055, -0.83640724, 6.84546, 3.5068216, 0.27041623, 1.4509988, -0.42920995, -1.8499137, -1.0440503, 0.9639064, -0.90147763, -0.64273375, -3.5919871, -0.1512242, -1.4529226, 0.26294053, -0.5071847, 1.1547177, -0.27093273, -0.11722892, 0.452705, -0.56268585, 2.06652},
    {-2.298077, -1.5857818, 0.121886864, 1.6227543, -2.8586514, 1.4197026, -0.2670418, -0.8024352, -2.029705, 1.3097297, 0.29606625, 1.8801618, -0.061001897, 1.7874948, -0.6537241, -0.28789395, 3.4544818, -0.09220142, 0.4945104, 2.6116257, -1.1039878, 0.006236367, 1.3171203, 0.3876041, -0.59476674, -2.1798275, -0.682908, 2.0220418, 2.721466, 2.0696757, -0.37071574, -0.5610876, 0.53869635, 2.1538935, 0.53827935, 2.2769747, 0.80498976, 0.13095653, 1.4799917, -1.5417565, -0.88135886, 2.3347921, 1.0688665, -0.906054, -0.15839241, 0.1777989, 1.9462646, -1.3754328, -2.112129, -0.85493046, -0.63982344, 1.1815569, -2.7358446, 1.0958735, -2.5872414, -0.03701215, 2.2276142, 0.30149928, -0.9787352, 0.18230952, 2.1277864, -1.51677, -0.7090123, 0.5285545},
    {-0.03240784, 0.023170102, -2.275217, -2.4950264, -2.9235888, -0.49499482, 0.9239581, -0.109104864, 0.018723393, 1.2213206, 0.53681207, -2.3541546, 0.6045731, -0.99002975, -0.44042182, 1.8296362, 0.68651366, -1.0894207, -0.45578575, -0.7249703, -1.0046556, 1.8429381, -0.009778712, -0.9391369, 0.8866889, -0.55598664, -2.473408, 5.058312, 1.7368805, -2.3699636, 0.12690146, -0.8012048, -1.8702387, 1.2098575, 0.62567484, -0.6661, 2.7165678, 0.08166269, -1.3866603, -0.027644366, -0.85382104, -1.5492858, 2.6097817, -1.0654552, 1.4084567, 0.42297328, -2.4897013, -2.1871173, -0.7570324, -0.24941081, -0.63363284, 0.89369714, 2.1884224, -0.14898142, -3.1728516, 0.8387553, 1.858706, -2.4274137, 0.68961746, -0.77114016, 0.5112998, 0.35856482, 0.7441054, 2.1272461},
    {-0.075152054, 1.5790406, 1.2256231, 0.66401863, 3.6340265, 2.6710854, -0.8512538, -0.5212877, 1.3981364, -1.0497286, -0.31133094, -0.8477483, 1.1618633, 0.51508087, -2.0112343, 0.5818004, 2.1587973, -1.1022104, -2.4892848, -0.7219973, 1.2147988, 0.49037784, -0.040091958, -2.1185436, -1.6588069, -0.53659767, -1.4084074, -2.9693592, 0.5786809, 0.653432, -1.6963333, -0.077811226, -0.43782637, -1.7032446, 0.5040077, 5.888448, 0.7239637, 0.53351265, -0.07292378, 2.9463716, -0.2341474, 2.8801205, -1.5819502, -2.4641469, 0.047548383, 0.21044764, -1.4440126, 0.96822184, -1.8227507, 3.3733304, 0.2627233, 0.6103915, 1.3142806, -0.16031119, -0.05107055, -0.24589345, 2.7513201, -2.256585, -1.6008345, 0.30632222, 0.8722165, 0.09735804, -0.45741072, -0.40516582},
    {-0.18382967, -0.06367794, 0.024824148, -0.09599417, 0.07555211, 0.07094987, -0.04858684, 0.061257254, -0.22751743, 0.026898706, 0.14015312, 0.014659832, 0.0030626967, 0.05078839, 0.04375055, -0.12946463, -0.024584683, 0.06360299, -0.058601458, 0.04009761, -0.061106868, 0.013407396, -0.41404274, 0.08171824, -0.050150737, -0.06232315, 0.3168775, 0.017001826, -0.07080044, 0.20387839, 0.057166375, -0.0052601094, -0.04839083, -0.029362919, -0.021744164, -0.06990407, 0.2667191, 0.1448376, 0.0423881, 0.3550521, -0.014467738, 0.18651694, -0.10671301, -0.0036751204, -0.15821895, 0.02774387, 0.20240065, 0.24706535, -0.009772354, -0.051422503, -0.14359279, -0.0677435, 0.037674915, -0.0756928, 0.064062625, -0.026134264, -0.06731517, 0.099522136, -0.1335356, 0.01392023, -0.06322084, 0.08463383, -0.2478454, 0.05343893},
    {-0.084140904, -0.14924233, 0.040988423, 0.2590686, -0.0053885356, -0.06660795, -0.06539957, 0.067687154, -0.11785702, -0.027661761, -0.11449851, -0.14086573, -0.14101018, -0.019633554, 0.2118973, -0.19061458, 0.063757926, 0.20477293, 0.022826301, 0.03276006, -0.37950706, -0.017090749, 0.23945004, -0.030342475, 0.06857926, -0.017262103, -0.16262765, -0.10778629, -0.16214854, 0.19168915, -0.07046577, -0.012373131, 0.017164245, 0.03414004, -0.133659, 0.28620586, 0.18079904, -0.0019466287, 0.00059162994, -0.16890748, 0.05562647, 0.053088345, -0.056980487, 0.020134686, 0.036487065, -0.020834412, 0.074583955, 0.05798719, -0.025211722, 0.18483679, -0.1841062, 0.21799755, -0.07811423, -0.042395744, 0.21558687, 0.009808889, -0.1995272, 0.13752565, 0.021433575, 0.028063593, 0.120562434, -0.02724916, 0.1723793, -0.21568851},
    {0.13310982, -0.3262276, -0.21224661, 0.17320211, 0.012251434, -0.23019312, -0.11052931, 0.1125216, -0.032494508, -0.020543553, 0.2663961, -0.20373681, 0.019743385, -0.048225805, -0.032121472, 0.3069884, -0.12936696, -0.19015436, 0.08126974, -0.47140184, 0.26876336, 0.110051, -0.18386008, -0.013724882, -0.1710079, 0.0966808, -0.19349812, 0.17681202, -0.20877701, 0.12642631, 0.27607304, -0.06734667, 0.103744015, -1.2740915, 0.55949014, 0.3877333, 0.74914235, 0.09361708, 0.0032668884, -0.02589876, 0.026698515, 0.23013145, 0.122315384, 0.13660358, -0.3923658, -0.052737508, 0.04509678, 0.10300672, -0.17410901, 0.0036617233, 0.1070813, 0.12667839, 0.5210731, -0.20071375, -0.49731633, -0.044184364, -0.211363, -0.11470414, -0.20843388, 0.05957221, 0.16903254, -0.013056465, 0.30655843, 0.009744974},
    {0.114106655, 0.0050075287, 0.032292932, 0.020724421, 0.05858638, -0.0014088382, -0.040209666, 0.046428584, -0.06699154, -0.042045426, -0.26448694, 0.0014711187, 0.0372973, -0.058679525, 0.015743585, -0.034394506, -0.06113523, -0.012477787, -0.20542793, 0.034307588, 0.045747787, 0.022751572, -0.026904358, 0.14413553, -0.0507612, 0.058597967, -0.040898137, 0.053724162, 0.28346393, 0.008571212, -0.07404297, -0.10531744, 0.015295012, -0.09984404, -0.012379654, 0.18146533, -0.23668753, 0.15306766, 0.0047103236, 0.18774815, 0.009191886, -0.14432295, -0.0436344, 0.19805875, -0.038077056, -0.036441296, -0.0987373, -0.07119576, 0.014210679, 0.03999866, -0.2880151, -0.09933334, 0.06746794, -0.061937306, 0.053823423, 0.0125179915, 0.02190551, -0.33011824, -0.11810828, 0.06871364, 0.017928066, 0.07951013, 0.19420792, -0.072575435},
    {0.0334256, 0.025167711, 0.13774566, -0.15568836, 0.09013777, 0.115164645, 0.11268214, -0.0087873535, -0.021457415, -0.048194252, -0.10022674, 0.06565419, 0.09885336, 0.06343197, -0.07934312, 0.077622555, 0.028004585, -0.12254777, 0.11514361, 0.060585156, 0.07067841, 0.18045153, -0.12881668, -0.11454616, -0.05359127, 0.1399325, -0.0035907596, 0.118879884, 0.015763057, -0.02185153, -0.006234405, 0.12382086, -0.012325153, 0.2610592, -0.17268112, -0.14299269, 0.027658325, -0.028595086, 0.05676408, 0.17726396, 0.25202727, -0.024309475, 0.1016466, -0.1314246, -0.15297699, 0.01593935, -0.06352579, -0.0019322636, -0.12141611, 0.08492486, -0.08693767, 0.1899686, -0.054711558, 0.063914925, 0.019731812, 0.043816626, -0.15776022, -0.054608606, 0.0071487445, 0.07111914, -0.09229164, -0.11401645, -0.19067693, 0.005818015},
    {-0.10286211, 0.1548905, -0.06309085, 0.041099224, -0.15624326, -0.07642472, -0.0977407, 0.0010963081, -0.107168846, 0.004894963, -0.11900151, 0.04601644, -0.021868676, 0.1036913, 0.17565686, -0.042899493, -0.06699486, 0.10568787, -0.18514006, 0.048205603, 0.10589836, 0.18366, -0.21525384, 0.06814927, 0.14258687, -0.22420324, 0.074537, 0.017709358, -0.09426916, -0.14485852, -0.08572515, -0.056156315, -0.037018098, -0.060027845, -0.31977156, -0.13269836, -0.36390194, -0.10626658, -0.056294322, -0.1814064, -0.03907535, -0.050866634, 0.04884191, 0.23071493, -0.024888437, -0.01302756, -0.12755738, 0.019683981, 0.04596884, 0.063520305, 0.34707972, -0.09962803, 0.2633933, 0.06806041, 0.1884874, 0.048647743, -0.097385645, 0.13301589, 0.13082184, -0.023369195, 0.1561098, 0.11465454, -0.06046613, 0.08575561},
    {0.12602206, -0.14406513, -0.13809317, -0.07263222, 0.11780039, -0.19824594, 0.008460909, -0.040832885, -0.07807365, 0.016359894, 0.10430427, -0.044943135, 0.017347548, -0.019614898, -0.05665917, 0.08864325, -0.011118209, -0.050819837, 0.027781084, 0.03422723, 0.12456554, -0.088868946, -0.2111817, -0.0006497902, 0.029814372, 0.034900717, 0.35905322, -0.15194374, -0.05707264, 0.010282087, 0.044105724, 0.11903829, 0.0145205865, 0.46095315, -0.05175597, 0.091338195, -0.08265444, 0.111000136, 0.013201861, 0.24908341, -0.299068, 0.24975285, -0.041781466, 0.013604654, -0.17555901, 0.11401924, -0.07908182, -0.06179187, 0.08466895, 0.079121016, -0.19977437, -0.08090878, 0.073807925, -0.018419972, -0.29613605, 0.038088966, -0.030482756, 0.04517099, 0.17626686, -0.042438753, -0.040324334, -0.09926911, 0.26406592, -0.07031727},
};

static const float agent_ac_critic_v_net_fcs_0_bias[64] = {-0.04179154, -0.7794307, -1.1164917, -0.4461133, -1.1974124, -3.7027209, 1.2173197, -0.7708236, 1.6951158, 1.4006501, -0.022943525, -1.5274558, -3.7672968, -1.1319644, 1.1448263, 0.46572435, -1.4756101, 0.031591956, 3.557264, 0.7304914, -0.052652225, 3.0392258, -0.6006184, 0.93428814, 0.9549793, -1.0035204, -0.68904805, 1.0869713, 0.6861059, 2.0245643, 2.1739128, 2.2771277, -0.11394486, -1.8590205, -3.189456, -0.122816645, -3.5807745, 0.6824092, 1.4982349, 1.762205, 2.5792744, -0.90050507, -2.0631495, 1.5651048, 0.13754697, -0.08303566, 0.54302347, -2.5478873, -0.7806028, 2.6862795, 1.8149889, -2.1031823, -0.18291008, -2.595905, 0.44068322, -2.0192723, 0.18353723, -0.024635172, 1.5181319, 0.5566353, 0.59284914, -0.06601669, -3.7092957, 0.8575325};

static const float agent_ac_critic_v_net_fcs_1_weight[64][64] = {
    {0.25633574, 0.033168025, 1.1047498, 0.46650833, -0.059478927, -2.3915236, 1.3556972, -2.4040504, 0.1534246, 1.3466862, 0.71603596, 1.3775889, -0.65395075, 0.24424264, 1.0325382, 0.30761576, -1.6165437, 0.41055658, 0.9921384, -0.86980987, -0.4231019, -0.3618256, 1.332294, -0.53622824, -0.9437002, 1.5483913, 1.6166309, -0.06844665, -0.567408, 0.56502783, -0.32849705, 0.65577203, -1.178798, 1.4457084, 0.5886116, 1.0789955, -0.08703272, 0.06756622, -2.07569, -1.5212363, 0.36344138, -1.0817008, 0.14102697, -0.706938, 0.1909598, 1.1845945, 2.5290713, -0.28383034, 0.63721246, 0.9171264, 1.7123976, -0.7705564, -0.93609625, -1.8399738, -1.3579307, -1.8189523, -1.3033329, -0.40598726, -0.63944995, 0.5624006, -2.5653749, 0.15112814, -0.4026622, 0.18787125},
    {-2.2720244, -0.8793715, -1.2714822, 0.43604085, 1.1408681, 1.0045651, 0.40579662, -1.2611334, 0.7597175, 0.3917153, -2.759043, 0.39939156, 0.972252, -0.2304766, -0.582883, 0.03501039, 1.2598385, -1.1977748, 0.5931547, 0.56468076, 0.44694373, 0.6178417, 0.28427798, -0.4452283, -2.009874, 0.534402, 0.6974199, -1.6973977, 0.9580601, -0.7910778, 0.6099188, 0.4550014, 0.25218055, -0.21755807, 0.31773487, -0.99587446, 0.7420043, -0.7715055, 0.45420972, -0.7466938, -0.10613668, 0.3571161, 0.88775235, -0.03393095, 0.57699376, -1.1908084, 0.4997047, 0.9121833, 0.67518085, -2.6677873, 0.92945117, -0.6390692, 0.023798844, 0.831931, 0.7555428, 0.7966921, 0.52798605, -0.33051786, 0.7102372, 0.8290034, -0.32745898, -1.6667491, 1.2547687, -0.6392045},
    {-0.04599333, -1.7740537, -0.5452248, 0.92950577, -0.046419825, -0.23588233, -0.95239025, 1.6004928, -0.11366145, 1.3100682, -0.077297464, 1.8689138, 2.683369, -1.6250209, -0.5455729, -0.07051523, -0.050669573, -1.5723933, 0.93643695, 1.4143444, 0.6186997, -0.70596766, 1.2680422, 0.7917673, 1.0019281, 0.6278695, -0.19313617, -0.77632844, 0.83278567, -0.011522011, -0.1263886, -0.91701317, -0.16057894, -0.9959669, -0.50888366, -0.93886507, -0.26437417, 1.9389759, -1.4943913, 0.4744326, -0.6552206, 1.7060705, -0.62484384, 0.45869526, 0.6734497, -1.0835882, 1.3706148, -0.37112832, -1.3880156, 0.5180395, -0.4457233, -0.20006582, -1.3459557, 0.56532437, 0.8662416, 1.4445992, 0.3694006, -2.1482306, 1.7623502, 1.3600824, 3.2230783, 1.3516124, 0.32016543, -0.7752088},
    {-0.10882181, -1.136335, -0.06906087, -0.79699606, -0.2462151, 0.21432036, -0.94780815, -0.572984, -0.12411656, -0.59773016, -1.2059852, 0.39308214, 1.6051574, 0.5562202, -1.6014305, -0.5510674, -0.22654259, 0.427512, -0.48153394, 1.0817716, 0.5536395, 0.9047514, -0.39123365, 0.75104773, -0.48573127, -0.079585366, 0.4666132, -0.36481893, -0.2844848, -0.3893555, 0.4132043, 0.095130324, 1.3125979, 1.2899746, 0.21604152, -1.4899076, -0.114957005, 0.07128461, -0.09394792, -0.34869334, -0.7577559, 0.9689024, 2.1728358, -0.5065513, 0.030710138, -0.31394586, -1.5976003, 2.7710578, -0.95056665, -0.33650732, 0.9987039, -0.20395896, -0.86849654, -0.61249745, -0.38244122, -0.2654837, -0.4206378, 0.4422509, 1.9391292, 0.84796953, 1.0095527, -0.05870466, -0.18923514, -0.3855883},
    {-3.1360302, -0.76241505, 0.44419867, -0.041348808, -0.09447494, -1.0056598, -2.5483196, -1.6955508, -0.24240106, 0.42195496, 1.7570829, 1.2718693, -0.23870786, -0.26743752, 0.43737316, 1.1967573, 2.1086755, 0.019198515, 1.7571671, -1.401645, -0.12429645, -1.4459636, -0.66390574, 0.045342766, -0.28335243, 2.0044901, -0.16421716, 1.2384446, -1.15391, -1.7042123, 1.6029927, 0.17218769, 1.0096517, 0.68129903, 0.21717334, -1.7283304, 0.3611226, -1.0882984, -0.35878688, 0.65342456, 0.8455387, -1.1618147, 0.38495007, 0.8739591, 0.523446, 0.21783377, 0.55742747, -2.1044745, 2.5714371, -0.019043412, 1.1600792, -0.49218285, -0.17262061, -0.75143576, -1.1590756, -0.5115685, 0.6514152, 0.31644118, -0.5778989, 2.2207022, -1.8750305, 0.35051587, 1.119883, -1.1889321},
    {-1.023207, -1.2637793, 0.5020251, 1.0657232, -0.28046986, -0.5526131, -1.3509731, 0.767171, 0.9572169, -0.12325237, -0.09706959, 0.796449, 1.1115991, -1.1750228, -1.3270569, -0.6411191, -0.35509565, -0.9960621, 1.7010714, 0.7720448, 0.86621547, 0.6961373, -0.18245424, 0.5031113, 0.9764265, 1.0464125, -0.5505003, -0.43426627, 1.2627931, -0.7498011, 1.4424319, -0.42868972, 0.46906462, -1.4370713, 1.0677129, -0.83999926, -0.67854124, 0.53363454, -0.9407915, -0.67435604, -0.5827719, 0.5111527, 0.7095405, 0.8674862, 1.2514949, 0.7618499, -0.73692656, 0.5731233, -0.46203947, 0.31916398, 0.21265759, -0.50668824, -0.713842, 0.7664473, 0.52711815, 0.76478934, 0.7800987, 0.866763, 0.7189512, 1.3045443, 0.61760676, -1.4821427, 1.2252233, -0.8349246},
    {-1.5654761, 0.46814483, -0.21651672, 0.4080555, -0.4435164, -0.002001252, 0.18153039, -0.7819527, 0.006334534, -0.7689394, 0.67669916, -2.0346298, -0.36271402, -0.52575314, -0.59906363, 1.5340322, 0.9301504, -0.29380924, 0.63389623, 0.08537179, -0.8444287, -1.1549401, -0.73188627, 0.9261434, -3.269892, 1.5068944, -0.31840342, -1.0744551, -1.0482903, -0.8240797, 1.8806012, -2.3843331, 0.015059384, 1.1945323, -0.2971561, -0.71704775, -1.5682546, -0.7685241, -0.20746017, -0.90390116, -1.892258, 0.16418226, -1.1698973, 0.67412716, 0.4294797, -0.19449541, -0.20831247, -0.7703619, 1.7753772, -0.81045103, 1.3919623, -1.1942501, 0.12219135, -1.3201253, -0.64051265, -0.30745518, 1.2420914, -2.1515126, -0.61180836, 0.77577335, -0.34246275, -0.7485747, 0.631155, -1.162168},
    {-1.0030013, 0.9720013, 1.6901832, -0.5580295, 0.5771179, -0.49459517, -3.006953, -0.19548914, -0.35880476, -0.29675025, -0.002024963, 1.517443, -0.3831525, -0.5916416, -0.43933743, 0.38521326, -0.98688895, 1.30477, 0.48769516, -0.08595274, 2.7478447, -2.6845953, -2.19995, 0.8981756, 0.44330114, 0.16156836, 0.52279073, -1.7417793, 1.4559598, -0.45853963, -0.97846586, 2.1567953, 0.53215957, 0.051070873, 0.6380914, -1.8443613, -0.42138594, 1.0427177, -0.99611986, -1.4823989, 1.2001085, -0.53320134, -0.559218, -0.2972342, 0.45642796, 0.9311356, -0.7223031, -0.74665266, 0.83273846, 1.0311664, -2.4645178, -0.1842708, -0.39952075, 0.18451835, -0.23610005, 3.0308268, 0.4613084, 2.0697157, 1.7946597, 0.7935883, -1.4843869, -1.8754432, 0.34740588, -3.4847965},
    {0.60096896, 0.21664155, -0.42930812, 0.531354, -0.024061725, 1.2145252, 0.98062176, 1.5654615, 0.31564766, 0.24824126, -1.6043518, -0.23195744, -0.9581315, 0.94197637, 1.5589858, 1.1009078, 0.111280866, 0.24780397, -0.12613837, -0.5723339, -1.1116415, 0.104635134, 0.22672081, -0.33867958, -0.5057919, -0.71461636, -0.78156793, 1.0802933, 0.76019675, 0.38121822, 0.8850128, 0.05416204, -0.48968482, -1.0425693, 0.44954288, 0.20149347, 0.7287504, 0.6138682, -0.54832655, 0.5090454, -0.89797974, -0.5003398, -0.11461653, -0.9910694, -0.18347843, -0.18372798, -1.0515934, -1.5098228, -0.044863388, 0.88764256, -0.11980571, -0.8119969, 1.068056, -1.1835905, -0.6955283, -0.11240273, 0.99455184, 0.41192484, -0.029318662, -0.4903468, 0.5137001, -1.2799338, -1.8499653, -0.32170308},
    {0.1317035, -0.8881911, -0.20632485, -1.6686847, 1.2788458, 1.0565112, -1.6014973, 0.19432156, -0.5963972, 0.5490153, 1.1836182, 0.46595004, 0.5965294, -0.07193135, -1.0999165, -2.1660256, -1.1973536, 1.9397912, -0.36217126, 0.3057469, -0.6459983, 0.80995864, 1.1579463, -0.25969356, -1.3228614, 0.45831993, 0.2949731, 0.51125187, 1.0724823, 0.3147953, -0.7398998, 1.3709552, -0.25771073, 1.0771223, -1.5603036, -0.8573866, 0.78489006, -0.9164021, -0.32788894, -1.7722623, 0.634658, 1.4273149, 0.081030995, 0.6111147, -0.35845754, -0.45853105, 0.5654866, 2.158572, -0.09125053, 0.727111, -2.5332854, 0.21873313, -1.6696763, -0.2698109, 0.47699445, 0.39061534, -1.6510665, -0.5299692, 2.1304026, -0.48627138, 1.9708916, -1.2553602, -0.74318296, 0.14300452},
    {1.128025, 0.3248862, 0.28914952, 0.60268927, -0.7034675, 1.3748475, 0.9048432, 1.8020738, -0.3407153, -0.58591825, 2.2859602, -1.3862164, 0.9174943, 0.37664866, -1.1438144, -1.839855, 1.543085, -1.3169466, -2.653076, 0.03270039, 0.67976356, 2.0957813, -0.866053, -0.016571494, 0.9870514, 0.8397554, 1.8056579, 0.23110469, 1.2560616, 0.92443436, -1.928077, 1.789847, 1.748745, -1.0323364, -1.0344874, -0.339728, -0.25662515, -0.16123857, 1.5572051, 1.6606071, 1.0636817, -0.17252535, 2.4496322, -0.0018047948, -0.27363974, -1.5890179, -0.21971807, 2.4505734, -4.8645434, 2.0709271, -0.5615597, 0.73843586, -0.3576204, -0.13164078, 1.3955402, -1.5450535, -1.105729, 2.083108, 0.6604574, -0.1646923, 0.58894295, 0.66766834, -0.664165, -0.21858013},
    {-0.14367864, -0.8715204, 0.474213, 0.039334495, -1.1377112, -1.7548951, 0.28418964, 0.027885592, 0.12942675, 1.7562866, 0.3934076, 0.7295224, -0.15158054, -1.3866403, 0.31189528, -0.35688052, -0.7910364, -0.73960537, 0.15450744, 0.178214, 1.0948621, -1.170341, -1.1754723, 0.60043603, 0.072633974, 0.7568239, -0.15941465, -0.56109464, 0.056626063, -0.9942107, 0.53730035, 0.5176077, -0.0932747, 0.640292, -0.027581107, 1.3936976, -0.6356571, -0.5732056, 0.65646183, -0.20154493, 1.7809721, 0.5942614, 1.2554922, 0.69569343, 0.44910556, 0.30773047, 0.14290546, 0.20391996, 0.13366067, 1.6807002, -0.65086085, -0.7896254, 0.36191213, 1.9890243, -0.6787562, 0.23646963, 0.6093278, 0.37107006, 1.1337334, 0.68021935, -0.106608726, -0.5162107, 1.2500604, -0.65680563},
    {-0.21323998, -1.8754042, 1.9964621, 2.5454981, -0.03432386, -1.3596414, -0.47699898, 2.6049697, 0.17721488, 0.18225025, -1.2013438, 0.9830653, -0.14429076, -1.2046078, -1.1654364, 1.6134076, -0.38225558, -0.8076442, 1.3331205, 1.3779832, -0.53859466, -0.37613502, 0.6887882, 2.2913594, 1.5927539, -1.5209012, 0.101671934, -0.21885775, 3.4368014, 0.23906095, -1.2055507, 1.053712, 0.043213587, -0.8755363, 0.20697728, -0.8859628, 0.029963499, 1.5435736, 0.057982437, 0.33889154, 1.3544835, 0.22712031, 1.1707535, 3.0461936, 0.7397949, 0.77185696, -2.233604, 1.0536717, -3.0416453, 0.49598446, -0.92779535, -0.8670319, 0.61426425, 1.0120119, 0.13420579, 1.8376863, -0.24789971, 1.3591393, 1.1819843, 0.23445106, -0.6465089, -1.7131115, 0.8139363, -3.088659},
    {0.6668612, 1.4712297, 0.6349396, 0.7505678, -0.36585268, 0.9932556, 1.1412724, -1.966747, 0.86569077, -1.2230043, -3.1557493, -1.852841, -0.0026608142, -0.22248271, 0.62938195, 0.40657693, 2.6753378, -2.8245118, -0.3114558, -0.37724152, 0.0031583474, -0.045546588, 1.8704312, 0.34488922, -1.6425009, 0.881195, -1.5923059, 0.25130305, 0.81492704, -1.2782044, 0.30176762, -1.6497709, -1.009465, -1.3925009, 0.9404537, -0.25830975, 0.85805017, 0.58586085, 0.34542468, 1.9329977, 0.9998847, -3.5457344, -0.2046461, 0.4643966, 0.24378683, -1.0225995, 0.4296919, -0.09272801, 0.7057353, 0.12840249, 1.7185937, -1.8017684, 1.6472896, 0.30769825, -1.015448, -1.4969405, 2.1354377, 0.75066316, 0.3509054, 0.087098256, 1.3301729, 0.2012992, 0.9760432, 0.30893028},
    {1.2718717, -0.76899123, -0.22599603, -1.5451227, -0.26188126, 1.413103, 1.185866, 0.34866086, 0.5010208, -0.5498873, 0.44283533, -4.4207416, -0.87452245, -0.15889147, -0.83145636, 1.1280943, 1.6625036, -2.2924805, -0.58077866, -1.3089268, 0.5038778, -0.65024245, 2.810274, 1.3754398, -0.3972438, 1.6231596, -0.09174994, -0.5006509, -0.6937703, -1.4143381, 1.7000782, -1.139485, 0.2756437, 0.25865462, 2.1194675, 0.34210542, -0.9591961, -0.33953235, 1.3691324, 0.17895585, -1.3354509, -0.47738945, -1.4307594, 0.7324695, 0.27596688, -0.7452458, 3.7838442, -1.3235133, 0.013204912, -1.8650179, 0.11779094, 0.597796, 1.6231718, -1.8150451, -0.3226464, -1.9275919, 1.3035669, -2.2221515, -0.89623576, -0.07983022, -2.1958752, 1.4308525, 0.6194329, -0.67692804},
    {-0.19416179, 0.32336387, 1.4443827, 0.082309976, 0.8468656, 0.39339113, 0.42018172, -0.735057, -0.07837805, -0.12384447, -0.65160066, -1.2498795, -0.90393007, -0.17941223, 0.1372707, 1.6853558, 0.65006834, 0.41137165, 0.40584245, -1.1251391, -1.1968734, -1.2204401, 0.34424898, 2.3329656, -1.6681142, -0.16232195, -2.0039601, 0.3634259, 0.16027136, -0.78216976, 2.4190295, -2.2138567, -1.7306314, 0.20171317, 1.5959512, 0.7669794, 0.42189923, 1.5224721, 0.42901352, 0.629125, -0.6350943, 0.22715633, -1.4295375, -0.6113156, 0.26637527, 0.42109698, 1.4448402, -0.897405, -0.083324015, -0.35035712, 0.5353469, -1.549947, 0.94330895, -1.1728262, -0.8477977, -0.872679, 0.66862625, -1.2255067, -0.7101548, 0.30589753, -0.6350558, -0.6137128, 0.6332923, -0.5736607},
    {-1.0798581, -1.6508818, -0.07791151, -0.83090717, 0.044292063, -0.82682616, -1.2666308, 0.7232803, 0.26409298, -0.41796395, -0.54741114, 0.82269704, 0.7756821, -0.9425715, -1.126824, -0.24411936, 0.008642296, -0.35426646, 1.2342566, 0.59286815, 0.5515847, 0.8572209, -0.55787027, 0.28267244, 0.3002988, 0.8171622, -0.6035618, -0.40915933, 1.2555504, -1.3669553, 1.0947057, -0.48279908, 0.083338365, -0.8833344, 0.9257532, -0.7134053, 0.34797704, 0.67114353, -0.58078045, -0.27903482, -0.627292, 0.21895278, 0.48571825, 1.1657125, 0.5575981, 0.41405198, 0.3327873, 0.25172663, -0.5910267, 0.28615683, 0.5212991, -1.0606077, -0.5353582, 0.5101791, 0.46441954, 1.0097178, 0.93829936, 0.62755424, 0.46160093, 1.4501519, 1.6041298, -0.67204404, 1.5304061, -0.6356674},
